{"learner":{"attributes":{"best_iteration":"274","best_ntree_limit":"275","scikit_learn":"{\"use_label_encoder\": null, \"n_estimators\": 275, \"objective\": \"binary:logistic\", \"max_depth\": 2, \"max_leaves\": null, \"max_bin\": null, \"grow_policy\": null, \"learning_rate\": null, \"verbosity\": null, \"booster\": null, \"tree_method\": null, \"gamma\": 0.25, \"min_child_weight\": 0, \"max_delta_step\": 0, \"subsample\": 0.75, \"sampling_method\": null, \"colsample_bytree\": null, \"colsample_bylevel\": null, \"colsample_bynode\": null, \"reg_alpha\": null, \"reg_lambda\": null, \"scale_pos_weight\": null, \"base_score\": null, \"missing\": NaN, \"num_parallel_tree\": null, \"random_state\": null, \"n_jobs\": null, \"monotone_constraints\": null, \"interaction_constraints\": null, \"importance_type\": null, \"gpu_id\": null, \"validate_parameters\": null, \"predictor\": null, \"enable_categorical\": false, \"feature_types\": null, \"max_cat_to_onehot\": null, \"max_cat_threshold\": null, \"eval_metric\": null, \"early_stopping_rounds\": null, \"callbacks\": null, \"kwargs\": {\"eta\": 0.2}, \"classes_\": [0.0, 1.0], \"n_classes_\": 2, \"_estimator_type\": \"classifier\"}"},"feature_names":[],"feature_types":[],"gradient_booster":{"model":{"gbtree_model_param":{"num_parallel_tree":"1","num_trees":"275","size_leaf_vector":"0"},"tree_info":[0,0,0,0,0,0,0,0,0,0,0,0,0,0,0,0,0,0,0,0,0,0,0,0,0,0,0,0,0,0,0,0,0,0,0,0,0,0,0,0,0,0,0,0,0,0,0,0,0,0,0,0,0,0,0,0,0,0,0,0,0,0,0,0,0,0,0,0,0,0,0,0,0,0,0,0,0,0,0,0,0,0,0,0,0,0,0,0,0,0,0,0,0,0,0,0,0,0,0,0,0,0,0,0,0,0,0,0,0,0,0,0,0,0,0,0,0,0,0,0,0,0,0,0,0,0,0,0,0,0,0,0,0,0,0,0,0,0,0,0,0,0,0,0,0,0,0,0,0,0,0,0,0,0,0,0,0,0,0,0,0,0,0,0,0,0,0,0,0,0,0,0,0,0,0,0,0,0,0,0,0,0,0,0,0,0,0,0,0,0,0,0,0,0,0,0,0,0,0,0,0,0,0,0,0,0,0,0,0,0,0,0,0,0,0,0,0,0,0,0,0,0,0,0,0,0,0,0,0,0,0,0,0,0,0,0,0,0,0,0,0,0,0,0,0,0,0,0,0,0,0,0,0,0,0,0,0,0,0,0,0,0,0,0,0,0,0,0,0,0,0,0,0,0,0],"trees":[{"base_weights":[1.1759422E0,-1.2109257E0,1.5270936E0,-1.8655462E0,4.8128343E-1,1.6171495E0,-1.0193548E0],"categories":[],"categories_nodes":[],"categories_segments":[],"categories_sizes":[],"default_left":[1,1,1,0,0,0,0],"id":0,"left_children":[1,3,5,-1,-1,-1,-1],"loss_changes":[1.0748932E3,1.834005E2,2.57687E2,0E0,0E0,0E0,0E0],"parents":[2147483647,0,0,1,1,2,2],"right_children":[2,4,6,-1,-1,-1,-1],"split_conditions":[6.150685E2,4.679361E3,2.1132998E-1,-3.7310925E-1,9.625669E-2,3.234299E-1,-2.0387097E-1],"split_indices":[6,4,0,0,0,0,0],"split_type":[0,0,0,0,0,0,0],"sum_hessian":[1.27925E3,1.6375E2,1.1155E3,1.18E2,4.575E1,1.07775E3,3.775E1],"tree_param":{"num_deleted":"0","num_feature":"10","num_nodes":"7","size_leaf_vector":"0"}},{"base_weights":[9.806349E-1,-7.779248E-1,1.3217226E0,-1.6005065E0,4.6470675E-1,7.0861924E-1,1.5317258E0],"categories":[],"categories_nodes":[],"categories_segments":[],"categories_sizes":[],"default_left":[1,1,1,0,0,0,0],"id":1,"left_children":[1,3,5,-1,-1,-1,-1],"loss_changes":[7.4875806E2,2.083836E2,1.3339111E2,0E0,0E0,0E0,0E0],"parents":[2147483647,0,0,1,1,2,2],"right_children":[2,4,6,-1,-1,-1,-1],"split_conditions":[7.1968024E2,3.8733484E3,1.9954796E1,-3.2010132E-1,9.294135E-2,1.4172386E-1,3.0634516E-1],"split_indices":[6,4,3,0,0,0,0],"split_type":[0,0,0,0,0,0,0],"sum_hessian":[1.2455841E3,2.0213708E2,1.043447E3,1.2145188E2,8.068521E1,2.673357E2,7.7611127E2],"tree_param":{"num_deleted":"0","num_feature":"10","num_nodes":"7","size_leaf_vector":"0"}},{"base_weights":[8.475702E-1,-7.1342796E-1,1.1442652E0,-1.3548746E0,4.9395517E-1,1.1970823E0,-1.1619242E0],"categories":[],"categories_nodes":[],"categories_segments":[],"categories_sizes":[],"default_left":[1,1,1,0,0,0,0],"id":2,"left_children":[1,3,5,-1,-1,-1,-1],"loss_changes":[5.408876E2,1.4538454E2,1.20791626E2,0E0,0E0,0E0,0E0],"parents":[2147483647,0,0,1,1,2,2],"right_children":[2,4,6,-1,-1,-1,-1],"split_conditions":[7.238376E2,4.627635E3,2.657007E-1,-2.7097493E-1,9.879103E-2,2.3941647E-1,-2.3238485E-1],"split_indices":[6,4,0,0,0,0,0],"split_type":[0,0,0,0,0,0,0],"sum_hessian":[1.1651074E3,1.8585674E2,9.7925073E2,1.2129446E2,6.456229E1,9.577959E2,2.1454832E1],"tree_param":{"num_deleted":"0","num_feature":"10","num_nodes":"7","size_leaf_vector":"0"}},{"base_weights":[7.2452134E-1,-6.2439746E-1,1.0145175E0,-1.1266265E0,6.3628554E-1,1.1439655E0,-5.161079E-1],"categories":[],"categories_nodes":[],"categories_segments":[],"categories_sizes":[],"default_left":[1,1,1,0,0,0,0],"id":3,"left_children":[1,3,5,-1,-1,-1,-1],"loss_changes":[4.2538654E2,1.22755974E2,1.7773889E2,0E0,0E0,0E0,0E0],"parents":[2147483647,0,0,1,1,2,2],"right_children":[2,4,6,-1,-1,-1,-1],"split_conditions":[8.489304E0,1.5751885E3,1.3143545E-1,-2.253253E-1,1.2725711E-1,2.287931E-1,-1.0322159E-1],"split_indices":[3,6,0,0,0,0,0],"split_type":[0,0,0,0,0,0,0],"sum_hessian":[1.0848214E3,1.9174866E2,8.930728E2,1.3719818E2,5.4550472E1,8.236663E2,6.940644E1],"tree_param":{"num_deleted":"0","num_feature":"10","num_nodes":"7","size_leaf_vector":"0"}},{"base_weights":[6.221384E-1,-3.5499817E-1,9.6591836E-1,-1.3644204E0,4.0660712E-1,5.506331E-1,1.183768E0],"categories":[],"categories_nodes":[],"categories_segments":[],"categories_sizes":[],"default_left":[1,1,1,0,0,0,0],"id":4,"left_children":[1,3,5,-1,-1,-1,-1],"loss_changes":[3.4045245E2,2.0369437E2,6.713141E1,0E0,0E0,0E0,0E0],"parents":[2147483647,0,0,1,1,2,2],"right_children":[2,4,6,-1,-1,-1,-1],"split_conditions":[9.9054016E2,2.9055947E3,2.9085653E1,-2.728841E-1,8.1321426E-2,1.10126615E-1,2.3675361E-1],"split_indices":[6,4,3,0,0,0,0],"split_type":[0,0,0,0,0,0,0],"sum_hessian":[1.0114719E3,2.6323584E2,7.482361E2,1.12860466E2,1.5037538E2,2.586676E2,4.8956848E2],"tree_param":{"num_deleted":"0","num_feature":"10","num_nodes":"7","size_leaf_vector":"0"}},{"base_weights":[5.645954E-1,-2.379073E-1,9.1304487E-1,4.303638E-1,-1.0990669E0,1.0110867E0,-6.674776E-1],"categories":[],"categories_nodes":[],"categories_segments":[],"categories_sizes":[],"default_left":[1,1,1,0,0,0,0],"id":5,"left_children":[1,3,5,-1,-1,-1,-1],"loss_changes":[2.6062683E2,1.631813E2,1.013241E2,0E0,0E0,0E0,0E0],"parents":[2147483647,0,0,1,1,2,2],"right_children":[2,4,6,-1,-1,-1,-1],"split_conditions":[1.5439885E1,3.729193E-2,1.8964422E-1,8.6072765E-2,-2.1981338E-1,2.0221734E-1,-1.3349552E-1],"split_indices":[3,0,0,0,0,0,0],"split_type":[0,0,0,0,0,0,0],"sum_hessian":[9.302594E2,2.8173102E2,6.485284E2,1.5891283E2,1.22818184E2,6.109883E2,3.7540104E1],"tree_param":{"num_deleted":"0","num_feature":"10","num_nodes":"7","size_leaf_vector":"0"}},{"base_weights":[5.167396E-1,-6.0467172E-2,9.5004314E-1,-1.1314757E0,4.7189826E-1,9.7332853E-1,-1.324837E0],"categories":[],"categories_nodes":[],"categories_segments":[],"categories_sizes":[],"default_left":[1,1,1,0,0,0,0],"id":6,"left_children":[1,3,5,-1,-1,-1,-1],"loss_changes":[2.1431953E2,2.1051787E2,2.7213837E1,0E0,0E0,0E0,0E0],"parents":[2147483647,0,0,1,1,2,2],"right_children":[2,4,6,-1,-1,-1,-1],"split_conditions":[1.4845383E3,2.5016343E3,4.5841894E0,-2.2629514E-1,9.4379656E-2,1.9466572E-1,-2.649674E-1],"split_indices":[6,4,7,0,0,0,0],"split_type":[0,0,0,0,0,0,0],"sum_hessian":[8.55686E2,3.6728436E2,4.8840164E2,1.2157512E2,2.4570923E2,4.840194E2,4.382214E0],"tree_param":{"num_deleted":"0","num_feature":"10","num_nodes":"7","size_leaf_vector":"0"}},{"base_weights":[4.2824605E-1,-1.1947683E0,5.800736E-1,-1.4780903E0,-4.6349442E-1,8.6821884E-1,-4.2109624E-2],"categories":[],"categories_nodes":[],"categories_segments":[],"categories_sizes":[],"default_left":[1,1,1,0,0,0,0],"id":7,"left_children":[1,3,5,-1,-1,-1,-1],"loss_changes":[1.9557874E2,1.3399727E1,1.2981529E2,0E0,0E0,0E0,0E0],"parents":[2147483647,0,0,1,1,2,2],"right_children":[2,4,6,-1,-1,-1,-1],"split_conditions":[4.722559E2,4.0161746E2,4.225361E-2,-2.9561806E-1,-9.269889E-2,1.7364377E-1,-8.421925E-3],"split_indices":[6,2,0,0,0,0,0],"split_type":[0,0,0,0,0,0,0],"sum_hessian":[7.898734E2,6.698152E1,7.2289185E2,4.7541115E1,1.9440405E1,4.9380542E2,2.2908643E2],"tree_param":{"num_deleted":"0","num_feature":"10","num_nodes":"7","size_leaf_vector":"0"}},{"base_weights":[3.9185563E-1,-2.8151557E-1,7.9919785E-1,3.2676062E-1,-8.084536E-1,8.936592E-1,-4.3989736E-1],"categories":[],"categories_nodes":[],"categories_segments":[],"categories_sizes":[],"default_left":[1,1,1,0,0,0,0],"id":8,"left_children":[1,3,5,-1,-1,-1,-1],"loss_changes":[2.0307526E2,8.984632E1,5.435782E1,0E0,0E0,0E0,0E0],"parents":[2147483647,0,0,1,1,2,2],"right_children":[2,4,6,-1,-1,-1,-1],"split_conditions":[1.9142464E1,3.0553494E-2,1.8964422E-1,6.535213E-2,-1.6169073E-1,1.7873184E-1,-8.797947E-2],"split_indices":[3,0,0,0,0,0,0],"split_type":[0,0,0,0,0,0,0],"sum_hessian":[7.385399E2,2.784867E2,4.6005325E2,1.2944289E2,1.4904381E2,4.277248E2,3.232845E1],"tree_param":{"num_deleted":"0","num_feature":"10","num_nodes":"7","size_leaf_vector":"0"}},{"base_weights":[3.2216775E-1,-1.6246982E-1,7.9706293E-1,-4.980643E-1,8.018501E-1,8.548887E-1,-7.307699E-1],"categories":[],"categories_nodes":[],"categories_segments":[],"categories_sizes":[],"default_left":[1,1,1,0,0,0,0],"id":9,"left_children":[1,3,5,-1,-1,-1,-1],"loss_changes":[1.5685312E2,1.0973523E2,3.1025711E1,0E0,0E0,0E0,0E0],"parents":[2147483647,0,0,1,1,2,2],"right_children":[2,4,6,-1,-1,-1,-1],"split_conditions":[2.9233994E1,2.154291E3,3.6510858E-1,-9.961286E-2,1.6037002E-1,1.7097774E-1,-1.4615397E-1],"split_indices":[3,6,0,0,0,0,0],"split_type":[0,0,0,0,0,0,0],"sum_hessian":[6.7995685E2,3.3685214E2,3.431047E2,2.5024686E2,8.660529E1,3.3101678E2,1.2087945E1],"tree_param":{"num_deleted":"0","num_feature":"10","num_nodes":"7","size_leaf_vector":"0"}},{"base_weights":[2.9005584E-1,-1.4298978E-1,7.6789886E-1,3.6814836E-1,-5.480978E-1,8.430829E-1,-6.277527E-1],"categories":[],"categories_nodes":[],"categories_segments":[],"categories_sizes":[],"default_left":[1,1,1,0,0,0,0],"id":10,"left_children":[1,3,5,-1,-1,-1,-1],"loss_changes":[1.3210301E2,6.966494E1,3.2365997E1,0E0,0E0,0E0,0E0],"parents":[2147483647,0,0,1,1,2,2],"right_children":[2,4,6,-1,-1,-1,-1],"split_conditions":[3.0468922E1,2.8713472E-2,2.9336852E-1,7.362967E-2,-1.0961956E-1,1.6861658E-1,-1.2555055E-1],"split_indices":[3,0,0,0,0,0,0],"split_type":[0,0,0,0,0,0,0],"sum_hessian":[6.368708E2,3.3446362E2,3.0240717E2,1.4791968E2,1.8654393E2,2.8732483E2,1.5082333E1],"tree_param":{"num_deleted":"0","num_feature":"10","num_nodes":"7","size_leaf_vector":"0"}},{"base_weights":[2.5031897E-1,-2.1327883E-1,6.917403E-1,3.2295477E-1,-7.7761114E-1,7.430906E-1,-1.7955638E0],"categories":[],"categories_nodes":[],"categories_segments":[],"categories_sizes":[],"default_left":[1,1,1,0,0,0,0],"id":11,"left_children":[1,3,5,-1,-1,-1,-1],"loss_changes":[1.24594574E2,9.024067E1,4.115175E1,0E0,0E0,0E0,0E0],"parents":[2147483647,0,0,1,1,2,2],"right_children":[2,4,6,-1,-1,-1,-1],"split_conditions":[1.5225386E3,3.7285887E-2,4.484504E0,6.459095E-2,-1.5552223E-1,1.4861813E-1,-3.5911277E-1],"split_indices":[6,0,9,0,0,0,0],"split_type":[0,0,0,0,0,0,0],"sum_hessian":[6.071208E2,2.9637405E2,3.107467E2,1.5218973E2,1.4418433E2,3.051482E2,5.5985284E0],"tree_param":{"num_deleted":"0","num_feature":"10","num_nodes":"7","size_leaf_vector":"0"}},{"base_weights":[2.4170354E-1,-3.306224E-1,5.03656E-1,3.231506E-1,-6.90491E-1,5.7827175E-1,-1.2068666E0],"categories":[],"categories_nodes":[],"categories_segments":[],"categories_sizes":[],"default_left":[1,1,1,0,0,0,0],"id":12,"left_children":[1,3,5,-1,-1,-1,-1],"loss_changes":[8.467163E1,4.2004086E1,5.0100906E1,0E0,0E0,0E0,0E0],"parents":[2147483647,0,0,1,1,2,2],"right_children":[2,4,6,-1,-1,-1,-1],"split_conditions":[8.794531E2,2.9825425E-2,4.4287095E0,6.463012E-2,-1.3809821E-1,1.1565435E-1,-2.4137333E-1],"split_indices":[2,0,7,0,0,0,0],"split_type":[0,0,0,0,0,0,0],"sum_hessian":[5.6265967E2,1.7658545E2,3.8607425E2,6.272856E1,1.13856895E2,3.7057126E2,1.5502972E1],"tree_param":{"num_deleted":"0","num_feature":"10","num_nodes":"7","size_leaf_vector":"0"}},{"base_weights":[1.7284335E-1,-1.1128972E-1,7.588412E-1,-3.8665766E-1,4.81884E-1,-2.3536263E-1,8.17687E-1],"categories":[],"categories_nodes":[],"categories_segments":[],"categories_sizes":[],"default_left":[1,1,1,0,0,0,0],"id":13,"left_children":[1,3,5,-1,-1,-1,-1],"loss_changes":[8.834558E1,5.8640827E1,1.0326904E1,0E0,0E0,0E0,0E0],"parents":[2147483647,0,0,1,1,2,2],"right_children":[2,4,6,-1,-1,-1,-1],"split_conditions":[2.1884253E3,3.9668365E1,3.067596E0,-7.7331536E-2,9.63768E-2,-4.7072526E-2,1.635374E-1],"split_indices":[6,3,3,0,0,0,0],"split_type":[0,0,0,0,0,0,0],"sum_hessian":[5.290925E2,3.568679E2,1.7222462E2,2.4396202E2,1.12905876E2,9.456509E0,1.6276811E2],"tree_param":{"num_deleted":"0","num_feature":"10","num_nodes":"7","size_leaf_vector":"0"}},{"base_weights":[1.7915739E-1,-1.3320286E0,2.8401735E-1,-1.0907285E0,-1.6077427E0,4.0259987E-1,-9.771184E-1],"categories":[],"categories_nodes":[],"categories_segments":[],"categories_sizes":[],"default_left":[1,1,1,0,0,0,0],"id":14,"left_children":[1,3,5,-1,-1,-1,-1],"loss_changes":[7.943094E1,4.1166306E-1,7.028128E1,0E0,0E0,0E0,0E0],"parents":[2147483647,0,0,1,1,2,2],"right_children":[2,4,6,-1,-1,-1,-1],"split_conditions":[4.0161746E2,3.7869377E3,4.1704283E0,-2.1814571E-1,-3.2154855E-1,8.0519974E-2,-1.9542368E-1],"split_indices":[6,4,7,0,0,0,0],"split_type":[0,0,0,0,0,0,0],"sum_hessian":[4.9787143E2,3.154589E1,4.6632553E2,1.9465782E1,1.208011E1,4.2686856E2,3.9456985E1],"tree_param":{"num_deleted":"0","num_feature":"10","num_nodes":"7","size_leaf_vector":"0"}},{"base_weights":[1.5885843E-1,-1.06976144E-1,6.281026E-1,2.3246913E-1,-5.9083766E-1,7.0413333E-1,-5.8546436E-1],"categories":[],"categories_nodes":[],"categories_segments":[],"categories_sizes":[],"default_left":[1,0,1,0,0,0,0],"id":15,"left_children":[1,3,5,-1,-1,-1,-1],"loss_changes":[6.1149315E1,5.161814E1,1.6765015E1,0E0,0E0,0E0,0E0],"parents":[2147483647,0,0,1,1,2,2],"right_children":[2,4,6,-1,-1,-1,-1],"split_conditions":[4.3413383E1,1.3020027E0,3.5392013E-1,4.6493825E-2,-1.18167534E-1,1.4082667E-1,-1.1709287E-1],"split_indices":[3,8,0,0,0,0,0],"split_type":[0,0,0,0,0,0,0],"sum_hessian":[4.8867035E2,3.1243997E2,1.762304E2,1.8392787E2,1.2851208E2,1.6623541E2,9.994973E0],"tree_param":{"num_deleted":"0","num_feature":"10","num_nodes":"7","size_leaf_vector":"0"}},{"base_weights":[1.0678637E-1,8.7910396E-1,-6.144343E-2,-5.05699E-1,9.314643E-1,-8.1673896E-1,2.5782216E-1],"categories":[],"categories_nodes":[],"categories_segments":[],"categories_sizes":[],"default_left":[1,1,1,0,0,0,0],"id":16,"left_children":[1,3,5,-1,-1,-1,-1],"loss_changes":[6.0271015E1,6.486595E0,9.220677E1,0E0,0E0,0E0,0E0],"parents":[2147483647,0,0,1,1,2,2],"right_children":[2,4,6,-1,-1,-1,-1],"split_conditions":[3.1699406E4,5.0265277E2,2.5565488E3,-1.011398E-1,1.8629287E-1,-1.633478E-1,5.1564433E-2],"split_indices":[5,6,4,0,0,0,0],"split_type":[0,0,0,0,0,0,0],"sum_hessian":[4.6246857E2,8.196304E1,3.8050552E2,2.6707327E0,7.9292305E1,1.1259001E2,2.6791553E2],"tree_param":{"num_deleted":"0","num_feature":"10","num_nodes":"7","size_leaf_vector":"0"}},{"base_weights":[7.713464E-2,5.276341E-1,-1.8024316E-1,-7.3253256E-1,5.9599376E-1,1.6210519E-1,-9.665575E-1],"categories":[],"categories_nodes":[],"categories_segments":[],"categories_sizes":[],"default_left":[1,1,0,0,0,0,0],"id":17,"left_children":[1,3,5,-1,-1,-1,-1],"loss_changes":[5.317194E1,1.4796268E1,7.8779785E1,0E0,0E0,0E0,0E0],"parents":[2147483647,0,0,1,1,2,2],"right_children":[2,4,6,-1,-1,-1,-1],"split_conditions":[4.6460547E4,4.762097E2,1.5852768E0,-1.4650652E-1,1.19198754E-1,3.2421038E-2,-1.933115E-1],"split_indices":[5,6,8,0,0,0,0],"split_type":[0,0,0,0,0,0,0],"sum_hessian":[4.567619E2,1.6569273E2,2.9106915E2,8.025835E0,1.576669E2,2.033345E2,8.7734665E1],"tree_param":{"num_deleted":"0","num_feature":"10","num_nodes":"7","size_leaf_vector":"0"}},{"base_weights":[9.264473E-2,4.130041E-1,-2.3794426E-1,7.835552E-2,7.114955E-1,6.2607385E-2,-9.3377453E-1],"categories":[],"categories_nodes":[],"categories_segments":[],"categories_sizes":[],"default_left":[1,1,0,0,0,0,0],"id":18,"left_children":[1,3,5,-1,-1,-1,-1],"loss_changes":[4.689369E1,2.239584E1,4.566805E1,0E0,0E0,0E0,0E0],"parents":[2147483647,0,0,1,1,2,2],"right_children":[2,4,6,-1,-1,-1,-1],"split_conditions":[5.9660414E4,1.445385E3,1.6479518E0,1.5671104E-2,1.422991E-1,1.2521477E-2,-1.8675491E-1],"split_indices":[5,6,8,0,0,0,0],"split_type":[0,0,0,0,0,0,0],"sum_hessian":[4.408527E2,2.2376373E2,2.1708897E2,1.0608776E2,1.1767598E2,1.5224112E2,6.484785E1],"tree_param":{"num_deleted":"0","num_feature":"10","num_nodes":"7","size_leaf_vector":"0"}},{"base_weights":[5.6967907E-2,4.5708328E-1,-1.9809891E-1,-3.041187E-1,6.7345524E-1,-4.1110364E-1,5.5584913E-1],"categories":[],"categories_nodes":[],"categories_segments":[],"categories_sizes":[],"default_left":[1,1,1,0,0,0,0],"id":19,"left_children":[1,3,5,-1,-1,-1,-1],"loss_changes":[4.3871475E1,2.7761307E1,4.241317E1,0E0,0E0,0E0,0E0],"parents":[2147483647,0,0,1,1,2,2],"right_children":[2,4,6,-1,-1,-1,-1],"split_conditions":[2.6372127E-2,6.549855E0,2.368542E3,-6.082374E-2,1.3469104E-1,-8.2220726E-2,1.1116983E-1],"split_indices":[0,3,6,0,0,0,0],"split_type":[0,0,0,0,0,0,0],"sum_hessian":[4.279886E2,1.6631049E2,2.616781E2,3.6720676E1,1.2958981E2,2.0438902E2,5.728907E1],"tree_param":{"num_deleted":"0","num_feature":"10","num_nodes":"7","size_leaf_vector":"0"}},{"base_weights":[4.5724113E-2,-1.2484522E0,1.185911E-1,-2.8067473E-1,3.3021855E-1],"categories":[],"categories_nodes":[],"categories_segments":[],"categories_sizes":[],"default_left":[1,0,1,0,0],"id":20,"left_children":[1,-1,3,-1,-1],"loss_changes":[3.9523544E1,0E0,3.356989E1,0E0,0E0],"parents":[2147483647,0,0,2,2],"right_children":[2,-1,4,-1,-1],"split_conditions":[4.0161746E2,-2.4969044E-1,2.5479858E3,-5.6134947E-2,6.604371E-2],"split_indices":[6,0,4,0,0],"split_type":[0,0,0,0,0],"sum_hessian":[4.1654346E2,2.134291E1,3.9520053E2,1.3679352E2,2.5840704E2],"tree_param":{"num_deleted":"0","num_feature":"10","num_nodes":"5","size_leaf_vector":"0"}},{"base_weights":[3.156604E-2,3.9196724E-1,-2.2867072E-1,-3.796935E-1,6.1701095E-1,1.0329909E0,-3.5200512E-1],"categories":[],"categories_nodes":[],"categories_segments":[],"categories_sizes":[],"default_left":[1,1,1,0,0,0,0],"id":21,"left_children":[1,3,5,-1,-1,-1,-1],"loss_changes":[3.8474403E1,3.0099043E1,3.7442944E1,0E0,0E0,0E0,0E0],"parents":[2147483647,0,0,1,1,2,2],"right_children":[2,4,6,-1,-1,-1,-1],"split_conditions":[2.8713472E-2,5.7081017E0,2.506917E4,-7.59387E-2,1.2340219E-1,2.0659819E-1,-7.040103E-2],"split_indices":[0,3,5,0,0,0,0],"split_type":[0,0,0,0,0,0,0],"sum_hessian":[4.082646E2,1.7097523E2,2.3728934E2,3.8448963E1,1.3252628E2,2.0473911E1,2.1681543E2],"tree_param":{"num_deleted":"0","num_feature":"10","num_nodes":"7","size_leaf_vector":"0"}},{"base_weights":[5.3987525E-2,-1.4814688E-1,4.939124E-1,5.7426848E-2,-6.2971294E-1,6.866272E-1,-1.9782376E-1],"categories":[],"categories_nodes":[],"categories_segments":[],"categories_sizes":[],"default_left":[1,1,1,0,0,0,0],"id":22,"left_children":[1,3,5,-1,-1,-1,-1],"loss_changes":[3.559656E1,2.72094E1,1.6932085E1,0E0,0E0,0E0,0E0],"parents":[2147483647,0,0,1,1,2,2],"right_children":[2,4,6,-1,-1,-1,-1],"split_conditions":[4.4216503E1,5.0923605E-2,8.524798E4,1.148537E-2,-1.2594259E-1,1.3732545E-1,-3.9564755E-2],"split_indices":[3,0,5,0,0,0,0],"split_type":[0,0,0,0,0,0,0],"sum_hessian":[3.984806E2,2.7348456E2,1.2499603E2,1.9228258E2,8.120197E1,9.7766174E1,2.722986E1],"tree_param":{"num_deleted":"0","num_feature":"10","num_nodes":"7","size_leaf_vector":"0"}},{"base_weights":[-4.9896077E-3,2.714312E-1,-2.890992E-1,8.2158285E-1,1.4110804E-1,-7.344814E-1,1.2519743E-1],"categories":[],"categories_nodes":[],"categories_segments":[],"categories_sizes":[],"default_left":[1,1,1,0,0,0,0],"id":23,"left_children":[1,3,5,-1,-1,-1,-1],"loss_changes":[3.0093195E1,1.3809967E1,3.495842E1,0E0,0E0,0E0,0E0],"parents":[2147483647,0,0,1,1,2,2],"right_children":[2,4,6,-1,-1,-1,-1],"split_conditions":[6.17629E4,2.705745E4,4.634027E3,1.6431658E-1,2.8221607E-2,-1.4689629E-1,2.5039485E-2],"split_indices":[5,5,4,0,0,0,0],"split_type":[0,0,0,0,0,0,0],"sum_hessian":[3.811886E2,1.932313E2,1.879573E2,3.5991425E1,1.5723987E2,9.0207985E1,9.774932E1],"tree_param":{"num_deleted":"0","num_feature":"10","num_nodes":"7","size_leaf_vector":"0"}},{"base_weights":[8.705608E-2,-1.1885037E0,1.4604259E-1,2.9875937E-1,-2.4850112E-1],"categories":[],"categories_nodes":[],"categories_segments":[],"categories_sizes":[],"default_left":[1,0,1,0,0],"id":24,"left_children":[1,-1,3,-1,-1],"loss_changes":[2.8144693E1,0E0,2.1537352E1,0E0,0E0],"parents":[2147483647,0,0,2,2],"right_children":[2,-1,4,-1,-1],"split_conditions":[3.9987744E2,-2.3770075E-1,5.781251E-2,5.9751876E-2,-4.9700227E-2],"split_indices":[6,0,0,0,0],"split_type":[0,0,0,0,0],"sum_hessian":[3.7075467E2,1.5540863E1,3.552138E2,2.5626398E2,9.894983E1],"tree_param":{"num_deleted":"0","num_feature":"10","num_nodes":"5","size_leaf_vector":"0"}},{"base_weights":[5.8975136E-3,-4.7962163E-2,1.3339436E0,5.700458E-2,-6.861791E-1],"categories":[],"categories_nodes":[],"categories_segments":[],"categories_sizes":[],"default_left":[1,1,0,0,0],"id":25,"left_children":[1,3,-1,-1,-1],"loss_changes":[2.6255945E1,2.3678469E1,0E0,0E0,0E0],"parents":[2147483647,0,0,1,1],"right_children":[2,4,-1,-1,-1],"split_conditions":[8.990316E0,5.3793106E0,2.6678872E-1,1.1400916E-2,-1.3723582E-1],"split_indices":[1,1,0,0,0],"split_type":[0,0,0,0,0],"sum_hessian":[3.6517712E2,3.518707E2,1.3306434E1,3.0295477E2,4.8915913E1],"tree_param":{"num_deleted":"0","num_feature":"10","num_nodes":"5","size_leaf_vector":"0"}},{"base_weights":[9.185045E-2,-9.728847E-2,5.189512E-1,-1.4648955E-1,1.257128E0,-9.4505954E-1,5.5339754E-1],"categories":[],"categories_nodes":[],"categories_segments":[],"categories_sizes":[],"default_left":[1,1,1,0,0,0,0],"id":26,"left_children":[1,3,5,-1,-1,-1,-1],"loss_changes":[2.883954E1,1.670004E1,6.0470943E0,0E0,0E0,0E0,0E0],"parents":[2147483647,0,0,1,1,2,2],"right_children":[2,4,6,-1,-1,-1,-1],"split_conditions":[4.314216E1,9.006796E0,4.074477E2,-2.9297909E-2,2.514256E-1,-1.8901192E-1,1.1067951E-1],"split_indices":[3,1,6,0,0,0,0],"split_type":[0,0,0,0,0,0,0],"sum_hessian":[3.5538232E2,2.4684206E2,1.0854027E2,2.3905006E2,7.7919855E0,1.8874123E0,1.0665286E2],"tree_param":{"num_deleted":"0","num_feature":"10","num_nodes":"7","size_leaf_vector":"0"}},{"base_weights":[-1.5431399E-2,6.321811E-1,-1.08336255E-1,2.868054E-1,9.768904E-1,-6.1082274E-1,1.0804688E-1],"categories":[],"categories_nodes":[],"categories_segments":[],"categories_sizes":[],"default_left":[1,0,1,0,0,0,0],"id":27,"left_children":[1,3,5,-1,-1,-1,-1],"loss_changes":[2.1849133E1,5.144348E0,3.4581516E1,0E0,0E0,0E0,0E0],"parents":[2147483647,0,0,1,1,2,2],"right_children":[2,4,6,-1,-1,-1,-1],"split_conditions":[3.0927996E4,1.3757474E0,2.4446465E3,5.7361078E-2,1.9537808E-1,-1.2216455E-1,2.1609377E-2],"split_indices":[5,8,4,0,0,0,0],"split_type":[0,0,0,0,0,0,0],"sum_hessian":[3.610071E2,4.4563488E1,3.1644363E2,2.317535E1,2.1388138E1,9.4702324E1,2.217413E2],"tree_param":{"num_deleted":"0","num_feature":"10","num_nodes":"7","size_leaf_vector":"0"}},{"base_weights":[2.729863E-2,8.734312E-2,-9.114458E-1,1.3882145E-1,-1.0197227E0,-1.4997739E0,-5.1768404E-1],"categories":[],"categories_nodes":[],"categories_segments":[],"categories_sizes":[],"default_left":[1,1,1,0,0,0,0],"id":28,"left_children":[1,3,5,-1,-1,-1,-1],"loss_changes":[2.0097025E1,1.9215693E1,4.1896877E0,0E0,0E0,0E0,0E0],"parents":[2147483647,0,0,1,1,2,2],"right_children":[2,4,6,-1,-1,-1,-1],"split_conditions":[4.4191403E0,4.4680176E0,3.004693E0,2.776429E-2,-2.0394455E-1,-2.9995477E-1,-1.0353681E-1],"split_indices":[7,9,9,0,0,0,0],"split_type":[0,0,0,0,0,0,0],"sum_hessian":[3.541301E2,3.336932E2,2.0436913E1,3.1970172E2,1.3991459E1,7.0678477E0,1.3369063E1],"tree_param":{"num_deleted":"0","num_feature":"10","num_nodes":"7","size_leaf_vector":"0"}},{"base_weights":[5.9495657E-3,1.0282191E0,-5.285096E-2,1.0599332E0,-2.8603718E-1,1.7252944E-1,-4.044026E-1],"categories":[],"categories_nodes":[],"categories_segments":[],"categories_sizes":[],"default_left":[1,1,0,0,0,0,0],"id":29,"left_children":[1,3,5,-1,-1,-1,-1],"loss_changes":[2.0655416E1,1.0821838E0,2.5823063E1,0E0,0E0,0E0,0E0],"parents":[2147483647,0,0,1,1,2,2],"right_children":[2,4,6,-1,-1,-1,-1],"split_conditions":[2.3472684E4,5.175493E-1,1.3374588E0,2.1198665E-1,-5.7207435E-2,3.450589E-2,-8.088052E-2],"split_indices":[5,0,8,0,0,0,0],"split_type":[0,0,0,0,0,0,0],"sum_hessian":[3.4172296E2,1.7689947E1,3.2403302E2,1.7462084E1,2.2786285E-1,1.9775874E2,1.2627427E2],"tree_param":{"num_deleted":"0","num_feature":"10","num_nodes":"7","size_leaf_vector":"0"}},{"base_weights":[4.698455E-3,-1.1110672E0,4.723039E-2,-2.1713117E-2,6.268523E-1],"categories":[],"categories_nodes":[],"categories_segments":[],"categories_sizes":[],"default_left":[1,0,1,0,0],"id":30,"left_children":[1,-1,3,-1,-1],"loss_changes":[1.630219E1,0E0,1.3232949E1,0E0,0E0],"parents":[2147483647,0,0,2,2],"right_children":[2,-1,4,-1,-1],"split_conditions":[3.9979877E2,-2.2221343E-1,2.4542993E2,-4.3426235E-3,1.2537046E-1],"split_indices":[6,0,3,0,0],"split_type":[0,0,0,0,0],"sum_hessian":[3.414188E2,1.1614172E1,3.2980463E2,2.956061E2,3.4198524E1],"tree_param":{"num_deleted":"0","num_feature":"10","num_nodes":"5","size_leaf_vector":"0"}},{"base_weights":[4.271961E-2,4.3265584E-1,-8.771734E-2,-9.758329E-1,5.1133215E-1,-1.441224E-1,1.1393634E0],"categories":[],"categories_nodes":[],"categories_segments":[],"categories_sizes":[],"default_left":[1,1,1,0,0,0,0],"id":31,"left_children":[1,3,5,-1,-1,-1,-1],"loss_changes":[1.7592806E1,1.0104734E1,1.8122574E1,0E0,0E0,0E0,0E0],"parents":[2147483647,0,0,1,1,2,2],"right_children":[2,4,6,-1,-1,-1,-1],"split_conditions":[2.0701732E-2,4.3515564E2,8.988281E0,-1.9516657E-1,1.0226643E-1,-2.8824482E-2,2.2787268E-1],"split_indices":[0,6,1,0,0,0,0],"split_type":[0,0,0,0,0,0,0],"sum_hessian":[3.4414612E2,8.568303E1,2.5846307E2,3.9296727E0,8.175336E1,2.4794823E2,1.0514855E1],"tree_param":{"num_deleted":"0","num_feature":"10","num_nodes":"7","size_leaf_vector":"0"}},{"base_weights":[2.8635869E-2,2.281402E-1,-2.5058368E-1,-2.9036027E-1,4.1798243E-1,8.2243323E-1,-4.206027E-1],"categories":[],"categories_nodes":[],"categories_segments":[],"categories_sizes":[],"default_left":[0,1,1,0,0,0,0],"id":32,"left_children":[1,3,5,-1,-1,-1,-1],"loss_changes":[1.8572647E1,1.9255573E1,2.5703028E1,0E0,0E0,0E0,0E0],"parents":[2147483647,0,0,1,1,2,2],"right_children":[2,4,6,-1,-1,-1,-1],"split_conditions":[1.3008035E0,2.2380366E3,3.0927996E4,-5.8072057E-2,8.359649E-2,1.6448665E-1,-8.412054E-2],"split_indices":[8,4,5,0,0,0,0],"split_type":[0,0,0,0,0,0,0],"sum_hessian":[3.3138147E2,1.933876E2,1.3799388E2,5.1687706E1,1.4169989E2,1.8349567E1,1.1964431E2],"tree_param":{"num_deleted":"0","num_feature":"10","num_nodes":"7","size_leaf_vector":"0"}},{"base_weights":[1.4971487E-2,-1.0733809E-1,3.8076788E-1,-4.0360716E-1,1.7372616E-1,4.8546985E-1,-1.0076926E0],"categories":[],"categories_nodes":[],"categories_segments":[],"categories_sizes":[],"default_left":[1,1,1,0,0,0,0],"id":33,"left_children":[1,3,5,-1,-1,-1,-1],"loss_changes":[1.5030991E1,2.1043552E1,1.2726232E1,0E0,0E0,0E0,0E0],"parents":[2147483647,0,0,1,1,2,2],"right_children":[2,4,6,-1,-1,-1,-1],"split_conditions":[2.2302466E3,3.4420654E3,1.4416988E5,-8.072143E-2,3.474523E-2,9.709397E-2,-2.0153852E-1],"split_indices":[6,4,5,0,0,0,0],"split_type":[0,0,0,0,0,0,0],"sum_hessian":[3.3404657E2,2.508707E2,8.3175865E1,1.2191959E2,1.2895111E2,7.794825E1,5.2276206E0],"tree_param":{"num_deleted":"0","num_feature":"10","num_nodes":"7","size_leaf_vector":"0"}},{"base_weights":[-2.0753082E-2,3.877448E-2,-8.4747356E-1,-1.0930543E0,7.790166E-2,-1.0784993E-1,-1.1326381E0],"categories":[],"categories_nodes":[],"categories_segments":[],"categories_sizes":[],"default_left":[1,1,1,0,0,0,0],"id":34,"left_children":[1,3,5,-1,-1,-1,-1],"loss_changes":[1.6157928E1,1.3663411E1,4.5289555E0,0E0,0E0,0E0,0E0],"parents":[2147483647,0,0,1,1,2,2],"right_children":[2,4,6,-1,-1,-1,-1],"split_conditions":[4.374735E0,3.9979877E2,1.0688746E0,-2.1861087E-1,1.5580333E-2,-2.1569988E-2,-2.2652762E-1],"split_indices":[7,6,1,0,0,0,0],"split_type":[0,0,0,0,0,0,0],"sum_hessian":[3.2666107E2,3.0560895E2,2.1052109E1,9.311784E0,2.9629718E2,6.24161E0,1.4810497E1],"tree_param":{"num_deleted":"0","num_feature":"10","num_nodes":"7","size_leaf_vector":"0"}},{"base_weights":[-5.415789E-3,-4.215172E-2,1.1093954E0,3.089439E-2,-7.184095E-1],"categories":[],"categories_nodes":[],"categories_segments":[],"categories_sizes":[],"default_left":[1,1,0,0,0],"id":35,"left_children":[1,3,-1,-1,-1],"loss_changes":[1.3153401E1,1.5374592E1,0E0,0E0,0E0],"parents":[2147483647,0,0,1,1],"right_children":[2,4,-1,-1,-1],"split_conditions":[9.006796E0,6.3509507E0,2.2187908E-1,6.178878E-3,-1.436819E-1],"split_indices":[1,1,0,0,0],"split_type":[0,0,0,0,0],"sum_hessian":[3.1903607E2,3.0978986E2,9.246193E0,2.804512E2,2.9338675E1],"tree_param":{"num_deleted":"0","num_feature":"10","num_nodes":"5","size_leaf_vector":"0"}},{"base_weights":[-1.0495927E-2,-7.1068937E-1,5.1012587E-2,-2.5111774E-1,-1.223995E0,2.3427789E-1,-1.6159709E-1],"categories":[],"categories_nodes":[],"categories_segments":[],"categories_sizes":[],"default_left":[1,0,1,0,0,0,0],"id":36,"left_children":[1,3,5,-1,-1,-1,-1],"loss_changes":[1.4040214E1,5.9025145E0,1.1720669E1,0E0,0E0,0E0,0E0],"parents":[2147483647,0,0,1,1,2,2],"right_children":[2,4,6,-1,-1,-1,-1],"split_conditions":[1.6682765E0,1.3570552E0,6.4699633E4,-5.0223548E-2,-2.44799E-1,4.685558E-2,-3.231942E-2],"split_indices":[3,8,5,0,0,0,0],"split_type":[0,0,0,0,0,0,0],"sum_hessian":[3.2416034E2,2.5324131E1,2.988362E2,1.4147152E1,1.117698E1,1.6043904E2,1.3839717E2],"tree_param":{"num_deleted":"0","num_feature":"10","num_nodes":"7","size_leaf_vector":"0"}},{"base_weights":[2.4109047E-2,-1.0490066E0,5.6131955E-2,5.9324354E-1,-3.111187E-3],"categories":[],"categories_nodes":[],"categories_segments":[],"categories_sizes":[],"default_left":[1,0,1,0,0],"id":37,"left_children":[1,-1,3,-1,-1],"loss_changes":[1.0991239E1,0E0,9.861718E0,0E0,0E0],"parents":[2147483647,0,0,2,2],"right_children":[2,-1,4,-1,-1],"split_conditions":[4.0161746E2,-2.0980132E-1,2.9559545E4,1.1864871E-1,-6.222374E-4],"split_indices":[6,0,5,0,0],"split_type":[0,0,0,0,0],"sum_hessian":[3.1713135E2,8.269085E0,3.0886227E2,2.9787592E1,2.7907468E2],"tree_param":{"num_deleted":"0","num_feature":"10","num_nodes":"5","size_leaf_vector":"0"}},{"base_weights":[2.5577145E-2,9.982428E-2,-5.289822E-1,-4.3119866E-1,1.8051554E-1,-8.78885E-1,4.3575075E-1],"categories":[],"categories_nodes":[],"categories_segments":[],"categories_sizes":[],"default_left":[1,1,1,0,0,0,0],"id":38,"left_children":[1,3,5,-1,-1,-1,-1],"loss_changes":[1.2906962E1,1.1911296E1,1.2879792E1,0E0,0E0,0E0,0E0],"parents":[2147483647,0,0,1,1,2,2],"right_children":[2,4,6,-1,-1,-1,-1],"split_conditions":[1.3166459E-1,2.5315337E0,1.7544031E3,-8.623973E-2,3.610311E-2,-1.75777E-1,8.715015E-2],"split_indices":[0,3,6,0,0,0,0],"split_type":[0,0,0,0,0,0,0],"sum_hessian":[3.1118777E2,2.7516705E2,3.6020725E1,3.572431E1,2.3944273E2,2.649877E1,9.5219555E0],"tree_param":{"num_deleted":"0","num_feature":"10","num_nodes":"7","size_leaf_vector":"0"}},{"base_weights":[-3.21901E-2,9.3549407E-1,-7.721622E-2,-2.8296587E-1,1.0022204E0,-4.214182E-1,5.2893978E-2],"categories":[],"categories_nodes":[],"categories_segments":[],"categories_sizes":[],"default_left":[1,1,1,0,0,0,0],"id":39,"left_children":[1,3,5,-1,-1,-1,-1],"loss_changes":[1.3402238E1,1.3957062E0,1.3155636E1,0E0,0E0,0E0,0E0],"parents":[2147483647,0,0,1,1,2,2],"right_children":[2,4,6,-1,-1,-1,-1],"split_conditions":[2.3472684E4,5.385312E2,2.2456826E3,-5.6593176E-2,2.0044409E-1,-8.428364E-2,1.0578795E-2],"split_indices":[5,6,4,0,0,0,0],"split_type":[0,0,0,0,0,0,0],"sum_hessian":[3.0493707E2,1.2678518E1,2.9225854E2,4.9000868E-1,1.218851E1,7.9556274E1,2.1270227E2],"tree_param":{"num_deleted":"0","num_feature":"10","num_nodes":"7","size_leaf_vector":"0"}},{"base_weights":[-3.302253E-2,2.6595598E-1,-1.4175561E-1,-7.6192714E-2,8.171998E-1,-2.5229883E-1,2.4335994E-1],"categories":[],"categories_nodes":[],"categories_segments":[],"categories_sizes":[],"default_left":[0,1,1,0,0,0,0],"id":40,"left_children":[1,3,5,-1,-1,-1,-1],"loss_changes":[9.763904E0,1.5176884E1,9.429274E0,0E0,0E0,0E0,0E0],"parents":[2147483647,0,0,1,1,2,2],"right_children":[2,4,6,-1,-1,-1,-1],"split_conditions":[5.254526E-1,3.417654E0,6.9176636E1,-1.5238543E-2,1.6343997E-1,-5.045977E-2,4.8671987E-2],"split_indices":[8,9,3,0,0,0,0],"split_type":[0,0,0,0,0,0,0],"sum_hessian":[2.9818625E2,7.9138016E1,2.1904823E2,4.936172E1,2.9776295E1,1.7046344E2,4.8584797E1],"tree_param":{"num_deleted":"0","num_feature":"10","num_nodes":"7","size_leaf_vector":"0"}},{"base_weights":[2.6778687E-2,-1.8665387E-1,2.0363052E-1,-7.2813517E-1,1.7383182E-1,1.0514168E0,1.577349E-1],"categories":[],"categories_nodes":[],"categories_segments":[],"categories_sizes":[],"default_left":[1,1,1,0,0,0,0],"id":41,"left_children":[1,3,5,-1,-1,-1,-1],"loss_changes":[1.157011E1,2.7251703E1,6.3536925E0,0E0,0E0,0E0,0E0],"parents":[2147483647,0,0,1,1,2,2],"right_children":[2,4,6,-1,-1,-1,-1],"split_conditions":[1.2134807E3,3.4420654E3,6.2396716E2,-1.4562704E-1,3.4766365E-2,2.1028335E-1,3.154698E-2],"split_indices":[6,4,2,0,0,0,0],"split_type":[0,0,0,0,0,0,0],"sum_hessian":[3.04519E2,1.3796336E2,1.6655566E2,5.4731678E1,8.323168E1,7.428432E0,1.5912723E2],"tree_param":{"num_deleted":"0","num_feature":"10","num_nodes":"7","size_leaf_vector":"0"}},{"base_weights":[1.1180142E-2,-2.145268E-2,1.0715886E0,1.4576961E-1,-2.6849505E-1],"categories":[],"categories_nodes":[],"categories_segments":[],"categories_sizes":[],"default_left":[1,1,0,0,0],"id":42,"left_children":[1,3,-1,-1,-1],"loss_changes":[1.0320907E1,1.2006437E1,0E0,0E0,0E0],"parents":[2147483647,0,0,1,1],"right_children":[2,4,-1,-1,-1],"split_conditions":[8.990316E0,4.1483343E-2,2.1431772E-1,2.9153923E-2,-5.3699013E-2],"split_indices":[1,0,0,0,0],"split_type":[0,0,0,0,0],"sum_hessian":[2.965923E2,2.8868802E2,7.904264E0,1.7240053E2,1.1628749E2],"tree_param":{"num_deleted":"0","num_feature":"10","num_nodes":"5","size_leaf_vector":"0"}},{"base_weights":[-1.7118644E-2,-1.0974286E0,1.6918961E-2,3.8323477E-1,-2.0627873E0,-1.0420748E-1,3.5650718E-1],"categories":[],"categories_nodes":[],"categories_segments":[],"categories_sizes":[],"default_left":[1,1,1,0,0,0,0],"id":43,"left_children":[1,3,5,-1,-1,-1,-1],"loss_changes":[1.1053039E1,1.3913932E1,1.2044059E1,0E0,0E0,0E0,0E0],"parents":[2147483647,0,0,1,1,2,2],"right_children":[2,4,6,-1,-1,-1,-1],"split_conditions":[4.763044E-2,5.5046117E4,4.418592E1,7.6646954E-2,-4.1255745E-1,-2.0841496E-2,7.130144E-2],"split_indices":[1,5,3,0,0,0,0],"split_type":[0,0,0,0,0,0,0],"sum_hessian":[2.9908496E2,8.18124E0,2.9090372E2,3.4668353E0,4.7144046E0,2.1493315E2,7.597056E1],"tree_param":{"num_deleted":"0","num_feature":"10","num_nodes":"7","size_leaf_vector":"0"}},{"base_weights":[-1.5381759E-2,9.018836E-1,-5.0431527E-2,-2.0598839E-1,9.6138203E-1,-9.057214E-2,6.3095087E-1],"categories":[],"categories_nodes":[],"categories_segments":[],"categories_sizes":[],"default_left":[1,1,1,0,0,0,0],"id":44,"left_children":[1,3,5,-1,-1,-1,-1],"loss_changes":[9.687754E0,9.291334E-1,7.984164E0,0E0,0E0,0E0,0E0],"parents":[2147483647,0,0,1,1,2,2],"right_children":[2,4,6,-1,-1,-1,-1],"split_conditions":[2.228807E4,5.0265277E2,4.102027E2,-4.119768E-2,1.922764E-1,-1.8114429E-2,1.2619017E-1],"split_indices":[5,6,3,0,0,0,0],"split_type":[0,0,0,0,0,0,0],"sum_hessian":[2.9891565E2,1.0091292E1,2.8882437E2,3.8884512E-1,9.702448E0,2.7357498E2,1.5249377E1],"tree_param":{"num_deleted":"0","num_feature":"10","num_nodes":"7","size_leaf_vector":"0"}},{"base_weights":[-3.4031443E-2,-5.72052E-2,9.787705E-1,4.311261E-3,-8.21513E-1],"categories":[],"categories_nodes":[],"categories_segments":[],"categories_sizes":[],"default_left":[1,1,0,0,0],"id":45,"left_children":[1,3,-1,-1,-1],"loss_changes":[6.876796E0,1.3406203E1,0E0,0E0,0E0],"parents":[2147483647,0,0,1,1],"right_children":[2,4,-1,-1,-1],"split_conditions":[8.990316E0,6.8190875E0,1.957541E-1,8.6225214E-4,-1.643026E-1],"split_indices":[1,1,0,0,0],"split_type":[0,0,0,0,0],"sum_hessian":[2.8961276E2,2.8405682E2,5.5559397E0,2.6381744E2,2.0239384E1],"tree_param":{"num_deleted":"0","num_feature":"10","num_nodes":"5","size_leaf_vector":"0"}},{"base_weights":[1.8716432E-2,1.19872704E-1,-2.791003E-1,-1.2749271E-2,5.1646507E-1,7.3425844E-2,-9.191009E-1],"categories":[],"categories_nodes":[],"categories_segments":[],"categories_sizes":[],"default_left":[1,1,0,0,0,0,0],"id":46,"left_children":[1,3,5,-1,-1,-1,-1],"loss_changes":[8.842692E0,1.1523903E1,1.6862244E1,0E0,0E0,0E0,0E0],"parents":[2147483647,0,0,1,1,2,2],"right_children":[2,4,6,-1,-1,-1,-1],"split_conditions":[9.237431E4,2.1921313E3,1.408327E0,-2.549854E-3,1.0329302E-1,1.4685169E-2,-1.8382017E-1],"split_indices":[5,6,8,0,0,0,0],"split_type":[0,0,0,0,0,0,0],"sum_hessian":[2.9141275E2,2.179735E2,7.343926E1,1.640743E2,5.3899208E1,4.7925907E1,2.5513355E1],"tree_param":{"num_deleted":"0","num_feature":"10","num_nodes":"7","size_leaf_vector":"0"}},{"base_weights":[7.984276E-3,4.5312915E-2,-9.665767E-1,8.3278805E-2,-7.753025E-1,4.8433536E-1,-1.1025938E0],"categories":[],"categories_nodes":[],"categories_segments":[],"categories_sizes":[],"default_left":[1,1,1,0,0,0,0],"id":47,"left_children":[1,3,5,-1,-1,-1,-1],"loss_changes":[1.0591341E1,8.794125E0,2.6536455E0,0E0,0E0,0E0,0E0],"parents":[2147483647,0,0,1,1,2,2],"right_children":[2,4,6,-1,-1,-1,-1],"split_conditions":[4.5616155E0,4.466713E0,1.0462123E-2,1.6655762E-2,-1.5506051E-1,9.686708E-2,-2.2051875E-1],"split_indices":[7,9,0,0,0,0,0],"split_type":[0,0,0,0,0,0,0],"sum_hessian":[2.8893463E2,2.7919415E2,9.740478E0,2.6770715E2,1.1486994E1,6.1537284E-1,9.125105E0],"tree_param":{"num_deleted":"0","num_feature":"10","num_nodes":"7","size_leaf_vector":"0"}},{"base_weights":[-2.747803E-2,-1.6313645E-1,1.8100214E-1,-6.029374E-1,-9.298287E-3,4.2056617E-1,-7.4729884E-1],"categories":[],"categories_nodes":[],"categories_segments":[],"categories_sizes":[],"default_left":[1,1,0,0,0,0,0],"id":48,"left_children":[1,3,5,-1,-1,-1,-1],"loss_changes":[8.183457E0,1.18469715E1,2.5694014E1,0E0,0E0,0E0,0E0],"parents":[2147483647,0,0,1,1,2,2],"right_children":[2,4,6,-1,-1,-1,-1],"split_conditions":[3.3083398E0,2.243307E3,2.203234E0,-1.2058748E-1,-1.8596575E-3,8.411323E-2,-1.4945976E-1],"split_indices":[9,4,8,0,0,0,0],"split_type":[0,0,0,0,0,0,0],"sum_hessian":[2.8730716E2,1.7418327E2,1.1312388E2,4.4382076E1,1.2980121E2,9.0353546E1,2.2770334E1],"tree_param":{"num_deleted":"0","num_feature":"10","num_nodes":"7","size_leaf_vector":"0"}},{"base_weights":[1.52903E-2,8.7067163E-1,-1.5028728E-2,-3.8905704E-1,1.1693914E0,-3.5718274E-1,5.5724874E-2],"categories":[],"categories_nodes":[],"categories_segments":[],"categories_sizes":[],"default_left":[1,1,1,0,0,0,0],"id":49,"left_children":[1,3,5,-1,-1,-1,-1],"loss_changes":[7.370586E0,4.115818E0,6.6765256E0,0E0,0E0,0E0,0E0],"parents":[2147483647,0,0,1,1,2,2],"right_children":[2,4,6,-1,-1,-1,-1],"split_conditions":[5.530957E2,1.0784054E3,1.7229413E3,-7.781141E-2,2.3387828E-1,-7.143655E-2,1.1144975E-2],"split_indices":[4,6,4,0,0,0,0],"split_type":[0,0,0,0,0,0,0],"sum_hessian":[2.8269736E2,8.728411E0,2.7396893E2,1.615075E0,7.1133356E0,4.625214E1,2.2771681E2],"tree_param":{"num_deleted":"0","num_feature":"10","num_nodes":"7","size_leaf_vector":"0"}},{"base_weights":[3.81926E-2,8.26066E-1,5.14055E-3,-7.1879197E-3,1.0044426E0,-3.0065843E-1,1.11043215E-1],"categories":[],"categories_nodes":[],"categories_segments":[],"categories_sizes":[],"default_left":[1,0,1,0,0,0,0],"id":50,"left_children":[1,3,5,-1,-1,-1,-1],"loss_changes":[7.478454E0,1.7258339E0,8.996955E0,0E0,0E0,0E0,0E0],"parents":[2147483647,0,0,1,1,2,2],"right_children":[2,4,6,-1,-1,-1,-1],"split_conditions":[2.3472684E4,4.5877624E-1,2.7458472E0,-1.4375839E-3,2.0088851E-1,-6.0131688E-2,2.2208644E-2],"split_indices":[5,8,7,0,0,0,0],"split_type":[0,0,0,0,0,0,0],"sum_hessian":[2.863449E2,1.0562802E1,2.7578214E2,2.0317156E0,8.531086E0,7.046682E1,2.053153E2],"tree_param":{"num_deleted":"0","num_feature":"10","num_nodes":"7","size_leaf_vector":"0"}},{"base_weights":[1.7449124E-3,-1.0035932E0,2.6478738E-2,6.3185185E-2,-5.984613E-1],"categories":[],"categories_nodes":[],"categories_segments":[],"categories_sizes":[],"default_left":[1,0,1,0,0],"id":51,"left_children":[1,-1,3,-1,-1],"loss_changes":[7.1795535E0,0E0,6.500504E0,0E0,0E0],"parents":[2147483647,0,0,2,2],"right_children":[2,-1,4,-1,-1],"split_conditions":[3.9987744E2,-2.0071864E-1,2.1435098E-1,1.2637037E-2,-1.1969226E-1],"split_indices":[6,0,0,0,0],"split_type":[0,0,0,0,0],"sum_hessian":[2.866627E2,5.932988E0,2.8072968E2,2.6600455E2,1.4725139E1],"tree_param":{"num_deleted":"0","num_feature":"10","num_nodes":"5","size_leaf_vector":"0"}},{"base_weights":[1.5907092E-2,3.016766E-1,-7.537651E-2,3.618471E-1,-6.2197316E-1,1.0410216E-1,-3.392197E-1],"categories":[],"categories_nodes":[],"categories_segments":[],"categories_sizes":[],"default_left":[1,1,0,0,0,0,0],"id":52,"left_children":[1,3,5,-1,-1,-1,-1],"loss_changes":[7.295529E0,3.9873981E0,1.0079291E1,0E0,0E0,0E0,0E0],"parents":[2147483647,0,0,1,1,2,2],"right_children":[2,4,6,-1,-1,-1,-1],"split_conditions":[4.1346586E4,3.8981593E-1,1.3394171E0,7.236942E-2,-1.2439463E-1,2.0820431E-2,-6.784394E-2],"split_indices":[5,0,8,0,0,0,0],"split_type":[0,0,0,0,0,0,0],"sum_hessian":[2.777997E2,6.669661E1,2.1110309E2,6.3188484E1,3.5081265E0,1.2599841E2,8.5104675E1],"tree_param":{"num_deleted":"0","num_feature":"10","num_nodes":"7","size_leaf_vector":"0"}},{"base_weights":[3.128233E-2,2.3031703E-1,-1.0029913E-1,-5.7304297E-2,5.1957256E-1,-2.4902744E0,-7.519505E-2],"categories":[],"categories_nodes":[],"categories_segments":[],"categories_sizes":[],"default_left":[1,1,1,0,0,0,0],"id":53,"left_children":[1,3,5,-1,-1,-1,-1],"loss_changes":[7.3249197E0,9.286697E0,9.925016E0,0E0,0E0,0E0,0E0],"parents":[2147483647,0,0,1,1,2,2],"right_children":[2,4,6,-1,-1,-1,-1],"split_conditions":[2.9072102E-2,1.5039965E1,8.899054E-2,-1.1460859E-2,1.03914514E-1,-4.980549E-1,-1.5039011E-2],"split_indices":[0,3,1,0,0,0,0],"split_type":[0,0,0,0,0,0,0],"sum_hessian":[2.7780948E2,1.10266365E2,1.6754312E2,5.569145E1,5.4574917E1,7.208235E-1,1.668223E2],"tree_param":{"num_deleted":"0","num_feature":"10","num_nodes":"7","size_leaf_vector":"0"}},{"base_weights":[-4.5392256E-2,1.24366224E-1,-2.314421E-1,-1.8295912E-1,2.6678947E-1,-3.9230254E-1,1.8185596E-1],"categories":[],"categories_nodes":[],"categories_segments":[],"categories_sizes":[],"default_left":[1,1,1,0,0,0,0],"id":54,"left_children":[1,3,5,-1,-1,-1,-1],"loss_changes":[8.764956E0,6.4079995E0,8.868395E0,0E0,0E0,0E0,0E0],"parents":[2147483647,0,0,1,1,2,2],"right_children":[2,4,6,-1,-1,-1,-1],"split_conditions":[6.463741E4,9.554014E0,3.8423414E0,-3.6591824E-2,5.3357895E-2,-7.846051E-2,3.6371194E-2],"split_indices":[5,3,9,0,0,0,0],"split_type":[0,0,0,0,0,0,0],"sum_hessian":[2.7560526E2,1.4428554E2,1.313197E2,4.5601208E1,9.868433E1,9.456478E1,3.6754925E1],"tree_param":{"num_deleted":"0","num_feature":"10","num_nodes":"7","size_leaf_vector":"0"}},{"base_weights":[-3.620341E-2,9.0486467E-1,-5.8493648E-2,-8.5555255E-2,9.3250203E-1,-3.1829633E-2,-9.776104E-1],"categories":[],"categories_nodes":[],"categories_segments":[],"categories_sizes":[],"default_left":[1,1,1,0,0,0,0],"id":55,"left_children":[1,3,5,-1,-1,-1,-1],"loss_changes":[5.7512875E0,2.534938E-1,6.495348E0,0E0,0E0,0E0,0E0],"parents":[2147483647,0,0,1,1,2,2],"right_children":[2,4,6,-1,-1,-1,-1],"split_conditions":[2.0430184E4,4.8469452E2,3.8981593E-1,-1.7111052E-2,1.8650042E-1,-6.3659265E-3,-1.9552208E-1],"split_indices":[5,6,0,0,0,0,0],"split_type":[0,0,0,0,0,0,0],"sum_hessian":[2.7065274E2,5.3462343E0,2.653065E2,8.824463E-2,5.2579894E0,2.5883228E2,6.474218E0],"tree_param":{"num_deleted":"0","num_feature":"10","num_nodes":"7","size_leaf_vector":"0"}},{"base_weights":[-2.62402E-3,-2.5612805E-2,9.786984E-1,6.308753E-2,-2.3559222E-1],"categories":[],"categories_nodes":[],"categories_segments":[],"categories_sizes":[],"default_left":[1,1,0,0,0],"id":56,"left_children":[1,3,-1,-1,-1],"loss_changes":[6.0978904E0,4.932023E0,0E0,0E0,0E0],"parents":[2147483647,0,0,1,1],"right_children":[2,4,-1,-1,-1],"split_conditions":[8.990316E0,5.1215336E-2,1.9573967E-1,1.2617506E-2,-4.7118444E-2],"split_indices":[1,0,0,0,0],"split_type":[0,0,0,0,0],"sum_hessian":[2.6819247E2,2.6300513E2,5.187346E0,1.8539105E2,7.761407E1],"tree_param":{"num_deleted":"0","num_feature":"10","num_nodes":"5","size_leaf_vector":"0"}},{"base_weights":[-4.0950015E-2,-6.695181E-1,-5.4365713E-3,-3.3241695E-1,-2.870259E0,-2.1632344E-1,9.7977504E-2],"categories":[],"categories_nodes":[],"categories_segments":[],"categories_sizes":[],"default_left":[1,1,1,0,0,0,0],"id":57,"left_children":[1,3,5,-1,-1,-1,-1],"loss_changes":[6.055143E0,9.807946E0,5.645921E0,0E0,0E0,0E0,0E0],"parents":[2147483647,0,0,1,1,2,2],"right_children":[2,4,6,-1,-1,-1,-1],"split_conditions":[9.548275E-2,3.335239E-2,2.8397367E0,-6.648339E-2,-5.740518E-1,-4.3264687E-2,1.9595502E-2],"split_indices":[1,0,7,0,0,0,0],"split_type":[0,0,0,0,0,0,0],"sum_hessian":[2.70419E2,1.3506633E1,2.5691238E2,1.2710703E1,7.9592973E-1,8.417235E1,1.7274004E2],"tree_param":{"num_deleted":"0","num_feature":"10","num_nodes":"7","size_leaf_vector":"0"}},{"base_weights":[3.1110086E-2,-1.0589562E-1,2.5923514E-1,-4.3995544E-1,1.3997942E-1,4.2530996E-1,-1.4601E-1],"categories":[],"categories_nodes":[],"categories_segments":[],"categories_sizes":[],"default_left":[1,1,0,0,0,0,0],"id":58,"left_children":[1,3,5,-1,-1,-1,-1],"loss_changes":[8.664996E0,1.4302045E1,7.060573E0,0E0,0E0,0E0,0E0],"parents":[2147483647,0,0,1,1,2,2],"right_children":[2,4,6,-1,-1,-1,-1],"split_conditions":[3.304276E0,3.439034E3,1.6349556E0,-8.799109E-2,2.7995884E-2,8.506199E-2,-2.9202E-2],"split_indices":[9,4,8,0,0,0,0],"split_type":[0,0,0,0,0,0,0],"sum_hessian":[2.7536218E2,1.7237453E2,1.02987656E2,7.274699E1,9.962754E1,7.301545E1,2.9972208E1],"tree_param":{"num_deleted":"0","num_feature":"10","num_nodes":"7","size_leaf_vector":"0"}},{"base_weights":[9.728411E-3,-7.787762E-1,3.9175235E-2,2.2310472E-1,-2.3161223E0,-4.6780087E-2,3.9007255E-1],"categories":[],"categories_nodes":[],"categories_segments":[],"categories_sizes":[],"default_left":[1,1,1,0,0,0,0],"id":59,"left_children":[1,3,5,-1,-1,-1,-1],"loss_changes":[6.341052E0,1.5660835E1,7.9492655E0,0E0,0E0,0E0,0E0],"parents":[2147483647,0,0,1,1,2,2],"right_children":[2,4,6,-1,-1,-1,-1],"split_conditions":[4.763044E-2,2.8932542E-2,6.9176636E1,4.4620942E-2,-4.6322447E-1,-9.356017E-3,7.8014515E-2],"split_indices":[1,1,3,0,0,0,0],"split_type":[0,0,0,0,0,0,0],"sum_hessian":[2.7078412E2,8.832312E0,2.6195178E2,5.864998E0,2.9673138E0,2.111062E2,5.08456E1],"tree_param":{"num_deleted":"0","num_feature":"10","num_nodes":"7","size_leaf_vector":"0"}},{"base_weights":[-1.3428722E-2,-5.4873437E-1,3.5139173E-2,-1.0478858E0,4.433611E-1,1.35337105E-2,9.542484E-1],"categories":[],"categories_nodes":[],"categories_segments":[],"categories_sizes":[],"default_left":[1,1,1,0,0,0,0],"id":60,"left_children":[1,3,5,-1,-1,-1,-1],"loss_changes":[7.015734E0,1.1579582E1,4.905121E0,0E0,0E0,0E0,0E0],"parents":[2147483647,0,0,1,1,2,2],"right_children":[2,4,6,-1,-1,-1,-1],"split_conditions":[5.0407123E2,6.6831333E3,8.990316E0,-2.0957716E-1,8.867222E-2,2.7067421E-3,1.9084969E-1],"split_indices":[6,4,1,0,0,0,0],"split_type":[0,0,0,0,0,0,0],"sum_hessian":[2.6810812E2,2.1445192E1,2.4666292E2,1.4229628E1,7.215565E0,2.4198921E2,4.673705E0],"tree_param":{"num_deleted":"0","num_feature":"10","num_nodes":"7","size_leaf_vector":"0"}},{"base_weights":[2.6405837E-2,3.2827362E-1,-7.596702E-2,-2.5886405E-1,5.5798876E-1,-3.8198116E-1,3.126271E-2],"categories":[],"categories_nodes":[],"categories_segments":[],"categories_sizes":[],"default_left":[0,1,1,0,0,0,0],"id":61,"left_children":[1,3,5,-1,-1,-1,-1],"loss_changes":[8.283128E0,9.297411E0,6.5867114E0,0E0,0E0,0E0,0E0],"parents":[2147483647,0,0,1,1,2,2],"right_children":[2,4,6,-1,-1,-1,-1],"split_conditions":[5.254526E-1,2.0632554E3,2.682363E0,-5.177281E-2,1.11597754E-1,-7.6396234E-2,6.252542E-3],"split_indices":[8,4,7,0,0,0,0],"split_type":[0,0,0,0,0,0,0],"sum_hessian":[2.662288E2,6.68629E1,1.9936589E2,1.876748E1,4.8095417E1,5.106718E1,1.482987E2],"tree_param":{"num_deleted":"0","num_feature":"10","num_nodes":"7","size_leaf_vector":"0"}},{"base_weights":[-1.0185082E-2,9.536809E-1,-3.954219E-2,-2.4707262E-1,1.2128861E0,3.6399525E-1,-8.296689E-2],"categories":[],"categories_nodes":[],"categories_segments":[],"categories_sizes":[],"default_left":[1,1,1,0,0,0,0],"id":62,"left_children":[1,3,5,-1,-1,-1,-1],"loss_changes":[7.639557E0,2.7835197E0,4.6155877E0,0E0,0E0,0E0,0E0],"parents":[2147483647,0,0,1,1,2,2],"right_children":[2,4,6,-1,-1,-1,-1],"split_conditions":[5.7094183E2,1.1727666E3,3.131647E4,-4.9414527E-2,2.4257722E-1,7.279905E-2,-1.6593378E-2],"split_indices":[4,6,5,0,0,0,0],"split_type":[0,0,0,0,0,0,0],"sum_hessian":[2.6765143E2,6.9804544E0,2.6067096E2,1.2476401E0,5.7328143E0,2.4608316E1,2.3606265E2],"tree_param":{"num_deleted":"0","num_feature":"10","num_nodes":"7","size_leaf_vector":"0"}},{"base_weights":[4.6137556E-2,-2.2342581E-2,3.1302944E-1,-1.862365E-1,1.9598736E-1,4.926719E-1,-7.101575E-1],"categories":[],"categories_nodes":[],"categories_segments":[],"categories_sizes":[],"default_left":[1,1,0,0,0,0,0],"id":63,"left_children":[1,3,5,-1,-1,-1,-1],"loss_changes":[4.85618E0,7.6252303E0,1.0320084E1,0E0,0E0,0E0,0E0],"parents":[2147483647,0,0,1,1,2,2],"right_children":[2,4,6,-1,-1,-1,-1],"split_conditions":[3.6982274E0,4.6346104E3,7.7198935E0,-3.72473E-2,3.919747E-2,9.853438E-2,-1.420315E-1],"split_indices":[9,4,8,0,0,0,0],"split_type":[0,0,0,0,0,0,0],"sum_hessian":[2.6431927E2,2.110767E2,5.3242577E1,1.2065301E2,9.0423706E1,4.573186E1,7.5107183E0],"tree_param":{"num_deleted":"0","num_feature":"10","num_nodes":"7","size_leaf_vector":"0"}},{"base_weights":[4.210663E-2,-9.017243E-1,6.869055E-2,-1.0338308E0,1.641888E-2,1.2718771E-1,-2.961592E-1],"categories":[],"categories_nodes":[],"categories_segments":[],"categories_sizes":[],"default_left":[1,1,1,0,0,0,0],"id":64,"left_children":[1,3,5,-1,-1,-1,-1],"loss_changes":[6.7524204E0,9.1157293E-1,5.5926538E0,0E0,0E0,0E0,0E0],"parents":[2147483647,0,0,1,1,2,2],"right_children":[2,4,6,-1,-1,-1,-1],"split_conditions":[4.074762E2,8.705843E3,1.2101889E5,-2.0676616E-1,3.283776E-3,2.5437543E-2,-5.9231844E-2],"split_indices":[6,4,5,0,0,0,0],"split_type":[0,0,0,0,0,0,0],"sum_hessian":[2.6565155E2,6.3755407E0,2.59276E2,5.463436E0,9.121047E-1,2.240112E2,3.5264812E1],"tree_param":{"num_deleted":"0","num_feature":"10","num_nodes":"7","size_leaf_vector":"0"}},{"base_weights":[-1.9568399E-2,6.964076E-1,-4.789461E-2,8.160949E-1,-2.1743397E-1,6.6096365E-1,-7.294066E-2],"categories":[],"categories_nodes":[],"categories_segments":[],"categories_sizes":[],"default_left":[1,1,1,0,0,0,0],"id":65,"left_children":[1,3,5,-1,-1,-1,-1],"loss_changes":[5.3945837E0,1.2848468E0,4.579487E0,0E0,0E0,0E0,0E0],"parents":[2147483647,0,0,1,1,2,2],"right_children":[2,4,6,-1,-1,-1,-1],"split_conditions":[2.4314406E4,4.0335554E-1,6.0854964E-3,1.6321898E-1,-4.3486796E-2,1.3219273E-1,-1.45881325E-2],"split_indices":[5,0,0,0,0,0,0],"split_type":[0,0,0,0,0,0,0],"sum_hessian":[2.6334888E2,9.12478E0,2.542241E2,8.162664E0,9.621145E-1,7.809457E0,2.4641464E2],"tree_param":{"num_deleted":"0","num_feature":"10","num_nodes":"7","size_leaf_vector":"0"}},{"base_weights":[-3.4459196E-2,-1.5241762E-1,1.6764227E-1,-5.358096E-1,-1.9352438E-2,4.0345994E-1,-2.0620479E-1],"categories":[],"categories_nodes":[],"categories_segments":[],"categories_sizes":[],"default_left":[1,1,0,0,0,0,0],"id":66,"left_children":[1,3,5,-1,-1,-1,-1],"loss_changes":[6.224628E0,8.393076E0,8.574009E0,0E0,0E0,0E0,0E0],"parents":[2147483647,0,0,1,1,2,2],"right_children":[2,4,6,-1,-1,-1,-1],"split_conditions":[3.303685E0,7.036125E0,1.2985995E0,-1.0716192E-1,-3.8704877E-3,8.0691986E-2,-4.1240957E-2],"split_indices":[9,3,8,0,0,0,0],"split_type":[0,0,0,0,0,0,0],"sum_hessian":[2.5903308E2,1.6372139E2,9.531168E1,4.1402992E1,1.223184E2,5.8396652E1,3.6915028E1],"tree_param":{"num_deleted":"0","num_feature":"10","num_nodes":"7","size_leaf_vector":"0"}},{"base_weights":[4.53325E-2,6.365896E-2,-1.2410733E0,1.0325989E-1,-4.0538025E-1,-1.3015282E0,9.457619E-2],"categories":[],"categories_nodes":[],"categories_segments":[],"categories_sizes":[],"default_left":[1,1,1,0,0,0,0],"id":67,"left_children":[1,3,5,-1,-1,-1,-1],"loss_changes":[6.2143745E0,4.8255405E0,4.221983E-1,0E0,0E0,0E0,0E0],"parents":[2147483647,0,0,1,1,2,2],"right_children":[2,4,6,-1,-1,-1,-1],"split_conditions":[4.7554626E0,3.6150251E3,5.5515664E3,2.065198E-2,-8.107605E-2,-2.6030564E-1,1.8915238E-2],"split_indices":[7,2,6,0,0,0,0],"split_type":[0,0,0,0,0,0,0],"sum_hessian":[2.59246E2,2.5654175E2,2.704245E0,2.3728745E2,1.9254305E1,2.6115847E0,9.266058E-2],"tree_param":{"num_deleted":"0","num_feature":"10","num_nodes":"7","size_leaf_vector":"0"}},{"base_weights":[1.5586753E-2,1.6542703E-1,-1.7704701E-1,-1.8960332E-2,5.1617306E-1,-8.289602E-2,-8.4900063E-1],"categories":[],"categories_nodes":[],"categories_segments":[],"categories_sizes":[],"default_left":[1,1,1,0,0,0,0],"id":68,"left_children":[1,3,5,-1,-1,-1,-1],"loss_changes":[7.4532213E0,9.399468E0,7.079494E0,0E0,0E0,0E0,0E0],"parents":[2147483647,0,0,1,1,2,2],"right_children":[2,4,6,-1,-1,-1,-1],"split_conditions":[6.947161E4,3.0747762E0,6.2069387E0,-3.7920666E-3,1.0323461E-1,-1.6579203E-2,-1.6980013E-1],"split_indices":[5,9,1,0,0,0,0],"split_type":[0,0,0,0,0,0,0],"sum_hessian":[2.5620123E2,1.4418674E2,1.1201449E2,9.5125275E1,4.906146E1,9.9233696E1,1.2780796E1],"tree_param":{"num_deleted":"0","num_feature":"10","num_nodes":"7","size_leaf_vector":"0"}},{"base_weights":[4.1672148E-2,1.1258481E-1,-3.1010887E-1,2.7689332E-1,-5.4014295E-2,-1.5118794E0,-1.7635702E-1],"categories":[],"categories_nodes":[],"categories_segments":[],"categories_sizes":[],"default_left":[1,1,1,0,0,0,0],"id":69,"left_children":[1,3,5,-1,-1,-1,-1],"loss_changes":[6.4861727E0,5.9265623E0,6.749954E0,0E0,0E0,0E0,0E0],"parents":[2147483647,0,0,1,1,2,2],"right_children":[2,4,6,-1,-1,-1,-1],"split_conditions":[8.372992E-2,6.4640492E4,9.14457E-2,5.5378664E-2,-1.0802859E-2,-3.0237588E-1,-3.5271402E-2],"split_indices":[0,5,0,0,0,0,0],"split_type":[0,0,0,0,0,0,0],"sum_hessian":[2.5761176E2,2.1495975E2,4.2652016E1,1.0789056E2,1.0706919E2,3.2396758E0,3.9412342E1],"tree_param":{"num_deleted":"0","num_feature":"10","num_nodes":"7","size_leaf_vector":"0"}},{"base_weights":[-2.6719486E-2,-7.151327E-1,6.8719983E-3,-1.942822E-1,-2.6874037E0,-2.1981578E-1,1.2249001E-1],"categories":[],"categories_nodes":[],"categories_segments":[],"categories_sizes":[],"default_left":[1,1,1,0,0,0,0],"id":70,"left_children":[1,3,5,-1,-1,-1,-1],"loss_changes":[5.959689E0,1.1794765E1,6.4879026E0,0E0,0E0,0E0,0E0],"parents":[2147483647,0,0,1,1,2,2],"right_children":[2,4,6,-1,-1,-1,-1],"split_conditions":[6.385648E-2,3.2418833E3,2.569475E3,-3.8856443E-2,-5.374808E-1,-4.3963157E-2,2.4498003E-2],"split_indices":[1,6,4,0,0,0,0],"split_type":[0,0,0,0,0,0,0],"sum_hessian":[2.5650577E2,1.0990051E1,2.4551572E2,9.563077E0,1.4269742E0,8.262157E1,1.6289413E2],"tree_param":{"num_deleted":"0","num_feature":"10","num_nodes":"7","size_leaf_vector":"0"}},{"base_weights":[-1.2715808E-3,-2.501427E-1,1.20874785E-1,-4.716812E-1,1.2245729E-1,4.3645826E-1,-4.7422636E-2],"categories":[],"categories_nodes":[],"categories_segments":[],"categories_sizes":[],"default_left":[1,1,1,0,0,0,0],"id":71,"left_children":[1,3,5,-1,-1,-1,-1],"loss_changes":[7.831961E0,7.059168E0,9.1999E0,0E0,0E0,0E0,0E0],"parents":[2147483647,0,0,1,1,2,2],"right_children":[2,4,6,-1,-1,-1,-1],"split_conditions":[2.8394504E0,6.1546E3,5.8773035E4,-9.433624E-2,2.4491457E-2,8.729165E-2,-9.484528E-3],"split_indices":[7,4,5,0,0,0,0],"split_type":[0,0,0,0,0,0,0],"sum_hessian":[2.5564668E2,8.381901E1,1.7182767E2,5.2398354E1,3.1420654E1,5.920877E1,1.126189E2],"tree_param":{"num_deleted":"0","num_feature":"10","num_nodes":"7","size_leaf_vector":"0"}},{"base_weights":[2.5448812E-2,-2.5509226E-1,9.971338E-2,-5.6067425E-1,4.1745546E-1,6.0411133E-2,7.49568E-1],"categories":[],"categories_nodes":[],"categories_segments":[],"categories_sizes":[],"default_left":[1,1,1,0,0,0,0],"id":72,"left_children":[1,3,5,-1,-1,-1,-1],"loss_changes":[5.311858E0,1.1206865E1,5.0972466E0,0E0,0E0,0E0,0E0],"parents":[2147483647,0,0,1,1,2,2],"right_children":[2,4,6,-1,-1,-1,-1],"split_conditions":[1.8460203E3,2.001375E3,4.102027E2,-1.1213485E-1,8.3491094E-2,1.2082227E-2,1.499136E-1],"split_indices":[4,6,3,0,0,0,0],"split_type":[0,0,0,0,0,0,0],"sum_hessian":[2.5273694E2,5.2390858E1,2.0034608E2,3.6137566E1,1.6253294E1,1.8995108E2,1.0395E1],"tree_param":{"num_deleted":"0","num_feature":"10","num_nodes":"7","size_leaf_vector":"0"}},{"base_weights":[-7.6851775E-3,2.4697416E-1,-1.1880431E-1,1.7425013E-1,1.3335729E0,-1.5243832E0,-8.1992224E-2],"categories":[],"categories_nodes":[],"categories_segments":[],"categories_sizes":[],"default_left":[1,1,1,0,0,0,0],"id":73,"left_children":[1,3,5,-1,-1,-1,-1],"loss_changes":[7.1957426E0,5.8728285E0,9.032993E0,0E0,0E0,0E0,0E0],"parents":[2147483647,0,0,1,1,2,2],"right_children":[2,4,6,-1,-1,-1,-1],"split_conditions":[4.6460547E4,3.6722884E0,4.7541285E4,3.4850027E-2,2.6671457E-1,-3.0487666E-1,-1.6398445E-2],"split_indices":[5,9,5,0,0,0,0],"split_type":[0,0,0,0,0,0,0],"sum_hessian":[2.5225185E2,7.625969E1,1.7599216E2,7.256351E1,3.6961784E0,3.460274E0,1.7253189E2],"tree_param":{"num_deleted":"0","num_feature":"10","num_nodes":"7","size_leaf_vector":"0"}},{"base_weights":[-1.235371E-2,8.2653064E-1,-3.6698755E-2,-7.423892E-1,9.67969E-1,-5.49408E-1,2.4533117E-2],"categories":[],"categories_nodes":[],"categories_segments":[],"categories_sizes":[],"default_left":[1,1,1,0,0,0,0],"id":74,"left_children":[1,3,5,-1,-1,-1,-1],"loss_changes":[5.2100086E0,2.3152828E0,7.781286E0,0E0,0E0,0E0,0E0],"parents":[2147483647,0,0,1,1,2,2],"right_children":[2,4,6,-1,-1,-1,-1],"split_conditions":[5.5060767E2,1.4273663E2,2.5104282E0,-1.4847784E-1,1.935938E-1,-1.098816E-1,4.9066236E-3],"split_indices":[4,2,3,0,0,0,0],"split_type":[0,0,0,0,0,0,0],"sum_hessian":[2.5262378E2,6.1952844E0,2.464285E2,1.6096036E-1,6.034324E0,2.5440067E1,2.2098843E2],"tree_param":{"num_deleted":"0","num_feature":"10","num_nodes":"7","size_leaf_vector":"0"}},{"base_weights":[9.280612E-3,-5.9427845E-1,4.8833244E-2,-1.3968474E-1,-1.7008827E0,-2.701694E-1,1.3421936E-1],"categories":[],"categories_nodes":[],"categories_segments":[],"categories_sizes":[],"default_left":[1,1,1,0,0,0,0],"id":75,"left_children":[1,3,5,-1,-1,-1,-1],"loss_changes":[6.0905995E0,7.6565E0,6.552342E0,0E0,0E0,0E0,0E0],"parents":[2147483647,0,0,1,1,2,2],"right_children":[2,4,6,-1,-1,-1,-1],"split_conditions":[9.5507674E-2,1.4778111E-2,2.6032853E0,-2.7936948E-2,-3.4017655E-1,-5.4033883E-2,2.6843874E-2],"split_indices":[1,0,7,0,0,0,0],"split_type":[0,0,0,0,0,0,0],"sum_hessian":[2.529163E2,1.4692284E1,2.3822401E2,1.1212436E1,3.479848E0,4.9843723E1,1.883803E2],"tree_param":{"num_deleted":"0","num_feature":"10","num_nodes":"7","size_leaf_vector":"0"}},{"base_weights":[3.6835965E-2,2.3802657E-1,-1.00287616E-1,1.2370208E-1,8.467756E-1,-7.278459E-2,-1.0780917E0],"categories":[],"categories_nodes":[],"categories_segments":[],"categories_sizes":[],"default_left":[1,0,1,0,0,0,0],"id":76,"left_children":[1,3,5,-1,-1,-1,-1],"loss_changes":[6.9993405E0,7.0480766E0,3.984101E0,0E0,0E0,0E0,0E0],"parents":[2147483647,0,0,1,1,2,2],"right_children":[2,4,6,-1,-1,-1,-1],"split_conditions":[5.5020453E4,2.8504205E0,4.660191E0,2.4740417E-2,1.6935512E-1,-1.4556917E-2,-2.1561836E-1],"split_indices":[5,8,7,0,0,0,0],"split_type":[0,0,0,0,0,0,0],"sum_hessian":[2.5184457E2,1.01777954E2,1.5006662E2,8.6698906E1,1.507905E1,1.4700616E2,3.0604548E0],"tree_param":{"num_deleted":"0","num_feature":"10","num_nodes":"7","size_leaf_vector":"0"}},{"base_weights":[-1.0371459E-2,-2.07848E-1,9.140203E-2,-1.118092E0,-6.613356E-2,2.2985196E-1,-1.1082779E-1],"categories":[],"categories_nodes":[],"categories_segments":[],"categories_sizes":[],"default_left":[1,1,1,0,0,0,0],"id":77,"left_children":[1,3,5,-1,-1,-1,-1],"loss_changes":[5.0921493E0,1.1039342E1,4.7087965E0,0E0,0E0,0E0,0E0],"parents":[2147483647,0,0,1,1,2,2],"right_children":[2,4,6,-1,-1,-1,-1],"split_conditions":[1.00586475E3,1.8666179E3,1.7468866E3,-2.2361839E-1,-1.3226712E-2,4.597039E-2,-2.2165557E-2],"split_indices":[6,4,2,0,0,0,0],"split_type":[0,0,0,0,0,0,0],"sum_hessian":[2.5142227E2,8.515303E1,1.6626924E2,1.0543228E1,7.46098E1,9.861747E1,6.765177E1],"tree_param":{"num_deleted":"0","num_feature":"10","num_nodes":"7","size_leaf_vector":"0"}},{"base_weights":[-1.0626775E-2,1.608099E-1,-1.02860965E-1,-7.329955E-2,4.2231432E-1,-3.9025432E-1,3.9560366E-2],"categories":[],"categories_nodes":[],"categories_segments":[],"categories_sizes":[],"default_left":[1,1,1,0,0,0,0],"id":78,"left_children":[1,3,5,-1,-1,-1,-1],"loss_changes":[3.8909323E0,5.3021336E0,6.561206E0,0E0,0E0,0E0,0E0],"parents":[2147483647,0,0,1,1,2,2],"right_children":[2,4,6,-1,-1,-1,-1],"split_conditions":[2.6372127E-2,1.5370712E1,2.8237495E0,-1.465991E-2,8.4462866E-2,-7.805087E-2,7.912073E-3],"split_indices":[0,3,7,0,0,0,0],"split_type":[0,0,0,0,0,0,0],"sum_hessian":[2.440235E2,8.51013E1,1.589222E2,4.528237E1,3.9818935E1,5.208309E1,1.068391E2],"tree_param":{"num_deleted":"0","num_feature":"10","num_nodes":"7","size_leaf_vector":"0"}},{"base_weights":[3.260164E-3,-3.7351687E-2,4.8612756E-1,2.877082E-4,-7.0565563E-1,6.225854E-1,-4.6731615E-1],"categories":[],"categories_nodes":[],"categories_segments":[],"categories_sizes":[],"default_left":[1,1,1,0,0,0,0],"id":79,"left_children":[1,3,5,-1,-1,-1,-1],"loss_changes":[5.0465803E0,5.973278E0,2.8884292E0,0E0,0E0,0E0,0E0],"parents":[2147483647,0,0,1,1,2,2],"right_children":[2,4,6,-1,-1,-1,-1],"split_conditions":[2.6831616E2,1.475792E2,2.594856E0,5.7541638E-5,-1.4113113E-1,1.2451708E-1,-9.3463235E-2],"split_indices":[3,3,8,0,0,0,0],"split_type":[0,0,0,0,0,0,0],"sum_hessian":[2.5541954E2,2.3645499E2,1.8964542E1,2.2479399E2,1.1661001E1,1.6893711E1,2.0708318E0],"tree_param":{"num_deleted":"0","num_feature":"10","num_nodes":"7","size_leaf_vector":"0"}},{"base_weights":[-2.92766E-2,-5.2753013E-2,9.874748E-1,-1.4415562E-2,-5.045522E-1,1.0430956E0,-1.302972E-1],"categories":[],"categories_nodes":[],"categories_segments":[],"categories_sizes":[],"default_left":[1,1,1,0,0,0,0],"id":80,"left_children":[1,3,5,-1,-1,-1,-1],"loss_changes":[6.0922885E0,4.2932687E0,4.9412298E-1,0E0,0E0,0E0,0E0],"parents":[2147483647,0,0,1,1,2,2],"right_children":[2,4,6,-1,-1,-1,-1],"split_conditions":[8.679726E0,1.5273716E5,4.359405E0,-2.8831125E-3,-1.0091044E-1,2.0861912E-1,-2.605944E-2],"split_indices":[1,5,9,0,0,0,0],"split_type":[0,0,0,0,0,0,0],"sum_hessian":[2.5204895E2,2.472873E2,4.761656E0,2.288962E2,1.8391096E1,4.5995865E0,1.6206908E-1],"tree_param":{"num_deleted":"0","num_feature":"10","num_nodes":"7","size_leaf_vector":"0"}},{"base_weights":[-4.794218E-3,-8.9160144E-2,3.2515785E-1,1.702641E-1,-2.1203892E-1,8.4325933E-1,-5.1822733E-2],"categories":[],"categories_nodes":[],"categories_segments":[],"categories_sizes":[],"default_left":[1,1,0,0,0,0,0],"id":81,"left_children":[1,3,5,-1,-1,-1,-1],"loss_changes":[6.9507303E0,6.3736258E0,9.975008E0,0E0,0E0,0E0,0E0],"parents":[2147483647,0,0,1,1,2,2],"right_children":[2,4,6,-1,-1,-1,-1],"split_conditions":[3.6876864E0,2.5133507E-2,8.131658E-1,3.405282E-2,-4.2407785E-2,1.6865186E-1,-1.0364546E-2],"split_indices":[9,0,8,0,0,0,0],"split_type":[0,0,0,0,0,0,0],"sum_hessian":[2.4765509E2,1.9780724E2,4.9847843E1,6.345471E1,1.3435254E2,2.0473417E1,2.9374424E1],"tree_param":{"num_deleted":"0","num_feature":"10","num_nodes":"7","size_leaf_vector":"0"}},{"base_weights":[-1.6176362E-2,-1.3538939E-1,1.22893445E-1,-7.067692E-1,3.4062978E-2,-7.062707E-1,2.2788684E-1],"categories":[],"categories_nodes":[],"categories_segments":[],"categories_sizes":[],"default_left":[1,1,1,0,0,0,0],"id":82,"left_children":[1,3,5,-1,-1,-1,-1],"loss_changes":[4.1234875E0,1.2984181E1,1.0160245E1,0E0,0E0,0E0,0E0],"parents":[2147483647,0,0,1,1,2,2],"right_children":[2,4,6,-1,-1,-1,-1],"split_conditions":[4.1787915E3,9.453957E2,1.0265094E-2,-1.4135385E-1,6.8125958E-3,-1.4125414E-1,4.557737E-2],"split_indices":[4,6,0,0,0,0,0],"split_type":[0,0,0,0,0,0,0],"sum_hessian":[2.4671492E2,1.3285544E2,1.1385949E2,2.966306E1,1.03192375E2,1.2153428E1,1.0170606E2],"tree_param":{"num_deleted":"0","num_feature":"10","num_nodes":"7","size_leaf_vector":"0"}},{"base_weights":[-5.2993692E-2,7.7412415E-1,-7.2368294E-2,1.3025423E-2,8.5989136E-1,-1.3079694E-1,1.6090511E-1],"categories":[],"categories_nodes":[],"categories_segments":[],"categories_sizes":[],"default_left":[1,1,1,0,0,0,0],"id":83,"left_children":[1,3,5,-1,-1,-1,-1],"loss_changes":[3.932298E0,3.5577893E-1,3.2549496E0,0E0,0E0,0E0,0E0],"parents":[2147483647,0,0,1,1,2,2],"right_children":[2,4,6,-1,-1,-1,-1],"split_conditions":[2.0430184E4,6.005148E2,6.893797E1,2.6050846E-3,1.7197828E-1,-2.6159389E-2,3.218102E-2],"split_indices":[5,6,3,0,0,0,0],"split_type":[0,0,0,0,0,0,0],"sum_hessian":[2.4088814E2,4.6218505E0,2.3626628E2,5.847392E-1,4.0371113E0,1.8929286E2,4.6973427E1],"tree_param":{"num_deleted":"0","num_feature":"10","num_nodes":"7","size_leaf_vector":"0"}},{"base_weights":[3.002967E-2,-7.338105E-2,2.0475222E-1,-3.697666E-1,1.6210742E-1,-1.3263567E-1,5.0305206E-1],"categories":[],"categories_nodes":[],"categories_segments":[],"categories_sizes":[],"default_left":[1,1,1,0,0,0,0],"id":84,"left_children":[1,3,5,-1,-1,-1,-1],"loss_changes":[4.452187E0,1.0878787E1,9.282649E0,0E0,0E0,0E0,0E0],"parents":[2147483647,0,0,1,1,2,2],"right_children":[2,4,6,-1,-1,-1,-1],"split_conditions":[3.3034382E0,3.857751E3,3.359099E0,-7.395332E-2,3.2421485E-2,-2.6527135E-2,1.0061041E-1],"split_indices":[9,4,7,0,0,0,0],"split_type":[0,0,0,0,0,0,0],"sum_hessian":[2.4457874E2,1.5400804E2,9.057069E1,6.793496E1,8.607308E1,4.2761383E1,4.7809307E1],"tree_param":{"num_deleted":"0","num_feature":"10","num_nodes":"7","size_leaf_vector":"0"}},{"base_weights":[-8.8956375E-3,7.42548E-1,-3.590812E-2,2.7015742E-2,1.3231965E0,2.4059854E-1,-1.1583495E-1],"categories":[],"categories_nodes":[],"categories_segments":[],"categories_sizes":[],"default_left":[1,1,1,0,0,0,0],"id":85,"left_children":[1,3,5,-1,-1,-1,-1],"loss_changes":[4.9911337E0,3.5094395E0,5.266571E0,0E0,0E0,0E0,0E0],"parents":[2147483647,0,0,1,1,2,2],"right_children":[2,4,6,-1,-1,-1,-1],"split_conditions":[7.102201E2,3.3897176E0,4.1346586E4,5.4031485E-3,2.6463932E-1,4.811971E-2,-2.316699E-2],"split_indices":[4,7,5,0,0,0,0],"split_type":[0,0,0,0,0,0,0],"sum_hessian":[2.4357495E2,7.532897E0,2.3604205E2,3.8433142E0,3.6895826E0,5.2479416E1,1.8356264E2],"tree_param":{"num_deleted":"0","num_feature":"10","num_nodes":"7","size_leaf_vector":"0"}},{"base_weights":[-7.657477E-3,-7.235876E-2,2.781264E-1,-4.398609E-1,-1.0368046E-2,3.9031327E-1,-6.80097E-1],"categories":[],"categories_nodes":[],"categories_segments":[],"categories_sizes":[],"default_left":[1,1,1,0,0,0,0],"id":86,"left_children":[1,3,5,-1,-1,-1,-1],"loss_changes":[4.5566506E0,4.571025E0,5.156476E0,0E0,0E0,0E0,0E0],"parents":[2147483647,0,0,1,1,2,2],"right_children":[2,4,6,-1,-1,-1,-1],"split_conditions":[3.8193445E0,1.5121709E3,7.1585026E0,-8.797219E-2,-2.0736093E-3,7.806265E-2,-1.360194E-1],"split_indices":[7,4,1,0,0,0,0],"split_type":[0,0,0,0,0,0,0],"sum_hessian":[2.443425E2,1.998446E2,4.4497883E1,2.7964703E1,1.7187991E2,4.036473E1,4.1331515E0],"tree_param":{"num_deleted":"0","num_feature":"10","num_nodes":"7","size_leaf_vector":"0"}},{"base_weights":[-1.7213315E-2,5.8620167E-1,-5.34151E-2,7.9958755E-1,-1.2241053E-1,-3.5426584E-1,1.6030362E-2],"categories":[],"categories_nodes":[],"categories_segments":[],"categories_sizes":[],"default_left":[1,1,1,0,0,0,0],"id":87,"left_children":[1,3,5,-1,-1,-1,-1],"loss_changes":[5.2932687E0,2.1720166E0,4.772627E0,0E0,0E0,0E0,0E0],"parents":[2147483647,0,0,1,1,2,2],"right_children":[2,4,6,-1,-1,-1,-1],"split_conditions":[2.6654434E4,1.4942161E3,2.5888262E0,1.5991752E-1,-2.4482107E-2,-7.085317E-2,3.2060724E-3],"split_indices":[5,2,9,0,0,0,0],"split_type":[0,0,0,0,0,0,0],"sum_hessian":[2.3988023E2,1.2717136E1,2.271631E2,9.675228E0,3.041908E0,4.1833065E1,1.8533003E2],"tree_param":{"num_deleted":"0","num_feature":"10","num_nodes":"7","size_leaf_vector":"0"}},{"base_weights":[5.5629127E-3,5.483598E-2,-4.8293585E-1,-2.1694E-2,4.034559E-1,-8.618942E-2,-1.2822034E0],"categories":[],"categories_nodes":[],"categories_segments":[],"categories_sizes":[],"default_left":[1,1,1,0,0,0,0],"id":88,"left_children":[1,3,5,-1,-1,-1,-1],"loss_changes":[5.9586997E0,6.005722E0,7.0826106E0,0E0,0E0,0E0,0E0],"parents":[2147483647,0,0,1,1,2,2],"right_children":[2,4,6,-1,-1,-1,-1],"split_conditions":[3.6150251E3,7.00369E3,3.231105E0,-4.3388004E-3,8.069118E-2,-1.7237885E-2,-2.564407E-1],"split_indices":[2,4,9,0,0,0,0],"split_type":[0,0,0,0,0,0,0],"sum_hessian":[2.4545863E2,2.2377501E2,2.1683615E1,1.8426291E2,3.951211E1,1.5230981E1,6.452633E0],"tree_param":{"num_deleted":"0","num_feature":"10","num_nodes":"7","size_leaf_vector":"0"}},{"base_weights":[2.2981688E-2,-2.5034284E-3,8.0901104E-1,1.4432249E-2,-1.6965768E0,-4.9565905E-1,9.630719E-1],"categories":[],"categories_nodes":[],"categories_segments":[],"categories_sizes":[],"default_left":[1,1,1,0,0,0,0],"id":89,"left_children":[1,3,5,-1,-1,-1,-1],"loss_changes":[4.926473E0,6.884482E0,2.0297022E0,0E0,0E0,0E0,0E0],"parents":[2147483647,0,0,1,1,2,2],"right_children":[2,4,6,-1,-1,-1,-1],"split_conditions":[1.4308192E4,1.3448709E4,5.0203766E2,2.8864497E-3,-3.3931538E-1,-9.9131815E-2,1.9261438E-1],"split_indices":[4,4,2,0,0,0,0],"split_type":[0,0,0,0,0,0,0],"sum_hessian":[2.4482843E2,2.3810526E2,6.723177E0,2.3673013E2,1.3751141E0,4.7587913E-1,6.247298E0],"tree_param":{"num_deleted":"0","num_feature":"10","num_nodes":"7","size_leaf_vector":"0"}},{"base_weights":[6.287385E-3,-1.14217065E-1,1.9629459E-1,3.3464815E-2,-3.3501866E-1,3.2505274E-1,-4.6262497E-1],"categories":[],"categories_nodes":[],"categories_segments":[],"categories_sizes":[],"default_left":[1,1,1,0,0,0,0],"id":90,"left_children":[1,3,5,-1,-1,-1,-1],"loss_changes":[5.7487555E0,5.0221095E0,8.41606E0,0E0,0E0,0E0,0E0],"parents":[2147483647,0,0,1,1,2,2],"right_children":[2,4,6,-1,-1,-1,-1],"split_conditions":[3.358768E0,5.886483E4,1.5046106E5,6.692963E-3,-6.7003734E-2,6.501055E-2,-9.2525E-2],"split_indices":[7,5,5,0,0,0,0],"split_type":[0,0,0,0,0,0,0],"sum_hessian":[2.4909421E2,1.5266895E2,9.642528E1,9.1990234E1,6.06787E1,8.108693E1,1.53383465E1],"tree_param":{"num_deleted":"0","num_feature":"10","num_nodes":"7","size_leaf_vector":"0"}},{"base_weights":[-1.1957226E-2,1.7440864E-1,-1.0916647E-1,-7.568424E-2,4.3196702E-1,-3.542307E-1,2.0336471E-2],"categories":[],"categories_nodes":[],"categories_segments":[],"categories_sizes":[],"default_left":[1,1,1,0,0,0,0],"id":91,"left_children":[1,3,5,-1,-1,-1,-1],"loss_changes":[4.4872103E0,5.503422E0,5.1708736E0,0E0,0E0,0E0,0E0],"parents":[2147483647,0,0,1,1,2,2],"right_children":[2,4,6,-1,-1,-1,-1],"split_conditions":[4.9403734E4,2.7331872E0,3.436602E3,-1.5136848E-2,8.639341E-2,-7.084614E-2,4.0672943E-3],"split_indices":[5,9,4,0,0,0,0],"split_type":[0,0,0,0,0,0,0],"sum_hessian":[2.456356E2,8.393138E1,1.6170422E2,4.29411E1,4.0990284E1,5.5307686E1,1.0639653E2],"tree_param":{"num_deleted":"0","num_feature":"10","num_nodes":"7","size_leaf_vector":"0"}},{"base_weights":[3.418424E-2,-1.6482164E-1,1.0772155E-1,-3.465725E-1,5.0413686E-1,-8.5413224E-1,1.2823851E-1],"categories":[],"categories_nodes":[],"categories_segments":[],"categories_sizes":[],"default_left":[1,1,1,0,0,0,0],"id":92,"left_children":[1,3,5,-1,-1,-1,-1],"loss_changes":[3.5207388E0,8.075358E0,3.570657E0,0E0,0E0,0E0,0E0],"parents":[2147483647,0,0,1,1,2,2],"right_children":[2,4,6,-1,-1,-1,-1],"split_conditions":[2.270939E3,2.326841E3,4.015876E2,-6.93145E-2,1.0082737E-1,-1.7082645E-1,2.5647704E-2],"split_indices":[4,6,2,0,0,0,0],"split_type":[0,0,0,0,0,0,0],"sum_hessian":[2.383671E2,6.398102E1,1.7438608E2,5.069068E1,1.3290343E1,2.7935047E0,1.7159258E2],"tree_param":{"num_deleted":"0","num_feature":"10","num_nodes":"7","size_leaf_vector":"0"}},{"base_weights":[-4.5507703E-2,-1.677954E-1,1.4071281E-1,-1.025564E-1,-1.2696543E0,4.4428366E-1,-2.0801233E-1],"categories":[],"categories_nodes":[],"categories_segments":[],"categories_sizes":[],"default_left":[1,1,1,0,0,0,0],"id":93,"left_children":[1,3,5,-1,-1,-1,-1],"loss_changes":[5.525178E0,1.0385203E1,1.0287602E1,0E0,0E0,0E0,0E0],"parents":[2147483647,0,0,1,1,2,2],"right_children":[2,4,6,-1,-1,-1,-1],"split_conditions":[3.2848148E0,3.2320552E0,9.245859E4,-2.051128E-2,-2.5393087E-1,8.8856734E-2,-4.1602466E-2],"split_indices":[9,9,5,0,0,0,0],"split_type":[0,0,0,0,0,0,0],"sum_hessian":[2.4058841E2,1.4528276E2,9.530566E1,1.3819365E2,7.0891104E0,5.0805035E1,4.4500626E1],"tree_param":{"num_deleted":"0","num_feature":"10","num_nodes":"7","size_leaf_vector":"0"}},{"base_weights":[-2.4789874E-2,7.143253E-2,-1.9962955E-1,-4.9908087E-2,3.311088E-1,-1.7961296E0,-1.3448314E-1],"categories":[],"categories_nodes":[],"categories_segments":[],"categories_sizes":[],"default_left":[1,1,1,0,0,0,0],"id":94,"left_children":[1,3,5,-1,-1,-1,-1],"loss_changes":[4.1375513E0,5.0209723E0,8.834736E0,0E0,0E0,0E0,0E0],"parents":[2147483647,0,0,1,1,2,2],"right_children":[2,4,6,-1,-1,-1,-1],"split_conditions":[4.5087375E-2,2.5739403E1,2.4451178E-1,-9.981617E-3,6.6221766E-2,-3.5922593E-1,-2.689663E-2],"split_indices":[0,3,1,0,0,0,0],"split_type":[0,0,0,0,0,0,0],"sum_hessian":[2.4409128E2,1.5782454E2,8.626674E1,1.08113464E2,4.9711067E1,2.3404405E0,8.39263E1],"tree_param":{"num_deleted":"0","num_feature":"10","num_nodes":"7","size_leaf_vector":"0"}},{"base_weights":[-1.5346372E-2,-8.6728826E-2,2.7685997E-1,-3.842056E-2,-5.926325E-1,-1.6153647E-1,5.622494E-1],"categories":[],"categories_nodes":[],"categories_segments":[],"categories_sizes":[],"default_left":[1,1,1,0,0,0,0],"id":95,"left_children":[1,3,5,-1,-1,-1,-1],"loss_changes":[5.0371428E0,4.716431E0,6.0242267E0,0E0,0E0,0E0,0E0],"parents":[2147483647,0,0,1,1,2,2],"right_children":[2,4,6,-1,-1,-1,-1],"split_conditions":[3.6930647E0,3.539557E0,3.2497296E0,-7.6841125E-3,-1.18526496E-1,-3.2307293E-2,1.12449884E-1],"split_indices":[9,9,7,0,0,0,0],"split_type":[0,0,0,0,0,0,0],"sum_hessian":[2.3934106E2,1.9291698E2,4.6424076E1,1.7708339E2,1.5833582E1,1.8476177E1,2.79479E1],"tree_param":{"num_deleted":"0","num_feature":"10","num_nodes":"7","size_leaf_vector":"0"}},{"base_weights":[-1.9818945E-2,2.288979E-1,-9.2218734E-2,-1.8895162E-2,5.7440066E-1,-5.914967E-1,-1.99205E-2],"categories":[],"categories_nodes":[],"categories_segments":[],"categories_sizes":[],"default_left":[1,1,1,0,0,0,0],"id":96,"left_children":[1,3,5,-1,-1,-1,-1],"loss_changes":[4.3315516E0,4.655999E0,6.7065015E0,0E0,0E0,0E0,0E0],"parents":[2147483647,0,0,1,1,2,2],"right_children":[2,4,6,-1,-1,-1,-1],"split_conditions":[4.13345E4,2.768898E0,2.5298128E0,-3.7790325E-3,1.1488014E-1,-1.1829934E-1,-3.9841E-3],"split_indices":[5,7,9,0,0,0,0],"split_type":[0,0,0,0,0,0,0],"sum_hessian":[2.3837534E2,5.325737E1,1.8511797E2,3.156465E1,2.1692719E1,2.2507069E1,1.626109E2],"tree_param":{"num_deleted":"0","num_feature":"10","num_nodes":"7","size_leaf_vector":"0"}},{"base_weights":[3.0551093E-2,-2.8336665E-1,9.1509886E-2,-5.6642014E-1,3.1264937E-1,5.629017E-1,4.862147E-2],"categories":[],"categories_nodes":[],"categories_segments":[],"categories_sizes":[],"default_left":[1,1,1,0,0,0,0],"id":97,"left_children":[1,3,5,-1,-1,-1,-1],"loss_changes":[4.6832075E0,6.8948593E0,4.108219E0,0E0,0E0,0E0,0E0],"parents":[2147483647,0,0,1,1,2,2],"right_children":[2,4,6,-1,-1,-1,-1],"split_conditions":[1.6015358E3,2.0102817E3,3.195992E4,-1.1328403E-1,6.252988E-2,1.1258034E-1,9.724294E-3],"split_indices":[4,6,5,0,0,0,0],"split_type":[0,0,0,0,0,0,0],"sum_hessian":[2.4237718E2,3.8819744E1,2.0355743E2,2.6353758E1,1.2465987E1,1.5964531E1,1.875929E2],"tree_param":{"num_deleted":"0","num_feature":"10","num_nodes":"7","size_leaf_vector":"0"}},{"base_weights":[3.0112948E-2,-4.8410506E-3,4.3087757E-1,2.9954052E-2,-6.2874997E-1,6.952095E-1,6.739799E-4],"categories":[],"categories_nodes":[],"categories_segments":[],"categories_sizes":[],"default_left":[1,1,1,0,0,0,0],"id":98,"left_children":[1,3,5,-1,-1,-1,-1],"loss_changes":[3.2575045E0,4.68057E0,2.1207912E0,0E0,0E0,0E0,0E0],"parents":[2147483647,0,0,1,1,2,2],"right_children":[2,4,6,-1,-1,-1,-1],"split_conditions":[2.4542993E2,1.4764511E2,8.925943E-2,5.99081E-3,-1.2574999E-1,1.390419E-1,1.3479599E-4],"split_indices":[3,3,0,0,0,0,0],"split_type":[0,0,0,0,0,0,0],"sum_hessian":[2.313917E2,2.1373776E2,1.765392E1,2.0334908E2,1.0388692E1,1.055349E1,7.1004295E0],"tree_param":{"num_deleted":"0","num_feature":"10","num_nodes":"7","size_leaf_vector":"0"}},{"base_weights":[-3.34048E-2,-9.031254E-1,-1.0647987E-2,-1.4381577E-1,-1.2658112E0,7.2161615E-2,-2.3639452E-1],"categories":[],"categories_nodes":[],"categories_segments":[],"categories_sizes":[],"default_left":[1,1,1,0,0,0,0],"id":99,"left_children":[1,3,5,-1,-1,-1,-1],"loss_changes":[4.6589913E0,1.4710503E0,4.3331256E0,0E0,0E0,0E0,0E0],"parents":[2147483647,0,0,1,1,2,2],"right_children":[2,4,6,-1,-1,-1,-1],"split_conditions":[3.6710178E2,3.6468077E0,9.2379555E4,-2.8763155E-2,-2.5316224E-1,1.4432323E-2,-4.7278907E-2],"split_indices":[2,3,5,0,0,0,0],"split_type":[0,0,0,0,0,0,0],"sum_hessian":[2.3488274E2,5.0027204E0,2.2988002E2,2.068562E0,2.9341583E0,1.6868309E2,6.119693E1],"tree_param":{"num_deleted":"0","num_feature":"10","num_nodes":"7","size_leaf_vector":"0"}},{"base_weights":[7.766019E-3,-4.8774373E-2,2.8079516E-1,-1.3570915E-1,1.9158268E-1,3.8390103E-1,-8.6038625E-1],"categories":[],"categories_nodes":[],"categories_segments":[],"categories_sizes":[],"default_left":[1,1,1,0,0,0,0],"id":100,"left_children":[1,3,5,-1,-1,-1,-1],"loss_changes":[3.706391E0,4.1846385E0,5.176363E0,0E0,0E0,0E0,0E0],"parents":[2147483647,0,0,1,1,2,2],"right_children":[2,4,6,-1,-1,-1,-1],"split_conditions":[3.8776703E0,7.003835E3,4.7056847E0,-2.714183E-2,3.8316537E-2,7.678021E-2,-1.7207725E-1],"split_indices":[7,4,7,0,0,0,0],"split_type":[0,0,0,0,0,0,0],"sum_hessian":[2.3820798E2,1.9802187E2,4.0186108E1,1.4574333E2,5.227854E1,3.746476E1,2.7213514E0],"tree_param":{"num_deleted":"0","num_feature":"10","num_nodes":"7","size_leaf_vector":"0"}},{"base_weights":[3.3399712E-2,-7.9870585E-4,8.9550364E-1,-2.4732617E-1,6.582122E-2,-2.3911847E-1,9.9361503E-1],"categories":[],"categories_nodes":[],"categories_segments":[],"categories_sizes":[],"default_left":[1,1,1,0,0,0,0],"id":101,"left_children":[1,3,5,-1,-1,-1,-1],"loss_changes":[7.040785E0,3.804811E0,1.2519131E0,0E0,0E0,0E0,0E0],"parents":[2147483647,0,0,1,1,2,2],"right_children":[2,4,6,-1,-1,-1,-1],"split_conditions":[1.37215E4,2.6035466E0,5.827921E2,-4.9465235E-2,1.3164245E-2,-4.7823694E-2,1.98723E-1],"split_indices":[4,7,2,0,0,0,0],"split_type":[0,0,0,0,0,0,0],"sum_hessian":[2.3778731E2,2.2967548E2,8.111821E0,4.8284794E1,1.8139069E2,5.3122187E-1,7.5806E0],"tree_param":{"num_deleted":"0","num_feature":"10","num_nodes":"7","size_leaf_vector":"0"}},{"base_weights":[-5.892433E-2,5.410325E-1,-9.1604926E-2,8.8704205E-1,2.946744E-2,-3.841126E-1,-2.8750299E-2],"categories":[],"categories_nodes":[],"categories_segments":[],"categories_sizes":[],"default_left":[1,1,1,0,0,0,0],"id":102,"left_children":[1,3,5,-1,-1,-1,-1],"loss_changes":[4.7126966E0,2.1741548E0,4.1514277E0,0E0,0E0,0E0,0E0],"parents":[2147483647,0,0,1,1,2,2],"right_children":[2,4,6,-1,-1,-1,-1],"split_conditions":[2.2099671E0,2.6763787E0,2.5888262E0,1.7740841E-1,5.893488E-3,-7.682252E-2,-5.7500596E-3],"split_indices":[9,7,9,0,0,0,0],"split_type":[0,0,0,0,0,0,0],"sum_hessian":[2.3683075E2,1.143059E1,2.2540016E2,6.3808017E0,5.049788E0,3.8963573E1,1.8643658E2],"tree_param":{"num_deleted":"0","num_feature":"10","num_nodes":"7","size_leaf_vector":"0"}},{"base_weights":[-4.0011737E-3,-2.135449E-2,8.7953067E-1,9.7408695E-3,-6.274871E-1,-1.0088466E-2,8.8363785E-1],"categories":[],"categories_nodes":[],"categories_segments":[],"categories_sizes":[],"default_left":[1,1,1,0,0,1,1],"id":103,"left_children":[1,3,-1,-1,-1,-1,-1],"loss_changes":[3.7042382E0,4.467783E0,2.5919676E-2,0E0,0E0,0E0,0E0],"parents":[2147483647,0,0,1,1,2,2],"right_children":[2,4,-1,-1,-1,-1,-1],"split_conditions":[8.888884E0,7.5161047E0,1.7590614E-1,1.948174E-3,-1.2549743E-1,-2.0176934E-3,1.7672758E-1],"split_indices":[1,1,2,0,0,2147483647,2147483647],"split_type":[0,0,0,0,0,0,0],"sum_hessian":[2.3937349E2,2.3571959E2,3.6539025E0,2.251529E2,1.0566694E1,1.009922E-2,3.6438034E0],"tree_param":{"num_deleted":"2","num_feature":"10","num_nodes":"7","size_leaf_vector":"0"}},{"base_weights":[2.0562502E-2,3.1141096E-1,-3.7815765E-2,-5.215192E-1,4.394112E-1,-4.064657E-1,6.2288173E-2],"categories":[],"categories_nodes":[],"categories_segments":[],"categories_sizes":[],"default_left":[1,1,1,0,0,0,0],"id":104,"left_children":[1,3,5,-1,-1,-1,-1],"loss_changes":[3.9238718E0,4.347042E0,7.1395745E0,0E0,0E0,0E0,0E0],"parents":[2147483647,0,0,1,1,2,2],"right_children":[2,4,6,-1,-1,-1,-1],"split_conditions":[3.7213445E4,6.80155E2,2.270939E3,-1.0430384E-1,8.788224E-2,-8.129314E-2,1.2457634E-2],"split_indices":[5,6,4,0,0,0,0],"split_type":[0,0,0,0,0,0,0],"sum_hessian":[2.2940475E2,3.762375E1,1.91781E2,4.6021333E0,3.3021618E1,4.0301903E1,1.5147911E2],"tree_param":{"num_deleted":"0","num_feature":"10","num_nodes":"7","size_leaf_vector":"0"}},{"base_weights":[-2.6579624E-2,8.8136934E-2,-1.7221503E-1,-1.8077189E-1,3.7009254E-1,7.770313E-1,-2.1160442E-1],"categories":[],"categories_nodes":[],"categories_segments":[],"categories_sizes":[],"default_left":[1,1,1,0,0,0,0],"id":105,"left_children":[1,3,5,-1,-1,-1,-1],"loss_changes":[3.9737482E0,1.0166384E1,4.08071E0,0E0,0E0,0E0,0E0],"parents":[2147483647,0,0,1,1,2,2],"right_children":[2,4,6,-1,-1,-1,-1],"split_conditions":[6.947161E4,2.9206407E0,2.425477E0,-3.615438E-2,7.401851E-2,1.5540627E-1,-4.2320885E-2],"split_indices":[5,7,9,0,0,0,0],"split_type":[0,0,0,0,0,0,0],"sum_hessian":[2.3594371E2,1.3220279E2,1.0374092E2,6.785064E1,6.435216E1,3.3871412E0,1.0035378E2],"tree_param":{"num_deleted":"0","num_feature":"10","num_nodes":"7","size_leaf_vector":"0"}},{"base_weights":[9.0101935E-2,-2.9367868E-2,2.5068808E-1,-3.6101493E-1,2.0403567E-1,-3.4388095E-1,3.8417128E-1],"categories":[],"categories_nodes":[],"categories_segments":[],"categories_sizes":[],"default_left":[1,1,1,0,0,0,0],"id":106,"left_children":[1,3,5,-1,-1,-1,-1],"loss_changes":[4.5637827E0,1.06845E1,8.181242E0,0E0,0E0,0E0,0E0],"parents":[2147483647,0,0,1,1,2,2],"right_children":[2,4,6,-1,-1,-1,-1],"split_conditions":[4.579363E3,3.0548902E0,3.157219E-1,-7.220299E-2,4.0807135E-2,-6.877619E-2,7.6834254E-2],"split_indices":[4,9,1,0,0,0,0],"split_type":[0,0,0,0,0,0,0],"sum_hessian":[2.364967E2,1.360775E2,1.0041921E2,5.598323E1,8.009427E1,1.8122162E1,8.229705E1],"tree_param":{"num_deleted":"0","num_feature":"10","num_nodes":"7","size_leaf_vector":"0"}},{"base_weights":[4.4738386E-2,-7.145427E-2,2.3797418E-1,-3.1033424E-1,9.148617E-2,4.691313E-1,-1.1145902E-1],"categories":[],"categories_nodes":[],"categories_segments":[],"categories_sizes":[],"default_left":[1,1,1,0,0,0,0],"id":107,"left_children":[1,3,5,-1,-1,-1,-1],"loss_changes":[5.248068E0,5.721498E0,7.1375933E0,0E0,0E0,0E0,0E0],"parents":[2147483647,0,0,1,1,2,2],"right_children":[2,4,6,-1,-1,-1,-1],"split_conditions":[3.3051004E0,3.4420654E3,2.5764866E0,-6.206685E-2,1.8297235E-2,9.382626E-2,-2.2291804E-2],"split_indices":[9,4,1,0,0,0,0],"split_type":[0,0,0,0,0,0,0],"sum_hessian":[2.3198274E2,1.4526509E2,8.671766E1,5.8538998E1,8.672609E1,5.1985588E1,3.4732067E1],"tree_param":{"num_deleted":"0","num_feature":"10","num_nodes":"7","size_leaf_vector":"0"}},{"base_weights":[2.3523998E-2,6.937123E-1,-1.1097956E-3,8.891076E-1,-4.6222425E-1,-5.493673E-1,2.5996275E-2],"categories":[],"categories_nodes":[],"categories_segments":[],"categories_sizes":[],"default_left":[1,1,1,0,0,0,0],"id":108,"left_children":[1,3,5,-1,-1,-1,-1],"loss_changes":[3.7739E0,2.241448E0,3.30515E0,0E0,0E0,0E0,0E0],"parents":[2147483647,0,0,1,1,2,2],"right_children":[2,4,6,-1,-1,-1,-1],"split_conditions":[2.393559E4,3.793227E-1,4.763044E-2,1.7782152E-1,-9.244485E-2,-1.09873466E-1,5.199255E-3],"split_indices":[5,0,1,0,0,0,0],"split_type":[0,0,0,0,0,0,0],"sum_hessian":[2.2754602E2,7.1043267E0,2.204417E2,6.2745357E0,8.29791E-1,9.477567E0,2.1096413E2],"tree_param":{"num_deleted":"0","num_feature":"10","num_nodes":"7","size_leaf_vector":"0"}},{"base_weights":[3.486071E-2,6.358996E-1,1.0399768E-2,7.8764755E-1,-4.7998193E-1,-6.354328E-1,3.7250794E-2],"categories":[],"categories_nodes":[],"categories_segments":[],"categories_sizes":[],"default_left":[0,1,0,0,0,0,0],"id":109,"left_children":[1,3,5,-1,-1,-1,-1],"loss_changes":[3.4044752E0,1.9116411E0,3.907402E0,0E0,0E0,0E0,0E0],"parents":[2147483647,0,0,1,1,2,2],"right_children":[2,4,6,-1,-1,-1,-1],"split_conditions":[6.81889E-2,1.6890997E-1,1.4679864E-1,1.5752952E-1,-9.599639E-2,-1.2708656E-1,7.450159E-3],"split_indices":[8,0,8,0,0,0,0],"split_type":[0,0,0,0,0,0,0],"sum_hessian":[2.310156E2,8.05663E0,2.2295897E2,7.351106E0,7.0552415E-1,7.9949856E0,2.1496399E2],"tree_param":{"num_deleted":"0","num_feature":"10","num_nodes":"7","size_leaf_vector":"0"}},{"base_weights":[-4.2885214E-2,8.952604E-1,-6.7321606E-2,1.0717651E0,-5.2568364E-1,-1.6444361E-1,1.0271948E-1],"categories":[],"categories_nodes":[],"categories_segments":[],"categories_sizes":[],"default_left":[1,1,1,0,0,0,0],"id":110,"left_children":[1,3,5,-1,-1,-1,-1],"loss_changes":[5.4522038E0,2.0784602E0,3.8179083E0,0E0,0E0,0E0,0E0],"parents":[2147483647,0,0,1,1,2,2],"right_children":[2,4,6,-1,-1,-1,-1],"split_conditions":[6.2396716E2,6.3509507E0,3.304276E0,2.1435301E-1,-1.0513673E-1,-3.288872E-2,2.0543896E-2],"split_indices":[4,1,9,0,0,0,0],"split_type":[0,0,0,0,0,0,0],"sum_hessian":[2.3419995E2,5.0407934E0,2.2915915E2,4.7024136E0,3.3837992E-1,1.4587369E2,8.328546E1],"tree_param":{"num_deleted":"0","num_feature":"10","num_nodes":"7","size_leaf_vector":"0"}},{"base_weights":[-4.89114E-2,3.4200862E-1,-9.517238E-2,-1.7818963E-2,8.5448736E-1,-1.7508026E0,-8.348089E-2],"categories":[],"categories_nodes":[],"categories_segments":[],"categories_sizes":[],"default_left":[1,0,1,0,0,0,0],"id":111,"left_children":[1,3,5,-1,-1,-1,-1],"loss_changes":[4.316964E0,4.67825E0,3.9695973E0,0E0,0E0,0E0,0E0],"parents":[2147483647,0,0,1,1,2,2],"right_children":[2,4,6,-1,-1,-1,-1],"split_conditions":[3.189667E4,1.3888199E0,3.2035371E4,-3.5637927E-3,1.7089747E-1,-3.5016054E-1,-1.6696177E-2],"split_indices":[5,8,5,0,0,0,0],"split_type":[0,0,0,0,0,0,0],"sum_hessian":[2.3591287E2,2.4287E1,2.1162589E2,1.48356495E1,9.45135E0,4.4089398E-1,2.1118498E2],"tree_param":{"num_deleted":"0","num_feature":"10","num_nodes":"7","size_leaf_vector":"0"}},{"base_weights":[2.93215E-2,6.1373305E-1,-2.5401588E-3,2.3024587E-1,1.0942417E0,-5.648024E-2,3.2104772E-1],"categories":[],"categories_nodes":[],"categories_segments":[],"categories_sizes":[],"default_left":[0,1,1,0,0,0,0],"id":112,"left_children":[1,3,5,-1,-1,-1,-1],"loss_changes":[4.34258E0,1.969832E0,3.8943315E0,0E0,0E0,0E0,0E0],"parents":[2147483647,0,0,1,1,2,2],"right_children":[2,4,6,-1,-1,-1,-1],"split_conditions":[1.08502075E-1,3.2708907E0,3.9786234E0,4.6049174E-2,2.1884835E-1,-1.1296048E-2,6.420954E-2],"split_indices":[8,9,7,0,0,0,0],"split_type":[0,0,0,0,0,0,0],"sum_hessian":[2.3213351E2,1.1057251E1,2.2107626E2,6.972093E0,4.085158E0,1.9019705E2,3.0879206E1],"tree_param":{"num_deleted":"0","num_feature":"10","num_nodes":"7","size_leaf_vector":"0"}},{"base_weights":[1.8253732E-2,-3.9991863E-2,2.4671197E-1,-3.2589552E-1,7.454733E-2,-7.3909396E-1,3.4243137E-1],"categories":[],"categories_nodes":[],"categories_segments":[],"categories_sizes":[],"default_left":[1,1,1,0,0,0,0],"id":113,"left_children":[1,3,5,-1,-1,-1,-1],"loss_changes":[3.1279485E0,6.1670284E0,4.7582397E0,0E0,0E0,0E0,0E0],"parents":[2147483647,0,0,1,1,2,2],"right_children":[2,4,6,-1,-1,-1,-1],"split_conditions":[7.4617607E3,2.792579E0,5.9455525E-2,-6.51791E-2,1.4909466E-2,-1.4781879E-1,6.848627E-2],"split_indices":[4,7,1,0,0,0,0],"split_type":[0,0,0,0,0,0,0],"sum_hessian":[2.3332446E2,1.8658057E2,4.6743904E1,5.2840076E1,1.337405E2,3.5421488E0,4.3201756E1],"tree_param":{"num_deleted":"0","num_feature":"10","num_nodes":"7","size_leaf_vector":"0"}},{"base_weights":[-3.6990647E-3,1.4530249E-1,-1.9965379E-1,-7.185153E-2,3.5516977E-1,7.470722E-1,-2.586388E-1],"categories":[],"categories_nodes":[],"categories_segments":[],"categories_sizes":[],"default_left":[1,1,1,0,0,0,0],"id":114,"left_children":[1,3,5,-1,-1,-1,-1],"loss_changes":[6.794165E0,6.0502977E0,5.8056126E0,0E0,0E0,0E0,0E0],"parents":[2147483647,0,0,1,1,2,2],"right_children":[2,4,6,-1,-1,-1,-1],"split_conditions":[7.0427625E4,2.8295565E0,6.0570813E-3,-1.4370306E-2,7.1033955E-2,1.4941445E-1,-5.172776E-2],"split_indices":[5,7,0,0,0,0,0],"split_type":[0,0,0,0,0,0,0],"sum_hessian":[2.3070277E2,1.311991E2,9.950368E1,6.480335E1,6.639574E1,5.151716E0,9.435196E1],"tree_param":{"num_deleted":"0","num_feature":"10","num_nodes":"7","size_leaf_vector":"0"}},{"base_weights":[-2.2529976E-2,5.967382E-2,-2.5720084E-1,9.988038E-3,5.619263E-1,4.885496E-2,-5.843127E-1],"categories":[],"categories_nodes":[],"categories_segments":[],"categories_sizes":[],"default_left":[1,1,0,0,0,0,0],"id":115,"left_children":[1,3,5,-1,-1,-1,-1],"loss_changes":[4.5345235E0,4.3441057E0,6.131684E0,0E0,0E0,0E0,0E0],"parents":[2147483647,0,0,1,1,2,2],"right_children":[2,4,6,-1,-1,-1,-1],"split_conditions":[9.3572E4,2.2673212E2,1.2189963E0,1.9976075E-3,1.12385266E-1,9.770992E-3,-1.16862535E-1],"split_indices":[5,3,8,0,0,0,0],"split_type":[0,0,0,0,0,0,0],"sum_hessian":[2.3326541E2,1.7330383E2,5.996158E1,1.58631E2,1.4672829E1,3.1417273E1,2.8544308E1],"tree_param":{"num_deleted":"0","num_feature":"10","num_nodes":"7","size_leaf_vector":"0"}},{"base_weights":[1.008665E-3,2.829871E-1,-5.841867E-2,1.4267205E-1,9.624105E-1,-5.8484954E-1,2.4479255E-2],"categories":[],"categories_nodes":[],"categories_segments":[],"categories_sizes":[],"default_left":[1,1,1,0,0,0,0],"id":116,"left_children":[1,3,5,-1,-1,-1,-1],"loss_changes":[3.989848E0,3.813699E0,8.596847E0,0E0,0E0,0E0,0E0],"parents":[2147483647,0,0,1,1,2,2],"right_children":[2,4,6,-1,-1,-1,-1],"split_conditions":[3.7198875E4,4.269742E3,2.5302258E0,2.853441E-2,1.924821E-1,-1.16969906E-1,4.895851E-3],"split_indices":[5,4,9,0,0,0,0],"split_type":[0,0,0,0,0,0,0],"sum_hessian":[2.361106E2,4.044414E1,1.9566646E2,3.4524174E1,5.919969E0,2.579624E1,1.6987021E2],"tree_param":{"num_deleted":"0","num_feature":"10","num_nodes":"7","size_leaf_vector":"0"}},{"base_weights":[-1.0987357E-2,-7.4200235E-2,2.2978903E-1,-5.746915E-2,-1.7783362E0,5.138839E-1,-2.761806E-1],"categories":[],"categories_nodes":[],"categories_segments":[],"categories_sizes":[],"default_left":[1,1,1,0,0,0,0],"id":117,"left_children":[1,3,5,-1,-1,-1,-1],"loss_changes":[3.493322E0,5.0773163E0,7.004003E0,0E0,0E0,0E0,0E0],"parents":[2147483647,0,0,1,1,2,2],"right_children":[2,4,6,-1,-1,-1,-1],"split_conditions":[7.3063438E3,7.2587104E3,1.2101889E5,-1.149383E-2,-3.5566723E-1,1.0277678E-1,-5.523612E-2],"split_indices":[4,4,5,0,0,0,0],"split_type":[0,0,0,0,0,0,0],"sum_hessian":[2.2739902E2,1.8066063E2,4.673839E1,1.7992783E2,7.327953E-1,2.9921978E1,1.6816414E1],"tree_param":{"num_deleted":"0","num_feature":"10","num_nodes":"7","size_leaf_vector":"0"}},{"base_weights":[9.722388E-3,8.255638E-1,-7.4891686E-3,1.2672533E-1,9.101107E-1,-1.8814336E-1,8.650373E-2],"categories":[],"categories_nodes":[],"categories_segments":[],"categories_sizes":[],"default_left":[1,1,1,1,1,0,0],"id":118,"left_children":[1,-1,5,-1,-1,-1,-1],"loss_changes":[3.2131658E0,1.6399717E-1,3.8310325E0,0E0,0E0,0E0,0E0],"parents":[2147483647,0,0,1,1,2,2],"right_children":[2,-1,6,-1,-1,-1,-1],"split_conditions":[2.0430184E4,1.6511276E-1,2.8207192E3,2.5345067E-2,1.8202214E-1,-3.7628673E-2,1.7300745E-2],"split_indices":[5,6,4,2147483647,2147483647,0,0],"split_type":[0,0,0,0,0,0,0],"sum_hessian":[2.2738667E2,3.727646E0,2.2365903E2,6.7199785E-1,3.055648E0,7.620037E1,1.4745866E2],"tree_param":{"num_deleted":"2","num_feature":"10","num_nodes":"7","size_leaf_vector":"0"}},{"base_weights":[2.6711076E-2,-7.7979695E-3,4.243877E-1,2.747947E-2,-5.3707904E-1,-6.3698334E-1,5.4795486E-1],"categories":[],"categories_nodes":[],"categories_segments":[],"categories_sizes":[],"default_left":[1,1,1,0,0,0,0],"id":119,"left_children":[1,3,5,-1,-1,-1,-1],"loss_changes":[3.123932E0,3.9398954E0,2.7326891E0,0E0,0E0,0E0,0E0],"parents":[2147483647,0,0,1,1,2,2],"right_children":[2,4,6,-1,-1,-1,-1],"split_conditions":[4.3268545E3,2.9365452E3,5.9455525E-2,5.4958942E-3,-1.0741581E-1,-1.2739667E-1,1.0959097E-1],"split_indices":[6,2,1,0,0,0,0],"split_type":[0,0,0,0,0,0,0],"sum_hessian":[2.2639362E2,2.0921872E2,1.717491E1,1.9703415E2,1.2184564E1,1.3577408E0,1.5817168E1],"tree_param":{"num_deleted":"0","num_feature":"10","num_nodes":"7","size_leaf_vector":"0"}},{"base_weights":[1.5667481E-2,2.1030334E-1,-9.0790816E-2,1.1210554E-1,1.1024046E0,-8.300208E-1,-5.0138146E-2],"categories":[],"categories_nodes":[],"categories_segments":[],"categories_sizes":[],"default_left":[1,1,1,0,0,0,0],"id":120,"left_children":[1,3,5,-1,-1,-1,-1],"loss_changes":[4.7608852E0,6.9909844E0,4.4249625E0,0E0,0E0,0E0,0E0],"parents":[2147483647,0,0,1,1,2,2],"right_children":[2,4,6,-1,-1,-1,-1],"split_conditions":[2.6372127E-2,2.3699346E0,2.9055598E-1,2.2421109E-2,2.2048092E-1,-1.6600417E-1,-1.0027629E-2],"split_indices":[0,1,1,0,0,0,0],"split_type":[0,0,0,0,0,0,0],"sum_hessian":[2.278443E2,8.021435E1,1.4762996E2,7.327435E1,6.9399896E0,6.6832914E0,1.4094667E2],"tree_param":{"num_deleted":"0","num_feature":"10","num_nodes":"7","size_leaf_vector":"0"}},{"base_weights":[1.294999E-2,1.4063792E-1,-1.06055334E-1,2.6620924E-1,-2.0797242E-1,6.779356E-1,-1.4361756E-1],"categories":[],"categories_nodes":[],"categories_segments":[],"categories_sizes":[],"default_left":[1,1,1,0,0,0,0],"id":121,"left_children":[1,3,5,-1,-1,-1,-1],"loss_changes":[3.5379794E0,4.9702153E0,3.6480932E0,0E0,0E0,0E0,0E0],"parents":[2147483647,0,0,1,1,2,2],"right_children":[2,4,6,-1,-1,-1,-1],"split_conditions":[6.3438645E4,1.7415615E3,6.0655624E-3,5.324185E-2,-4.1594487E-2,1.3558713E-1,-2.8723512E-2],"split_indices":[5,2,0,0,0,0,0],"split_type":[0,0,0,0,0,0,0],"sum_hessian":[2.3084851E2,1.112741E2,1.1957442E2,8.1980606E1,2.929349E1,4.687595E0,1.14886826E2],"tree_param":{"num_deleted":"0","num_feature":"10","num_nodes":"7","size_leaf_vector":"0"}},{"base_weights":[4.5009118E-2,-2.3426665E-2,3.1705236E-1,-6.56598E-2,7.009417E-1,6.085389E-1,-6.37598E-2],"categories":[],"categories_nodes":[],"categories_segments":[],"categories_sizes":[],"default_left":[1,0,0,0,0,0,0],"id":122,"left_children":[1,3,5,-1,-1,-1,-1],"loss_changes":[4.2479925E0,5.6420455E0,5.1283216E0,0E0,0E0,0E0,0E0],"parents":[2147483647,0,0,1,1,2,2],"right_children":[2,4,6,-1,-1,-1,-1],"split_conditions":[3.6882977E0,6.4212656E0,1.2985995E0,-1.313196E-2,1.4018834E-1,1.2170779E-1,-1.2751959E-2],"split_indices":[9,8,8,0,0,0,0],"split_type":[0,0,0,0,0,0,0],"sum_hessian":[2.2677316E2,1.8192229E2,4.4850872E1,1.7275919E2,9.163092E0,2.5066284E1,1.978459E1],"tree_param":{"num_deleted":"0","num_feature":"10","num_nodes":"7","size_leaf_vector":"0"}},{"base_weights":[-1.4629812E-3,1.4392631E-1,-9.638967E-2,-1.6503449E-1,3.0819774E-1,-2.7534956E-1,6.792464E-2],"categories":[],"categories_nodes":[],"categories_segments":[],"categories_sizes":[],"default_left":[1,1,1,0,0,0,0],"id":123,"left_children":[1,3,5,-1,-1,-1,-1],"loss_changes":[3.1318226E0,4.600399E0,4.055417E0,0E0,0E0,0E0,0E0],"parents":[2147483647,0,0,1,1,2,2],"right_children":[2,4,6,-1,-1,-1,-1],"split_conditions":[5.5011305E4,2.5888672E0,3.346775E0,-3.30069E-2,6.1639547E-2,-5.5069912E-2,1.3584929E-2],"split_indices":[5,9,7,0,0,0,0],"split_type":[0,0,0,0,0,0,0],"sum_hessian":[2.249167E2,8.863995E1,1.3627673E2,3.0767662E1,5.7872295E1,6.490783E1,7.136891E1],"tree_param":{"num_deleted":"0","num_feature":"10","num_nodes":"7","size_leaf_vector":"0"}},{"base_weights":[8.200976E-3,6.523667E-2,-3.087714E-1,-2.2455817E-1,1.5367912E-1,4.7061527E-1,-5.0433713E-1],"categories":[],"categories_nodes":[],"categories_segments":[],"categories_sizes":[],"default_left":[1,1,1,0,0,0,0],"id":124,"left_children":[1,3,5,-1,-1,-1,-1],"loss_changes":[4.1012893E0,4.9591656E0,5.5111094E0,0E0,0E0,0E0,0E0],"parents":[2147483647,0,0,1,1,2,2],"right_children":[2,4,6,-1,-1,-1,-1],"split_conditions":[2.2459834E0,2.1386743E3,8.232903E2,-4.4911634E-2,3.0735824E-2,9.412306E-2,-1.0086743E-1],"split_indices":[8,4,2,0,0,0,0],"split_type":[0,0,0,0,0,0,0],"sum_hessian":[2.2474281E2,1.9114294E2,3.359988E1,4.4334694E1,1.4680824E2,6.4576855E0,2.7142197E1],"tree_param":{"num_deleted":"0","num_feature":"10","num_nodes":"7","size_leaf_vector":"0"}},{"base_weights":[-3.5168026E-2,-2.43721E-1,6.1551135E-2,-6.323302E-1,-8.9334145E-2,4.191694E-1,1.8209701E-3],"categories":[],"categories_nodes":[],"categories_segments":[],"categories_sizes":[],"default_left":[1,1,1,0,0,0,0],"id":125,"left_children":[1,3,5,-1,-1,-1,-1],"loss_changes":[4.594325E0,4.2710094E0,3.3292418E0,0E0,0E0,0E0,0E0],"parents":[2147483647,0,0,1,1,2,2],"right_children":[2,4,6,-1,-1,-1,-1],"split_conditions":[2.5463186E3,1.1686621E3,4.1346586E4,-1.2646604E-1,-1.786683E-2,8.383388E-2,3.64194E-4],"split_indices":[4,6,5,0,0,0,0],"split_type":[0,0,0,0,0,0,0],"sum_hessian":[2.2602435E2,7.112959E1,1.5489476E2,1.934366E1,5.1785934E1,2.1307016E1,1.3358774E2],"tree_param":{"num_deleted":"0","num_feature":"10","num_nodes":"7","size_leaf_vector":"0"}},{"base_weights":[-6.613737E-3,1.1736778E-2,-9.596069E-1,8.576997E-2,-1.9667725E-1,1.3321811E-1,-1.2773921E0],"categories":[],"categories_nodes":[],"categories_segments":[],"categories_sizes":[],"default_left":[1,1,1,0,0,0,0],"id":126,"left_children":[1,3,5,-1,-1,-1,-1],"loss_changes":[4.033885E0,3.5142148E0,1.6835132E0,0E0,0E0,0E0,0E0],"parents":[2147483647,0,0,1,1,2,2],"right_children":[2,4,6,-1,-1,-1,-1],"split_conditions":[4.6253085E0,9.303367E4,1.9153477E3,1.7153995E-2,-3.9335452E-2,2.6643623E-2,-2.5547844E-1],"split_indices":[9,5,4,0,0,0,0],"split_type":[0,0,0,0,0,0,0],"sum_hessian":[2.2902298E2,2.2566533E2,3.3576512E0,1.6694965E2,5.8715683E1,8.872609E-1,2.4703903E0],"tree_param":{"num_deleted":"0","num_feature":"10","num_nodes":"7","size_leaf_vector":"0"}},{"base_weights":[5.2880556E-3,2.4717003E-1,-7.3572025E-2,-2.087172E-1,5.4063094E-1,3.5776424E-1,-1.5149157E-1],"categories":[],"categories_nodes":[],"categories_segments":[],"categories_sizes":[],"default_left":[1,1,1,0,0,0,0],"id":127,"left_children":[1,3,5,-1,-1,-1,-1],"loss_changes":[4.281634E0,7.495593E0,5.745235E0,0E0,0E0,0E0,0E0],"parents":[2147483647,0,0,1,1,2,2],"right_children":[2,4,6,-1,-1,-1,-1],"split_conditions":[6.1960545E0,3.0317512E0,1.46021955E-2,-4.174344E-2,1.08126186E-1,7.155285E-2,-3.0298313E-2],"split_indices":[3,9,0,0,0,0,0],"split_type":[0,0,0,0,0,0,0],"sum_hessian":[2.2251176E2,5.418368E1,1.6832808E2,2.133259E1,3.285109E1,2.5205805E1,1.4312227E2],"tree_param":{"num_deleted":"0","num_feature":"10","num_nodes":"7","size_leaf_vector":"0"}},{"base_weights":[-2.4091197E-2,2.1829341E-1,-1.03202485E-1,6.022408E-1,3.4133345E-2,-1.0671394E0,-7.783771E-2],"categories":[],"categories_nodes":[],"categories_segments":[],"categories_sizes":[],"default_left":[1,1,1,0,0,0,0],"id":128,"left_children":[1,3,5,-1,-1,-1,-1],"loss_changes":[4.3722157E0,3.9489377E0,4.1149573E0,0E0,0E0,0E0,0E0],"parents":[2147483647,0,0,1,1,2,2],"right_children":[2,4,6,-1,-1,-1,-1],"split_conditions":[2.0843862E-2,2.7489066E0,2.1511687E-2,1.20448165E-1,6.826669E-3,-2.1342789E-1,-1.5567543E-2],"split_indices":[0,7,0,0,0,0,0],"split_type":[0,0,0,0,0,0,0],"sum_hessian":[2.2583736E2,5.513943E1,1.7069792E2,1.713831E1,3.800112E1,3.3234951E0,1.6737442E2],"tree_param":{"num_deleted":"0","num_feature":"10",