{"learner":{"attributes":{"best_iteration":"274","best_ntree_limit":"275","scikit_learn":"{\"use_label_encoder\": null, \"n_estimators\": 275, \"objective\": \"binary:logistic\", \"max_depth\": 2, \"max_leaves\": null, \"max_bin\": null, \"grow_policy\": null, \"learning_rate\": null, \"verbosity\": null, \"booster\": null, \"tree_method\": null, \"gamma\": 0.25, \"min_child_weight\": 0, \"max_delta_step\": 0, \"subsample\": 0.75, \"sampling_method\": null, \"colsample_bytree\": null, \"colsample_bylevel\": null, \"colsample_bynode\": null, \"reg_alpha\": null, \"reg_lambda\": null, \"scale_pos_weight\": null, \"base_score\": null, \"missing\": NaN, \"num_parallel_tree\": null, \"random_state\": null, \"n_jobs\": null, \"monotone_constraints\": null, \"interaction_constraints\": null, \"importance_type\": null, \"gpu_id\": null, \"validate_parameters\": null, \"predictor\": null, \"enable_categorical\": false, \"feature_types\": null, \"max_cat_to_onehot\": null, \"max_cat_threshold\": null, \"eval_metric\": null, \"early_stopping_rounds\": null, \"callbacks\": null, \"kwargs\": {\"eta\": 0.2}, \"classes_\": [0.0, 1.0], \"n_classes_\": 2, \"_estimator_type\": \"classifier\"}"},"feature_names":[],"feature_types":[],"gradient_booster":{"model":{"gbtree_model_param":{"num_parallel_tree":"1","num_trees":"275","size_leaf_vector":"0"},"tree_info":[0,0,0,0,0,0,0,0,0,0,0,0,0,0,0,0,0,0,0,0,0,0,0,0,0,0,0,0,0,0,0,0,0,0,0,0,0,0,0,0,0,0,0,0,0,0,0,0,0,0,0,0,0,0,0,0,0,0,0,0,0,0,0,0,0,0,0,0,0,0,0,0,0,0,0,0,0,0,0,0,0,0,0,0,0,0,0,0,0,0,0,0,0,0,0,0,0,0,0,0,0,0,0,0,0,0,0,0,0,0,0,0,0,0,0,0,0,0,0,0,0,0,0,0,0,0,0,0,0,0,0,0,0,0,0,0,0,0,0,0,0,0,0,0,0,0,0,0,0,0,0,0,0,0,0,0,0,0,0,0,0,0,0,0,0,0,0,0,0,0,0,0,0,0,0,0,0,0,0,0,0,0,0,0,0,0,0,0,0,0,0,0,0,0,0,0,0,0,0,0,0,0,0,0,0,0,0,0,0,0,0,0,0,0,0,0,0,0,0,0,0,0,0,0,0,0,0,0,0,0,0,0,0,0,0,0,0,0,0,0,0,0,0,0,0,0,0,0,0,0,0,0,0,0,0,0,0,0,0,0,0,0,0,0,0,0,0,0,0,0,0,0,0,0,0],"trees":[{"base_weights":[1.1560081E0,-9.4396013E-1,1.5650693E0,-1.832E0,5.14658E-1,1.6469408E0,-1.0551181E0],"categories":[],"categories_nodes":[],"categories_segments":[],"categories_sizes":[],"default_left":[1,1,1,0,0,0,0],"id":0,"left_children":[1,3,5,-1,-1,-1,-1],"loss_changes":[1.0559188E3,2.6097656E2,2.2220923E2,0E0,0E0,0E0,0E0],"parents":[2147483647,0,0,1,1,2,2],"right_children":[2,4,6,-1,-1,-1,-1],"split_conditions":[7.2442755E2,3.8266963E3,2.1281645E-1,-3.664E-1,1.029316E-1,3.2938817E-1,-2.1102361E-1],"split_indices":[6,4,0,0,0,0,0],"split_type":[0,0,0,0,0,0,0],"sum_hessian":[1.2265E3,1.9975E2,1.02675E3,1.24E2,7.575E1,9.96E2,3.075E1],"tree_param":{"num_deleted":"0","num_feature":"10","num_nodes":"7","size_leaf_vector":"0"}},{"base_weights":[9.508049E-1,-1.1610829E0,1.2445444E0,-1.5680773E0,4.176743E-1,1.0681194E-1,1.4153961E0],"categories":[],"categories_nodes":[],"categories_segments":[],"categories_sizes":[],"default_left":[1,1,1,0,0,0,0],"id":1,"left_children":[1,3,5,-1,-1,-1,-1],"loss_changes":[7.456942E2,9.511627E1,2.0467542E2,0E0,0E0,0E0,0E0],"parents":[2147483647,0,0,1,1,2,2],"right_children":[2,4,6,-1,-1,-1,-1],"split_conditions":[5.917239E2,5.7000073E3,8.449138E0,-3.1361547E-1,8.353486E-2,2.1362389E-2,2.8307924E-1],"split_indices":[6,4,3,0,0,0,0],"split_type":[0,0,0,0,0,0,0],"sum_hessian":[1.1987346E3,1.4601114E2,1.0527235E3,1.1609046E2,2.9920677E1,1.3765811E2,9.1506537E2],"tree_param":{"num_deleted":"0","num_feature":"10","num_nodes":"7","size_leaf_vector":"0"}},{"base_weights":[8.18336E-1,-5.09559E-1,1.1500762E0,-1.3371702E0,5.5766594E-1,1.2064354E0,-1.1059792E0],"categories":[],"categories_nodes":[],"categories_segments":[],"categories_sizes":[],"default_left":[1,1,1,0,0,0,0],"id":2,"left_children":[1,3,5,-1,-1,-1,-1],"loss_changes":[4.9579535E2,1.9982773E2,1.157384E2,0E0,0E0,0E0,0E0],"parents":[2147483647,0,0,1,1,2,2],"right_children":[2,4,6,-1,-1,-1,-1],"split_conditions":[8.38989E2,3.8470715E3,2.3284411E-1,-2.6743406E-1,1.1153319E-1,2.412871E-1,-2.2119585E-1],"split_indices":[6,4,0,0,0,0,0],"split_type":[0,0,0,0,0,0,0],"sum_hessian":[1.1231573E3,2.2439783E2,8.987596E2,1.2624469E2,9.815314E1,8.773085E2,2.1451101E1],"tree_param":{"num_deleted":"0","num_feature":"10","num_nodes":"7","size_leaf_vector":"0"}},{"base_weights":[7.0816314E-1,-9.061765E-1,9.422319E-1,-1.247129E0,2.2913271E-1,4.2390537E-1,1.233929E0],"categories":[],"categories_nodes":[],"categories_segments":[],"categories_sizes":[],"default_left":[1,1,1,0,0,0,0],"id":3,"left_children":[1,3,5,-1,-1,-1,-1],"loss_changes":[3.95372E2,5.166095E1,1.374184E2,0E0,0E0,0E0,0E0],"parents":[2147483647,0,0,1,1,2,2],"right_children":[2,4,6,-1,-1,-1,-1],"split_conditions":[6.158546E2,5.584333E3,2.8921211E1,-2.494258E-1,4.5826543E-2,8.478107E-2,2.467858E-1],"split_indices":[6,4,3,0,0,0,0],"split_type":[0,0,0,0,0,0,0],"sum_hessian":[1.0430676E3,1.3172276E2,9.113449E2,1.0122477E2,3.0497997E1,3.2906726E2,5.8227765E2],"tree_param":{"num_deleted":"0","num_feature":"10","num_nodes":"7","size_leaf_vector":"0"}},{"base_weights":[6.161683E-1,-2.2348672E-1,9.8852384E-1,6.074512E-1,-1.0173926E0,1.0884967E0,-1.3710393E0],"categories":[],"categories_nodes":[],"categories_segments":[],"categories_sizes":[],"default_left":[1,1,1,0,0,0,0],"id":4,"left_children":[1,3,5,-1,-1,-1,-1],"loss_changes":[3.0634543E2,1.995957E2,1.6154608E2,0E0,0E0,0E0,0E0],"parents":[2147483647,0,0,1,1,2,2],"right_children":[2,4,6,-1,-1,-1,-1],"split_conditions":[1.6149473E1,3.191354E-2,2.594071E-1,1.2149024E-1,-2.0347853E-1,2.1769933E-1,-2.7420786E-1],"split_indices":[3,0,0,0,0,0,0],"split_type":[0,0,0,0,0,0,0],"sum_hessian":[9.7812787E2,3.006246E2,6.775033E2,1.4700127E2,1.5362332E2,6.5048157E2,2.7021719E1],"tree_param":{"num_deleted":"0","num_feature":"10","num_nodes":"7","size_leaf_vector":"0"}},{"base_weights":[5.160202E-1,-4.216195E-1,8.695276E-1,-1.2165538E0,3.6451888E-1,9.470788E-1,-5.4277885E-1],"categories":[],"categories_nodes":[],"categories_segments":[],"categories_sizes":[],"default_left":[1,1,1,0,0,0,0],"id":5,"left_children":[1,3,5,-1,-1,-1,-1],"loss_changes":[3.0083994E2,1.5596884E2,7.265219E1,0E0,0E0,0E0,0E0],"parents":[2147483647,0,0,1,1,2,2],"right_children":[2,4,6,-1,-1,-1,-1],"split_conditions":[1.0099291E3,3.4378818E3,1.312867E-1,-2.4331076E-1,7.2903775E-2,1.8941577E-1,-1.0855577E-1],"split_indices":[6,4,0,0,0,0,0],"split_type":[0,0,0,0,0,0,0],"sum_hessian":[9.055076E2,2.4786916E2,6.576385E2,1.2297287E2,1.24896286E2,6.237188E2,3.391964E1],"tree_param":{"num_deleted":"0","num_feature":"10","num_nodes":"7","size_leaf_vector":"0"}},{"base_weights":[4.878339E-1,-4.7530702E-1,7.708176E-1,-8.7569016E-1,5.704496E-1,9.1209584E-1,-5.461508E-1],"categories":[],"categories_nodes":[],"categories_segments":[],"categories_sizes":[],"default_left":[1,1,1,0,0,0,0],"id":6,"left_children":[1,3,5,-1,-1,-1,-1],"loss_changes":[2.2414784E2,7.882762E1,1.18642456E2,0E0,0E0,0E0,0E0],"parents":[2147483647,0,0,1,1,2,2],"right_children":[2,4,6,-1,-1,-1,-1],"split_conditions":[9.611624E0,1.6701965E3,1.0580788E-1,-1.7513804E-1,1.1408992E-1,1.8241917E-1,-1.0923016E-1],"split_indices":[3,6,0,0,0,0,0],"split_type":[0,0,0,0,0,0,0],"sum_hessian":[8.20056E2,1.8607303E2,6.33983E2,1.3467383E2,5.1399204E1,5.728389E2,6.1144066E1],"tree_param":{"num_deleted":"0","num_feature":"10","num_nodes":"7","size_leaf_vector":"0"}},{"base_weights":[4.1247842E-1,7.900637E-1,-2.4664102E-1,-1.3950325E0,8.6566997E-1,-9.039657E-1,6.405845E-1],"categories":[],"categories_nodes":[],"categories_segments":[],"categories_sizes":[],"default_left":[1,1,1,0,0,0,0],"id":7,"left_children":[1,3,5,-1,-1,-1,-1],"loss_changes":[1.9038322E2,8.151489E1,1.63346E2,0E0,0E0,0E0,0E0],"parents":[2147483647,0,0,1,1,2,2],"right_children":[2,4,6,-1,-1,-1,-1],"split_conditions":[3.8610213E-2,4.1237024E2,4.3176937E1,-2.790065E-1,1.73134E-1,-1.8079315E-1,1.281169E-1],"split_indices":[0,6,3,0,0,0,0],"split_type":[0,0,0,0,0,0,0],"sum_hessian":[7.6319604E2,4.8510092E2,2.7809512E2,1.5639939E1,4.69461E2,1.5973346E2,1.1836166E2],"tree_param":{"num_deleted":"0","num_feature":"10","num_nodes":"7","size_leaf_vector":"0"}},{"base_weights":[3.7941572E-1,-9.849293E-2,8.312283E-1,3.1219435E-1,-7.6152205E-1,9.1261256E-1,-1.1394942E0],"categories":[],"categories_nodes":[],"categories_segments":[],"categories_sizes":[],"default_left":[1,1,1,0,0,0,0],"id":8,"left_children":[1,3,5,-1,-1,-1,-1],"loss_changes":[1.5535455E2,9.56383E1,6.0342575E1,0E0,0E0,0E0,0E0],"parents":[2147483647,0,0,1,1,2,2],"right_children":[2,4,6,-1,-1,-1,-1],"split_conditions":[2.9075897E1,4.1036356E-2,3.2741237E-1,6.243887E-2,-1.5230441E-1,1.8252252E-1,-2.2789884E-1],"split_indices":[3,0,0,0,0,0,0],"split_type":[0,0,0,0,0,0,0],"sum_hessian":[7.181041E2,3.4935397E2,3.6875015E2,2.1605583E2,1.3329813E2,3.5464157E2,1.4108596E1],"tree_param":{"num_deleted":"0","num_feature":"10","num_nodes":"7","size_leaf_vector":"0"}},{"base_weights":[3.643372E-1,-1.979893E-1,7.012132E-1,-1.1377901E0,3.6477166E-1,7.456064E-1,-1.4096515E0],"categories":[],"categories_nodes":[],"categories_segments":[],"categories_sizes":[],"default_left":[1,1,1,0,0,0,0],"id":9,"left_children":[1,3,5,-1,-1,-1,-1],"loss_changes":[1.2555917E2,1.3201173E2,3.9870422E1,0E0,0E0,0E0,0E0],"parents":[2147483647,0,0,1,1,2,2],"right_children":[2,4,6,-1,-1,-1,-1],"split_conditions":[1.1993159E3,2.784246E3,4.4715023E0,-2.2755802E-1,7.2954334E-2,1.4912128E-1,-2.819303E-1],"split_indices":[6,4,9,0,0,0,0],"split_type":[0,0,0,0,0,0,0],"sum_hessian":[6.6107837E2,2.4781995E2,4.1325842E2,9.243438E1,1.5538557E2,4.0537973E2,7.8786955E0],"tree_param":{"num_deleted":"0","num_feature":"10","num_nodes":"7","size_leaf_vector":"0"}},{"base_weights":[2.711385E-1,-2.225328E-1,6.514178E-1,1.7318855E-1,-7.043412E-1,7.719556E-1,-8.613222E-1],"categories":[],"categories_nodes":[],"categories_segments":[],"categories_sizes":[],"default_left":[1,1,1,0,0,0,0],"id":10,"left_children":[1,3,5,-1,-1,-1,-1],"loss_changes":[1.1490848E2,5.0979862E1,6.3676743E1,0E0,0E0,0E0,0E0],"parents":[2147483647,0,0,1,1,2,2],"right_children":[2,4,6,-1,-1,-1,-1],"split_conditions":[2.0557175E1,3.7116867E-2,2.1334729E-1,3.4637712E-2,-1.4086823E-1,1.5439112E-1,-1.7226444E-1],"split_indices":[3,0,0,0,0,0,0],"split_type":[0,0,0,0,0,0,0],"sum_hessian":[6.103125E2,2.6574384E2,3.445687E2,1.4625854E2,1.19485275E2,3.1959268E2,2.4976025E1],"tree_param":{"num_deleted":"0","num_feature":"10","num_nodes":"7","size_leaf_vector":"0"}},{"base_weights":[2.2279346E-1,-2.3057309E-1,6.4814E-1,-1.0558181E0,1.111671E-1,6.884262E-1,-1.6289433E0],"categories":[],"categories_nodes":[],"categories_segments":[],"categories_sizes":[],"default_left":[1,1,1,0,0,0,0],"id":11,"left_children":[1,3,5,-1,-1,-1,-1],"loss_changes":[1.1232296E2,7.973493E1,2.8677292E1,0E0,0E0,0E0,0E0],"parents":[2147483647,0,0,1,1,2,2],"right_children":[2,4,6,-1,-1,-1,-1],"split_conditions":[1.4938638E3,2.272227E3,4.4690685E0,-2.1116363E-1,2.2233421E-2,1.3768524E-1,-3.2578868E-1],"split_indices":[6,4,7,0,0,0,0],"split_type":[0,0,0,0,0,0,0],"sum_hessian":[5.806985E2,2.813124E2,2.993861E2,8.1767685E1,1.9954471E2,2.94867E2,4.5191116E0],"tree_param":{"num_deleted":"0","num_feature":"10","num_nodes":"7","size_leaf_vector":"0"}},{"base_weights":[2.3361257E-1,-1.4633913E-1,6.899598E-1,-4.0113008E-1,5.4598045E-1,7.4609643E-1,-1.0549284E0],"categories":[],"categories_nodes":[],"categories_segments":[],"categories_sizes":[],"default_left":[1,1,1,0,0,0,0],"id":12,"left_children":[1,3,5,-1,-1,-1,-1],"loss_changes":[9.37812E1,5.2369957E1,2.4848099E1,0E0,0E0,0E0,0E0],"parents":[2147483647,0,0,1,1,2,2],"right_children":[2,4,6,-1,-1,-1,-1],"split_conditions":[2.9075897E1,2.0080024E3,4.365739E0,-8.022602E-2,1.0919609E-1,1.4921929E-1,-2.1098569E-1],"split_indices":[3,6,7,0,0,0,0],"split_type":[0,0,0,0,0,0,0],"sum_hessian":[5.3928644E2,2.9464572E2,2.4464075E2,2.156878E2,7.895791E1,2.3757005E2,7.0707006E0],"tree_param":{"num_deleted":"0","num_feature":"10","num_nodes":"7","size_leaf_vector":"0"}},{"base_weights":[1.6039537E-1,-1.5034918E-1,6.5644985E-1,2.1593635E-1,-6.7635804E-1,7.5341135E-1,-5.2691275E-1],"categories":[],"categories_nodes":[],"categories_segments":[],"categories_sizes":[],"default_left":[1,0,1,0,0,0,0],"id":13,"left_children":[1,3,5,-1,-1,-1,-1],"loss_changes":[7.868376E1,6.0695442E1,2.2948433E1,0E0,0E0,0E0,0E0],"parents":[2147483647,0,0,1,1,2,2],"right_children":[2,4,6,-1,-1,-1,-1],"split_conditions":[3.836783E1,1.3362803E0,2.1485998E-1,4.318727E-2,-1.3527161E-1,1.5068227E-1,-1.05382554E-1],"split_indices":[3,8,0,0,0,0,0],"split_type":[0,0,0,0,0,0,0],"sum_hessian":[5.0880853E2,3.132657E2,1.9554285E2,1.8501808E2,1.282476E2,1.8106981E2,1.4473037E1],"tree_param":{"num_deleted":"0","num_feature":"10","num_nodes":"7","size_leaf_vector":"0"}},{"base_weights":[1.3234882E-1,4.8207802E-1,-2.9062107E-1,-6.716557E-1,6.2529933E-1,9.0755975E-1,-5.4041815E-1],"categories":[],"categories_nodes":[],"categories_segments":[],"categories_sizes":[],"default_left":[1,1,1,0,0,0,0],"id":14,"left_children":[1,3,5,-1,-1,-1,-1],"loss_changes":[7.273708E1,4.487259E1,6.715986E1,0E0,0E0,0E0,0E0],"parents":[2147483647,0,0,1,1,2,2],"right_children":[2,4,6,-1,-1,-1,-1],"split_conditions":[3.4794703E-2,2.4760187E0,3.0982379E4,-1.3433115E-1,1.2505987E-1,1.8151195E-1,-1.0808363E-1],"split_indices":[0,3,5,0,0,0,0],"split_type":[0,0,0,0,0,0,0],"sum_hessian":[4.897691E2,2.6801956E2,2.2174954E2,2.9189667E1,2.388299E2,3.7800728E1,1.839488E2],"tree_param":{"num_deleted":"0","num_feature":"10","num_nodes":"7","size_leaf_vector":"0"}},{"base_weights":[1.277945E-1,2.2732699E-1,-1.3437387E0,-1.3452941E0,3.152991E-1,-9.468119E-1,-1.9214631E0],"categories":[],"categories_nodes":[],"categories_segments":[],"categories_sizes":[],"default_left":[1,1,0,0,0,0,0],"id":15,"left_children":[1,3,5,-1,-1,-1,-1],"loss_changes":[6.954443E1,6.180018E1,5.081711E0,0E0,0E0,0E0,0E0],"parents":[2147483647,0,0,1,1,2,2],"right_children":[2,4,6,-1,-1,-1,-1],"split_conditions":[4.303302E0,3.999566E2,1.6788857E0,-2.6905882E-1,6.305982E-2,-1.8936239E-1,-3.8429263E-1],"split_indices":[7,6,8,0,0,0,0],"split_type":[0,0,0,0,0,0,0],"sum_hessian":[4.7173276E2,4.426388E2,2.9093962E1,2.2692223E1,4.1994656E2,1.8809631E1,1.028433E1],"tree_param":{"num_deleted":"0","num_feature":"10","num_nodes":"7","size_leaf_vector":"0"}},{"base_weights":[1.0130532E-1,9.2141545E-1,-3.638299E-2,-6.0981256E-1,9.6184015E-1,-6.7056286E-1,2.2661561E-1],"categories":[],"categories_nodes":[],"categories_segments":[],"categories_sizes":[],"default_left":[1,1,1,0,0,0,0],"id":16,"left_children":[1,3,5,-1,-1,-1,-1],"loss_changes":[5.1193264E1,4.620407E0,6.50152E1,0E0,0E0,0E0,0E0],"parents":[2147483647,0,0,1,1,2,2],"right_children":[2,4,6,-1,-1,-1,-1],"split_conditions":[2.983683E4,4.9840698E2,2.5711414E3,-1.2196251E-1,1.9236803E-1,-1.3411258E-1,4.5323122E-2],"split_indices":[5,6,4,0,0,0,0],"split_type":[0,0,0,0,0,0,0],"sum_hessian":[4.5206345E2,6.416812E1,3.8789532E2,1.2881908E0,6.2879932E1,1.13253235E2,2.746421E2],"tree_param":{"num_deleted":"0","num_feature":"10","num_nodes":"7","size_leaf_vector":"0"}},{"base_weights":[7.815178E-2,-1.002009E0,2.0217554E-1,-1.596707E-1,-1.1591136E0,4.0901083E-1,-2.9496402E-1],"categories":[],"categories_nodes":[],"categories_segments":[],"categories_sizes":[],"default_left":[1,1,0,0,0,0,0],"id":17,"left_children":[1,3,5,-1,-1,-1,-1],"loss_changes":[6.0578487E1,5.9798203E0,4.1775116E1,0E0,0E0,0E0,0E0],"parents":[2147483647,0,0,1,1,2,2],"right_children":[2,4,6,-1,-1,-1,-1],"split_conditions":[5.0202563E2,5.03808E-1,1.6601701E0,-3.193414E-2,-2.3182273E-1,8.180217E-2,-5.8992803E-2],"split_indices":[6,1,8,0,0,0,0],"split_type":[0,0,0,0,0,0,0],"sum_hessian":[4.4968213E2,4.558544E1,4.040967E2,7.482627E0,3.8102814E1,2.85494E2,1.18602715E2],"tree_param":{"num_deleted":"0","num_feature":"10","num_nodes":"7","size_leaf_vector":"0"}},{"base_weights":[6.079418E-2,5.1139855E-1,-2.1851504E-1,-6.046485E-1,6.2699556E-1,2.0906104E-1,-6.361696E-1],"categories":[],"categories_nodes":[],"categories_segments":[],"categories_sizes":[],"default_left":[1,1,1,0,0,0,0],"id":18,"left_children":[1,3,5,-1,-1,-1,-1],"loss_changes":[5.3865948E1,2.1502789E1,4.734352E1,0E0,0E0,0E0,0E0],"parents":[2147483647,0,0,1,1,2,2],"right_children":[2,4,6,-1,-1,-1,-1],"split_conditions":[2.5558108E-2,2.2243764E0,5.9262508E4,-1.20929696E-1,1.2539911E-1,4.1812208E-2,-1.2723392E-1],"split_indices":[0,3,5,0,0,0,0],"split_type":[0,0,0,0,0,0,0],"sum_hessian":[4.2610214E2,1.6273457E2,2.6336758E2,1.4876526E1,1.4785805E2,1.3038484E2,1.3298274E2],"tree_param":{"num_deleted":"0","num_feature":"10","num_nodes":"7","size_leaf_vector":"0"}},{"base_weights":[6.716211E-2,-1.2816933E-1,6.143163E-1,1.6643524E-1,-5.9963197E-1,7.078709E-1,-5.9134245E-1],"categories":[],"categories_nodes":[],"categories_segments":[],"categories_sizes":[],"default_left":[1,1,1,0,0,0,0],"id":19,"left_children":[1,3,5,-1,-1,-1,-1],"loss_changes":[4.4665806E1,4.291547E1,1.2817505E1,0E0,0E0,0E0,0E0],"parents":[2147483647,0,0,1,1,2,2],"right_children":[2,4,6,-1,-1,-1,-1],"split_conditions":[6.9176636E1,4.121542E-2,3.2818338E-1,3.328705E-2,-1.1992639E-1,1.4157419E-1,-1.1826849E-1],"split_indices":[3,0,0,0,0,0,0],"split_type":[0,0,0,0,0,0,0],"sum_hessian":[4.1618344E2,3.0725912E2,1.0892431E2,1.8949542E2,1.1776372E2,1.0146395E2,7.4603515E0],"tree_param":{"num_deleted":"0","num_feature":"10","num_nodes":"7","size_leaf_vector":"0"}},{"base_weights":[8.871483E-2,5.8943176E-1,-1.1054033E-1,1.0823662E0,3.8966897E-1,2.2696652E-1,-7.759195E-1],"categories":[],"categories_nodes":[],"categories_segments":[],"categories_sizes":[],"default_left":[1,1,0,0,0,0,0],"id":20,"left_children":[1,3,5,-1,-1,-1,-1],"loss_changes":[3.9827408E1,1.0765038E1,6.4387695E1,0E0,0E0,0E0,0E0],"parents":[2147483647,0,0,1,1,2,2],"right_children":[2,4,6,-1,-1,-1,-1],"split_conditions":[4.1048625E4,2.4054184E4,1.4925978E0,2.1647325E-1,7.7933796E-2,4.5393303E-2,-1.551839E-1],"split_indices":[5,5,8,0,0,0,0],"split_type":[0,0,0,0,0,0,0],"sum_hessian":[3.9753748E2,1.1260623E2,2.8493124E2,3.1199677E1,8.1406555E1,1.8947888E2,9.5452354E1],"tree_param":{"num_deleted":"0","num_feature":"10","num_nodes":"7","size_leaf_vector":"0"}},{"base_weights":[5.915748E-2,-1.4522196E-1,5.5545163E-1,-4.3179935E-1,2.0324048E-1,7.4317855E-1,-1.3510148E-1],"categories":[],"categories_nodes":[],"categories_segments":[],"categories_sizes":[],"default_left":[1,1,1,0,0,0,0],"id":21,"left_children":[1,3,5,-1,-1,-1,-1],"loss_changes":[3.9329823E1,2.7536959E1,1.4759113E1,0E0,0E0,0E0,0E0],"parents":[2147483647,0,0,1,1,2,2],"right_children":[2,4,6,-1,-1,-1,-1],"split_conditions":[2.283536E3,3.8619512E3,8.709475E4,-8.635987E-2,4.06481E-2,1.4863572E-1,-2.7020296E-2],"split_indices":[6,4,5,0,0,0,0],"split_type":[0,0,0,0,0,0,0],"sum_hessian":[3.8594925E2,2.738728E2,1.1207647E2,1.501497E2,1.2372308E2,8.8060905E1,2.4015566E1],"tree_param":{"num_deleted":"0","num_feature":"10","num_nodes":"7","size_leaf_vector":"0"}},{"base_weights":[5.6833554E-2,-1.1000971E-1,5.8774436E-1,1.1149323E0,-1.9301437E-1,6.4075387E-1,-7.4290496E-1],"categories":[],"categories_nodes":[],"categories_segments":[],"categories_sizes":[],"default_left":[1,1,1,0,0,0,0],"id":22,"left_children":[1,3,5,-1,-1,-1,-1],"loss_changes":[3.3920647E1,2.9870247E1,6.9337063E0,0E0,0E0,0E0,0E0],"parents":[2147483647,0,0,1,1,2,2],"right_children":[2,4,6,-1,-1,-1,-1],"split_conditions":[6.8963974E1,2.4054184E4,5.957614E-1,2.2298646E-1,-3.8602874E-2,1.2815078E-1,-1.48581E-1],"split_indices":[3,5,0,0,0,0,0],"split_type":[0,0,0,0,0,0,0],"sum_hessian":[3.8121286E2,2.9066248E2,9.055038E1,1.7657001E1,2.730055E2,8.7579895E1,2.970481E0],"tree_param":{"num_deleted":"0","num_feature":"10","num_nodes":"7","size_leaf_vector":"0"}},{"base_weights":[1.4881148E-2,-1.9551668E-1,4.3648145E-1,-5.275838E-1,8.075352E-2,5.188982E-1,-6.4197016E-1],"categories":[],"categories_nodes":[],"categories_segments":[],"categories_sizes":[],"default_left":[1,1,1,0,0,0,0],"id":23,"left_children":[1,3,5,-1,-1,-1,-1],"loss_changes":[3.340187E1,2.3091927E1,1.1474325E1,0E0,0E0,0E0,0E0],"parents":[2147483647,0,0,1,1,2,2],"right_children":[2,4,6,-1,-1,-1,-1],"split_conditions":[1.9803716E3,3.209749E3,1.4415178E5,-1.05516754E-1,1.6150704E-2,1.0377964E-1,-1.2839404E-1],"split_indices":[6,4,5,0,0,0,0],"split_type":[0,0,0,0,0,0,0],"sum_hessian":[3.745931E2,2.5024545E2,1.2434767E2,1.1323331E2,1.3701215E2,1.16001526E2,8.346144E0],"tree_param":{"num_deleted":"0","num_feature":"10","num_nodes":"7","size_leaf_vector":"0"}},{"base_weights":[3.4713957E-2,-1.2181904E0,9.635428E-2,1.535402E-1,-1.228139E0],"categories":[],"categories_nodes":[],"categories_segments":[],"categories_sizes":[],"default_left":[1,0,1,0,0],"id":24,"left_children":[1,-1,3,-1,-1],"loss_changes":[2.8275354E1,0E0,2.657961E1,0E0,0E0],"parents":[2147483647,0,0,2,2],"right_children":[2,-1,4,-1,-1],"split_conditions":[3.9987744E2,-2.4363808E-1,4.4775743E0,3.070804E-2,-2.456278E-1],"split_indices":[6,0,9,0,0],"split_type":[0,0,0,0,0],"sum_hessian":[3.636016E2,1.6169834E1,3.4743176E2,3.338995E2,1.3532265E1],"tree_param":{"num_deleted":"0","num_feature":"10","num_nodes":"5","size_leaf_vector":"0"}},{"base_weights":[-5.68081E-3,1.1622532E-1,-5.6940025E-1,-4.402322E-1,2.4659884E-1,-7.7597153E-1,3.687955E-1],"categories":[],"categories_nodes":[],"categories_segments":[],"categories_sizes":[],"default_left":[1,1,1,0,0,0,0],"id":25,"left_children":[1,3,5,-1,-1,-1,-1],"loss_changes":[2.4587812E1,2.1453058E1,1.2615E1,0E0,0E0,0E0,0E0],"parents":[2147483647,0,0,1,1,2,2],"right_children":[2,4,6,-1,-1,-1,-1],"split_conditions":[8.00568E-2,4.2356567E0,2.1614983E3,-8.804644E-2,4.931977E-2,-1.5519431E-1,7.37591E-2],"split_indices":[0,3,6,0,0,0,0],"split_type":[0,0,0,0,0,0,0],"sum_hessian":[3.5582962E2,2.932148E2,6.261481E1,5.5206577E1,2.3800822E2,5.1457783E1,1.1157027E1],"tree_param":{"num_deleted":"0","num_feature":"10","num_nodes":"7","size_leaf_vector":"0"}},{"base_weights":[1.424592E-2,-1.19583E0,6.881944E-2,3.9792377E-1,-1.19150475E-1],"categories":[],"categories_nodes":[],"categories_segments":[],"categories_sizes":[],"default_left":[1,0,1,0,0],"id":26,"left_children":[1,-1,3,-1,-1],"loss_changes":[2.3229198E1,0E0,2.0853264E1,0E0,0E0],"parents":[2147483647,0,0,2,2],"right_children":[2,-1,4,-1,-1],"split_conditions":[3.999566E2,-2.39166E-1,2.5555942E-2,7.9584755E-2,-2.3830095E-2],"split_indices":[6,0,0,0,0],"split_type":[0,0,0,0,0],"sum_hessian":[3.4950833E2,1.4179932E1,3.353284E2,1.2149453E2,2.1383386E2],"tree_param":{"num_deleted":"0","num_feature":"10","num_nodes":"5","size_leaf_vector":"0"}},{"base_weights":[7.508717E-3,9.9927896E-1,-8.007799E-2,1.0573733E0,-8.207665E-2,1.454746E-1,-5.0344986E-1],"categories":[],"categories_nodes":[],"categories_segments":[],"categories_sizes":[],"default_left":[1,1,0,0,0,0,0],"id":27,"left_children":[1,3,5,-1,-1,-1,-1],"loss_changes":[3.0153423E1,1.8562984E0,3.053894E1,0E0,0E0,0E0,0E0],"parents":[2147483647,0,0,1,1,2,2],"right_children":[2,4,6,-1,-1,-1,-1],"split_conditions":[2.6645273E4,3.2198924E-1,1.5047516E0,2.1147466E-1,-1.641533E-2,2.909492E-2,-1.0068997E-1],"split_indices":[5,0,8,0,0,0,0],"split_type":[0,0,0,0,0,0,0],"sum_hessian":[3.4520496E2,2.7167725E1,3.1803723E2,2.5803638E1,1.3640866E0,2.0792236E2,1.1011485E2],"tree_param":{"num_deleted":"0","num_feature":"10","num_nodes":"7","size_leaf_vector":"0"}},{"base_weights":[4.025481E-2,1.2320622E-1,-7.922765E-1,1.0904896E0,5.6756146E-2,9.550707E-1,-8.942387E-1],"categories":[],"categories_nodes":[],"categories_segments":[],"categories_sizes":[],"default_left":[1,1,1,0,0,0,0],"id":28,"left_children":[1,3,5,-1,-1,-1,-1],"loss_changes":[2.305501E1,1.9424858E1,6.244528E0,0E0,0E0,0E0,0E0],"parents":[2147483647,0,0,1,1,2,2],"right_children":[2,4,6,-1,-1,-1,-1],"split_conditions":[4.1910152E0,2.4550465E4,5.094298E2,2.1809793E-1,1.135123E-2,1.9101414E-1,-1.7884775E-1],"split_indices":[7,5,4,0,0,0,0],"split_type":[0,0,0,0,0,0,0],"sum_hessian":[3.3142853E2,3.0217276E2,2.9255754E1,1.8433537E1,2.8373923E2,1.1517125E0,2.8104042E1],"tree_param":{"num_deleted":"0","num_feature":"10","num_nodes":"7","size_leaf_vector":"0"}},{"base_weights":[2.7868308E-2,9.601838E-2,-9.366768E-1,3.990089E-1,-1.0188716E-1,9.3640745E-1,-1.0676501E0],"categories":[],"categories_nodes":[],"categories_segments":[],"categories_sizes":[],"default_left":[1,1,1,0,0,0,0],"id":29,"left_children":[1,3,5,-1,-1,-1,-1],"loss_changes":[2.2137291E1,1.8879772E1,6.452589E0,0E0,0E0,0E0,0E0],"parents":[2147483647,0,0,1,1,2,2],"right_children":[2,4,6,-1,-1,-1,-1],"split_conditions":[4.325425E0,2.786337E-2,5.094298E2,7.980178E-2,-2.0377433E-2,1.8728149E-1,-2.1353002E-1],"split_indices":[7,0,4,0,0,0,0],"split_type":[0,0,0,0,0,0,0],"sum_hessian":[3.344035E2,3.1317642E2,2.1227074E1,1.23335464E2,1.8984096E2,9.853729E-1,2.0241701E1],"tree_param":{"num_deleted":"0","num_feature":"10","num_nodes":"7","size_leaf_vector":"0"}},{"base_weights":[-2.3713342E-3,-1.0681102E0,4.6690095E-2,-1.1467475E0,-1.7118585E-1,9.5561974E-2,-1.0061274E0],"categories":[],"categories_nodes":[],"categories_segments":[],"categories_sizes":[],"default_left":[1,1,1,0,0,0,0],"id":30,"left_children":[1,3,5,-1,-1,-1,-1],"loss_changes":[1.7044477E1,8.1554604E-1,1.6133144E1,0E0,0E0,0E0,0E0],"parents":[2147483647,0,0,1,1,2,2],"right_children":[2,4,6,-1,-1,-1,-1],"split_conditions":[4.074762E2,8.794878E3,4.44466E0,-2.293495E-1,-3.4237172E-2,1.9112395E-2,-2.0122547E-1],"split_indices":[6,4,9,0,0,0,0],"split_type":[0,0,0,0,0,0,0],"sum_hessian":[3.240275E2,1.334607E1,3.1068143E2,1.20142E1,1.3318706E0,2.9776822E2,1.2913195E1],"tree_param":{"num_deleted":"0","num_feature":"10","num_nodes":"7","size_leaf_vector":"0"}},{"base_weights":[-2.7878871E-2,-6.8751293E-1,5.0929874E-2,1.0532439E0,-7.8966266E-1,1.3970624E-1,-5.390225E-1],"categories":[],"categories_nodes":[],"categories_segments":[],"categories_sizes":[],"default_left":[1,1,1,0,0,0,0],"id":31,"left_children":[1,3,5,-1,-1,-1,-1],"loss_changes":[1.678848E1,6.9598675E0,1.5201509E1,0E0,0E0,0E0,0E0],"parents":[2147483647,0,0,1,1,2,2],"right_children":[2,4,6,-1,-1,-1,-1],"split_conditions":[1.9988011E0,2.2422686E4,5.3578377E0,2.1064878E-1,-1.5793253E-1,2.7941247E-2,-1.078045E-1],"split_indices":[3,5,1,0,0,0,0],"split_type":[0,0,0,0,0,0,0],"sum_hessian":[3.212754E2,3.3463127E1,2.878123E2,1.3387308E0,3.2124397E1,2.5083037E2,3.6981903E1],"tree_param":{"num_deleted":"0","num_feature":"10","num_nodes":"7","size_leaf_vector":"0"}},{"base_weights":[1.6687183E-2,-1.4265811E-1,4.1419291E-1,1.0450392E-1,-4.0067276E-1,7.3509705E-1,1.6070381E-1],"categories":[],"categories_nodes":[],"categories_segments":[],"categories_sizes":[],"default_left":[1,0,1,0,0,0,0],"id":32,"left_children":[1,3,5,-1,-1,-1,-1],"loss_changes":[2.0659845E1,1.4895079E1,7.4733963E0,0E0,0E0,0E0,0E0],"parents":[2147483647,0,0,1,1,2,2],"right_children":[2,4,6,-1,-1,-1,-1],"split_conditions":[4.4175453E1,1.0924802E0,3.4166634E-2,2.0900784E-2,-8.0134556E-2,1.4701942E-1,3.214076E-2],"split_indices":[3,8,0,0,0,0,0],"split_type":[0,0,0,0,0,0,0],"sum_hessian":[3.2423746E2,2.3191318E2,9.2324265E1,1.1875154E2,1.1316164E2,3.9905743E1,5.2418526E1],"tree_param":{"num_deleted":"0","num_feature":"10","num_nodes":"7","size_leaf_vector":"0"}},{"base_weights":[4.7093173E-3,-3.0984464E-1,1.6406022E-1,-9.219029E-1,8.682439E-3,-1.0505519E0,2.1879034E-1],"categories":[],"categories_nodes":[],"categories_segments":[],"categories_sizes":[],"default_left":[1,1,1,0,0,0,0],"id":33,"left_children":[1,3,5,-1,-1,-1,-1],"loss_changes":[1.5881934E1,2.0779957E1,1.4209034E1,0E0,0E0,0E0,0E0],"parents":[2147483647,0,0,1,1,2,2],"right_children":[2,4,6,-1,-1,-1,-1],"split_conditions":[2.5549736E3,1.1680969E3,4.074762E2,-1.8438058E-1,1.7364878E-3,-2.1011038E-1,4.375807E-2],"split_indices":[4,6,2,0,0,0,0],"split_type":[0,0,0,0,0,0,0],"sum_hessian":[3.1483585E2,1.0554625E2,2.092896E2,3.5478706E1,7.006754E1,8.239404E0,2.010502E2],"tree_param":{"num_deleted":"0","num_feature":"10","num_nodes":"7","size_leaf_vector":"0"}},{"base_weights":[-5.9397828E-2,1.17674075E-1,-3.0631626E-1,-5.706328E-2,3.9962336E-1,4.7521383E-1,-6.107762E-1],"categories":[],"categories_nodes":[],"categories_segments":[],"categories_sizes":[],"default_left":[0,1,1,0,0,0,0],"id":34,"left_children":[1,3,5,-1,-1,-1,-1],"loss_changes":[1.3401589E1,8.829169E0,3.0733856E1,0E0,0E0,0E0,0E0],"parents":[2147483647,0,0,1,1,2,2],"right_children":[2,4,6,-1,-1,-1,-1],"split_conditions":[1.3376931E0,3.3070955E0,4.099468E4,-1.1412657E-2,7.992467E-2,9.5042765E-2,-1.2215524E-1],"split_indices":[8,9,5,0,0,0,0],"split_type":[0,0,0,0,0,0,0],"sum_hessian":[3.046916E2,1.7774748E2,1.26944115E2,1.102302E2,6.751728E1,3.5431854E1,9.151226E1],"tree_param":{"num_deleted":"0","num_feature":"10","num_nodes":"7","size_leaf_vector":"0"}},{"base_weights":[-1.0871288E-2,8.6833316E-1,-6.1372057E-2,-3.5663766E-1,9.2026424E-1,-3.7503794E-1,4.4626605E-2],"categories":[],"categories_nodes":[],"categories_segments":[],"categories_sizes":[],"default_left":[1,1,1,0,0,0,0],"id":35,"left_children":[1,3,5,-1,-1,-1,-1],"loss_changes":[1.3831446E1,1.4046822E0,9.804772E0,0E0,0E0,0E0,0E0],"parents":[2147483647,0,0,1,1,2,2],"right_children":[2,4,6,-1,-1,-1,-1],"split_conditions":[2.4962635E4,4.930774E2,2.270939E3,-7.132753E-2,1.8405285E-1,-7.500759E-2,8.9253215E-3],"split_indices":[5,6,4,0,0,0,0],"split_type":[0,0,0,0,0,0,0],"sum_hessian":[3.093153E2,1.5922067E1,2.9339325E2,4.0891463E-1,1.5513152E1,7.3464035E1,2.1992921E2],"tree_param":{"num_deleted":"0","num_feature":"10","num_nodes":"7","size_leaf_vector":"0"}},{"base_weights":[1.8468613E-2,2.5797322E-1,-1.6068633E-1,-1.5938732E-1,3.9660546E-1,9.036873E-2,-6.00197E-1],"categories":[],"categories_nodes":[],"categories_segments":[],"categories_sizes":[],"default_left":[1,1,0,0,0,0,0],"id":36,"left_children":[1,3,5,-1,-1,-1,-1],"loss_changes":[1.3206887E1,7.682311E0,1.9490187E1,0E0,0E0,0E0,0E0],"parents":[2147483647,0,0,1,1,2,2],"right_children":[2,4,6,-1,-1,-1,-1],"split_conditions":[5.359961E4,7.7110643E0,1.406168E0,-3.1877466E-2,7.9321094E-2,1.8073747E-2,-1.200394E-1],"split_indices":[5,3,8,0,0,0,0],"split_type":[0,0,0,0,0,0,0],"sum_hessian":[3.0582623E2,1.3068246E2,1.7514377E2,3.254727E1,9.81352E1,1.1197587E2,6.31679E1],"tree_param":{"num_deleted":"0","num_feature":"10","num_nodes":"7","size_leaf_vector":"0"}},{"base_weights":[-2.1299042E-2,2.2917511E-2,-1.0029685E0,-4.773895E-1,9.47481E-2,-1.2414172E0,1.093354E0],"categories":[],"categories_nodes":[],"categories_segments":[],"categories_sizes":[],"default_left":[1,1,1,0,0,0,0],"id":37,"left_children":[1,3,5,-1,-1,-1,-1],"loss_changes":[1.3093652E1,1.0435596E1,7.856106E0,0E0,0E0,0E0,0E0],"parents":[2147483647,0,0,1,1,2,2],"right_children":[2,4,6,-1,-1,-1,-1],"split_conditions":[4.4690685E0,6.004215E2,4.1853333E0,-9.54779E-2,1.894962E-2,-2.4828343E-1,2.186708E-1],"split_indices":[7,6,9,0,0,0,0],"split_type":[0,0,0,0,0,0,0],"sum_hessian":[3.0012552E2,2.8812442E2,1.2001103E1,3.5464523E1,2.526599E2,1.1141602E1,8.595022E-1],"tree_param":{"num_deleted":"0","num_feature":"10","num_nodes":"7","size_leaf_vector":"0"}},{"base_weights":[4.937495E-3,6.274409E-1,-5.0678574E-2,-6.046851E-2,8.2359767E-1,-9.435994E-1,-1.6928723E-2],"categories":[],"categories_nodes":[],"categories_segments":[],"categories_sizes":[],"default_left":[1,1,1,0,0,0,0],"id":38,"left_children":[1,3,5,-1,-1,-1,-1],"loss_changes":[1.0449185E1,3.3898954E0,8.336006E0,0E0,0E0,0E0,0E0],"parents":[2147483647,0,0,1,1,2,2],"right_children":[2,4,6,-1,-1,-1,-1],"split_conditions":[2.264029E0,2.189542E3,4.1279465E2,-1.2093702E-2,1.6471954E-1,-1.8871988E-1,-3.3857448E-3],"split_indices":[9,4,6,0,0,0,0],"split_type":[0,0,0,0,0,0,0],"sum_hessian":[2.9989627E2,2.3752787E1,2.761435E2,5.4237547E0,1.8329031E1,9.075448E0,2.6706805E2],"tree_param":{"num_deleted":"0","num_feature":"10","num_nodes":"7","size_leaf_vector":"0"}},{"base_weights":[-5.208882E-2,-1.1962742E-1,5.9401137E-1,-3.415243E-1,2.1538846E-2,-7.5502086E-1,7.392839E-1],"categories":[],"categories_nodes":[],"categories_segments":[],"categories_sizes":[],"default_left":[1,1,1,0,0,0,0],"id":39,"left_children":[1,3,5,-1,-1,-1,-1],"loss_changes":[1.3098678E1,8.500177E0,6.128256E0,0E0,0E0,0E0,0E0],"parents":[2147483647,0,0,1,1,2,2],"right_children":[2,4,6,-1,-1,-1,-1],"split_conditions":[2.4557361E2,2.8207192E3,4.8515946E-2,-6.830486E-2,4.3077692E-3,-1.5100418E-1,1.4785679E-1],"split_indices":[3,4,1,0,0,0,0],"split_type":[0,0,0,0,0,0,0],"sum_hessian":[2.9754724E2,2.7012518E2,2.7422068E1,1.0447826E2,1.6564691E2,2.2578566E0,2.5164211E1],"tree_param":{"num_deleted":"0","num_feature":"10","num_nodes":"7","size_leaf_vector":"0"}},{"base_weights":[1.1979789E-2,8.4482735E-1,-2.8761499E-2,9.491177E-1,-3.38206E-1,8.750539E-2,-3.9148375E-1],"categories":[],"categories_nodes":[],"categories_segments":[],"categories_sizes":[],"default_left":[1,1,1,0,0,0,0],"id":40,"left_children":[1,3,5,-1,-1,-1,-1],"loss_changes":[1.0041929E1,2.0238266E0,1.1945117E1,0E0,0E0,0E0,0E0],"parents":[2147483647,0,0,1,1,2,2],"right_children":[2,4,6,-1,-1,-1,-1],"split_conditions":[2.400957E4,3.4597215E-1,6.0213268E-2,1.8982355E-1,-6.76412E-2,1.7501079E-2,-7.829675E-2],"split_indices":[5,0,0,0,0,0,0],"split_type":[0,0,0,0,0,0,0],"sum_hessian":[2.942329E2,1.2801608E1,2.814313E2,1.1946214E1,8.5539436E-1,2.1369298E2,6.7738335E1],"tree_param":{"num_deleted":"0","num_feature":"10","num_nodes":"7","size_leaf_vector":"0"}},{"base_weights":[-5.224351E-3,1.06903374E-1,-2.78322E-1,-7.1698345E-2,3.1059408E-1,9.772935E-2,-7.655858E-1],"categories":[],"categories_nodes":[],"categories_segments":[],"categories_sizes":[],"default_left":[1,1,1,0,0,0,0],"id":41,"left_children":[1,3,5,-1,-1,-1,-1],"loss_changes":[8.8545265E0,7.4810095E0,1.5495955E1,0E0,0E0,0E0,0E0],"parents":[2147483647,0,0,1,1,2,2],"right_children":[2,4,6,-1,-1,-1,-1],"split_conditions":[3.516357E0,3.1227577E0,3.2197323E0,-1.433967E-2,6.2118817E-2,1.954587E-2,-1.5311716E-1],"split_indices":[1,9,9,0,0,0,0],"split_type":[0,0,0,0,0,0,0],"sum_hessian":[2.8718576E2,2.040259E2,8.315987E1,1.0905309E2,9.497281E1,4.7387474E1,3.5772392E1],"tree_param":{"num_deleted":"0","num_feature":"10","num_nodes":"7","size_leaf_vector":"0"}},{"base_weights":[-3.853681E-3,-6.43227E-2,6.8468654E-1,8.157031E-1,-1.0252882E-1,8.257756E-1,-5.1083577E-1],"categories":[],"categories_nodes":[],"categories_segments":[],"categories_sizes":[],"default_left":[1,1,1,0,0,0,0],"id":42,"left_children":[1,3,5,-1,-1,-1,-1],"loss_changes":[1.1866663E1,8.890881E0,4.303092E0,0E0,0E0,0E0,0E0],"parents":[2147483647,0,0,1,1,2,2],"right_children":[2,4,6,-1,-1,-1,-1],"split_conditions":[3.173661E2,2.4551945E4,3.2818338E-1,1.6314062E-1,-2.0505764E-2,1.6515513E-1,-1.0216715E-1],"split_indices":[3,5,0,0,0,0,0],"split_type":[0,0,0,0,0,0,0],"sum_hessian":[2.8295633E2,2.609461E2,2.2010244E1,1.0010804E1,2.5093529E2,1.9963531E1,2.0467117E0],"tree_param":{"num_deleted":"0","num_feature":"10","num_nodes":"7","size_leaf_vector":"0"}},{"base_weights":[4.4121813E-2,-2.1099882E-1,1.4440733E-1,-8.8816434E-1,9.0661734E-2,5.1817584E-1,4.747986E-2],"categories":[],"categories_nodes":[],"categories_segments":[],"categories_sizes":[],"default_left":[1,1,0,0,0,0,0],"id":43,"left_children":[1,3,5,-1,-1,-1,-1],"loss_changes":[7.3527603E0,1.6659945E1,7.4396534E0,0E0,0E0,0E0,0E0],"parents":[2147483647,0,0,1,1,2,2],"right_children":[2,4,6,-1,-1,-1,-1],"split_conditions":[2.2791006E3,1.1543203E3,3.9377022E-1,-1.7763287E-1,1.8132348E-2,1.0363517E-1,9.495973E-3],"split_indices":[4,6,8,0,0,0,0],"split_type":[0,0,0,0,0,0,0],"sum_hessian":[2.8519574E2,8.016262E1,2.0503311E2,2.4105812E1,5.605681E1,4.1326237E1,1.6370688E2],"tree_param":{"num_deleted":"0","num_feature":"10","num_nodes":"7","size_leaf_vector":"0"}},{"base_weights":[5.0765354E-2,2.306492E-1,-1.9439602E-1,-4.2218134E-1,3.1758285E-1,2.3263429E-1,-5.0619286E-1],"categories":[],"categories_nodes":[],"categories_segments":[],"categories_sizes":[],"default_left":[1,1,0,0,0,0,0],"id":44,"left_children":[1,3,5,-1,-1,-1,-1],"loss_changes":[1.25105915E1,9.412971E0,1.6118027E1,0E0,0E0,0E0,0E0],"parents":[2147483647,0,0,1,1,2,2],"right_children":[2,4,6,-1,-1,-1,-1],"split_conditions":[6.947379E4,2.4486246E0,8.3079565E-1,-8.443627E-2,6.351657E-2,4.652686E-2,-1.0123857E-1],"split_indices":[5,3,8,0,0,0,0],"split_type":[0,0,0,0,0,0,0],"sum_hessian":[2.8166647E2,1.6249625E2,1.1917023E2,1.8642622E1,1.4385362E2,5.0398884E1,6.877135E1],"tree_param":{"num_deleted":"0","num_feature":"10","num_nodes":"7","size_leaf_vector":"0"}},{"base_weights":[-7.868695E-3,-7.913863E-2,3.9344835E-1,-2.3296086E-1,1.2441208E-1,8.3125466E-1,1.4596577E-1],"categories":[],"categories_nodes":[],"categories_segments":[],"categories_sizes":[],"default_left":[1,1,1,0,0,0,0],"id":45,"left_children":[1,3,5,-1,-1,-1,-1],"loss_changes":[7.7884016E0,7.2663293E0,4.3284636E0,0E0,0E0,0E0,0E0],"parents":[2147483647,0,0,1,1,2,2],"right_children":[2,4,6,-1,-1,-1,-1],"split_conditions":[3.1957422E3,4.1481797E3,3.6668398E3,-4.6592172E-2,2.4882417E-2,1.6625093E-1,2.9193154E-2],"split_indices":[6,4,4,0,0,0,0],"split_type":[0,0,0,0,0,0,0],"sum_hessian":[2.7021558E2,2.3014664E2,4.006896E1,1.3100348E2,9.914315E1,1.3618486E1,2.6450472E1],"tree_param":{"num_deleted":"0","num_feature":"10","num_nodes":"7","size_leaf_vector":"0"}},{"base_weights":[-3.8724487E-5,9.5689774E-1,-3.0286232E-2,4.0631992E-1,1.7744315E0,-9.409249E-1,-5.552874E-4],"categories":[],"categories_nodes":[],"categories_segments":[],"categories_sizes":[],"default_left":[1,1,1,0,0,0,0],"id":46,"left_children":[1,3,5,-1,-1,-1,-1],"loss_changes":[8.116771E0,3.1464787E0,7.3589797E0,0E0,0E0,0E0,0E0],"parents":[2147483647,0,0,1,1,2,2],"right_children":[2,4,6,-1,-1,-1,-1],"split_conditions":[5.490981E2,9.7142026E-2,4.767216E-2,8.126398E-2,3.548863E-1,-1.8818498E-1,-1.1105748E-4],"split_indices":[4,0,1,0,0,0,0],"split_type":[0,0,0,0,0,0,0],"sum_hessian":[2.784198E2,7.5921564E0,2.7082764E2,5.4313536E0,2.1608028E0,7.5935755E0,2.6323407E2],"tree_param":{"num_deleted":"0","num_feature":"10","num_nodes":"7","size_leaf_vector":"0"}},{"base_weights":[-2.3754844E-2,1.7726609E-1,-1.6681083E-1,3.2068107E-2,7.3618424E-1,-9.4044246E-2,-1.1340507E0],"categories":[],"categories_nodes":[],"categories_segments":[],"categories_sizes":[],"default_left":[1,1,1,0,0,0,0],"id":47,"left_children":[1,3,5,-1,-1,-1,-1],"loss_changes":[7.8729944E0,9.218487E0,1.1144896E1,0E0,0E0,0E0,0E0],"parents":[2147483647,0,0,1,1,2,2],"right_children":[2,4,6,-1,-1,-1,-1],"split_conditions":[5.5011305E4,3.2797952E0,7.214802E0,6.4136214E-3,1.4723685E-1,-1.880885E-2,-2.2681014E-1],"split_indices":[5,9,1,0,0,0,0],"split_type":[0,0,0,0,0,0,0],"sum_hessian":[2.71746E2,1.1288372E2,1.5886227E2,9.044495E1,2.2438772E1,1.4876755E2,1.0094727E1],"tree_param":{"num_deleted":"0","num_feature":"10","num_nodes":"7","size_leaf_vector":"0"}},{"base_weights":[2.5957804E-2,2.2576374E-1,-8.204893E-2,3.5864553E-1,-7.246667E-2,-1.7166878E0,-4.903848E-2],"categories":[],"categories_nodes":[],"categories_segments":[],"categories_sizes":[],"default_left":[1,1,1,0,0,0,0],"id":48,"left_children":[1,3,5,-1,-1,-1,-1],"loss_changes":[5.988733E0,3.8834639E0,9.645432E0,0E0,0E0,0E0,0E0],"parents":[2147483647,0,0,1,1,2,2],"right_children":[2,4,6,-1,-1,-1,-1],"split_conditions":[2.5555942E-2,9.103373E4,1.7303348E-1,7.172911E-2,-1.4493334E-2,-3.4333757E-1,-9.807697E-3],"split_indices":[0,5,1,0,0,0,0],"split_type":[0,0,0,0,0,0,0],"sum_hessian":[2.7564978E2,9.633871E1,1.7931108E2,6.6504074E1,2.9834633E1,2.5397794E0,1.767713E2],"tree_param":{"num_deleted":"0","num_feature":"10","num_nodes":"7","size_leaf_vector":"0"}},{"base_weights":[-3.2466177E-2,-9.365641E-3,-1.0703489E0,-2.1998876E-1,8.7405145E-2,8.9784354E-2,-1.3579049E0],"categories":[],"categories_nodes":[],"categories_segments":[],"categories_sizes":[],"default_left":[1,1,1,0,0,0,0],"id":49,"left_children":[1,3,5,-1,-1,-1,-1],"loss_changes":[6.64992E0,5.5782666E0,2.1366158E0,0E0,0E0,0E0,0E0],"parents":[2147483647,0,0,1,1,2,2],"right_children":[2,4,6,-1,-1,-1,-1],"split_conditions":[4.636999E0,2.7952995E0,7.4799744E2,-4.3997753E-2,1.7481029E-2,1.7956872E-2,-2.71581E-1],"split_indices":[7,7,2,0,0,0,0],"split_type":[0,0,0,0,0,0,0],"sum_hessian":[2.7677954E2,2.7174036E2,5.0392003E0,8.514583E1,1.8659453E2,1.1375537E0,3.9016469E0],"tree_param":{"num_deleted":"0","num_feature":"10","num_nodes":"7","size_leaf_vector":"0"}},{"base_weights":[-1.3286542E-2,6.380305E-1,-4.5090582E-2,-9.317006E-1,7.840629E-1,-9.4561243E-1,-2.4872571E-2],"categories":[],"categories_nodes":[],"categories_segments":[],"categories_sizes":[],"default_left":[1,1,1,0,0,0,0],"id":50,"left_children":[1,3,5,-1,-1,-1,-1],"loss_changes":[5.7132235E0,3.6743293E0,4.757153E0,0E0,0E0,0E0,0E0],"parents":[2147483647,0,0,1,1,2,2],"right_children":[2,4,6,-1,-1,-1,-1],"split_conditions":[2.1744008E0,1.78544E0,3.9987744E2,-1.8634012E-1,1.568126E-1,-1.8912248E-1,-4.9745142E-3],"split_indices":[9,3,6,0,0,0,0],"split_type":[0,0,0,0,0,0,0],"sum_hessian":[2.734189E2,1.1842115E1,2.6157678E2,5.4999655E-1,1.1292119E1,4.738763E0,2.5683804E2],"tree_param":{"num_deleted":"0","num_feature":"10","num_nodes":"7","size_leaf_vector":"0"}},{"base_weights":[-7.7969925E-3,-8.941289E-2,3.1252912E-1,9.100349E-1,-1.1643655E-1,7.0758924E-2,6.9192904E-1],"categories":[],"categories_nodes":[],"categories_segments":[],"categories_sizes":[],"default_left":[1,1,1,0,0,0,0],"id":51,"left_children":[1,3,5,-1,-1,-1,-1],"loss_changes":[7.1669865E0,6.004643E0,5.057536E0,0E0,0E0,0E0,0E0],"parents":[2147483647,0,0,1,1,2,2],"right_children":[2,4,6,-1,-1,-1,-1],"split_conditions":[6.893797E1,2.0416475E4,2.1846128E3,1.8200698E-1,-2.328731E-2,1.4151785E-2,1.3838582E-1],"split_indices":[3,5,6,0,0,0,0],"split_type":[0,0,0,0,0,0,0],"sum_hessian":[2.7206927E2,2.1739903E2,5.4670235E1,4.8631706E0,2.1253586E2,3.4116325E1,2.0553911E1],"tree_param":{"num_deleted":"0","num_feature":"10","num_nodes":"7","size_leaf_vector":"0"}},{"base_weights":[-1.4931513E-2,-8.568706E-2,3.3083516E-1,9.2761025E-2,-2.853847E-1,4.5101777E-1,-8.82609E-1],"categories":[],"categories_nodes":[],"categories_segments":[],"categories_sizes":[],"default_left":[1,1,1,0,0,0,0],"id":52,"left_children":[1,3,5,-1,-1,-1,-1],"loss_changes":[6.8174553E0,8.26394E0,7.3027554E0,0E0,0E0,0E0,0E0],"parents":[2147483647,0,0,1,1,2,2],"right_children":[2,4,6,-1,-1,-1,-1],"split_conditions":[3.8776703E0,5.925657E4,4.663868E0,1.8552205E-2,-5.7076942E-2,9.020355E-2,-1.7652181E-1],"split_indices":[7,5,7,0,0,0,0],"split_type":[0,0,0,0,0,0,0],"sum_hessian":[2.7650385E2,2.3015793E2,4.6345905E1,1.2182852E2,1.0832941E2,4.2741043E1,3.6048653E0],"tree_param":{"num_deleted":"0","num_feature":"10","num_nodes":"7","size_leaf_vector":"0"}},{"base_weights":[5.10341E-2,8.775769E-1,2.3720961E-2,1.4049308E0,-1.4230116E-1,-2.3460053E-1,1.1457337E-1],"categories":[],"categories_nodes":[],"categories_segments":[],"categories_sizes":[],"default_left":[1,1,1,0,0,0,0],"id":53,"left_children":[1,3,5,-1,-1,-1,-1],"loss_changes":[6.2160106E0,4.9379435E0,6.327312E0,0E0,0E0,0E0,0E0],"parents":[2147483647,0,0,1,1,2,2],"right_children":[2,4,6,-1,-1,-1,-1],"split_conditions":[5.490981E2,1.5565441E1,2.2686338E3,2.8098616E-1,-2.8460233E-2,-4.6920106E-2,2.2914674E-2],"split_indices":[4,3,4,0,0,0,0],"split_type":[0,0,0,0,0,0,0],"sum_hessian":[2.752656E2,7.809402E0,2.674562E2,4.898803E0,2.910599E0,6.91784E1,1.982778E2],"tree_param":{"num_deleted":"0","num_feature":"10","num_nodes":"7","size_leaf_vector":"0"}},{"base_weights":[1.4561613E-2,-1.3771784E-1,1.9175264E-1,-6.2738854E-1,4.8399862E-2,3.2300755E-1,-1.7717463E-1],"categories":[],"categories_nodes":[],"categories_segments":[],"categories_sizes":[],"default_left":[1,1,1,0,0,0,0],"id":54,"left_children":[1,3,5,-1,-1,-1,-1],"loss_changes":[7.3894496E0,1.3458327E1,6.184856E0,0E0,0E0,0E0,0E0],"parents":[2147483647,0,0,1,1,2,2],"right_children":[2,4,6,-1,-1,-1,-1],"split_conditions":[4.176134E3,1.01489075E3,1.5980666E0,-1.2547772E-1,9.679972E-3,6.460151E-2,-3.5434928E-2],"split_indices":[4,6,8,0,0,0,0],"split_type":[0,0,0,0,0,0,0],"sum_hessian":[2.7188156E2,1.463392E2,1.25542366E2,3.965005E1,1.0668915E2,9.269006E1,3.2852295E1],"tree_param":{"num_deleted":"0","num_feature":"10","num_nodes":"7","size_leaf_vector":"0"}},{"base_weights":[1.587573E-3,9.2582405E-1,-2.7224613E-2,-2.2021338E-2,1.1686854E0,-1.7791632E-1,1.2257504E-1],"categories":[],"categories_nodes":[],"categories_segments":[],"categories_sizes":[],"default_left":[1,1,1,0,0,0,0],"id":55,"left_children":[1,3,5,-1,-1,-1,-1],"loss_changes":[7.058962E0,1.8704796E0,5.8259788E0,0E0,0E0,0E0,0E0],"parents":[2147483647,0,0,1,1,2,2],"right_children":[2,4,6,-1,-1,-1,-1],"split_conditions":[2.228807E4,2.1783552E0,3.878326E3,-4.4042678E-3,2.337371E-1,-3.5583265E-2,2.4515009E-2],"split_indices":[5,7,4,0,0,0,0],"split_type":[0,0,0,0,0,0,0],"sum_hessian":[2.6313626E2,7.013828E0,2.5612244E2,1.6160382E0,5.3977895E0,1.2758748E2,1.2853496E2],"tree_param":{"num_deleted":"0","num_feature":"10","num_nodes":"7","size_leaf_vector":"0"}},{"base_weights":[4.6305608E-2,-8.960111E-1,6.954599E-2,-1.0101701E0,2.554823E-1,6.961349E-1,4.210738E-2],"categories":[],"categories_nodes":[],"categories_segments":[],"categories_sizes":[],"default_left":[1,1,1,0,0,0,0],"id":56,"left_children":[1,3,5,-1,-1,-1,-1],"loss_changes":[5.864588E0,1.1058388E0,4.4321547E0,0E0,0E0,0E0,0E0],"parents":[2147483647,0,0,1,1,2,2],"right_children":[2,4,6,-1,-1,-1,-1],"split_conditions":[4.074762E2,8.794878E3,2.1734934E0,-2.0203403E-1,5.1096458E-2,1.3922699E-1,8.421476E-3],"split_indices":[6,4,9,0,0,0,0],"split_type":[0,0,0,0,0,0,0],"sum_hessian":[2.6394638E2,5.449128E0,2.5849725E2,5.06929E0,3.798383E-1,9.822384E0,2.4867487E2],"tree_param":{"num_deleted":"0","num_feature":"10","num_nodes":"7","size_leaf_vector":"0"}},{"base_weights":[-2.496696E-2,-6.580187E-2,5.5332875E-1,5.9493E-1,-1.0141008E-1,7.118679E-1,-4.0009302E-1],"categories":[],"categories_nodes":[],"categories_segments":[],"categories_sizes":[],"default_left":[1,0,1,0,0,0,0],"id":57,"left_children":[1,3,5,-1,-1,-1,-1],"loss_changes":[6.0601482E0,5.687031E0,2.8439312E0,0E0,0E0,0E0,0E0],"parents":[2147483647,0,0,1,1,2,2],"right_children":[2,4,6,-1,-1,-1,-1],"split_conditions":[3.1735318E2,9.333144E-2,2.6047945E-1,1.18986E-1,-2.0282017E-2,1.4237359E-1,-8.00186E-2],"split_indices":[3,8,0,0,0,0,0],"split_type":[0,0,0,0,0,0,0],"sum_hessian":[2.5408475E2,2.381543E2,1.5930456E1,1.1375087E1,2.267792E2,1.3876385E1,2.0540712E0],"tree_param":{"num_deleted":"0","num_feature":"10","num_nodes":"7","size_leaf_vector":"0"}},{"base_weights":[-2.521716E-2,8.713018E-2,-3.070487E-1,-5.513265E-2,4.3123266E-1,1.3492835E-1,-6.2189E-1],"categories":[],"categories_nodes":[],"categories_segments":[],"categories_sizes":[],"default_left":[1,1,1,0,0,0,0],"id":58,"left_children":[1,3,5,-1,-1,-1,-1],"loss_changes":[8.324153E0,9.233929E0,1.0507897E1,0E0,0E0,0E0,0E0],"parents":[2147483647,0,0,1,1,2,2],"right_children":[2,4,6,-1,-1,-1,-1],"split_conditions":[8.9872125E4,3.2737217E0,9.944286E0,-1.10265305E-2,8.6246535E-2,2.698567E-2,-1.24378E-1],"split_indices":[5,9,3,0,0,0,0],"split_type":[0,0,0,0,0,0,0],"sum_hessian":[2.6105328E2,1.8714282E2,7.391045E1,1.3299731E2,5.414551E1,3.0984945E1,4.2925507E1],"tree_param":{"num_deleted":"0","num_feature":"10","num_nodes":"7","size_leaf_vector":"0"}},{"base_weights":[9.047845E-3,-8.3916104E-1,3.093324E-2,-1.0872263E0,-2.4690095E-2,6.191663E-3,7.9328567E-1],"categories":[],"categories_nodes":[],"categories_segments":[],"categories_sizes":[],"default_left":[1,1,1,0,0,0,0],"id":59,"left_children":[1,3,5,-1,-1,-1,-1],"loss_changes":[4.9785814E0,1.3361773E0,4.9189434E0,0E0,0E0,0E0,0E0],"parents":[2147483647,0,0,1,1,2,2],"right_children":[2,4,6,-1,-1,-1,-1],"split_conditions":[4.1279465E2,2.2021595E1,4.5692863E0,-2.1744525E-1,-4.938019E-3,1.2383326E-3,1.5865713E-1],"split_indices":[6,3,8,0,0,0,0],"split_type":[0,0,0,0,0,0,0],"sum_hessian":[2.6579526E2,5.7462263E0,2.6004904E2,4.14798E0,1.5982463E0,2.5285106E2,7.1979704E0],"tree_param":{"num_deleted":"0","num_feature":"10","num_nodes":"7","size_leaf_vector":"0"}},{"base_weights":[-2.994657E-3,-2.6335984E-1,1.1261899E-1,1.1758177E-1,-4.3870604E-1,-1.7593466E-2,3.421386E-1],"categories":[],"categories_nodes":[],"categories_segments":[],"categories_sizes":[],"default_left":[1,1,1,0,0,0,0],"id":60,"left_children":[1,3,5,-1,-1,-1,-1],"loss_changes":[7.904993E0,5.445341E0,5.441584E0,0E0,0E0,0E0,0E0],"parents":[2147483647,0,0,1,1,2,2],"right_children":[2,4,6,-1,-1,-1,-1],"split_conditions":[2.7929764E0,2.3765918E-2,4.5453174E3,2.3516355E-2,-8.774121E-2,-3.5186931E-3,6.842772E-2],"split_indices":[7,0,4,0,0,0,0],"split_type":[0,0,0,0,0,0,0],"sum_hessian":[2.6062363E2,7.974891E1,1.8087471E2,2.524131E1,5.45076E1,1.1599249E2,6.488222E1],"tree_param":{"num_deleted":"0","num_feature":"10","num_nodes":"7","size_leaf_vector":"0"}},{"base_weights":[-1.2984688E-2,3.9827775E-2,-3.511157E-1,-5.6354735E-2,2.0176357E-1,-1.2518585E0,-7.325338E-2],"categories":[],"categories_nodes":[],"categories_segments":[],"categories_sizes":[],"default_left":[1,1,1,0,0,0,0],"id":61,"left_children":[1,3,5,-1,-1,-1,-1],"loss_changes":[4.6723495E0,3.5395238E0,8.753721E0,0E0,0E0,0E0,0E0],"parents":[2147483647,0,0,1,1,2,2],"right_children":[2,4,6,-1,-1,-1,-1],"split_conditions":[5.35433E0,3.304545E0,8.136091E2,-1.1270947E-2,4.0352713E-2,-2.503717E-1,-1.46506755E-2],"split_indices":[1,9,6,0,0,0,0],"split_type":[0,0,0,0,0,0,0],"sum_hessian":[2.5986276E2,2.2552101E2,3.4341766E1,1.4189426E2,8.362675E1,7.269854E0,2.7071913E1],"tree_param":{"num_deleted":"0","num_feature":"10","num_nodes":"7","size_leaf_vector":"0"}},{"base_weights":[-2.3447106E-2,9.994207E-1,-4.540421E-2,7.4176095E-2,1.0705554E0,-2.919662E-1,7.23247E-2],"categories":[],"categories_nodes":[],"categories_segments":[],"categories_sizes":[],"default_left":[1,0,1,0,0,0,0],"id":62,"left_children":[1,3,5,-1,-1,-1,-1],"loss_changes":[5.9625573E0,2.8786087E-1,7.5358415E0,0E0,0E0,0E0,0E0],"parents":[2147483647,0,0,1,1,2,2],"right_children":[2,4,6,-1,-1,-1,-1],"split_conditions":[2.0440719E4,4.5877624E-1,2.5702095E3,1.4835219E-2,2.1411109E-1,-5.839324E-2,1.446494E-2],"split_indices":[5,8,4,0,0,0,0],"split_type":[0,0,0,0,0,0,0],"sum_hessian":[2.6246332E2,4.580166E0,2.5788315E2,4.72832E-1,4.1073337E0,8.286253E1,1.7502063E2],"tree_param":{"num_deleted":"0","num_feature":"10","num_nodes":"7","size_leaf_vector":"0"}},{"base_weights":[4.4855587E-2,-3.607815E-1,9.4270274E-2,-5.671615E-1,5.468939E-1,1.991131E-1,-1.7530565E-1],"categories":[],"categories_nodes":[],"categories_segments":[],"categories_sizes":[],"default_left":[1,1,1,0,0,0,0],"id":63,"left_children":[1,3,5,-1,-1,-1,-1],"loss_changes":[5.2808094E0,5.6736717E0,6.652048E0,0E0,0E0,0E0,0E0],"parents":[2147483647,0,0,1,1,2,2],"right_children":[2,4,6,-1,-1,-1,-1],"split_conditions":[1.9982002E0,3.7429411E0,8.9872125E4,-1.134323E-1,1.0937878E-1,3.982262E-2,-3.5061132E-2],"split_indices":[3,9,5,0,0,0,0],"split_type":[0,0,0,0,0,0,0],"sum_hessian":[2.6075842E2,2.7631866E1,2.3312656E2,2.2818686E1,4.8131824E0,1.6803584E2,6.509071E1],"tree_param":{"num_deleted":"0","num_feature":"10","num_nodes":"7","size_leaf_vector":"0"}},{"base_weights":[-1.1149964E-2,-7.701226E-1,1.8451598E-2,2.6029646E-1,-1.4368868E0,-6.9681674E-2,2.817407E-1],"categories":[],"categories_nodes":[],"categories_segments":[],"categories_sizes":[],"default_left":[1,1,1,0,0,0,0],"id":64,"left_children":[1,3,5,-1,-1,-1,-1],"loss_changes":[5.8740544E0,7.116816E0,5.8673706E0,0E0,0E0,0E0,0E0],"parents":[2147483647,0,0,1,1,2,2],"right_children":[2,4,6,-1,-1,-1,-1],"split_conditions":[4.7743842E-2,5.5046117E4,4.3139965E1,5.2059293E-2,-2.8737736E-1,-1.3936335E-2,5.634814E-2],"split_indices":[1,5,3,0,0,0,0],"split_type":[0,0,0,0,0,0,0],"sum_hessian":[2.5982266E2,8.814181E0,2.510085E2,3.7022805E0,5.111901E0,1.8860896E2,6.2399532E1],"tree_param":{"num_deleted":"0","num_feature":"10","num_nodes":"7","size_leaf_vector":"0"}},{"base_weights":[-1.1717475E-2,-7.982708E-2,3.3134222E-1,-2.2549915E-1,1.407751E-1,5.853743E-1,-1.5234601E-1],"categories":[],"categories_nodes":[],"categories_segments":[],"categories_sizes":[],"default_left":[1,1,1,0,0,0,0],"id":65,"left_children":[1,3,5,-1,-1,-1,-1],"loss_changes":[5.9693475E0,6.877186E0,5.2898417E0,0E0,0E0,0E0,0E0],"parents":[2147483647,0,0,1,1,2,2],"right_children":[2,4,6,-1,-1,-1,-1],"split_conditions":[7.8535293E3,3.3048673E0,1.2650003E5,-4.5099832E-2,2.815502E-2,1.1707486E-1,-3.0469203E-2],"split_indices":[4,9,5,0,0,0,0],"split_type":[0,0,0,0,0,0,0],"sum_hessian":[2.5334323E2,2.1201749E2,4.1325737E1,1.27681984E2,8.433551E1,2.6957487E1,1.4368251E1],"tree_param":{"num_deleted":"0","num_feature":"10","num_nodes":"7","size_leaf_vector":"0"}},{"base_weights":[-2.0087168E-3,2.1618607E-2,-7.208423E-1,1.4513645E-1,-1.2970412E-1,3.8986433E-1,-9.2142266E-1],"categories":[],"categories_nodes":[],"categories_segments":[],"categories_sizes":[],"default_left":[1,1,1,0,0,0,0],"id":66,"left_children":[1,3,5,-1,-1,-1,-1],"loss_changes":[4.403334E0,4.712036E0,2.1973047E0,0E0,0E0,0E0,0E0],"parents":[2147483647,0,0,1,1,2,2],"right_children":[2,4,6,-1,-1,-1,-1],"split_conditions":[3.6504143E-1,6.856019E4,5.4440576E2,2.9027289E-2,-2.5940824E-2,7.797287E-2,-1.8428454E-1],"split_indices":[0,5,4,0,0,0,0],"split_type":[0,0,0,0,0,0,0],"sum_hessian":[2.573444E2,2.5009396E2,7.2504077E0,1.3772015E2,1.1237381E2,9.647054E-1,6.285702E0],"tree_param":{"num_deleted":"0","num_feature":"10","num_nodes":"7","size_leaf_vector":"0"}},{"base_weights":[1.6694063E-2,7.674329E-1,-7.0196847E-3,1.0518919E0,-1.2670718E-1,-1.5310207E-1,1.6387266E-1],"categories":[],"categories_nodes":[],"categories_segments":[],"categories_sizes":[],"default_left":[1,0,1,0,0,0,0],"id":67,"left_children":[1,3,5,-1,-1,-1,-1],"loss_changes":[4.6259413E0,2.1569114E0,6.3306923E0,0E0,0E0,0E0,0E0],"parents":[2147483647,0,0,1,1,2,2],"right_children":[2,4,6,-1,-1,-1,-1],"split_conditions":[5.5014453E2,3.068709E0,4.176218E3,2.103784E-1,-2.5341436E-2,-3.0620415E-2,3.2774534E-2],"split_indices":[4,8,4,0,0,0,0],"split_type":[0,0,0,0,0,0,0],"sum_hessian":[2.5854044E2,6.956196E0,2.5158424E2,5.1434464E0,1.8127493E0,1.3569414E2,1.1589011E2],"tree_param":{"num_deleted":"0","num_feature":"10","num_nodes":"7","size_leaf_vector":"0"}},{"base_weights":[1.2784368E-2,-1.2088254E-1,1.6363744E-1,-1.765019E-1,5.3554404E-1,1.9842361E-1,-1.8039262E0],"categories":[],"categories_nodes":[],"categories_segments":[],"categories_sizes":[],"default_left":[1,1,1,0,0,0,0],"id":68,"left_children":[1,3,5,-1,-1,-1,-1],"loss_changes":[4.9674582E0,4.8653383E0,8.276891E0,0E0,0E0,0E0,0E0],"parents":[2147483647,0,0,1,1,2,2],"right_children":[2,4,6,-1,-1,-1,-1],"split_conditions":[3.2121956E0,1.2074223E4,5.904126E3,-3.530038E-2,1.0710881E-1,3.9684724E-2,-3.6078525E-1],"split_indices":[7,4,2,0,0,0,0],"split_type":[0,0,0,0,0,0,0],"sum_hessian":[2.4437102E2,1.2967134E2,1.1469967E2,1.2021646E2,9.454885E0,1.1359056E2,1.1091081E0],"tree_param":{"num_deleted":"0","num_feature":"10","num_nodes":"7","size_leaf_vector":"0"}},{"base_weights":[3.3731272E-3,4.4135174E-1,-3.9143335E-2,-3.4930393E-1,5.9764624E-1,-3.9785883E-1,5.108675E-2],"categories":[],"categories_nodes":[],"categories_segments":[],"categories_sizes":[],"default_left":[1,1,1,0,0,0,0],"id":69,"left_children":[1,3,5,-1,-1,-1,-1],"loss_changes":[4.682868E0,2.9584832E0,7.4420595E0,0E0,0E0,0E0,0E0],"parents":[2147483647,0,0,1,1,2,2],"right_children":[2,4,6,-1,-1,-1,-1],"split_conditions":[2.983683E4,7.1281775E2,2.6400936E0,-6.9860786E-2,1.1952925E-1,-7.957177E-2,1.021735E-2],"split_indices":[5,6,9,0,0,0,0],"split_type":[0,0,0,0,0,0,0],"sum_hessian":[2.4955135E2,2.1251425E1,2.2829993E2,3.303734E0,1.7947691E1,4.5199E1,1.8310092E2],"tree_param":{"num_deleted":"0","num_feature":"10","num_nodes":"7","size_leaf_vector":"0"}},{"base_weights":[-1.48797305E-2,2.0316073E-1,-1.0506778E-1,-4.7182526E-2,5.263148E-1,-9.763074E-1,-6.622914E-2],"categories":[],"categories_nodes":[],"categories_segments":[],"categories_sizes":[],"default_left":[1,1,1,0,0,0,0],"id":70,"left_children":[1,3,5,-1,-1,-1,-1],"loss_changes":[5.0980315E0,6.1634603E0,6.1372395E0,0E0,0E0,0E0,0E0],"parents":[2147483647,0,0,1,1,2,2],"right_children":[2,4,6,-1,-1,-1,-1],"split_conditions":[4.538828E4,2.8096008E0,4.8174568E-2,-9.436506E-3,1.0526296E-1,-1.9526148E-1,-1.3245828E-2],"split_indices":[5,7,1,0,0,0,0],"split_type":[0,0,0,0,0,0,0],"sum_hessian":[2.571631E2,7.487972E1,1.8228337E2,4.2674404E1,3.2205315E1,6.7490563E0,1.7553432E2],"tree_param":{"num_deleted":"0","num_feature":"10","num_nodes":"7","size_leaf_vector":"0"}},{"base_weights":[2.5986215E-2,-4.965408E-1,6.393008E-2,-9.8431635E-1,2.9604307E-1,1.6052265E-1,-1.600927E-1],"categories":[],"categories_nodes":[],"categories_segments":[],"categories_sizes":[],"default_left":[1,1,1,0,0,0,0],"id":71,"left_children":[1,3,5,-1,-1,-1,-1],"loss_changes":[5.1078157E0,7.036369E0,5.209854E0,0E0,0E0,0E0,0E0],"parents":[2147483647,0,0,1,1,2,2],"right_children":[2,4,6,-1,-1,-1,-1],"split_conditions":[5.0235294E2,6.5425137E3,8.587533E4,-1.9686328E-1,5.9208613E-2,3.2104533E-2,-3.201854E-2],"split_indices":[6,4,5,0,0,0,0],"split_type":[0,0,0,0,0,0,0],"sum_hessian":[2.5502211E2,1.6446754E1,2.3857535E2,1.0031323E1,6.41543E0,1.6689723E2,7.167812E1],"tree_param":{"num_deleted":"0","num_feature":"10","num_nodes":"7","size_leaf_vector":"0"}},{"base_weights":[-6.5573E-2,-1.0256674E-1,5.208182E-1,-3.9466184E-1,-3.1322904E-2,6.2910706E-1,-6.984768E-1],"categories":[],"categories_nodes":[],"categories_segments":[],"categories_sizes":[],"default_left":[1,1,1,0,0,0,0],"id":72,"left_children":[1,3,5,-1,-1,-1,-1],"loss_changes":[5.526234E0,4.9435554E0,2.4379268E0,0E0,0E0,0E0,0E0],"parents":[2147483647,0,0,1,1,2,2],"right_children":[2,4,6,-1,-1,-1,-1],"split_conditions":[3.1735318E2,2.5941536E0,4.8060166E3,-7.893237E-2,-6.264581E-3,1.2582141E-1,-1.3969536E-1],"split_indices":[3,7,3,0,0,0,0],"split_type":[0,0,0,0,0,0,0],"sum_hessian":[2.5128712E2,2.3715103E2,1.4136092E1,4.561067E1,1.9154036E2,1.3427591E1,7.085005E-1],"tree_param":{"num_deleted":"0","num_feature":"10","num_nodes":"7","size_leaf_vector":"0"}},{"base_weights":[3.0101635E-2,4.792484E-2,-8.613575E-1,-1.0157158E0,6.338967E-2,4.61563E-1,-1.3688735E0],"categories":[],"categories_nodes":[],"categories_segments":[],"categories_sizes":[],"default_left":[1,1,1,0,0,0,0],"id":73,"left_children":[1,3,5,-1,-1,-1,-1],"loss_changes":[4.1086E0,4.2081966E0,4.0361357E0,0E0,0E0,0E0,0E0],"parents":[2147483647,0,0,1,1,2,2],"right_children":[2,4,6,-1,-1,-1,-1],"split_conditions":[4.591375E0,1.4122048E-1,5.280556E0,-2.0314316E-1,1.2677933E-2,9.23126E-2,-2.737747E-1],"split_indices":[9,3,3,0,0,0,0],"split_type":[0,0,0,0,0,0,0],"sum_hessian":[2.5498888E2,2.5091843E2,4.070446E0,2.6690245E0,2.482494E2,1.1536971E0,2.9167488E0],"tree_param":{"num_deleted":"0","num_feature":"10","num_nodes":"7","size_leaf_vector":"0"}},{"base_weights":[1.1013804E-2,-9.425036E-2,1.9095246E-1,-1.7669486E-1,6.786856E-1,3.6291903E-1,-4.0650144E-1],"categories":[],"categories_nodes":[],"categories_segments":[],"categories_sizes":[],"default_left":[1,0,0,0,0,0,0],"id":74,"left_children":[1,3,5,-1,-1,-1,-1],"loss_changes":[4.7723594E0,1.0254256E1,9.699844E0,0E0,0E0,0E0,0E0],"parents":[2147483647,0,0,1,1,2,2],"right_children":[2,4,6,-1,-1,-1,-1],"split_conditions":[3.3070955E0,3.7271829E0,2.254844E0,-3.533897E-2,1.3573712E-1,7.258381E-2,-8.130029E-2],"split_indices":[9,8,8,0,0,0,0],"split_type":[0,0,0,0,0,0,0],"sum_hessian":[2.500078E2,1.5803406E2,9.197375E1,1.4349924E2,1.4534814E1,7.1722305E1,2.0251442E1],"tree_param":{"num_deleted":"0","num_feature":"10","num_nodes":"7","size_leaf_vector":"0"}},{"base_weights":[-4.1926797E-2,-8.222675E-2,3.7436992E-1,-6.407146E-2,-1.5656389E0,5.544381E-1,-9.119697E-1],"categories":[],"categories_nodes":[],"categories_segments":[],"categories_sizes":[],"default_left":[1,1,1,0,0,0,0],"id":75,"left_children":[1,3,5,-1,-1,-1,-1],"loss_changes":[4.3013554E0,6.172254E0,5.7514133E0,0E0,0E0,0E0,0E0],"parents":[2147483647,0,0,1,1,2,2],"right_children":[2,4,6,-1,-1,-1,-1],"split_conditions":[2.8448343E0,2.7482266E0,3.6938228E3,-1.2814293E-2,-3.131278E-1,1.10887624E-1,-1.8239395E-1],"split_indices":[8,8,2,0,0,0,0],"split_type":[0,0,0,0,0,0,0],"sum_hessian":[2.5355319E2,2.3190582E2,2.1647358E1,2.3013246E2,1.7733693E0,1.9488274E1,2.1590853E0],"tree_param":{"num_deleted":"0","num_feature":"10","num_nodes":"7","size_leaf_vector":"0"}},{"base_weights":[3.128115E-2,-1.4348184E-1,1.134863E-1,-3.1373265E-1,3.154643E-1,3.6982E-1,-8.631336E-2],"categories":[],"categories_nodes":[],"categories_segments":[],"categories_sizes":[],"default_left":[1,1,1,0,0,0,0],"id":76,"left_children":[1,3,5,-1,-1,-1,-1],"loss_changes":[3.7075891E0,6.555951E0,9.010087E0,0E0,0E0,0E0,0E0],"parents":[2147483647,0,0,1,1,2,2],"right_children":[2,4,6,-1,-1,-1,-1],"split_conditions":[2.7952995E0,7.3063438E3,6.856019E4,-6.274653E-2,6.309286E-2,7.3964E-2,-1.7262673E-2],"split_indices":[7,4,5,0,0,0,0],"split_type":[0,0,0,0,0,0,0],"sum_hessian":[2.559399E2,8.163775E1,1.7430215E2,5.9778652E1,2.18591E1,7.597666E1,9.832549E1],"tree_param":{"num_deleted":"0","num_feature":"10","num_nodes":"7","size_leaf_vector":"0"}},{"base_weights":[-4.6980705E-2,1.4442454E-1,-1.2860672E-1,-4.9582798E-2,6.7779917E-1,-7.384099E-1,-5.4471165E-2],"categories":[],"categories_nodes":[],"categories_segments":[],"categories_sizes":[],"default_left":[1,1,1,0,0,0,0],"id":77,"left_children":[1,3,5,-1,-1,-1,-1],"loss_changes":[3.9772425E0,7.920858E0,8.013857E0,0E0,0E0,0E0,0E0],"parents":[2147483647,0,0,1,1,2,2],"right_children":[2,4,6,-1,-1,-1,-1],"split_conditions":[4.5678312E4,3.0597644E0,2.5297887E0,-9.91656E-3,1.3555984E-1,-1.4768198E-1,-1.0894233E-2],"split_indices":[5,9,9,0,0,0,0],"split_type":[0,0,0,0,0,0,0],"sum_hessian":[2.5237672E2,7.522109E1,1.7715564E2,5.582323E1,1.9397858E1,1.8231543E1,1.5892409E2],"tree_param":{"num_deleted":"0","num_feature":"10","num_nodes":"7","size_leaf_vector":"0"}},{"base_weights":[2.7605933E-3,-5.9951924E-2,3.0879736E-1,-4.1211584E-1,3.330392E-2,4.7847095E-1,-3.0656946E-1],"categories":[],"categories_nodes":[],"categories_segments":[],"categories_sizes":[],"default_left":[1,1,1,0,0,0,0],"id":78,"left_children":[1,3,5,-1,-1,-1,-1],"loss_changes":[4.8709884E0,6.9324903E0,4.6532526E0,0E0,0E0,0E0,0E0],"parents":[2147483647,0,0,1,1,2,2],"right_children":[2,4,6,-1,-1,-1,-1],"split_conditions":[3.8776703E0,2.0047507E3,4.468787E0,-8.242317E-2,6.660784E-3,9.569419E-2,-6.1313894E-2],"split_indices":[7,4,7,0,0,0,0],"split_type":[0,0,0,0,0,0,0],"sum_hessian":[2.5183403E2,2.0967242E2,4.2161602E1,4.3182453E1,1.6648996E2,3.3223446E1,8.938157E0],"tree_param":{"num_deleted":"0","num_feature":"10","num_nodes":"7","size_leaf_vector":"0"}},{"base_weights":[2.1644212E-2,-7.2976938E-3,6.983363E-1,1.0375471E-2,-1.7570497E0,9.8829806E-1,2.6082447E-2],"categories":[],"categories_nodes":[],"categories_segments":[],"categories_sizes":[],"default_left":[1,1,1,0,0,0,0],"id":79,"left_children":[1,3,5,-1,-1,-1,-1],"loss_changes":[5.0829744E0,7.7377725E0,2.0491729E0,0E0,0E0,0E0,0E0],"parents":[2147483647,0,0,1,1,2,2],"right_children":[2,4,6,-1,-1,-1,-1],"split_conditions":[6.002413E3,5.702106E3,2.960238E0,2.0750943E-3,-3.5140994E-1,1.9765961E-1,5.2164895E-3],"split_indices":[6,6,7,0,0,0,0],"split_type":[0,0,0,0,0,0,0],"sum_hessian":[2.5827698E2,2.4863228E2,9.644708E0,2.4713025E2,1.5020398E0,6.40984E0,3.2348683E0],"tree_param":{"num_deleted":"0","num_feature":"10","num_nodes":"7","size_leaf_vector":"0"}},{"base_weights":[5.4944117E-2,9.4620116E-2,-4.058477E-1,-1.2706757E-2,3.801617E-1,2.3628381E-1,-9.228786E-1],"categories":[],"categories_nodes":[],"categories_segments":[],"categories_sizes":[],"default_left":[1,1,1,0,0,0,0],"id":80,"left_children":[1,3,5,-1,-1,-1,-1],"loss_changes":[4.661279E0,7.1645546E0,6.9361973E0,0E0,0E0,0E0,0E0],"parents":[2147483647,0,0,1,1,2,2],"right_children":[2,4,6,-1,-1,-1,-1],"split_conditions":[1.5015525E5,3.5155482E0,1.03167305E1,-2.5413514E-3,7.603234E-2,4.7256764E-2,-1.8457572E-1],"split_indices":[5,7,3,0,0,0,0],"split_type":[0,0,0,0,0,0,0],"sum_hessian":[2.5185977E2,2.3262454E2,1.9235237E1,1.6976881E2,6.285572E1,8.821852E0,1.0413384E1],"tree_param":{"num_deleted":"0","num_feature":"10","num_nodes":"7","size_leaf_vector":"0"}},{"base_weights":[-1.7565243E-2,-8.676348E-2,2.9946467E-1,4.0608802E-1,-1.5740481E-1,5.848745E-1,4.1706194E-3],"categories":[],"categories_nodes":[],"categories_segments":[],"categories_sizes":[],"default_left":[1,1,1,0,0,0,0],"id":81,"left_children":[1,3,5,-1,-1,-1,-1],"loss_changes":[5.5947456E0,7.345203E0,3.8494883E0,0E0,0E0,0E0,0E0],"parents":[2147483647,0,0,1,1,2,2],"right_children":[2,4,6,-1,-1,-1,-1],"split_conditions":[3.8180313E0,3.1083004E4,4.1490335E0,8.121761E-2,-3.1480964E-2,1.16974905E-1,8.341239E-4],"split_indices":[7,5,7,0,0,0,0],"split_type":[0,0,0,0,0,0,0],"sum_hessian":[2.52842E2,2.0813797E2,4.470403E1,2.5497566E1,1.826404E2,2.2233797E1,2.2470232E1],"tree_param":{"num_deleted":"0","num_feature":"10","num_nodes":"7","size_leaf_vector":"0"}},{"base_weights":[-3.6769405E-2,2.1223183E-1,-1.0573986E-1,-4.3539935E-1,5.45726E-1,-1.4753202E0,-6.925925E-2],"categories":[],"categories_nodes":[],"categories_segments":[],"categories_sizes":[],"default_left":[1,1,1,0,0,0,0],"id":82,"left_children":[1,3,5,-1,-1,-1,-1],"loss_changes":[4.369416E0,1.21674795E1,9.834588E0,0E0,0E0,0E0,0E0],"parents":[2147483647,0,0,1,1,2,2],"right_children":[2,4,6,-1,-1,-1,-1],"split_conditions":[1.7896086E-2,2.756919E0,1.1672306E-1,-8.7079875E-2,1.091452E-1,-2.9506406E-1,-1.385185E-2],"split_indices":[0,9,1,0,0,0,0],"split_type":[0,0,0,0,0,0,0],"sum_hessian":[2.521177E2,5.423568E1,1.9788202E2,1.8331377E1,3.5904305E1,4.1107874E0,1.9377124E2],"tree_param":{"num_deleted":"0","num_feature":"10","num_nodes":"7","size_leaf_vector":"0"}},{"base_weights":[3.529161E-2,-1.7252345E-1,1.2465644E-1,-6.558653E-1,5.900472E-2,3.1753898E-1,-8.697248E-3],"categories":[],"categories_nodes":[],"categories_segments":[],"categories_sizes":[],"default_left":[1,1,0,0,0,0,0],"id":83,"left_children":[1,3,5,-1,-1,-1,-1],"loss_changes":[4.698619E0,8.56064E0,4.5476046E0,0E0,0E0,0E0,0E0],"parents":[2147483647,0,0,1,1,2,2],"right_children":[2,4,6,-1,-1,-1,-1],"split_conditions":[2.556022E3,1.2224983E3,8.2233775E-1,-1.3117306E-1,1.1800944E-2,6.3507795E-2,-1.7394497E-3],"split_indices":[4,6,8,0,0,0,0],"split_type":[0,0,0,0,0,0,0],"sum_hessian":[2.5084549E2,7.515181E1,1.7569368E2,2.3746166E1,5.140564E1,7.1252716E1,1.0444097E2],"tree_param":{"num_deleted":"0","num_feature":"10","num_nodes":"7","size_leaf_vector":"0"}},{"base_weights":[2.1120971E-4,1.4154051E-1,-1.9245292E-1,-2.4015005E-1,2.7838188E-1,2.761635E-1,-3.4157136E-1],"categories":[],"categories_nodes":[],"categories_segments":[],"categories_sizes":[],"default_left":[1,1,1,0,0,0,0],"id":84,"left_children":[1,3,5,-1,-1,-1,-1],"loss_changes":[6.7497478E0,7.535528E0,7.4242535E0,0E0,0E0,0E0,0E0],"parents":[2147483647,0,0,1,1,2,2],"right_children":[2,4,6,-1,-1,-1,-1],"split_conditions":[7.228641E4,7.7309237E0,2.9987674E0,-4.803001E-2,5.567638E-2,5.52327E-2,-6.831428E-2],"split_indices":[5,3,9,0,0,0,0],"split_type":[0,0,0,0,0,0,0],"sum_hessian":[2.45887E2,1.41993E2,1.03894005E2,3.7272934E1,1.0472006E2,2.4873886E1,7.902012E1],"tree_param":{"num_deleted":"0","num_feature":"10","num_nodes":"7","size_leaf_vector":"0"}},{"base_weights":[4.384353E-2,4.2865315E-1,-2.9520602E-3,-2.711493E-1,5.875254E-1,-1.2122347E0,1.6876932E-2],"categories":[],"categories_nodes":[],"categories_segments":[],"categories_sizes":[],"default_left":[1,1,1,0,0,0,0],"id":85,"left_children":[1,3,5,-1,-1,-1,-1],"loss_changes":[4.4368544E0,3.1292868E0,5.310362E0,0E0,0E0,0E0,0E0],"parents":[2147483647,0,0,1,1,2,2],"right_children":[2,4,6,-1,-1,-1,-1],"split_conditions":[3.170871E4,2.2049444E0,3.2343355E4,-5.4229863E-2,1.1750509E-1,-2.4244694E-1,3.3753866E-3],"split_indices":[5,7,5,0,0,0,0],"split_type":[0,0,0,0,0,0,0],"sum_hessian":[2.4532043E2,2.5713446E1,2.1960698E2,4.626753E0,2.1086693E1,2.5727355E0,2.1703424E2],"tree_param":{"num_deleted":"0","num_feature":"10","num_nodes":"7","size_leaf_vector":"0"}},{"base_weights":[2.0098772E-2,-1.2855816E-1,2.210607E-1,-4.472714E-1,9.770525E-2,6.785077E-1,1.3494827E-1],"categories":[],"categories_nodes":[],"categories_segments":[],"categories_sizes":[],"default_left":[1,1,1,0,0,0,0],"id":86,"left_children":[1,3,5,-1,-1,-1,-1],"loss_changes":[7.4452343E0,1.0380162E1,4.0812173E0,0E0,0E0,0E0,0E0],"parents":[2147483647,0,0,1,1,2,2],"right_children":[2,4,6,-1,-1,-1,-1],"split_conditions":[4.5449775E3,3.0543487E0,5.1903276E3,-8.9454286E-2,1.9541051E-2,1.3570154E-1,2.6989654E-2],"split_indices":[4,9,4,0,0,0,0],"split_type":[0,0,0,0,0,0,0],"sum_hessian":[2.4726672E2,1.4233672E2,1.0493001E2,5.8689823E1,8.364689E1,1.5533503E1,8.939651E1],"tree_param":{"num_deleted":"0","num_feature":"10","num_nodes":"7","size_leaf_vector":"0"}},{"base_weights":[3.0099353E-2,7.296784E-1,1.4815808E-3,1.9563755E-2,1.0060866E0,1.2791727E-1,-1.7402701E-1],"categories":[],"categories_nodes":[],"categories_segments":[],"categories_sizes":[],"default_left":[1,1,0,0,0,0,0],"id":87,"left_children":[1,3,5,-1,-1,-1,-1],"loss_changes":[4.932608E0,1.8808455E0,5.2980766E0,0E0,0E0,0E0,0E0],"parents":[2147483647,0,0,1,1,2,2],"right_children":[2,4,6,-1,-1,-1,-1],"split_conditions":[2.1744008E0,1.9638678E0,1.3324442E0,3.912751E-3,2.0121732E-1,2.5583455E-2,-3.4805402E-2],"split_indices":[9,9,8,0,0,0,0],"split_type":[0,0,0,0,0,0,0],"sum_hessian":[2.4543318E2,8.682668E0,2.3675052E2,2.732762E0,5.9499054E0,1.3777158E2,9.897894E1],"tree_param":{"num_deleted":"0","num_feature":"10","num_nodes":"7","size_leaf_vector":"0"}},{"base_weights":[1.0963172E-2,9.191579E-1,-1.34614175E-2,1.0424604E0,-4.1608214E-1,-1.9619419E-1,8.2050756E-2],"categories":[],"categories_nodes":[],"categories_segments":[],"categories_sizes":[],"default_left":[1,1,1,0,0,0,0],"id":88,"left_children":[1,3,5,-1,-1,-1,-1],"loss_changes":[5.3591394E0,1.475421E0,4.130004E0,0E0,0E0,0E0,0E0],"parents":[2147483647,0,0,1,1,2,2],"right_children":[2,4,6,-1,-1,-1,-1],"split_conditions":[2.228807E4,1.4466699E0,2.82177E3,2.0849209E-1,-8.321643E-2,-3.9238837E-2,1.6410151E-2],"split_indices":[5,0,4,0,0,0,0],"split_type":[0,0,0,0,0,0,0],"sum_hessian":[2.4003769E2,5.3270273E0,2.3471066E2,5.0774245E0,2.4960251E-1,8.020647E1,1.545042E2],"tree_param":{"num_deleted":"0","num_feature":"10","num_nodes":"7","size_leaf_vector":"0"}},{"base_weights":[7.1664904E-3,2.0962465E-1,-8.22853E-2,-6.675731E-2,4.2943203E-1,-2.8123614E-1,1.16285995E-1],"categories":[],"categories_nodes":[],"categories_segments":[],"categories_sizes":[],"default_left":[1,1,1,0,0,0,0],"id":89,"left_children":[1,3,5,-1,-1,-1,-1],"loss_changes":[4.416128E0,4.5675764E0,6.7163544E0,0E0,0E0,0E0,0E0],"parents":[2147483647,0,0,1,1,2,2],"right_children":[2,4,6,-1,-1,-1,-1],"split_conditions":[4.6460547E4,2.663888E0,3.383362E0,-1.3351462E-2,8.588641E-2,-5.624723E-2,2.32572E-2],"split_indices":[5,7,7,0,0,0,0],"split_type":[0,0,0,0,0,0,0],"sum_hessian":[2.4189452E2,7.371357E1,1.6818094E2,3.2962894E1,4.075067E1,8.380223E1,8.4378716E1],"tree_param":{"num_deleted":"0","num_feature":"10","num_nodes":"7","size_leaf_vector":"0"}},{"base_weights":[-5.1594067E-2,-1.2396569E-1,1.5468058E-1,3.1806745E-2,-4.0558678E-1,3.8974348E-1,-1.9224611E-1],"categories":[],"categories_nodes":[],"categories_segments":[],"categories_sizes":[],"default_left":[1,1,1,0,0,0,0],"id":90,"left_children":[1,3,5,-1,-1,-1,-1],"loss_changes":[3.631461E0,7.8953304E0,5.2363358E0,0E0,0E0,0E0,0E0],"parents":[2147483647,0,0,1,1,2,2],"right_children":[2,4,6,-1,-1,-1,-1],"split_conditions":[6.4037383E3,6.856019E4,1.08871234E5,6.361349E-3,-8.1117354E-2,7.79487E-2,-3.8449224E-2],"split_indices":[4,5,5,0,0,0,0],"split_type":[0,0,0,0,0,0,0],"sum_hessian":[2.4097356E2,1.786819E2,6.229166E1,1.1561764E2,6.3064262E1,3.7058777E1,2.5232883E1],"tree_param":{"num_deleted":"0","num_feature":"10","num_nodes":"7","size_leaf_vector":"0"}},{"base_weights":[-3.0972164E-3,-2.3555726E-1,1.007545E-1,-5.741088E-1,7.941502E-2,-1.0719367E-1,3.3893436E-1],"categories":[],"categories_nodes":[],"categories_segments":[],"categories_sizes":[],"default_left":[1,0,1,0,0,0,0],"id":91,"left_children":[1,3,5,-1,-1,-1,-1],"loss_changes":[5.775635E0,7.922994E0,8.227747E0,0E0,0E0,0E0,0E0],"parents":[2147483647,0,0,1,1,2,2],"right_children":[2,4,6,-1,-1,-1,-1],"split_conditions":[2.7817645E0,1.1553781E0,3.3324397E0,-1.14821754E-1,1.5883004E-2,-2.1438735E-2,6.778687E-2],"split_indices":[9,8,7,0,0,0,0],"split_type":[0,0,0,0,0,0,0],"sum_hessian":[2.3725906E2,7.2873024E1,1.6438603E2,3.4725357E1,3.814767E1,8.80564E1,7.6329636E1],"tree_param":{"num_deleted":"0","num_feature":"10","num_nodes":"7","size_leaf_vector":"0"}},{"base_weights":[-7.4280775E-3,-4.1062412E-1,3.2103002E-2,-1.322151E0,-3.4815766E-2,6.207396E-2,-6.1616796E-1],"categories":[],"categories_nodes":[],"categories_segments":[],"categories_sizes":[],"default_left":[1,1,1,0,0,0,0],"id":92,"left_children":[1,3,5,-1,-1,-1,-1],"loss_changes":[3.9172008E0,7.470767E0,4.390323E0,0E0,0E0,0E0,0E0],"parents":[2147483647,0,0,1,1,2,2],"right_children":[2,4,6,-1,-1,-1,-1],"split_conditions":[1.5676003E0,2.6890419E0,7.6263857E0,-2.644302E-1,-6.9631534E-3,1.2414793E-2,-1.23233594E-1],"split_indices":[3,9,1,0,0,0,0],"split_type":[0,0,0,0,0,0,0],"sum_hessian":[2.4393846E2,2.0943054E1,2.229954E2,5.3787327E0,1.55643215E1,2.140057E2,8.989697E0],"tree_param":{"num_deleted":"0","num_feature":"10","num_nodes":"7","size_leaf_vector":"0"}},{"base_weights":[-4.0720288E-2,8.882822E-1,-6.0668644E-2,-7.204046E-2,1.0210512E0,-8.463525E-2,6.018197E-1],"categories":[],"categories_nodes":[],"categories_segments":[],"categories_sizes":[],"default_left":[1,1,1,0,0,0,0],"id":93,"left_children":[1,3,5,-1,-1,-1,-1],"loss_changes":[4.5638046E0,7.339692E-1,3.8484995E0,0E0,0E0,0E0,0E0],"parents":[2147483647,0,0,1,1,2,2],"right_children":[2,4,6,-1,-1,-1,-1],"split_conditions":[2.0779156E4,5.897787E2,1.40254E4,-1.4408092E-2,2.0421024E-1,-1.692705E-2,1.2036394E-1],"split_indices":[5,6,4,0,0,0,0],"split_type":[0,0,0,0,0,0,0],"sum_hessian":[2.4235721E2,4.179662E0,2.3817754E2,5.632264E-1,3.6164358E0,2.307037E2,7.47384E0],"tree_param":{"num_deleted":"0","num_feature":"10","num_nodes":"7","size_leaf_vector":"0"}},{"base_weights":[7.7681296E-2,1.8197621E-1,-5.2769832E-2,1.3956146E-2,4.9813476E-1,-1.7787006E-1,3.010135E-1],"categories":[],"categories_nodes":[],"categories_segments":[],"categories_sizes":[],"default_left":[1,1,1,0,0,0,0],"id":94,"left_children":[1,3,5,-1,-1,-1,-1],"loss_changes":[3.3548183E0,7.2631865E0,4.9225945E0,0E0,0E0,0E0,0E0],"parents":[2147483647,0,0,1,1,2,2],"right_children":[2,4,6,-1,-1,-1,-1],"split_conditions":[6.856019E4,3.0573444E0,3.8405287E0,2.7912294E-3,9.962695E-2,-3.5574015E-2,6.02027E-2],"split_indices":[5,9,9,0,0,0,0],"split_type":[0,0,0,0,0,0,0],"sum_hessian":[2.448743E2,1.3586002E2,1.0901428E2,8.939557E1,4.6464455E1,8.090349E1,2.8110796E1],"tree_param":{"num_deleted":"0","num_feature":"10","num_nodes":"7","size_leaf_vector":"0"}},{"base_weights":[1.8445188E-2,1.0149724E-1,-2.521485E-1,1.7801246E-1,-3.0327213E-1,-3.87989E-1,5.5876774E-1],"categories":[],"categories_nodes":[],"categories_segments":[],"categories_sizes":[],"default_left":[1,1,1,0,0,0,0],"id":95,"left_children":[1,3,5,-1,-1,-1,-1],"loss_changes":[5.455473E0,5.8017464E0,6.4988327E0,0E0,0E0,0E0,0E0],"parents":[2147483647,0,0,1,1,2,2],"right_children":[2,4,6,-1,-1,-1,-1],"split_conditions":[5.7746135E-2,1.2174922E5,6.46929E3,3.560249E-2,-6.0654428E-2,-7.7597804E-2,1.11753546E-1],"split_indices":[0,5,4,0,0,0,0],"split_type":[0,0,0,0,0,0,0],"sum_hessian":[2.4061406E2,1.8458513E2,5.602893E1,1.557107E2,2.8874424E1,4.8436623E1,7.5923104E0],"tree_param":{"num_deleted":"0","num_feature":"10","num_nodes":"7","size_leaf_vector":"0"}},{"base_weights":[4.975395E-2,-3.7257873E-2,2.8679967E-1,-2.93218E-1,7.290394E-2,-4.6793735E-1,3.5780284E-1],"categories":[],"categories_nodes":[],"categories_segments":[],"categories_sizes":[],"default_left":[1,1,1,0,0,0,0],"id":96,"left_children":[1,3,5,-1,-1,-1,-1],"loss_changes":[4.940217E0,4.975896E0,3.6125326E0,0E0,0E0,0E0,0E0],"parents":[2147483647,0,0,1,1,2,2],"right_children":[2,4,6,-1,-1,-1,-1],"split_conditions":[6.4038438E3,2.8309724E0,7.575527E-3,-5.8643598E-2,1.4580788E-2,-9.358747E-2,7.156057E-2],"split_indices":[4,7,0,0,0,0,0],"split_type":[0,0,0,0,0,0,0],"sum_hessian":[2.3799854E2,1.7471071E2,6.3287827E1,5.2068424E1,1.2264228E2,4.9612484E0,5.8326576E1],"tree_param":{"num_deleted":"0","num_feature":"10","num_nodes":"7","size_leaf_vector":"0"}},{"base_weights":[9.7684655E-3,-1.0999701E-1,1.4277695E-1,-2.183449E-1,3.5766992E-1,3.6401352E-1,-5.8673408E-2],"categories":[],"categories_nodes":[],"categories_segments":[],"categories_sizes":[],"default_left":[1,1,1,0,0,0,0],"id":97,"left_children":[1,3,5,-1,-1,-1,-1],"loss_changes":[3.7802725E0,6.407697E0,5.031072E0,0E0,0E0,0E0,0E0],"parents":[2147483647,0,0,1,1,2,2],"right_children":[2,4,6,-1,-1,-1,-1],"split_conditions":[4.176218E3,2.4386892E3,1.2688345E3,-4.366898E-2,7.1533985E-2,7.280271E-2,-1.1734682E-2],"split_indices":[4,6,2,0,0,0,0],"split_type":[0,0,0,0,0,0,0],"sum_hessian":[2.3532196E2,1.2391636E2,1.1140561E2,1.0104064E2,2.2875717E1,5.271073E1,5.8694878E1],"tree_param":{"num_deleted":"0","num_feature":"10","num_nodes":"7","size_leaf_vector":"0"}},{"base_weights":[-4.1855603E-2,5.991839E-1,-7.4799426E-2,-4.075309E-1,8.51537E-1,-1.7740163E0,-5.690268E-2],"categories":[],"categories_nodes":[],"categories_segments":[],"categories_sizes":[],"default_left":[1,1,1,0,0,0,0],"id":98,"left_children":[1,3,5,-1,-1,-1,-1],"loss_changes":[5.0778265E0,3.3346562E0,6.8193913E0,0E0,0E0,0E0,0E0],"parents":[2147483647,0,0,1,1,2,2],"right_children":[2,4,6,-1,-1,-1,-1],"split_conditions":[7.0748003E-3,2.4844275E0,7.249899E-3,-8.1506185E-2,1.703074E-1,-3.5480326E-1,-1.13805365E-2],"split_indices":[0,9,0,0,0,0,0],"split_type":[0,0,0,0,0,0,0],"sum_hessian":[2.3732457E2,1.0760115E1,2.2656445E2,2.0333853E0,8.726729E0,1.3386688E0,2.2522578E2],"tree_param":{"num_deleted":"0","num_feature":"10","num_nodes":"7","size_leaf_vector":"0"}},{"base_weights":[-2.1546466E-2,1.4055008E-1,-1.4903057E-1,-2.7373657E-2,5.3191155E-1,-2.7623716E-1,1.8341197E-1],"categories":[],"categories_nodes":[],"categories_segments":[],"categories_sizes":[],"default_left":[1,1,1,0,0,0,0],"id":99,"left_children":[1,3,5,-1,-1,-1,-1],"loss_changes":[4.938078E0,6.932665E0,5.703837E0,0E0,0E0,0E0,0E0],"parents":[2147483647,0,0,1,1,2,2],"right_children":[2,4,6,-1,-1,-1,-1],"split_conditions":[5.925657E4,3.07739E0,3.8183637E0,-5.4747313E-3,1.0638231E-1,-5.5247433E-2,3.6682393E-2],"split_indices":[5,9,7,0,0,0,0],"split_type":[0,0,0,0,0,0,0],"sum_hessian":[2.36948E2,1.0426814E2,1.3267986E2,7.361275E1,3.0655394E1,9.608336E1,3.6596493E1],"tree_param":{"num_deleted":"0","num_feature":"10","num_nodes":"7","size_leaf_vector":"0"}},{"base_weights":[4.489652E-3,2.5356011E-2,-9.399597E-1,9.1485405E-1,7.7461144E-3,-1.9907095E0,6.121723E-2],"categories":[],"categories_nodes":[],"categories_segments":[],"categories_sizes":[],"default_left":[1,1,1,0,0,0,0],"id":100,"left_children":[1,3,5,-1,-1,-1,-1],"loss_changes":[4.7375116E0,3.673771E0,5.5885363E0,0E0,0E0,0E0,0E0],"parents":[2147483647,0,0,1,1,2,2],"right_children":[2,4,6,-1,-1,-1,-1],"split_conditions":[8.299532E0,2.0440719E4,8.565938E0,1.829708E-1,1.5492229E-3,-3.9814192E-1,1.2243446E-2],"split_indices":[1,5,1,0,0,0,0],"split_type":[0,0,0,0,0,0,0],"sum_hessian":[2.3818535E2,2.3398883E2,4.1965213E0,3.553353E0,2.3043549E2,1.5653228E0,2.6311984E0],"tree_param":{"num_deleted":"0","num_feature":"10","num_nodes":"7","size_leaf_vector":"0"}},{"base_weights":[-7.402691E-3,-6.087376E-2,2.1567549E-1,-4.2896405E-1,-1.8217689E-3,5.0340885E-1,-1.8920358E-1],"categories":[],"categories_nodes":[],"categories_segments":[],"categories_sizes":[],"default_left":[1,1,1,0,0,0,0],"id":101,"left_children":[1,3,5,-1,-1,-1,-1],"loss_changes":[2.8955615E0,4.2531533E0,5.5639744E0,0E0,0E0,0E0,0E0],"parents":[2147483647,0,0,1,1,2,2],"right_children":[2,4,6,-1,-1,-1,-1],"split_conditions":[7.464499E3,2.480195E0,1.2201121E0,-8.579281E-2,-3.643538E-4,1.00681774E-1,-3.7840717E-2],"split_indices":[4,9,8,0,0,0,0],"split_type":[0,0,0,0,0,0,0],"sum_hessian":[2.4064798E2,1.9470499E2,4.5942993E1,2.6051752E1,1.6865323E2,2.6714546E1,1.9228447E1],"tree_param":{"num_deleted":"0","num_feature":"10","num_nodes":"7","size_leaf_vector":"0"}},{"base_weights":[4.7047194E-3,3.698332E-2,-9.137794E-1,4.9923623E-1,-1.4962588E-2,1.7743096E-2,-1.4549794E0],"categories":[],"categories_nodes":[],"categories_segments":[],"categories_sizes":[],"default_left":[1,1,1,0,0,0,0],"id":102,"left_children":[1,3,5,-1,-1,-1,-1],"loss_changes":[6.785276E0,5.313093E0,3.943108E0,0E0,0E0,0E0,0E0],"parents":[2147483647,0,0,1,1,2,2],"right_children":[2,4,6,-1,-1,-1,-1],"split_conditions":[2.0137728E5,3.0984814E4,1.6201475E3,9.984725E-2,-2.9925178E-3,3.548619E-3,-2.909959E-1],"split_indices":[5,5,2,0,0,0,0],"split_type":[0,0,0,0,0,0,0],"sum_hessian":[2.2672606E2,2.1995581E2,6.7702475E0,2.1350718E1,1.9860509E2,2.8433836E0,3.926864E0],"tree_param":{"num_deleted":"0","num_feature":"10","num_nodes":"7","size_leaf_vector":"0"}},{"base_weights":[-5.246005E-4,-8.4203184E-1,1.4933967E-2,8.40606E-2,-9.156694E-1,-3.004332E-2,2.756816E-1],"categories":[],"categories_nodes":[],"categories_segments":[],"categories_sizes":[],"default_left":[1,1,1,0,0,0,0],"id":103,"left_children":[1,3,5,-1,-1,-1,-1],"loss_changes":[3.1086586E0,3.7094235E-1,2.7607088E0,0E0,0E0,0E0,0E0],"parents":[2147483647,0,0,1,1,2,2],"right_children":[2,4,6,-1,-1,-1,-1],"split_conditions":[4.074762E2,2.253963E0,3.8797393E0,1.6812121E-2,-1.8313389E-1,-6.008664E-3,5.5136323E-2],"split_indices":[6,9,9,0,0,0,0],"split_type":[0,0,0,0,0,0,0],"sum_hessian":[2.3700475E2,3.310728E0,2.3369402E2,2.3343381E-1,3.077294E0,2.0006831E2,3.3625713E1],"tree_param":{"num_deleted":"0","num_feature":"10","num_nodes":"7","size_leaf_vector":"0"}},{"base_weights":[1.2344684E-3,-3.0403143E-2,5.632985E-1,-1.4029713E-1,1.3269204E-1,-6.467903E-1,8.2113737E-1],"categories":[],"categories_nodes":[],"categories_segments":[],"categories_sizes":[],"default_left":[1,1,1,0,0,0,0],"id":104,"left_children":[1,3,5,-1,-1,-1,-1],"loss_changes":[4.2428985E0,4.067888E0,4.4981775E0,0E0,0E0,0E0,0E0],"parents":[2147483647,0,0,1,1,2,2],"right_children":[2,4,6,-1,-1,-1,-1],"split_conditions":[1.1906892E4,3.2841475E0,5.6437335E2,-2.8059427E-2,2.6538407E-2,-1.2935807E-1,1.6422747E-1],"split_indices":[4,9,2,0,0,0,0],"split_type":[0,0,0,0,0,0,0],"sum_hessian":[2.3663838E2,2.2492374E2,1.1714659E1,1.3446239E2,9.046134E1,1.7926923E0,9.921967E0],"tree_param":{"num_deleted":"0","num_feature":"10","num_nodes":"7","size_leaf_vector":"0"}},{"base_weights":[4.595533E-2,6.31994E-1,1.9679077E-2,7.272589E-1,-7.8534234E-1,-1.6087514E0,3.978195E-2],"categories":[],"categories_nodes":[],"categories_segments":[],"categories_sizes":[],"default_left":[1,1,1,0,0,0,0],"id":105,"left_children":[1,3,5,-1,-1,-1,-1],"loss_changes":[3.5953085E0,1.9243097E0,7.438275E0,0E0,0E0,0E0,0E0],"parents":[2147483647,0,0,1,1,2,2],"right_children":[2,4,6,-1,-1,-1,-1],"split_conditions":[6.8647927E-3,9.427355E0,7.249899E-3,1.4545178E-1,-1.5706848E-1,-3.2175028E-1,7.95639E-3],"split_indices":[0,8,0,0,0,0,0],"split_type":[0,0,0,0,0,0,0],"sum_hessian":[2.3328587E2,9.021765E0,2.2426411E2,8.909785E0,1.1197939E-1,1.7710922E0,2.2249303E2],"tree_param":{"num_deleted":"0","num_feature":"10","num_nodes":"7","size_leaf_vector":"0"}},{"base_weights":[-1.5667625E-2,1.629594E-1,-1.3335423E-1,5.4570645E-2,7.3630804E-1,-3.5494474E-1,5.507554E-2],"categories":[],"categories_nodes":[],"categories_segments":[],"categories_sizes":[],"default_left":[1,0,1,0,0,0,0],"id":106,"left_children":[1,3,5,-1,-1,-1,-1],"loss_changes":[5.031053E0,5.869219E0,6.0404344E0,0E0,0E0,0E0,0E0],"parents":[2147483647,0,0,1,1,2,2],"right_children":[2,4,6,-1,-1,-1,-1],"split_conditions":[5.394048E4,2.847917E0,3.3203168E0,1.0914129E-2,1.472616E-1,-7.0988946E-2,1.1015109E-2],"split_indices":[5,8,7,0,0,0,0],"split_type":[0,0,0,0,0,0,0],"sum_hessian":[2.3728938E2,9.409122E1,1.4319817E2,8.00528E1,1.4038413E1,6.5402336E1,7.779583E1],"tree_param":{"num_deleted":"0","num_feature":"10","num_nodes":"7","size_leaf_vector":"0"}},{"base_weights":[-1.2703029E-2,-2.2350152E-1,8.220076E-2,-1.5182735E-1,-1.517706E0,-8.076785E-2,2.23651E-1],"categories":[],"categories_nodes":[],"categories_segments":[],"categories_sizes":[],"default_left":[1,1,1,0,0,0,0],"id":107,"left_children":[1,3,5,-1,-1,-1,-1],"loss_changes":[4.73381E0,6.582195E0,3.7816043E0,0E0,0E0,0E0,0E0],"parents":[2147483647,0,0,1,1,2,2],"right_children":[2,4,6,-1,-1,-1,-1],"split_conditions":[2.786695E0,1.1242097E5,3.426144E3,-3.036547E-2,-3.035412E-1,-1.615357E-2,4.47302E-2],"split_indices":[7,5,4,0,0,0,0],"split_type":[0,0,0,0,0,0,0],"sum_hessian":[2.3470619E2,7.244274E1,1.6226346E2,6.9700005E1,2.7427332E0,7.559613E1,8.666733E1],"tree_param":{"num_deleted":"0","num_feature":"10","num_nodes":"7","size_leaf_vector":"0"}},{"base_weights":[-7.864076E-2,2.3220006E-1,-1.3398099E-1,-3.5748738E-1,4.7225922E-1,-6.589744E-1,-8.776361E-2],"categories":[],"categories_nodes":[],"categories_segments":[],"categories_sizes":[],"default_left":[1,1,1,0,0,0,0],"id":108,"left_children":[1,3,5,-1,-1,-1,-1],"loss_changes":[3.9851966E0,5.138212E0,4.6919904E0,0E0,0E0,0E0,0E0],"parents":[2147483647,0,0,1,1,2,2],"right_children":[2,4,6,-1,-1,-1,-1],"split_conditions":[1.4101387E-2,5.901166E0,2.9037002E-1,-7.149748E-2,9.4451845E-2,-1.3179488E-1,-1.7552722E-2],"split_indices":[0,3,1,0,0,0,0],"split_type":[0,0,0,0,0,0,0],"sum_hessian":[2.2886197E2,3.410448E1,1.9475748E2,9.725457E0,2.4379025E1,1.468534E1,1.8007214E2],"tree_param":{"num_deleted":"0","num_feature":"10","num_nodes":"7","size_leaf_vector":"0"}},{"base_weights":[1.47859715E-2,-2.6917526E-1,7.364202E-2,-9.2682755E-1,3.923471E-2,1.5026067E-1,-2.1299662E-1],"categories":[],"categories_nodes":[],"categories_segments":[],"categories_sizes":[],"default_left":[1,1,0,0,0,0,0],"id":109,"left_children":[1,3,5,-1,-1,-1,-1],"loss_changes":[3.9431453E0,8.254354E0,4.3196583E0,0E0,0E0,0E0,0E0],"parents":[2147483647,0,0,1,1,2,2],"right_children":[2,4,6,-1,-1,-1,-1],"split_conditions":[1.7103849E3,1.158048E3,2.2160153E0,-1.8536551E-1,7.846942E-3,3.0052135E-2,-4.2599324E-2],"split_indices":[4,6,8,0,0,0,0],"split_type":[0,0,0,0,0,0,0],"sum_hessian":[2.3374904E2,3.9517334E1,1.942317E2,1.1975546E1,2.7541788E1,1.5363956E2,4.0592148E1],"tree_param":{"num_deleted":"0","num_feature":"10","num_nodes":"7","size_leaf_vector":"0"}},{"base_weights":[-2.3053598E-3,7.429627E-2,-3.3474296E-1,-3.0272782E-1,1.5131417E-1,-4.661426E-1,4.9314082E-1],"categories":[],"categories_nodes":[],"categories_segments":[],"categories_sizes":[],"default_left":[1,1,1,0,0,0,0],"id":110,"left_children":[1,3,5,-1,-1,-1,-1],"loss_changes":[5.8691616E0,5.4857073E0,4.9250503E0,0E0,0E0,0E0,0E0],"parents":[2147483647,0,0,1,1,2,2],"right_children":[2,4,6,-1,-1,-1,-1],"split_conditions":[1.07722734E5,4.2353125E0,1.379062E4,-6.0545564E-2,3.0262833E-2,-9.322852E-2,9.862816E-2],"split_indices":[5,3,4,0,0,0,0],"split_type":[0,0,0,0,0,0,0],"sum_hessian":[2.2850056E2,1.8633987E2,4.2160686E1,3.1111208E1,1.5522867E2,3.676274E1,5.3979435E0],"tree_param":{"num_deleted":"0","num_feature":"10","num_nodes":"7","size_leaf_vector":"0"}},{"base_weights":[-8.733223E-3,-9.698797E-2,1.4066522E-1,-1.6493743E-2,-8.478433E-1,5.525057E-1,-3.285309E-2],"categories":[],"categories_nodes":[],"categories_segments":[],"categories_sizes":[],"default_left":[1,1,1,0,0,0,0],"id":111,"left_children":[1,3,5,-1,-1,-1,-1],"loss_changes":[3.1026213E0,8.923105E0,6.2645836E0,0E0,0E0,0E0,0E0],"parents":[2147483647,0,0,1,1,2,2],"right_children":[2,4,6,-1,-1,-1,-1],"split_conditions":[3.3085494E0,3.219552E0,6.944483E4,-3.2987488E-3,-1.6956866E-1,1.1050113E-1,-6.570618E-3],"split_indices":[9,9,5,0,0,0,0],"split_type":[0,0,0,0,0,0,0],"sum_hessian":[2.3327762E2,1.4686832E2,8.64093E1,1.3357101E2,1.3297298E1,2.4966925E1,6.144238E1],"tree_param":{"num_deleted":"0","num_feature":"10","num_nodes":"7","size_leaf_vector":"0"}},{"base_weights":[2.8272958E-2,-2.8204197E-1,9.0876944E-2,-4.6957776E-1,3.739069E-1,-1.432205E-1,2.205885E-1],"categories":[],"categories_nodes":[],"categories_segments":[],"categories_sizes":[],"default_left":[1,1,1,0,0,0,0],"id":112,"left_children":[1,3,5,-1,-1,-1,-1],"loss_changes":[4.500177E0,4.962041E0,5.8743563E0,0E0,0E0,0E0,0E0],"parents":[2147483647,0,0,1,1,2,2],"right_children":[2,4,6,-1,-1,-1,-1],"split_conditions":[1.7103849E3,3.9212306E0,1.0115373E0,-9.391555E-2,7.478138E-2,-2.86441E-2,4.41177E-2],"split_indices":[4,7,1,0,0,0,0],"split_type":[0,0,0,0,0,0,0],"sum_hessian":[2.2932672E2,3.790993E1,1.914168E2,2.9702194E1,8.207735E0,6.821014E1,1.2320666E2],"tree_param":{"num_deleted":"0","num_feature":"10","num_nodes":"7","size_leaf_vector":"0"}},{"base_weights":[-3.1927507E-2,1.2960394E-1,-1.4079477E-1,2.2721522E-1,-6.092046E-1,-1.7197488E-1,8.585776E-1],"categories":[],"categories_nodes":[],"categories_segments":[],"categories_sizes":[],"default_left":[1,1,1,0,0,0,0],"id":113,"left_children":[1,3,5,-1,-1,-1,-1],"loss_changes":[4.10974E0,6.931385E0,4.493556E0,0E0,0E0,0E0,0E0],"parents":[2147483647,0,0,1,1,2,2],"right_children":[2,4,6,-1,-1,-1,-1],"split_conditions":[1.0820803E3,5.341147E0,1.5315246E4,4.5443043E-2,-1.2184092E-1,-3.4394976E-2,1.7171553E-1],"split_indices":[2,1,4,0,0,0,0],"split_type":[0,0,0,0,0,0,0],"sum_hessian":[2.3166301E2,9.31949E1,1.3846811E2,8.293058E1,1.0264319E1,1.3508153E2,3.3865855E0],"tree_param":{"num_deleted":"0","num_feature":"10","num_nodes":"7","size_leaf_vector":"0"}},{"base_weights":[4.4670166E-3,-1.7226268E-2,7.9780895E-1,6.7109877E-1,-3.8580056E-2,-2.735662E-1,1.088645E0],"categories":[],"categories_nodes":[],"categories_segments":[],"categories_sizes":[],"default_left":[1,1,1,0,0,0,0],"id":114,"left_children":[1,3,5,-1,-1,-1,-1],"loss_changes":[4.0654364E0,3.408522E0,2.256896E0,0E0,0E0,0E0,0E0],"parents":[2147483647,0,0,1,1,2,2],"right_children":[2,4,6,-1,-1,-1,-1],"split_conditions":[4.5692863E0,6.190448E2,9.1642993E2,1.3421975E-1,-7.7160113E-3,-5.4713238E-2,2.17729E-1],"split_indices":[8,4,6,0,0,0,0],"split_type":[0,0,0,0,0,0,0],"sum_hessian":[2.3442407E2,2.2913681E2,5.2872715E0,5.979034E0,2.2315778E2,1.141526E0,4.1457458E0],"tree_param":{"num_deleted":"0","num_feature":"10","num_nodes":"7","size_leaf_vector":"0"}},{"base_weights":[8.911209E-2,-1.3557738E-1,1.4847054E-1,4.698466E-1,-3.145024E-1,-2.3958863E-1,2.0246954E-1],"categories":[],"categories_nodes":[],"categories_segments":[],"categories_sizes":[],"default_left":[1,1,1,0,0,0,0],"id":115,"left_children":[1,3,5,-1,-1,-1,-1],"loss_changes":[3.1331189E0,5.4880385E0,3.9274106E0,0E0,0E0,0E0,0E0],"parents":[2147483647,0,0,1,1,2,2],"right_children":[2,4,6,-1,-1,-1,-1],"split_conditions":[2.5921557E0,2.4396226E0,2.4619231E0,9.396932E-2,-6.2900476E-2,-4.7917727E-2,4.049391E-2],"split_indices":[7,9,9,0,0,0,0],"split_type":[0,0,0,0,0,0,0],"sum_hessian":[2.3240623E2,4.8298374E1,1.8410785E2,1.0646873E1,3.76515E1,2.2069616E1,1.6203824E2],"tree_param":{"num_deleted":"0","num_feature":"10","num_nodes":"7","size_leaf_vector":"0"}},{"base_weights":[-1.0835478E-2,-3.234457E-2,6.8880624E-1,1.9416215E-2,-3.5038757E-1,9.5035475E-1,-5.9362894E-1],"categories":[],"categories_nodes":[],"categories_segments":[],"categories_sizes":[],"default_left":[1,1,1,0,0,0,0],"id":116,"left_children":[1,3,5,-1,-1,-1,-1],"loss_changes":[3.5563903E0,3.7732823E0,2.9286506E0,0E0,0E0,0E0,0E0],"parents":[2147483647,0,0,1,1,2,2],"right_children":[2,4,6,-1,-1,-1,-1],"split_conditions":[6.7851006E3,2.6409023E3,3.4350781E0,3.883243E-3,-7.0077516E-2,1.9007096E-1,-1.1872579E-1],"split_indices":[6,2,7,0,0,0,0],"split_type":[0,0,0,0,0,0,0],"sum_hessian":[2.3384563E2,2.2779625E2,6.0493712E0,1.9671954E2,3.1076712E1,5.2396975E0,8.0967426E-1],"tree_param":{"num_deleted":"0","num_feature":"10","num_nodes":"7","size_leaf_vector":"0"}},{"base_weights":[-1.1183287E-2,6.8199575E-2,-2.1641786E-1,-4.3845426E-2,3.7571016E-1,-5.221048E-1,7.513191E-2],"categories":[],"categories_nodes":[],"categories_segments":[],"categories_sizes":[],"default_left":[1,1,1,0,0,0,0],"id":117,"left_children":[1,3,5,-1,-1,-1,-1],"loss_changes":[3.8272405E0,5.856631E0,5.877396E0,0E0,0E0,0E0,0E0],"parents":[2147483647,0,0,1,1,2,2],"right_children":[2,4,6,-1,-1,-1,-1],"split_conditions":[9.227284E4,3.3111567E0,1.5691636E0,-8.769086E-3,7.514203E-2,-1.0442096E-1,1.5026382E-2],"split_indices":[5,9,1,0,0,0,0],"split_type":[0,0,0,0,0,0,0],"sum_hessian":[2.3300781E2,1.685009E2,6.450691E1,1.241301E2,4.4370804E1,3.1103949E1,3.340296E1],"tree_param":{"num_deleted":"0","num_feature":"10","num_nodes":"7","size_leaf_vector":"0"}},{"base_weights":[-2.1159168E-2,-1.5192686E-1,1.7968668E-1,-5.893944E-3,-4.009686E-1,2.9921743E-1,-9.0377234E-2],"categories":[],"categories_nodes":[],"categories_segments":[],"categories_sizes":[],"default_left":[1,1,1,0,0,0,0],"id":118,"left_children":[1,3,5,-1,-1,-1,-1],"loss_changes":[6.1833963E0,5.1802654E0,3.0255418E0,0E0,0E0,0E0,0E0],"parents":[2147483647,0,0,1,1,2,2],"right_children":[2,4,6,-1,-1,-1,-1],"split_conditions":[4.8460513E3,6.4517E4,2.2090127E3,-1.1787888E-3,-8.019372E-2,5.9843488E-2,-1.8075448E-2],"split_indices":[4,5,2,0,0,0,0],"split_type":[0,0,0,0,0,0,0],"sum_hessian":[2.3339165E2,1.4150406E2,9.188759E1,8.984468E1,5.165939E1,6.3620914E1,2.8266676E1],"tree_param":{"num_deleted":"0","num_feature":"10","num_nodes":"7","size_leaf_vector":"0"}},{"base_weights":[5.8308323E-3,-1.7788799E-1,8.9068525E-2,-4.1203547E-1,9.105429E-2,-5.658145E-2,3.032727E-1],"categories":[],"categories_nodes":[],"categories_segments":[],"categories_sizes":[],"default_left":[1,1,1,0,0,0,0],"id":119,"left_children":[1,3,5,-1,-1,-1,-1],"loss_changes":[3.5657446E0,4.616488E0,5.022131E0,0E0,0E0,0E0,0E0],"parents":[2147483647,0,0,1,1,2,2],"right_children":[2,4,6,-1,-1,-1,-1],"split_conditions":[2.7929764E0,2.0317696E1,1.6991848E3,-8.2407095E-2,1.8210858E-2,-1.131629E-2,6.065454E-2],"split_indices":[7,3,6,0,0,0,0],"split_type":[0,0,0,0,0,0,0],"sum_hessian":[2.3113599E2,7.171421E1,1.5942178E2,3.8052635E1,3.3661575E1,9.5334274E1,6.408751E1],"tree_param":{"num_deleted":"0","num_feature":"10","num_nodes":"7","size_leaf_vector":"0"}},{"base_weights":[-8.659149E-3,2.0207666E-2,-9.65432E-1,-2.4667406E-2,4.695854E-1,3.1876382E-1,-1.4718894E0],"categories":[],"categories_nodes":[],"categories_segments":[],"categories_sizes":[],"default_left":[1,1,0,0,0,0,0],"id":120,"left_children":[1,3,5,-1,-1,-1,-1],"loss_changes":[6.364343E0,4.528305E0,4.8584204E0,0E0,0E0,0E0,0E0],"parents":[2147483647,0,0,1,1,2,2],"right_children":[2,4,6,-1,-1,-1,-1],"split_conditions":[2.0265525E5,9.590881E3,8.3160985E-1,-4.9334816E-3,9.391708E-2,6.375276E-2,-2.943779E-1],"split_indices":[5,4,8,0,0,0,0],"split_type":[0,0,0,0,0,0,0],"sum_hessian":[2.287273E2,2.2297867E2,5.748615E0,2.035929E2,1.9385777E1,1.7307216E0,4.0178933E0],"tree_param":{"num_deleted":"0","num_feature":"10","num_nodes":"7","size_leaf_vector":"0"}},{"base_weights":[-9.346484E-3,-6.6188544E-2,2.4670628E-1,4.5762233E-2,-3.049635E-1,-1.9505937E-1,6.115145E-1],"categories":[],"categories_nodes":[],"categories_segments":[],"categories_sizes":[],"default_left":[1,1,1,0,0,0,0],"id":121,"left_children":[1,3,5,-1,-1,-1,-1],"loss_changes":[3.375368E0,5.083536E0,6.910214E0,0E0,0E0,0E0,0E0],"parents":[2147483647,0,0,1,1,2,2],"right_children":[2,4,6,-1,-1,-1,-1],"split_conditions":[3.7402315E0,7.7919875E4,3.3409808E0,9.152447E-3,-6.09927E-2,-3.9011877E-2,1.22302905E-1],"split_indices":[9,5,7,0,0,0,0],"split_type":[0,0,0,0,0,0,0],"sum_hessian":[2.2978934E2,1.8865144E2,4.1137897E1,1.289847E2,5.9666748E1,1.8816866E1,2.2321033E1],"tree_param":{"num_deleted":"0","num_feature":"10","num_nodes":"7","size_leaf_vector":"0"}},{"base_weights":[1.6174795E-2,-1.7287025E-2,6.4644414E-1,2.7051896E-1,-8.085044E-2,-1.518549E-1,7.9589725E-1],"categories":[],"categories_nodes":[],"categories_segments":[],"categories_sizes":[],"default_left":[1,1,1,0,0,0,0],"id":122,"left_children":[1,3,5,-1,-1,-1,-1],"loss_changes":[4.8546143E0,4.0291953E0,1.5053258E0,0E0,0E0,0E0,0E0],"parents":[2147483647,0,0,1,1,2,2],"right_children":[2,4,6,-1,-1,-1,-1],"split_conditions":[3.4681805E2,3.7213445E4,1.9371453E3,5.410379E-2,-1.6170088E-2,-3.037098E-2,1.5917945E-1],"split_indices":[3,5,4,0,0,0,0],"split_type":[0,0,0,0,0,0,0],"sum_hessian":[2.2865617E2,2.1805208E2,1.0604096E1,3.8857048E1,1.7919502E2,1.6696488E0,8.934447E0],"tree_param":{"num_deleted":"0","num_feature":"10","num_nodes":"7","size_leaf_vector":"0"}},{"base_weights":[-3.1000799E-2,-1.4250049E-1,1.3950272E-1,-1.8968928E-1,7.3466694E-1,2.0583543E-1,-8.163177E-1],"categories":[],"categories_nodes":[],"categories_segments":[],"categories_sizes":[],"default_left":[1,1,1,0,0,0,0],"id":123,"left_children":[1,3,5,-1,-1,-1,-1],"loss_changes":[4.4540253E0,5.9970226E0,6.04698E0,0E0,0E0,0E0,0E0],"parents":[2147483647,0,0,1,1,2,2],"right_children":[2,4,6,-1,-1,-1,-1],"split_conditions":[4.876662E3,4.1270234E3,3.9723911E0,-3.7937857E-2,1.4693339E-1,4.1167088E-2,-1.6326354E-1],"split_indices":[4,6,9,0,0,0,0],"split_type":[0,0,0,0,0,0,0],"sum_hessian":[2.3224E2,1.4051521E2,9.172479E1,1.3408559E2,6.4296265E0,8.6506035E1,5.2187586E0],"tree_param":{"num_deleted":"0","num_feature":"10","num_nodes":"7","size_leaf_vector":"0"}},{"base_weights":[-5.5472687E-2,-2.9503354E-1,4.3114662E-2,-6.5915745E-1,-1.0622222E-1,-1.0930316E-1,2.2150762E-1],"categories":[],"categories_nodes":[],"categories_segments":[],"categories_sizes":[],"default_left":[1,1,1,0,0,0,0],"id":124,"left_children":[1,3,5,-1,-1,-1,-1],"loss_changes":[5.5039296E0,4.5991387E0,4.526647E0,0E0,0E0,0E0,0E0],"parents":[2147483647,0,0,1,1,2,2],"right_children":[2,4,6,-1,-1,-1,-1],"split_conditions":[2.5358962E3,2.780264E0,2.0200882E0,-1.318315E-1,-2.1244444E-2,-2.1860633E-2,4.4301525E-2],"split_indices":[4,9,1,0,0,0,0],"split_type":[0,0,0,0,0,0,0],"sum_hessian":[2.3150426E2,6.691428E1,1.6458998E2,2.199865E1,4.4915634E1,8.8965614E1,7.562437E1],"tree_param":{"num_deleted":"0","num_feature":"10","num_nodes":"7","size_leaf_vector":"0"}},{"base_weights":[9.941276E-3,8.6436826E-1,-5.8014835E-3,-6.592569E-2,8.9624906E-1,-3.5536635E-1,5.0523218E-2],"categories":[],"categories_nodes":[],"categories_segments":[],"categories_sizes":[],"default_left":[1,1,1,1,1,0,0],"id":125,"left_children":[1,-1,5,-1,-1,-1,-1],"loss_changes":[3.0746799E0,1.8173409E-1,4.4494843E0,0E0,0E0,0E0,0E0],"parents":[2147483647,0,0,1,1,2,2],"right_children":[2,-1,6,-1,-1,-1,-1],"split_conditions":[2.0416475E4,1.7287366E-1,2.4621572E0,-1.3185138E-2,1.7924981E-1,-7.107327E-2,1.0104644E-2],"split_indices":[5,6,7,2147483647,2147483647,0,0],"split_type":[0,0,0,0,0,0,0],"sum_hessian":[2.2721025E2,3.1353548E0,2.2407489E2,6.850385E-2,3.066851E0,3.035779E1,1.937171E2],"tree_param":{"num_deleted":"2","num_feature":"10","num_nodes":"7","size_leaf_vector":"0"}},{"base_weights":[1.8901711E-2,7.5287424E-2,-3.460673E-1,1.429217E-2,3.9820346E-1,-7.076363E-1,-2.8299347E-2],"categories":[],"categories_nodes":[],"categories_segments":[],"categories_sizes":[],"default_left":[1,1,1,0,0,0,0],"id":126,"left_children":[1,3,5,-1,-1,-1,-1],"loss_changes":[4.6575146E0,3.850092E0,3.4608166E0,0E0,0E0,0E0,0E0],"parents":[2147483647,0,0,1,1,2,2],"right_children":[2,4,6,-1,-1,-1,-1],"split_conditions":[8.386178E-2,4.334083E0,2.2929097E3,2.858434E-3,7.9640694E-2,-1.4152727E-1,-5.6598694E-3],"split_indices":[0,1,4,0,0,0,0],"split_type":[0,0,0,0,0,0,0],"sum_hessian":[2.2405716E2,1.9476132E2,2.9295841E1,1.6469629E2,3.0065039E1,1.3129583E1,1.6166258E1],"tree_param":{"num_deleted":"0","num_feature":"10","num_nodes":"7","size_leaf_vector":"0"}},{"base_weights":[1.8591551E-2,-4.5343E-2,2.5958377E-1,-3.235571E-2,-1.6192371E0,3.4855208E-1,-5.7238346E-1],"categories":[],"categories_nodes":[],"categories_segments":[],"categories_sizes":[],"default_left":[1,1,1,0,0,0,0],"id":127,"left_children":[1,3,5,-1,-1,-1,-1],"loss_changes":[3.5917017E0,3.7185197E0,3.816446E0,0E0,0E0,0E0,0E0],"parents":[2147483647,0,0,1,1,2,2],"right_children":[2,4,6,-1,-1,-1,-1],"split_conditions":[3.7246165E0,3.717515E0,6.7682953E0,-6.471142E-3,-3.238474E-1,6.971042E-2,-1.14476696E-1],"split_indices":[7,7,1,0,0,0,0],"split_type":[0,0,0,0,0,0,0],"sum_hessian":[2.3134647E2,1.8348126E2,4.786521E1,