{"learner":{"attributes":{"best_iteration":"274","best_ntree_limit":"275","scikit_learn":"{\"use_label_encoder\": null, \"n_estimators\": 275, \"objective\": \"binary:logistic\", \"max_depth\": 2, \"max_leaves\": null, \"max_bin\": null, \"grow_policy\": null, \"learning_rate\": null, \"verbosity\": null, \"booster\": null, \"tree_method\": null, \"gamma\": 0.25, \"min_child_weight\": 0, \"max_delta_step\": 0, \"subsample\": 0.75, \"sampling_method\": null, \"colsample_bytree\": null, \"colsample_bylevel\": null, \"colsample_bynode\": null, \"reg_alpha\": null, \"reg_lambda\": null, \"scale_pos_weight\": null, \"base_score\": null, \"missing\": NaN, \"num_parallel_tree\": null, \"random_state\": null, \"n_jobs\": null, \"monotone_constraints\": null, \"interaction_constraints\": null, \"importance_type\": null, \"gpu_id\": null, \"validate_parameters\": null, \"predictor\": null, \"enable_categorical\": false, \"feature_types\": null, \"max_cat_to_onehot\": null, \"max_cat_threshold\": null, \"eval_metric\": null, \"early_stopping_rounds\": null, \"callbacks\": null, \"kwargs\": {\"eta\": 0.2}, \"classes_\": [0.0, 1.0], \"n_classes_\": 2, \"_estimator_type\": \"classifier\"}"},"feature_names":[],"feature_types":[],"gradient_booster":{"model":{"gbtree_model_param":{"num_parallel_tree":"1","num_trees":"275","size_leaf_vector":"0"},"tree_info":[0,0,0,0,0,0,0,0,0,0,0,0,0,0,0,0,0,0,0,0,0,0,0,0,0,0,0,0,0,0,0,0,0,0,0,0,0,0,0,0,0,0,0,0,0,0,0,0,0,0,0,0,0,0,0,0,0,0,0,0,0,0,0,0,0,0,0,0,0,0,0,0,0,0,0,0,0,0,0,0,0,0,0,0,0,0,0,0,0,0,0,0,0,0,0,0,0,0,0,0,0,0,0,0,0,0,0,0,0,0,0,0,0,0,0,0,0,0,0,0,0,0,0,0,0,0,0,0,0,0,0,0,0,0,0,0,0,0,0,0,0,0,0,0,0,0,0,0,0,0,0,0,0,0,0,0,0,0,0,0,0,0,0,0,0,0,0,0,0,0,0,0,0,0,0,0,0,0,0,0,0,0,0,0,0,0,0,0,0,0,0,0,0,0,0,0,0,0,0,0,0,0,0,0,0,0,0,0,0,0,0,0,0,0,0,0,0,0,0,0,0,0,0,0,0,0,0,0,0,0,0,0,0,0,0,0,0,0,0,0,0,0,0,0,0,0,0,0,0,0,0,0,0,0,0,0,0,0,0,0,0,0,0,0,0,0,0,0,0,0,0,0,0,0,0],"trees":[{"base_weights":[6.119044E-1,1.551478E0,-9.831388E-1,9.0756305E-2,1.810381E0,-1.63571E0,7.037037E-1],"categories":[],"categories_nodes":[],"categories_segments":[],"categories_sizes":[],"default_left":[1,1,1,0,0,0,0],"id":0,"left_children":[1,3,5,-1,-1,-1,-1],"loss_changes":[2.336813E3,3.708352E2,6.376799E2,0E0,0E0,0E0,0E0],"parents":[2147483647,0,0,1,1,2,2],"right_children":[2,4,6,-1,-1,-1,-1],"split_conditions":[6.0649805E-2,7.662794E0,1.1131553E3,1.815126E-2,3.6207622E-1,-3.27142E-1,1.4074074E-1],"split_indices":[0,3,2,0,0,0,0],"split_type":[0,0,0,0,0,0,0],"sum_hessian":[1.55725E3,9.8E2,5.7725E2,1.4775E2,8.3225E2,4.1625E2,1.61E2],"tree_param":{"num_deleted":"0","num_feature":"9","num_nodes":"7","size_leaf_vector":"0"}},{"base_weights":[5.110811E-1,1.3528645E0,-7.7272755E-1,-3.7583765E-2,1.5241866E0,-1.3922856E0,7.6449716E-1],"categories":[],"categories_nodes":[],"categories_segments":[],"categories_sizes":[],"default_left":[1,1,1,0,0,0,0],"id":1,"left_children":[1,3,5,-1,-1,-1,-1],"loss_changes":[1.6480767E3,2.1941919E2,5.765027E2,0E0,0E0,0E0,0E0],"parents":[2147483647,0,0,1,1,2,2],"right_children":[2,4,6,-1,-1,-1,-1],"split_conditions":[5.434616E-2,5.497326E0,4.9833717E1,-7.516753E-3,3.0483732E-1,-2.7845713E-1,1.5289943E-1],"split_indices":[0,3,3,0,0,0,0],"split_type":[0,0,0,0,0,0,0],"sum_hessian":[1.5230568E3,9.198587E2,6.031981E2,1.00991684E2,8.18867E2,4.2999045E2,1.7320766E2],"tree_param":{"num_deleted":"0","num_feature":"9","num_nodes":"7","size_leaf_vector":"0"}},{"base_weights":[4.5248196E-1,-8.282139E-1,1.0840266E0,4.7694537E-1,-1.2939728E0,1.2783625E0,-9.1290593E-1],"categories":[],"categories_nodes":[],"categories_segments":[],"categories_sizes":[],"default_left":[1,1,1,0,0,0,0],"id":2,"left_children":[1,3,5,-1,-1,-1,-1],"loss_changes":[1.1469779E3,2.8544147E2,3.6962097E2,0E0,0E0,0E0,0E0],"parents":[2147483647,0,0,1,1,2,2],"right_children":[2,4,6,-1,-1,-1,-1],"split_conditions":[8.3657404E2,4.3863863E-2,9.938844E0,9.5389076E-2,-2.5879458E-1,2.556725E-1,-1.8258119E-1],"split_indices":[2,0,1,0,0,0,0],"split_type":[0,0,0,0,0,0,0],"sum_hessian":[1.415984E3,4.6754602E2,9.48438E2,1.2296026E2,3.4458575E2,8.646522E2,8.378572E1],"tree_param":{"num_deleted":"0","num_feature":"9","num_nodes":"7","size_leaf_vector":"0"}},{"base_weights":[3.5630757E-1,8.9693016E-1,-8.8135713E-1,-3.236335E-1,1.1667764E0,-1.2212404E0,7.684265E-1],"categories":[],"categories_nodes":[],"categories_segments":[],"categories_sizes":[],"default_left":[1,1,1,0,0,0,0],"id":3,"left_children":[1,3,5,-1,-1,-1,-1],"loss_changes":[8.9766833E2,3.0780652E2,2.2972067E2,0E0,0E0,0E0,0E0],"parents":[2147483647,0,0,1,1,2,2],"right_children":[2,4,6,-1,-1,-1,-1],"split_conditions":[4.835537E0,7.1989746E2,1.6517456E3,-6.47267E-2,2.3335528E-1,-2.4424808E-1,1.536853E-1],"split_indices":[1,2,2,0,0,0,0],"split_type":[0,0,0,0,0,0,0],"sum_hessian":[1.3394052E3,9.324001E2,4.0700507E2,1.6877968E2,7.636204E2,3.3769412E2,6.9310936E1],"tree_param":{"num_deleted":"0","num_feature":"9","num_nodes":"7","size_leaf_vector":"0"}},{"base_weights":[3.2950556E-1,8.2437336E-1,-7.817998E-1,-3.210538E-2,1.197246E0,-1.0706782E0,7.156991E-1],"categories":[],"categories_nodes":[],"categories_segments":[],"categories_sizes":[],"default_left":[1,1,1,0,0,0,0],"id":4,"left_children":[1,3,5,-1,-1,-1,-1],"loss_changes":[6.839456E2,2.747351E2,1.6659125E2,0E0,0E0,0E0,0E0],"parents":[2147483647,0,0,1,1,2,2],"right_children":[2,4,6,-1,-1,-1,-1],"split_conditions":[7.934841E-2,1.5519768E1,1.5518491E3,-6.4210757E-3,2.3944919E-1,-2.1413565E-1,1.4313982E-1],"split_indices":[0,3,2,0,0,0,0],"split_type":[0,0,0,0,0,0,0],"sum_hessian":[1.2414803E3,8.591543E2,3.8232596E2,2.608659E2,5.982884E2,3.2073825E2,6.158773E1],"tree_param":{"num_deleted":"0","num_feature":"9","num_nodes":"7","size_leaf_vector":"0"}},{"base_weights":[2.9865494E-1,9.4787693E-1,-4.1130793E-1,-4.1346833E-1,1.0865729E0,-9.331063E-1,5.579874E-1],"categories":[],"categories_nodes":[],"categories_segments":[],"categories_sizes":[],"default_left":[1,1,1,0,0,0,0],"id":5,"left_children":[1,3,5,-1,-1,-1,-1],"loss_changes":[5.311395E2,1.14072876E2,2.790588E2,0E0,0E0,0E0,0E0],"parents":[2147483647,0,0,1,1,2,2],"right_children":[2,4,6,-1,-1,-1,-1],"split_conditions":[4.390743E-2,3.3812835E0,4.158042E1,-8.2693666E-2,2.1731459E-1,-1.8662126E-1,1.1159748E-1],"split_indices":[0,3,3,0,0,0,0],"split_type":[0,0,0,0,0,0,0],"sum_hessian":[1.1504918E3,6.007782E2,5.497137E2,5.5365627E1,5.4541254E2,3.573693E2,1.9234439E2],"tree_param":{"num_deleted":"0","num_feature":"9","num_nodes":"7","size_leaf_vector":"0"}},{"base_weights":[2.5503287E-1,-5.0698656E-1,8.0710053E-1,6.388638E-1,-8.324619E-1,9.381734E-1,-1.3344667E0],"categories":[],"categories_nodes":[],"categories_segments":[],"categories_sizes":[],"default_left":[1,1,1,0,0,0,0],"id":6,"left_children":[1,3,5,-1,-1,-1,-1],"loss_changes":[4.453876E2,1.6648848E2,1.7353409E2,0E0,0E0,0E0,0E0],"parents":[2147483647,0,0,1,1,2,2],"right_children":[2,4,6,-1,-1,-1,-1],"split_conditions":[1.00513086E3,2.9716173E-2,4.3343425E0,1.2777276E-1,-1.6649239E-1,1.8763469E-1,-2.6689336E-1],"split_indices":[2,0,6,0,0,0,0],"split_type":[0,0,0,0,0,0,0],"sum_hessian":[1.0567441E3,4.4398834E2,6.1275574E2,9.800268E1,3.4598566E2,5.77945E2,3.481073E1],"tree_param":{"num_deleted":"0","num_feature":"9","num_nodes":"7","size_leaf_vector":"0"}},{"base_weights":[2.0550926E-1,6.521547E-1,-5.907971E-1,-3.1660604E-1,9.2783225E-1,-8.444073E-1,5.326947E-1],"categories":[],"categories_nodes":[],"categories_segments":[],"categories_sizes":[],"default_left":[1,1,1,0,0,0,0],"id":7,"left_children":[1,3,5,-1,-1,-1,-1],"loss_changes":[3.4931918E2,1.6827936E2,1.0104821E2,0E0,0E0,0E0,0E0],"parents":[2147483647,0,0,1,1,2,2],"right_children":[2,4,6,-1,-1,-1,-1],"split_conditions":[4.0822744E0,8.125212E0,1.8389004E3,-6.332121E-2,1.8556646E-1,-1.6888146E-1,1.06538944E-1],"split_indices":[1,3,2,0,0,0,0],"split_type":[0,0,0,0,0,0,0],"sum_hessian":[9.8007007E2,6.280052E2,3.5206488E2,1.3908765E2,4.8891757E2,2.8743048E2,6.46344E1],"tree_param":{"num_deleted":"0","num_feature":"9","num_nodes":"7","size_leaf_vector":"0"}},{"base_weights":[2.0819838E-1,4.436749E-1,-1.2960936E0,7.0648104E-1,-1.1817424E0,-1.324351E-1,-1.4601738E0],"categories":[],"categories_nodes":[],"categories_segments":[],"categories_sizes":[],"default_left":[1,1,0,0,0,0,0],"id":8,"left_children":[1,3,5,-1,-1,-1,-1],"loss_changes":[3.1997595E2,3.3419397E2,2.3157364E1,0E0,0E0,0E0,0E0],"parents":[2147483647,0,0,1,1,2,2],"right_children":[2,4,6,-1,-1,-1,-1],"split_conditions":[4.3327894E0,4.3464165E0,1.2897315E0,1.4129621E-1,-2.363485E-1,-2.648702E-2,-2.9203478E-1],"split_indices":[8,6,7,0,0,0,0],"split_type":[0,0,0,0,0,0,0],"sum_hessian":[9.0068823E2,7.793903E2,1.2129791E2,6.7140015E2,1.07990204E2,1.5213162E1,1.06084755E2],"tree_param":{"num_deleted":"0","num_feature":"9","num_nodes":"7","size_leaf_vector":"0"}},{"base_weights":[1.753235E-1,-7.38895E-1,5.265277E-1,-9.7617203E-1,2.9709852E-1,6.8804544E-1,-1.158157E0],"categories":[],"categories_nodes":[],"categories_segments":[],"categories_sizes":[],"default_left":[1,1,1,0,0,0,0],"id":9,"left_children":[1,3,5,-1,-1,-1,-1],"loss_changes":[2.744696E2,5.8630157E1,1.6876727E2,0E0,0E0,0E0,0E0],"parents":[2147483647,0,0,1,1,2,2],"right_children":[2,4,6,-1,-1,-1,-1],"split_conditions":[6.7681323E2,4.5103223E3,2.1446452E-1,-1.952344E-1,5.9419703E-2,1.376091E-1,-2.316314E-1],"split_indices":[2,4,0,0,0,0,0],"split_type":[0,0,0,0,0,0,0],"sum_hessian":[8.5262775E2,2.363311E2,6.1629663E2,1.9233722E2,4.399389E1,5.629189E2,5.33778E1],"tree_param":{"num_deleted":"0","num_feature":"9","num_nodes":"7","size_leaf_vector":"0"}},{"base_weights":[1.3043864E-1,-3.5907E-1,6.820904E-1,3.604281E-1,-7.962584E-1,9.3545806E-1,-9.024203E-1],"categories":[],"categories_nodes":[],"categories_segments":[],"categories_sizes":[],"default_left":[1,1,1,0,0,0,0],"id":10,"left_children":[1,3,5,-1,-1,-1,-1],"loss_changes":[2.1338141E2,1.320392E2,1.499604E2,0E0,0E0,0E0,0E0],"parents":[2147483647,0,0,1,1,2,2],"right_children":[2,4,6,-1,-1,-1,-1],"split_conditions":[2.8158318E1,3.4640625E-2,2.1040899E-1,7.208562E-2,-1.5925168E-1,1.8709162E-1,-1.8048406E-1],"split_indices":[3,0,0,0,0,0,0],"split_type":[0,0,0,0,0,0,0],"sum_hessian":[7.882824E2,4.1785104E2,3.7043134E2,1.5799994E2,2.598511E2,3.197173E2,5.0714054E1],"tree_param":{"num_deleted":"0","num_feature":"9","num_nodes":"7","size_leaf_vector":"0"}},{"base_weights":[1.4983663E-1,3.304755E-1,-1.1235632E0,5.2487475E-1,-1.2011926E0,-1.1585673E0,7.2621953E-1],"categories":[],"categories_nodes":[],"categories_segments":[],"categories_sizes":[],"default_left":[1,1,1,0,0,0,0],"id":11,"left_children":[1,3,5,-1,-1,-1,-1],"loss_changes":[1.6686298E2,1.8960085E2,6.67836E0,0E0,0E0,0E0,0E0],"parents":[2147483647,0,0,1,1,2,2],"right_children":[2,4,6,-1,-1,-1,-1],"split_conditions":[4.410139E0,4.4371357E0,3.4076416E3,1.0497495E-1,-2.4023853E-1,-2.3171346E-1,1.4524391E-1],"split_indices":[6,8,2,0,0,0,0],"split_type":[0,0,0,0,0,0,0],"sum_hessian":[7.227965E2,6.3365015E2,8.914633E1,5.628683E2,7.0781906E1,8.7857445E1,1.2888857E0],"tree_param":{"num_deleted":"0","num_feature":"9","num_nodes":"7","size_leaf_vector":"0"}},{"base_weights":[1.2403456E-1,-2.3481278E-1,7.117924E-1,1.0203698E0,-4.2505088E-1,8.3221745E-1,-5.2248067E-1],"categories":[],"categories_nodes":[],"categories_segments":[],"categories_sizes":[],"default_left":[1,1,1,0,0,0,0],"id":12,"left_children":[1,3,5,-1,-1,-1,-1],"loss_changes":[1.4560574E2,1.02849625E2,3.932611E1,0E0,0E0,0E0,0E0],"parents":[2147483647,0,0,1,1,2,2],"right_children":[2,4,6,-1,-1,-1,-1],"split_conditions":[1.4278759E3,3.0032766E4,1.1059096E1,2.0407395E-1,-8.501018E-2,1.664435E-1,-1.0449614E-1],"split_indices":[2,5,1,0,0,0,0],"split_type":[0,0,0,0,0,0,0],"sum_hessian":[6.885591E2,4.2790695E2,2.6065213E2,5.5744377E1,3.721626E2,2.377784E2,2.2873713E1],"tree_param":{"num_deleted":"0","num_feature":"9","num_nodes":"7","size_leaf_vector":"0"}},{"base_weights":[7.571658E-2,-3.1913587E-1,6.0269076E-1,3.6198643E-1,-6.1465335E-1,8.109139E-1,-9.885441E-1],"categories":[],"categories_nodes":[],"categories_segments":[],"categories_sizes":[],"default_left":[1,1,1,0,0,0,0],"id":13,"left_children":[1,3,5,-1,-1,-1,-1],"loss_changes":[1.3807846E2,7.6604965E1,9.4963394E1,0E0,0E0,0E0,0E0],"parents":[2147483647,0,0,1,1,2,2],"right_children":[2,4,6,-1,-1,-1,-1],"split_conditions":[3.065606E1,2.7818581E-2,2.86442E-1,7.2397284E-2,-1.2293067E-1,1.621828E-1,-1.9770883E-1],"split_indices":[3,0,0,0,0,0,0],"split_type":[0,0,0,0,0,0,0],"sum_hessian":[6.616686E2,3.784769E2,2.8319168E2,1.1445373E2,2.6402316E2,2.5085597E2,3.2335705E1],"tree_param":{"num_deleted":"0","num_feature":"9","num_nodes":"7","size_leaf_vector":"0"}},{"base_weights":[6.0800754E-2,2.9901206E-1,-7.0990896E-1,-2.7605402E-1,6.5725875E-1,8.5168505E-1,-7.94398E-1],"categories":[],"categories_nodes":[],"categories_segments":[],"categories_sizes":[],"default_left":[1,1,1,0,0,0,0],"id":14,"left_children":[1,3,5,-1,-1,-1,-1],"loss_changes":[1.1379554E2,9.768959E1,1.9988052E1,0E0,0E0,0E0,0E0],"parents":[2147483647,0,0,1,1,2,2],"right_children":[2,4,6,-1,-1,-1,-1],"split_conditions":[7.7659264E0,1.2666078E1,2.437304E4,-5.5210806E-2,1.3145176E-1,1.70337E-1,-1.5887961E-1],"split_indices":[1,3,5,0,0,0,0],"split_type":[0,0,0,0,0,0,0],"sum_hessian":[6.1767303E2,4.7230487E2,1.4536818E2,1.8137955E2,2.9092532E2,6.9952908E0,1.3837288E2],"tree_param":{"num_deleted":"0","num_feature":"9","num_nodes":"7","size_leaf_vector":"0"}},{"base_weights":[5.8824267E-2,-3.0872738E-1,5.3451574E-1,6.155452E-1,-7.018394E-1,-1.4837317E0,6.500181E-1],"categories":[],"categories_nodes":[],"categories_segments":[],"categories_sizes":[],"default_left":[1,1,1,0,0,0,0],"id":15,"left_children":[1,3,5,-1,-1,-1,-1],"loss_changes":[1.0174552E2,1.19746925E2,6.0083153E1,0E0,0E0,0E0,0E0],"parents":[2147483647,0,0,1,1,2,2],"right_children":[2,4,6,-1,-1,-1,-1],"split_conditions":[3.4726914E3,3.67566E4,4.1136685E2,1.2310904E-1,-1.4036788E-1,-2.9674634E-1,1.3000362E-1],"split_indices":[4,5,2,0,0,0,0],"split_type":[0,0,0,0,0,0,0],"sum_hessian":[5.7998724E2,3.2738123E2,2.5260605E2,9.752282E1,2.298584E2,1.3032625E1,2.3957343E2],"tree_param":{"num_deleted":"0","num_feature":"9","num_nodes":"7","size_leaf_vector":"0"}},{"base_weights":[9.14389E-2,2.2138502E-1,-1.0445086E0,3.7915975E-1,-9.2460054E-1,-1.463681E-1,-1.3467245E0],"categories":[],"categories_nodes":[],"categories_segments":[],"categories_sizes":[],"default_left":[1,1,0,0,0,0,0],"id":16,"left_children":[1,3,5,-1,-1,-1,-1],"loss_changes":[8.346903E1,9.1990395E1,1.5562187E1,0E0,0E0,0E0,0E0],"parents":[2147483647,0,0,1,1,2,2],"right_children":[2,4,6,-1,-1,-1,-1],"split_conditions":[4.4450207E0,4.410293E0,3.5959597E0,7.583195E-2,-1.8492012E-1,-2.927362E-2,-2.693449E-1],"split_indices":[8,6,7,0,0,0,0],"split_type":[0,0,0,0,0,0,0],"sum_hessian":[5.62896E2,5.058362E2,5.705976E1,4.4521054E2,6.0625675E1,1.4739748E1,4.232001E1],"tree_param":{"num_deleted":"0","num_feature":"9","num_nodes":"7","size_leaf_vector":"0"}},{"base_weights":[6.467982E-2,-1.6169757E-1,6.9369996E-1,1.660758E-1,-5.927244E-1,9.117287E-1,-7.575728E-1],"categories":[],"categories_nodes":[],"categories_segments":[],"categories_sizes":[],"default_left":[1,0,1,0,0,0,0],"id":17,"left_children":[1,3,5,-1,-1,-1,-1],"loss_changes":[7.605315E1,5.5618546E1,4.540925E1,0E0,0E0,0E0,0E0],"parents":[2147483647,0,0,1,1,2,2],"right_children":[2,4,6,-1,-1,-1,-1],"split_conditions":[6.676221E1,1.35991E0,2.8726187E-1,3.321516E-2,-1.1854488E-1,1.8234573E-1,-1.5151457E-1],"split_indices":[3,7,0,0,0,0,0],"split_type":[0,0,0,0,0,0,0],"sum_hessian":[5.323086E2,3.919817E2,1.4032693E2,2.230094E2,1.6897229E2,1.2232194E2,1.8004988E1],"tree_param":{"num_deleted":"0","num_feature":"9","num_nodes":"7","size_leaf_vector":"0"}},{"base_weights":[2.9778054E-2,2.2637048E-1,-6.8118304E-1,-1.3881116E-1,5.940958E-1,-8.003394E-1,4.8599413E-1],"categories":[],"categories_nodes":[],"categories_segments":[],"categories_sizes":[],"default_left":[1,1,1,0,0,0,0],"id":18,"left_children":[1,3,5,-1,-1,-1,-1],"loss_changes":[7.267519E1,5.4766243E1,1.6055119E1,0E0,0E0,0E0,0E0],"parents":[2147483647,0,0,1,1,2,2],"right_children":[2,4,6,-1,-1,-1,-1],"split_conditions":[8.259283E0,1.8100784E1,2.7783984E3,-2.7762232E-2,1.1881917E-1,-1.6006789E-1,9.719883E-2],"split_indices":[1,3,2,0,0,0,0],"split_type":[0,0,0,0,0,0,0],"sum_hessian":[5.178611E2,4.06217E2,1.1164409E2,2.0412578E2,2.0209123E2,1.01587395E2,1.0056696E1],"tree_param":{"num_deleted":"0","num_feature":"9","num_nodes":"7","size_leaf_vector":"0"}},{"base_weights":[2.634859E-2,-7.2541356E-1,1.9783677E-1,5.610209E-1,-1.0459583E0,3.0900687E-1,-9.173766E-1],"categories":[],"categories_nodes":[],"categories_segments":[],"categories_sizes":[],"default_left":[1,1,1,0,0,0,0],"id":19,"left_children":[1,3,5,-1,-1,-1,-1],"loss_changes":[6.3288136E1,3.8190838E1,4.98266E1,0E0,0E0,0E0,0E0],"parents":[2147483647,0,0,1,1,2,2],"right_children":[2,4,6,-1,-1,-1,-1],"split_conditions":[5.111654E2,5.053261E2,4.3385715E0,1.1220419E-1,-2.0919167E-1,6.1801374E-2,-1.8347532E-1],"split_indices":[2,4,8,0,0,0,0],"split_type":[0,0,0,0,0,0,0],"sum_hessian":[4.888033E2,9.019229E1,3.9861102E2,1.784104E1,7.235125E1,3.6313483E2,3.5476196E1],"tree_param":{"num_deleted":"0","num_feature":"9","num_nodes":"7","size_leaf_vector":"0"}},{"base_weights":[5.384595E-2,-2.6705602E-1,4.1902217E-1,1.2152754E0,-4.9104238E-1,-1.3564421E0,4.957085E-1],"categories":[],"categories_nodes":[],"categories_segments":[],"categories_sizes":[],"default_left":[1,1,1,0,0,0,0],"id":20,"left_children":[1,3,5,-1,-1,-1,-1],"loss_changes":[5.5570866E1,8.443541E1,3.0864159E1,0E0,0E0,0E0,0E0],"parents":[2147483647,0,0,1,1,2,2],"right_children":[2,4,6,-1,-1,-1,-1],"split_conditions":[3.1298423E3,2.43363E4,4.0122955E2,2.4305509E-1,-9.820848E-2,-2.7128842E-1,9.91417E-2],"split_indices":[4,5,2,0,0,0,0],"split_type":[0,0,0,0,0,0,0],"sum_hessian":[4.7225674E2,2.5150931E2,2.2074744E2,3.243438E1,2.1907494E2,8.448855E0,2.1229858E2],"tree_param":{"num_deleted":"0","num_feature":"9","num_nodes":"7","size_leaf_vector":"0"}},{"base_weights":[1.6108794E-2,3.4902307E-1,-2.7768487E-1,-5.7094777E-1,4.9723896E-1,1.0738137E0,-3.9748478E-1],"categories":[],"categories_nodes":[],"categories_segments":[],"categories_sizes":[],"default_left":[1,1,1,0,0,0,0],"id":21,"left_children":[1,3,5,-1,-1,-1,-1],"loss_changes":[4.5623276E1,3.0097542E1,4.0550846E1,0E0,0E0,0E0,0E0],"parents":[2147483647,0,0,1,1,2,2],"right_children":[2,4,6,-1,-1,-1,-1],"split_conditions":[2.3896365E0,2.4387548E0,2.4338105E4,-1.1418956E-1,9.9447794E-2,2.1476273E-1,-7.949696E-2],"split_indices":[1,3,5,0,0,0,0],"split_type":[0,0,0,0,0,0,0],"sum_hessian":[4.6446606E2,2.1764836E2,2.468177E2,2.9803982E1,1.8784439E2,1.9448622E1,2.2736908E2],"tree_param":{"num_deleted":"0","num_feature":"9","num_nodes":"7","size_leaf_vector":"0"}},{"base_weights":[1.1866308E-2,1.18594304E-1,-9.713799E-1,-6.790713E-2,6.020083E-1,-7.6654273E-1,-1.2424723E0],"categories":[],"categories_nodes":[],"categories_segments":[],"categories_sizes":[],"default_left":[1,1,1,0,0,0,0],"id":22,"left_children":[1,3,5,-1,-1,-1,-1],"loss_changes":[4.6483593E1,3.605716E1,1.4561691E0,0E0,0E0,0E0,0E0],"parents":[2147483647,0,0,1,1,2,2],"right_children":[2,4,6,-1,-1,-1,-1],"split_conditions":[4.449523E0,1.7321426E3,1.3842447E0,-1.3581427E-2,1.2040166E-1,-1.5330856E-1,-2.4849446E-1],"split_indices":[6,2,7,0,0,0,0],"split_type":[0,0,0,0,0,0,0],"sum_hessian":[4.408567E2,3.984822E2,4.237449E1,2.881668E2,1.1031541E2,2.6316998E1,1.6057491E1],"tree_param":{"num_deleted":"0","num_feature":"9","num_nodes":"7","size_leaf_vector":"0"}},{"base_weights":[-2.3025672E-3,-1.4770585E-1,6.513139E-1,-5.8731125E-3,-8.956781E-1,8.381127E-1,-7.414987E-1],"categories":[],"categories_nodes":[],"categories_segments":[],"categories_sizes":[],"default_left":[1,1,1,0,0,0,0],"id":23,"left_children":[1,3,5,-1,-1,-1,-1],"loss_changes":[4.160132E1,3.7980583E1,2.1346577E1,0E0,0E0,0E0,0E0],"parents":[2147483647,0,0,1,1,2,2],"right_children":[2,4,6,-1,-1,-1,-1],"split_conditions":[9.1942276E1,1.0955636E1,3.5755116E-1,-1.1746226E-3,-1.7913562E-1,1.6762255E-1,-1.4829974E-1],"split_indices":[3,1,0,0,0,0,0],"split_type":[0,0,0,0,0,0,0],"sum_hessian":[4.357214E2,3.5706326E2,7.865815E1,3.0099545E2,5.6067802E1,6.97075E1,8.95065E0],"tree_param":{"num_deleted":"0","num_feature":"9","num_nodes":"7","size_leaf_vector":"0"}},{"base_weights":[4.9514927E-2,-7.859484E-1,1.4634117E-1,5.582156E-1,-1.212295E0,2.4710523E-1,-6.954736E-1],"categories":[],"categories_nodes":[],"categories_segments":[],"categories_sizes":[],"default_left":[1,1,1,0,0,0,0],"id":24,"left_children":[1,3,5,-1,-1,-1,-1],"loss_changes":[3.3615356E1,2.541493E1,3.1722841E1,0E0,0E0,0E0,0E0],"parents":[2147483647,0,0,1,1,2,2],"right_children":[2,4,6,-1,-1,-1,-1],"split_conditions":[3.9997968E2,3.751551E2,1.3173819E1,1.1164313E-1,-2.4245901E-1,4.9421046E-2,-1.3909473E-1],"split_indices":[2,4,1,0,0,0,0],"split_type":[0,0,0,0,0,0,0],"sum_hessian":[4.131224E2,4.216712E1,3.709553E2,1.0079546E1,3.2087578E1,3.3193018E2,3.9025116E1],"tree_param":{"num_deleted":"0","num_feature":"9","num_nodes":"7","size_leaf_vector":"0"}},{"base_weights":[3.6467966E-2,1.0204896E-1,-1.1685468E0,2.6676345E-1,-4.3608356E-1,2.1058828E-1,-1.2144223E0],"categories":[],"categories_nodes":[],"categories_segments":[],"categories_sizes":[],"default_left":[1,0,0,0,0,0,0],"id":25,"left_children":[1,3,5,-1,-1,-1,-1],"loss_changes":[3.2585823E1,3.4733856E1,1.6024323E0,0E0,0E0,0E0,0E0],"parents":[2147483647,0,0,1,1,2,2],"right_children":[2,4,6,-1,-1,-1,-1],"split_conditions":[4.636375E0,2.2453597E0,3.92258E-2,5.335269E-2,-8.721671E-2,4.2117655E-2,-2.4288447E-1],"split_indices":[6,7,7,0,0,0,0],"split_type":[0,0,0,0,0,0,0],"sum_hessian":[4.0983374E2,3.895485E2,2.028524E1,2.9864264E2,9.090587E1,5.3745925E-1,1.974778E1],"tree_param":{"num_deleted":"0","num_feature":"9","num_nodes":"7","size_leaf_vector":"0"}},{"base_weights":[1.4481223E-2,-2.7858248E-1,2.6923496E-1,1.935066E-1,-7.886946E-1,-1.2070872E0,3.4232238E-1],"categories":[],"categories_nodes":[],"categories_segments":[],"categories_sizes":[],"default_left":[1,1,1,0,0,0,0],"id":26,"left_children":[1,3,5,-1,-1,-1,-1],"loss_changes":[2.9918783E1,4.503669E1,2.3541996E1,0E0,0E0,0E0,0E0],"parents":[2147483647,0,0,1,1,2,2],"right_children":[2,4,6,-1,-1,-1,-1],"split_conditions":[2.7392966E3,5.0633383E4,4.014659E2,3.8701322E-2,-1.5773892E-1,-2.4141744E-1,6.846448E-2],"split_indices":[4,5,2,0,0,0,0],"split_type":[0,0,0,0,0,0,0],"sum_hessian":[3.9873413E2,1.8538142E2,2.133527E2,9.660131E1,8.878012E1,9.332201E0,2.0402051E2],"tree_param":{"num_deleted":"0","num_feature":"9","num_nodes":"7","size_leaf_vector":"0"}},{"base_weights":[-7.270484E-3,4.401853E-1,-1.807987E-1,-8.210175E-3,7.944149E-1,6.363046E-1,-3.20265E-1],"categories":[],"categories_nodes":[],"categories_segments":[],"categories_sizes":[],"default_left":[1,1,1,0,0,0,0],"id":27,"left_children":[1,3,5,-1,-1,-1,-1],"loss_changes":[3.02734E1,1.7312473E1,3.2215652E1,0E0,0E0,0E0,0E0],"parents":[2147483647,0,0,1,1,2,2],"right_children":[2,4,6,-1,-1,-1,-1],"split_conditions":[2.6141569E-2,9.2445965E0,3.0011965E4,-1.642035E-3,1.5888298E-1,1.2726092E-1,-6.4053E-2],"split_indices":[0,3,5,0,0,0,0],"split_type":[0,0,0,0,0,0,0],"sum_hessian":[3.87864E2,1.0795558E2,2.7990842E2,4.807609E1,5.987949E1,4.0290802E1,2.3961763E2],"tree_param":{"num_deleted":"0","num_feature":"9","num_nodes":"7","size_leaf_vector":"0"}},{"base_weights":[-9.106686E-3,-2.757929E-1,2.5142965E-1,-1.5783431E-2,-6.0413074E-1,3.5497344E-1,-8.689212E-1],"categories":[],"categories_nodes":[],"categories_segments":[],"categories_sizes":[],"default_left":[1,0,1,0,0,0,0],"id":28,"left_children":[1,3,5,-1,-1,-1,-1],"loss_changes":[2.6204878E1,1.5900087E1,2.244141E1,0E0,0E0,0E0,0E0],"parents":[2147483647,0,0,1,1,2,2],"right_children":[2,4,6,-1,-1,-1,-1],"split_conditions":[1.5816816E1,1.2619779E0,4.410834E-1,-3.1566862E-3,-1.2082615E-1,7.099469E-2,-1.7378424E-1],"split_indices":[3,7,0,0,0,0,0],"split_type":[0,0,0,0,0,0,0],"sum_hessian":[3.751513E2,1.8535872E2,1.8979259E2,1.0402768E2,8.133103E1,1.7436115E2,1.5431448E1],"tree_param":{"num_deleted":"0","num_feature":"9","num_nodes":"7","size_leaf_vector":"0"}},{"base_weights":[-2.5082063E-2,1.2172605E0,-8.4609896E-2,1.299023E0,-4.509024E-1,1.735333E-1,-4.4798228E-1],"categories":[],"categories_nodes":[],"categories_segments":[],"categories_sizes":[],"default_left":[1,1,0,0,0,0,0],"id":29,"left_children":[1,3,5,-1,-1,-1,-1],"loss_changes":[2.7314022E1,2.8893147E0,3.310136E1,0E0,0E0,0E0,0E0],"parents":[2147483647,0,0,1,1,2,2],"right_children":[2,4,6,-1,-1,-1,-1],"split_conditions":[2.107345E4,1.8088174E0,1.2974362E0,2.598046E-1,-9.018048E-2,3.4706663E-2,-8.959646E-2],"split_indices":[5,0,7,0,0,0,0],"split_type":[0,0,0,0,0,0,0],"sum_hessian":[3.6694556E2,1.5889248E1,3.510563E2,1.5357793E1,5.3145516E-1,2.0555238E2,1.4550394E2],"tree_param":{"num_deleted":"0","num_feature":"9","num_nodes":"7","size_leaf_vector":"0"}},{"base_weights":[-1.3967765E-2,9.5879376E-1,-7.36049E-2,-1.8899605E-1,1.1859477E0,-3.01187E-1,2.5867596E-1],"categories":[],"categories_nodes":[],"categories_segments":[],"categories_sizes":[],"default_left":[1,1,1,0,0,0,0],"id":30,"left_children":[1,3,5,-1,-1,-1,-1],"loss_changes":[2.138654E1,5.776657E0,2.6329025E1,0E0,0E0,0E0,0E0],"parents":[2147483647,0,0,1,1,2,2],"right_children":[2,4,6,-1,-1,-1,-1],"split_conditions":[2.292472E4,4.586801E2,3.8311904E3,-3.779921E-2,2.3718953E-1,-6.0237404E-2,5.1735193E-2],"split_indices":[5,2,4,0,0,0,0],"split_type":[0,0,0,0,0,0,0],"sum_hessian":[3.664362E2,2.0296467E1,3.461397E2,3.3809226E0,1.6915545E1,2.0549081E2,1.406489E2],"tree_param":{"num_deleted":"0","num_feature":"9","num_nodes":"7","size_leaf_vector":"0"}},{"base_weights":[-1.5901114E-3,2.5654283E-1,-2.4238181E-1,3.2295763E-1,-1.0382082E0,3.0503958E-2,-7.47712E-1],"categories":[],"categories_nodes":[],"categories_segments":[],"categories_sizes":[],"default_left":[1,1,0,0,0,0,0],"id":31,"left_children":[1,3,5,-1,-1,-1,-1],"loss_changes":[2.2541195E1,1.5386009E1,2.5895922E1,0E0,0E0,0E0,0E0],"parents":[2147483647,0,0,1,1,2,2],"right_children":[2,4,6,-1,-1,-1,-1],"split_conditions":[5.5200023E4,5.171282E-1,1.5945541E0,6.459153E-2,-2.0764165E-1,6.100792E-3,-1.495424E-1],"split_indices":[5,0,7,0,0,0,0],"split_type":[0,0,0,0,0,0,0],"sum_hessian":[3.6065317E2,1.7402736E2,1.8662582E2,1.6625006E2,7.777303E0,1.2179458E2,6.483124E1],"tree_param":{"num_deleted":"0","num_feature":"9","num_nodes":"7","size_leaf_vector":"0"}},{"base_weights":[2.5840824E-2,-7.3474035E-2,5.382553E-1,2.7162954E-3,-8.8269705E-1,6.395357E-1,-8.65772E-1],"categories":[],"categories_nodes":[],"categories_segments":[],"categories_sizes":[],"default_left":[1,1,1,0,0,0,0],"id":32,"left_children":[1,3,5,-1,-1,-1,-1],"loss_changes":[1.8223722E1,1.8510548E1,8.820011E0,0E0,0E0,0E0,0E0],"parents":[2147483647,0,0,1,1,2,2],"right_children":[2,4,6,-1,-1,-1,-1],"split_conditions":[9.1942276E1,1.5752813E1,6.641154E-1,5.432591E-4,-1.765394E-1,1.2790714E-1,-1.731544E-1],"split_indices":[3,1,0,0,0,0,0],"split_type":[0,0,0,0,0,0,0],"sum_hessian":[3.5632056E2,2.991891E2,5.713145E1,2.7435458E2,2.4834515E1,5.3795387E1,3.3360655E0],"tree_param":{"num_deleted":"0","num_feature":"9","num_nodes":"7","size_leaf_vector":"0"}},{"base_weights":[3.674353E-2,1.1724147E-1,-7.1878034E-1,9.873129E-1,5.150458E-2,3.104336E-1,-8.6349624E-1],"categories":[],"categories_nodes":[],"categories_segments":[],"categories_sizes":[],"default_left":[1,1,1,0,0,0,0],"id":33,"left_children":[1,3,5,-1,-1,-1,-1],"loss_changes":[2.1150019E1,1.790185E1,5.2563896E0,0E0,0E0,0E0,0E0],"parents":[2147483647,0,0,1,1,2,2],"right_children":[2,4,6,-1,-1,-1,-1],"split_conditions":[4.410293E0,6.896678E2,7.619797E2,1.9746259E-1,1.0300916E-2,6.208672E-2,-1.7269926E-1],"split_indices":[6,4,4,0,0,0,0],"split_type":[0,0,0,0,0,0,0],"sum_hessian":[3.453729E2,3.1288147E2,3.249141E1,2.0993917E1,2.9188757E2,3.8642054E0,2.8627205E1],"tree_param":{"num_deleted":"0","num_feature":"9","num_nodes":"7","size_leaf_vector":"0"}},{"base_weights":[-4.9345236E-2,-2.4200365E-1,2.2261064E-1,-4.381732E-1,2.5726968E-1,6.7441523E-1,1.3549401E-2],"categories":[],"categories_nodes":[],"categories_segments":[],"categories_sizes":[],"default_left":[1,1,1,0,0,0,0],"id":34,"left_children":[1,3,5,-1,-1,-1,-1],"loss_changes":[1.835555E1,2.0185017E1,1.3721256E1,0E0,0E0,0E0,0E0],"parents":[2147483647,0,0,1,1,2,2],"right_children":[2,4,6,-1,-1,-1,-1],"split_conditions":[1.2087358E3,4.475449E3,4.1887953E4,-8.7634645E-2,5.1453937E-2,1.3488305E-1,2.7098802E-3],"split_indices":[2,4,5,0,0,0,0],"split_type":[0,0,0,0,0,0,0],"sum_hessian":[3.4830475E2,2.0394008E2,1.4436467E2,1.4650081E2,5.7439274E1,4.4964806E1,9.9399864E1],"tree_param":{"num_deleted":"0","num_feature":"9","num_nodes":"7","size_leaf_vector":"0"}},{"base_weights":[-1.37056345E-2,6.819664E-1,-1.0042935E-1,-4.9262273E-1,8.378509E-1,1.4901315E-1,-3.1535333E-1],"categories":[],"categories_nodes":[],"categories_segments":[],"categories_sizes":[],"default_left":[1,1,1,0,0,0,0],"id":35,"left_children":[1,3,5,-1,-1,-1,-1],"loss_changes":[2.0254507E1,7.2268524E0,1.604302E1,0E0,0E0,0E0,0E0],"parents":[2147483647,0,0,1,1,2,2],"right_children":[2,4,6,-1,-1,-1,-1],"split_conditions":[1.4922586E-2,5.0749323E2,5.428068E4,-9.852455E-2,1.6757019E-1,2.980263E-2,-6.307067E-2],"split_indices":[0,2,5,0,0,0,0],"split_type":[0,0,0,0,0,0,0],"sum_hessian":[3.3358636E2,3.621518E1,2.973712E2,3.990042E0,3.2225136E1,1.3777504E2,1.5959615E2],"tree_param":{"num_deleted":"0","num_feature":"9","num_nodes":"7","size_leaf_vector":"0"}},{"base_weights":[5.0142765E-2,-6.340952E-2,4.9860206E-1,1.4371064E-2,-7.444511E-1,7.0881104E-1,-2.9473096E-1],"categories":[],"categories_nodes":[],"categories_segments":[],"categories_sizes":[],"default_left":[1,1,1,0,0,0,0],"id":36,"left_children":[1,3,5,-1,-1,-1,-1],"loss_changes":[1.6888409E1,1.4049659E1,1.1381285E1,0E0,0E0,0E0,0E0],"parents":[2147483647,0,0,1,1,2,2],"right_children":[2,4,6,-1,-1,-1,-1],"split_conditions":[6.3315655E1,1.2903746E1,2.0426613E-1,2.8742128E-3,-1.4889023E-1,1.4176221E-1,-5.8946192E-2],"split_indices":[3,1,0,0,0,0,0],"split_type":[0,0,0,0,0,0,0],"sum_hessian":[3.300214E2,2.6402695E2,6.599443E1,2.378423E2,2.618466E1,5.2254993E1,1.3739434E1],"tree_param":{"num_deleted":"0","num_feature":"9","num_nodes":"7","size_leaf_vector":"0"}},{"base_weights":[-1.8235285E-2,-7.6773584E-1,5.5337258E-2,5.004801E-1,-1.2423732E0,3.796903E-1,-1.4368498E-1],"categories":[],"categories_nodes":[],"categories_segments":[],"categories_sizes":[],"default_left":[1,1,0,0,0,0,0],"id":37,"left_children":[1,3,5,-1,-1,-1,-1],"loss_changes":[1.7799547E1,1.798896E1,1.9044157E1,0E0,0E0,0E0,0E0],"parents":[2147483647,0,0,1,1,2,2],"right_children":[2,4,6,-1,-1,-1,-1],"split_conditions":[4.01565E2,3.94354E2,7.4704057E-1,1.00096025E-1,-2.4847464E-1,7.593806E-2,-2.8736997E-2],"split_indices":[2,4,7,0,0,0,0],"split_type":[0,0,0,0,0,0,0],"sum_hessian":[3.2102045E2,2.7851873E1,2.9316858E2,7.570172E0,2.0281702E1,1.1113707E2,1.820315E2],"tree_param":{"num_deleted":"0","num_feature":"9","num_nodes":"7","size_leaf_vector":"0"}},{"base_weights":[2.065935E-2,8.98685E-1,-4.041459E-2,1.291456E0,-1.2508702E-1,-6.7481035E-1,9.512498E-2],"categories":[],"categories_nodes":[],"categories_segments":[],"categories_sizes":[],"default_left":[1,1,1,0,0,0,0],"id":38,"left_children":[1,3,5,-1,-1,-1,-1],"loss_changes":[1.757721E1,8.732971E0,2.6443733E1,0E0,0E0,0E0,0E0],"parents":[2147483647,0,0,1,1,2,2],"right_children":[2,4,6,-1,-1,-1,-1],"split_conditions":[6.142752E2,6.2145754E4,5.955388E2,2.582912E-1,-2.5017405E-2,-1.3496207E-1,1.9024996E-2],"split_indices":[4,5,2,0,0,0,0],"split_type":[0,0,0,0,0,0,0],"sum_hessian":[3.26106E2,2.0316235E1,3.0578976E2,1.4494095E1,5.82214E0,5.3130882E1,2.5265887E2],"tree_param":{"num_deleted":"0","num_feature":"9","num_nodes":"7","size_leaf_vector":"0"}},{"base_weights":[3.0549906E-2,-2.2674733E-1,2.0260377E-1,2.7905726E-1,-5.423676E-1,-1.0718473E0,2.505338E-1],"categories":[],"categories_nodes":[],"categories_segments":[],"categories_sizes":[],"default_left":[1,1,1,0,0,0,0],"id":39,"left_children":[1,3,5,-1,-1,-1,-1],"loss_changes":[1.4258801E1,2.0765783E1,1.2053427E1,0E0,0E0,0E0,0E0],"parents":[2147483647,0,0,1,1,2,2],"right_children":[2,4,6,-1,-1,-1,-1],"split_conditions":[2.3919639E3,1.0676731E3,4.014659E2,5.5811454E-2,-1.0847352E-1,-2.1436946E-1,5.010676E-2],"split_indices":[4,4,2,0,0,0,0],"split_type":[0,0,0,0,0,0,0],"sum_hessian":[3.2005685E2,1.28129E2,1.9192786E2,4.9276165E1,7.885284E1,6.182172E0,1.857457E2],"tree_param":{"num_deleted":"0","num_feature":"9","num_nodes":"7","size_leaf_vector":"0"}},{"base_weights":[2.2567057E-3,-9.5621124E-2,5.37333E-1,-2.0885935E-2,-7.947197E-1,6.2141293E-1,-4.6673492E-1],"categories":[],"categories_nodes":[],"categories_segments":[],"categories_sizes":[],"default_left":[1,1,1,0,0,0,0],"id":40,"left_children":[1,3,5,-1,-1,-1,-1],"loss_changes":[1.6352911E1,1.3775622E1,4.366246E0,0E0,0E0,0E0,0E0],"parents":[2147483647,0,0,1,1,2,2],"right_children":[2,4,6,-1,-1,-1,-1],"split_conditions":[8.580735E1,1.6693613E-1,5.308944E-1,-4.177187E-3,-1.5894394E-1,1.2428259E-1,-9.334698E-2],"split_indices":[3,0,0,0,0,0,0],"split_type":[0,0,0,0,0,0,0],"sum_hessian":[3.1026358E2,2.629798E2,4.728379E1,2.3851219E2,2.4467607E1,4.3981884E1,3.3019054E0],"tree_param":{"num_deleted":"0","num_feature":"9","num_nodes":"7","size_leaf_vector":"0"}},{"base_weights":[-9.298166E-3,-1.2536076E-1,3.1188405E-1,-2.9286343E-1,2.14809E-1,6.8853474E-1,-2.3406579E-3],"categories":[],"categories_nodes":[],"categories_segments":[],"categories_sizes":[],"default_left":[1,1,1,0,0,0,0],"id":41,"left_children":[1,3,5,-1,-1,-1,-1],"loss_changes":[1.1546101E1,1.3023561E1,9.733162E0,0E0,0E0,0E0,0E0],"parents":[2147483647,0,0,1,1,2,2],"right_children":[2,4,6,-1,-1,-1,-1],"split_conditions":[1.61856E3,3.9457903E3,2.366962E0,-5.8572687E-2,4.2961802E-2,1.3770695E-1,-4.681316E-4],"split_indices":[2,4,1,0,0,0,0],"split_type":[0,0,0,0,0,0,0],"sum_hessian":[3.0768707E2,2.2646223E2,8.122483E1,1.5183592E2,7.462632E1,3.6400978E1,4.4823853E1],"tree_param":{"num_deleted":"0","num_feature":"9","num_nodes":"7","size_leaf_vector":"0"}},{"base_weights":[1.9486735E-3,9.0657556E-1,-4.7592435E-2,-1.3399655E-1,1.0910484E0,-3.383628E-1,1.8373932E-1],"categories":[],"categories_nodes":[],"categories_segments":[],"categories_sizes":[],"default_left":[1,1,1,0,0,0,0],"id":42,"left_children":[1,3,5,-1,-1,-1,-1],"loss_changes":[1.3639459E1,3.1794205E0,1.9473186E1,0E0,0E0,0E0,0E0],"parents":[2147483647,0,0,1,1,2,2],"right_children":[2,4,6,-1,-1,-1,-1],"split_conditions":[2.2609836E4,3.871109E2,3.043336E0,-2.679931E-2,2.1820967E-1,-6.7672566E-2,3.6747865E-2],"split_indices":[5,2,8,0,0,0,0],"split_type":[0,0,0,0,0,0,0],"sum_hessian":[3.0237933E2,1.48015585E1,2.8757776E2,2.2700899E0,1.2531468E1,1.27214264E2,1.6036351E2],"tree_param":{"num_deleted":"0","num_feature":"9","num_nodes":"7","size_leaf_vector":"0"}},{"base_weights":[-8.6516346E-4,7.9563636E-1,-4.2642504E-2,1.0280621E0,-2.9159763E-1,1.0939946E-1,-3.1720963E-1],"categories":[],"categories_nodes":[],"categories_segments":[],"categories_sizes":[],"default_left":[1,1,0,0,0,0,0],"id":43,"left_children":[1,3,5,-1,-1,-1,-1],"loss_changes":[1.0127314E1,4.1326857E0,1.2105818E1,0E0,0E0,0E0,0E0],"parents":[2147483647,0,0,1,1,2,2],"right_children":[2,4,6,-1,-1,-1,-1],"split_conditions":[2.2478734E4,9.5378475E0,1.4829504E0,2.0561242E-1,-5.8319528E-2,2.1879893E-2,-6.3441925E-2],"split_indices":[5,1,7,0,0,0,0],"split_type":[0,0,0,0,0,0,0],"sum_hessian":[3.0232587E2,1.4167734E1,2.8815814E2,1.1717274E1,2.4504602E0,1.8584676E2,1.0231138E2],"tree_param":{"num_deleted":"0","num_feature":"9","num_nodes":"7","size_leaf_vector":"0"}},{"base_weights":[-1.0259434E-2,5.7109547E-1,-7.718728E-2,-1.2016717E0,6.286432E-1,1.1930571E-1,-2.549982E-1],"categories":[],"categories_nodes":[],"categories_segments":[],"categories_sizes":[],"default_left":[1,1,1,0,0,0,0],"id":44,"left_children":[1,3,5,-1,-1,-1,-1],"loss_changes":[1.18286E1,3.9575348E0,9.550762E0,0E0,0E0,0E0,0E0],"parents":[2147483647,0,0,1,1,2,2],"right_children":[2,4,6,-1,-1,-1,-1],"split_conditions":[1.4781712E-2,1.2736114E-3,5.5089992E4,-2.4033435E-1,1.2572865E-1,2.3861142E-2,-5.099964E-2],"split_indices":[0,0,5,0,0,0,0],"split_type":[0,0,0,0,0,0,0],"sum_hessian":[3.0187518E2,3.0387495E1,2.714877E2,3.3032963E-1,3.0057165E1,1.2912498E2,1.4236272E2],"tree_param":{"num_deleted":"0","num_feature":"9","num_nodes":"7","size_leaf_vector":"0"}},{"base_weights":[2.769402E-2,6.817171E-2,-1.123206E0,1.1151722E-1,-8.1857127E-1,2.4424808E-1,-1.1987137E0],"categories":[],"categories_nodes":[],"categories_segments":[],"categories_sizes":[],"default_left":[1,1,0,0,0,0,0],"id":45,"left_children":[1,3,5,-1,-1,-1,-1],"loss_changes":[1.3764114E1,1.1036954E1,1.3294134E0,0E0,0E0,0E0,0E0],"parents":[2147483647,0,0,1,1,2,2],"right_children":[2,4,6,-1,-1,-1,-1],"split_conditions":[4.671159E0,4.6246614E0,4.1508235E-2,2.2303445E-2,-1.6371426E-1,4.8849616E-2,-2.3974274E-1],"split_indices":[6,8,7,0,0,0,0],"split_type":[0,0,0,0,0,0,0],"sum_hessian":[2.9281375E2,2.8377408E2,9.0397E0,2.7138266E2,1.2391408E1,3.5609084E-1,8.683609E0],"tree_param":{"num_deleted":"0","num_feature":"9","num_nodes":"7","size_leaf_vector":"0"}},{"base_weights":[-2.213017E-2,-6.157288E-1,4.8275918E-2,-9.643016E-1,1.5363353E-1,-7.2620344E-1,9.454669E-2],"categories":[],"categories_nodes":[],"categories_segments":[],"categories_sizes":[],"default_left":[1,1,1,0,0,0,0],"id":46,"left_children":[1,3,5,-1,-1,-1,-1],"loss_changes":[1.2289011E1,8.508791E0,9.499132E0,0E0,0E0,0E0,0E0],"parents":[2147483647,0,0,1,1,2,2],"right_children":[2,4,6,-1,-1,-1,-1],"split_conditions":[1.5291414E0,3.6699548E0,3.645375E2,-1.9286032E-1,3.0726707E-2,-1.452407E-1,1.8909339E-2],"split_indices":[3,1,2,0,0,0,0],"split_type":[0,0,0,0,0,0,0],"sum_hessian":[2.9233377E2,3.0175623E1,2.6215817E2,2.0592472E1,9.58315E0,1.3951052E1,2.482071E2],"tree_param":{"num_deleted":"0","num_feature":"9","num_nodes":"7","size_leaf_vector":"0"}},{"base_weights":[-3.894044E-2,1.0613667E0,-6.999824E-2,1.7067842E-1,1.1888853E0,-2.7299282E-1,8.945037E-2],"categories":[],"categories_nodes":[],"categories_segments":[],"categories_sizes":[],"default_left":[1,1,1,0,0,0,0],"id":47,"left_children":[1,3,5,-1,-1,-1,-1],"loss_changes":[9.937984E0,7.0406723E-1,9.140752E0,0E0,0E0,0E0,0E0],"parents":[2147483647,0,0,1,1,2,2],"right_children":[2,4,6,-1,-1,-1,-1],"split_conditions":[1.99802E4,3.609229E-2,1.1412542E1,3.4135684E-2,2.3777707E-1,-5.4598566E-2,1.7890073E-2],"split_indices":[5,0,3,0,0,0,0],"split_type":[0,0,0,0,0,0,0],"sum_hessian":[2.876389E2,6.985476E0,2.806534E2,1.1677151E0,5.817761E0,1.2315379E2,1.5749962E2],"tree_param":{"num_deleted":"0","num_feature":"9","num_nodes":"7","size_leaf_vector":"0"}},{"base_weights":[1.9997336E-2,-5.797851E-1,8.736906E-2,2.1511741E-1,-7.903194E-1,1.4671138E-1,-5.872821E-1],"categories":[],"categories_nodes":[],"categories_segments":[],"categories_sizes":[],"default_left":[1,0,1,0,0,0,0],"id":48,"left_children":[1,3,5,-1,-1,-1,-1],"loss_changes":[1.1641695E1,5.039667E0,1.0445294E1,0E0,0E0,0E0,0E0],"parents":[2147483647,0,0,1,1,2,2],"right_children":[2,4,6,-1,-1,-1,-1],"split_conditions":[1.5849996E0,3.9921802E-1,1.5753063E1,4.3023482E-2,-1.5806387E-1,2.9342277E-2,-1.1745643E-1],"split_indices":[3,7,1,0,0,0,0],"split_type":[0,0,0,0,0,0,0],"sum_hessian":[2.8584747E2,2.809789E1,2.5774957E2,5.8790236E0,2.2218866E1,2.3763017E2,2.0119411E1],"tree_param":{"num_deleted":"0","num_feature":"9","num_nodes":"7","size_leaf_vector":"0"}},{"base_weights":[-1.6677173E-2,3.0088143E-2,-6.458246E-1,-1.6988802E-1,2.1798274E-1,-1.0181437E0,-2.1830197E-1],"categories":[],"categories_nodes":[],"categories_segments":[],"categories_sizes":[],"default_left":[1,1,1,0,0,0,0],"id":49,"left_children":[1,3,5,-1,-1,-1,-1],"loss_changes":[8.473434E0,1.012234E1,2.9492397E0,0E0,0E0,0E0,0E0],"parents":[2147483647,0,0,1,1,2,2],"right_children":[2,4,6,-1,-1,-1,-1],"split_conditions":[4.449523E0,3.0287313E0,3.0526779E0,-3.3977605E-2,4.3596547E-2,-2.0362873E-1,-4.3660395E-2],"split_indices":[6,6,8,0,0,0,0],"split_type":[0,0,0,0,0,0,0],"sum_hessian":[2.8633337E2,2.6740872E2,1.8924648E1,1.295861E2,1.3782262E2,9.376974E0,9.547673E0],"tree_param":{"num_deleted":"0","num_feature":"9","num_nodes":"7","size_leaf_vector":"0"}},{"base_weights":[6.2091094E-2,7.570174E-1,1.4338028E-2,-9.8079495E-2,1.1302193E0,-2.517486E-1,1.9310133E-1],"categories":[],"categories_nodes":[],"categories_segments":[],"categories_sizes":[],"default_left":[1,1,1,0,0,0,0],"id":50,"left_children":[1,3,5,-1,-1,-1,-1],"loss_changes":[9.458801E0,5.960046E0,1.2797954E1,0E0,0E0,0E0,0E0],"parents":[2147483647,0,0,1,1,2,2],"right_children":[2,4,6,-1,-1,-1,-1],"split_conditions":[6.142752E2,2.7869306E0,9.712267E2,-1.96159E-2,2.2604387E-1,-5.034972E-2,3.8620267E-2],"split_indices":[4,8,2,0,0,0,0],"split_type":[0,0,0,0,0,0,0],"sum_hessian":[2.843607E2,1.7328918E1,2.6703177E2,5.489145E0,1.1839775E1,1.0714287E2,1.5988892E2],"tree_param":{"num_deleted":"0","num_feature":"9","num_nodes":"7","size_leaf_vector":"0"}},{"base_weights":[-1.0952837E-2,2.9348655E-2,-7.1290016E-1,-1.3697186E-1,2.7087227E-1,4.466221E-1,-1.1138017E0],"categories":[],"categories_nodes":[],"categories_segments":[],"categories_sizes":[],"default_left":[1,1,0,0,0,0,0],"id":51,"left_children":[1,3,5,-1,-1,-1,-1],"loss_changes":[7.9434366E0,1.0714609E1,7.5843043E0,0E0,0E0,0E0,0E0],"parents":[2147483647,0,0,1,1,2,2],"right_children":[2,4,6,-1,-1,-1,-1],"split_conditions":[4.560601E0,3.2283983E0,1.9503291E0,-2.7394373E-2,5.4174453E-2,8.932442E-2,-2.2276035E-1],"split_indices":[8,8,7,0,0,0,0],"split_type":[0,0,0,0,0,0,0],"sum_hessian":[2.7905118E2,2.6480585E2,1.424533E1,1.5707327E2,1.0773256E2,3.630587E0,1.0614743E1],"tree_param":{"num_deleted":"0","num_feature":"9","num_nodes":"7","size_leaf_vector":"0"}},{"base_weights":[-1.2899657E-2,-2.2075397E-1,1.2462445E-1,4.4863236E-1,-3.9752674E-1,4.9230456E-1,-2.9294917E-2],"categories":[],"categories_nodes":[],"categories_segments":[],"categories_sizes":[],"default_left":[1,1,1,0,0,0,0],"id":52,"left_children":[1,3,5,-1,-1,-1,-1],"loss_changes":[8.051837E0,1.3447588E1,9.611474E0,0E0,0E0,0E0,0E0],"parents":[2147483647,0,0,1,1,2,2],"right_children":[2,4,6,-1,-1,-1,-1],"split_conditions":[2.3919639E3,6.896678E2,2.6231058E-2,8.972647E-2,-7.950535E-2,9.846091E-2,-5.8589834E-3],"split_indices":[4,4,0,0,0,0,0],"split_type":[0,0,0,0,0,0,0],"sum_hessian":[2.7971823E2,1.111383E2,1.6857994E2,2.2896835E1,8.824146E1,4.90977E1,1.1948224E2],"tree_param":{"num_deleted":"0","num_feature":"9","num_nodes":"7","size_leaf_vector":"0"}},{"base_weights":[-8.332483E-3,-8.523309E-2,4.7295797E-1,-1.7255868E-1,3.6107516E-1,9.012934E-1,-1.6048901E-1],"categories":[],"categories_nodes":[],"categories_segments":[],"categories_sizes":[],"default_left":[1,1,1,0,0,0,0],"id":53,"left_children":[1,3,5,-1,-1,-1,-1],"loss_changes":[1.0247437E1,9.36293E0,1.0494867E1,0E0,0E0,0E0,0E0],"parents":[2147483647,0,0,1,1,2,2],"right_children":[2,4,6,-1,-1,-1,-1],"split_conditions":[2.4409158E3,6.3557896E3,7.143627E4,-3.4511738E-2,7.2215036E-2,1.8025868E-1,-3.20978E-2],"split_indices":[2,4,5,0,0,0,0],"split_type":[0,0,0,0,0,0,0],"sum_hessian":[2.7478235E2,2.3763579E2,3.714655E1,1.9926129E2,3.8374504E1,2.1908936E1,1.5237614E1],"tree_param":{"num_deleted":"0","num_feature":"9","num_nodes":"7","size_leaf_vector":"0"}},{"base_weights":[-1.395674E-2,-2.00402E-1,1.4965883E-1,-4.2555127E-1,2.9893634E-1,2.736878E-1,-4.0966207E-1],"categories":[],"categories_nodes":[],"categories_segments":[],"categories_sizes":[],"default_left":[1,1,1,0,0,0,0],"id":54,"left_children":[1,3,5,-1,-1,-1,-1],"loss_changes":[8.417937E0,1.4623888E1,1.0311318E1,0E0,0E0,0E0,0E0],"parents":[2147483647,0,0,1,1,2,2],"right_children":[2,4,6,-1,-1,-1,-1],"split_conditions":[3.0328531E0,3.0908016E1,1.2187208E-1,-8.5110255E-2,5.978727E-2,5.4737564E-2,-8.193242E-2],"split_indices":[6,3,0,0,0,0,0],"split_type":[0,0,0,0,0,0,0],"sum_hessian":[2.7396637E2,1.2794456E2,1.4602182E2,8.828503E1,3.9659527E1,1.1993664E2,2.6085182E1],"tree_param":{"num_deleted":"0","num_feature":"9","num_nodes":"7","size_leaf_vector":"0"}},{"base_weights":[4.547472E-2,9.906147E-1,1.5220414E-2,1.0722629E0,-2.799196E-1,6.334372E-2,-5.381117E-1],"categories":[],"categories_nodes":[],"categories_segments":[],"categories_sizes":[],"default_left":[1,1,1,0,0,0,0],"id":55,"left_children":[1,3,5,-1,-1,-1,-1],"loss_changes":[7.6970806E0,1.1663542E0,7.020178E0,0E0,0E0,0E0,0E0],"parents":[2147483647,0,0,1,1,2,2],"right_children":[2,4,6,-1,-1,-1,-1],"split_conditions":[1.9974875E4,1.7382909E0,2.3686059E-1,2.1445258E-1,-5.598392E-2,1.2668744E-2,-1.0762234E-1],"split_indices":[5,0,0,0,0,0,0],"split_type":[0,0,0,0,0,0,0],"sum_hessian":[2.6870724E2,7.350044E0,2.613572E2,7.0528603E0,2.9718336E-1,2.4126031E2,2.0096891E1],"tree_param":{"num_deleted":"0","num_feature":"9","num_nodes":"7","size_leaf_vector":"0"}},{"base_weights":[2.5524748E-3,1.503978E-1,-2.1737896E-1,7.3828775E-1,7.842253E-2,1.3130385E-1,-6.070489E-1],"categories":[],"categories_nodes":[],"categories_segments":[],"categories_sizes":[],"default_left":[1,1,0,0,0,0,0],"id":56,"left_children":[1,3,5,-1,-1,-1,-1],"loss_changes":[8.790592E0,6.7824473E0,1.4846729E1,0E0,0E0,0E0,0E0],"parents":[2147483647,0,0,1,1,2,2],"right_children":[2,4,6,-1,-1,-1,-1],"split_conditions":[6.620367E4,6.90892E2,1.099338E0,1.4765756E-1,1.5684506E-2,2.6260769E-2,-1.2140979E-1],"split_indices":[5,4,7,0,0,0,0],"split_type":[0,0,0,0,0,0,0],"sum_hessian":[2.6834253E2,1.6065857E2,1.0768396E2,1.6514181E1,1.441444E2,5.7180756E1,5.05032E1],"tree_param":{"num_deleted":"0","num_feature":"9","num_nodes":"7","size_leaf_vector":"0"}},{"base_weights":[4.4988606E-2,2.554558E-1,-1.0354983E-1,-2.9630494E-1,4.1366556E-1,-6.60855E-1,1.8638156E-2],"categories":[],"categories_nodes":[],"categories_segments":[],"categories_sizes":[],"default_left":[1,1,1,0,0,0,0],"id":57,"left_children":[1,3,5,-1,-1,-1,-1],"loss_changes":[8.370954E0,9.788231E0,1.0716468E1,0E0,0E0,0E0,0E0],"parents":[2147483647,0,0,1,1,2,2],"right_children":[2,4,6,-1,-1,-1,-1],"split_conditions":[5.0036215E4,6.069605E2,2.7461505E0,-5.926099E-2,8.273312E-2,-1.32171E-1,3.7276314E-3],"split_indices":[5,2,6,0,0,0,0],"split_type":[0,0,0,0,0,0,0],"sum_hessian":[2.659175E2,1.0972546E2,1.5619206E2,2.4256704E1,8.546876E1,2.729406E1,1.2889801E2],"tree_param":{"num_deleted":"0","num_feature":"9","num_nodes":"7","size_leaf_vector":"0"}},{"base_weights":[-3.2223206E-2,-1.0859662E-1,4.4895044E-1,-2.856462E-1,9.192587E-2,5.403634E-1,-5.0788534E-1],"categories":[],"categories_nodes":[],"categories_segments":[],"categories_sizes":[],"default_left":[1,1,1,0,0,0,0],"id":58,"left_children":[1,3,5,-1,-1,-1,-1],"loss_changes":[9.760261E0,8.151784E0,3.4577527E0,0E0,0E0,0E0,0E0],"parents":[2147483647,0,0,1,1,2,2],"right_children":[2,4,6,-1,-1,-1,-1],"split_conditions":[8.580735E1,3.1854577E0,5.453849E-1,-5.712924E-2,1.8385174E-2,1.08072676E-1,-1.01577066E-1],"split_indices":[3,8,0,0,0,0,0],"split_type":[0,0,0,0,0,0,0],"sum_hessian":[2.6326675E2,2.2787244E2,3.5394333E1,1.2079396E2,1.07078476E2,3.270506E1,2.689274E0],"tree_param":{"num_deleted":"0","num_feature":"9","num_nodes":"7","size_leaf_vector":"0"}},{"base_weights":[1.4047434E-2,4.6693236E-2,-7.894259E-1,6.410045E-1,7.913167E-3,7.786042E-1,-8.843245E-1],"categories":[],"categories_nodes":[],"categories_segments":[],"categories_sizes":[],"default_left":[1,1,1,0,0,0,0],"id":59,"left_children":[1,3,5,-1,-1,-1,-1],"loss_changes":[6.9195046E0,5.828108E0,2.2213564E0,0E0,0E0,0E0,0E0],"parents":[2147483647,0,0,1,1,2,2],"right_children":[2,4,6,-1,-1,-1,-1],"split_conditions":[1.9448673E1,2.43363E4,1.665303E0,1.282009E-1,1.5826334E-3,1.5572084E-1,-1.768649E-1],"split_indices":[1,5,3,0,0,0,0],"split_type":[0,0,0,0,0,0,0],"sum_hessian":[2.6139554E2,2.5209462E2,9.300931E0,1.4490835E1,2.3760378E2,1.1963203E-1,9.181299E0],"tree_param":{"num_deleted":"0","num_feature":"9","num_nodes":"7","size_leaf_vector":"0"}},{"base_weights":[9.317551E-3,4.5918542E-1,-5.641638E-2,8.951975E-2,9.18681E-1,-2.516602E-1,1.7815366E-1],"categories":[],"categories_nodes":[],"categories_segments":[],"categories_sizes":[],"default_left":[1,0,1,0,0,0,0],"id":60,"left_children":[1,3,5,-1,-1,-1,-1],"loss_changes":[7.89354E0,5.6978416E0,1.07170105E1,0E0,0E0,0E0,0E0],"parents":[2147483647,0,0,1,1,2,2],"right_children":[2,4,6,-1,-1,-1,-1],"split_conditions":[3.003964E4,1.4958504E0,3.252985E0,1.790395E-2,1.837362E-1,-5.033204E-2,3.5630733E-2],"split_indices":[5,7,8,0,0,0,0],"split_type":[0,0,0,0,0,0,0],"sum_hessian":[2.6505386E2,3.3028553E1,2.3202531E2,1.8965538E1,1.4063014E1,1.26587585E2,1.0543773E2],"tree_param":{"num_deleted":"0","num_feature":"9","num_nodes":"7","size_leaf_vector":"0"}},{"base_weights":[1.7427966E-2,-9.559704E-2,3.4096852E-1,7.7755996E-3,-5.238304E-1,7.3643655E-1,-3.649088E-2],"categories":[],"categories_nodes":[],"categories_segments":[],"categories_sizes":[],"default_left":[1,1,1,0,0,0,0],"id":61,"left_children":[1,3,5,-1,-1,-1,-1],"loss_changes":[9.787459E0,8.790163E0,1.03687525E1,0E0,0E0,0E0,0E0],"parents":[2147483647,0,0,1,1,2,2],"right_children":[2,4,6,-1,-1,-1,-1],"split_conditions":[5.4914863E3,8.831486E0,1.1068176E3,1.55512E-3,-1.04766086E-1,1.4728731E-1,-7.298176E-3],"split_indices":[4,1,2,0,0,0,0],"split_type":[0,0,0,0,0,0,0],"sum_hessian":[2.657583E2,1.9747672E2,6.828159E1,1.598676E2,3.7609116E1,3.2880905E1,3.5400692E1],"tree_param":{"num_deleted":"0","num_feature":"9","num_nodes":"7","size_leaf_vector":"0"}},{"base_weights":[-2.5593037E-2,-1.0904168E-1,3.0680454E-1,-3.7394354E-1,3.2691993E-2,5.099012E-1,-1.9028299E-1],"categories":[],"categories_nodes":[],"categories_segments":[],"categories_sizes":[],"default_left":[1,1,1,0,0,0,0],"id":62,"left_children":[1,3,5,-1,-1,-1,-1],"loss_changes":[7.3865623E0,7.9955993E0,5.494014E0,0E0,0E0,0E0,0E0],"parents":[2147483647,0,0,1,1,2,2],"right_children":[2,4,6,-1,-1,-1,-1],"split_conditions":[6.370454E3,7.8085657E2,1.4825685E0,-7.478871E-2,6.5383986E-3,1.0198025E-1,-3.8056597E-2],"split_indices":[4,2,7,0,0,0,0],"split_type":[0,0,0,0,0,0,0],"sum_hessian":[2.640903E2,2.116319E2,5.2458385E1,7.3193695E1,1.384382E2,3.722391E1,1.5234473E1],"tree_param":{"num_deleted":"0","num_feature":"9","num_nodes":"7","size_leaf_vector":"0"}},{"base_weights":[-2.2868305E-2,1.155379E-1,-2.569034E-1,5.545481E-3,4.3867865E-1,-7.859627E-1,-7.597152E-2],"categories":[],"categories_nodes":[],"categories_segments":[],"categories_sizes":[],"default_left":[1,1,1,0,0,0,0],"id":63,"left_children":[1,3,5,-1,-1,-1,-1],"loss_changes":[8.437225E0,5.8191757E0,9.203133E0,0E0,0E0,0E0,0E0],"parents":[2147483647,0,0,1,1,2,2],"right_children":[2,4,6,-1,-1,-1,-1],"split_conditions":[7.086239E4,1.6222991E3,2.4803955E3,1.1090962E-3,8.7735735E-2,-1.5719254E-1,-1.5194304E-2],"split_indices":[5,2,4,0,0,0,0],"split_type":[0,0,0,0,0,0,0],"sum_hessian":[2.585569E2,1.6279044E2,9.576644E1,1.2220933E2,4.0581112E1,2.3552647E1,7.221379E1],"tree_param":{"num_deleted":"0","num_feature":"9","num_nodes":"7","size_leaf_vector":"0"}},{"base_weights":[-3.3716798E-2,6.978997E-1,-8.2719624E-2,1.3635507E-1,1.2604693E0,-1.021666E0,-4.296745E-2],"categories":[],"categories_nodes":[],"categories_segments":[],"categories_sizes":[],"default_left":[1,1,1,0,0,0,0],"id":64,"left_children":[1,3,5,-1,-1,-1,-1],"loss_changes":[9.271471E0,4.9581256E0,8.9798355E0,0E0,0E0,0E0,0E0],"parents":[2147483647,0,0,1,1,2,2],"right_children":[2,4,6,-1,-1,-1,-1],"split_conditions":[5.612638E2,3.2517204E0,4.0255566E2,2.7271016E-2,2.5209388E-1,-2.0433322E-1,-8.59349E-3],"split_indices":[4,8,2,0,0,0,0],"split_type":[0,0,0,0,0,0,0],"sum_hessian":[2.5599895E2,1.5238895E1,2.4076006E2,8.248152E0,6.990744E0,8.775759E0,2.319843E2],"tree_param":{"num_deleted":"0","num_feature":"9","num_nodes":"7","size_leaf_vector":"0"}},{"base_weights":[-2.3044795E-2,5.550097E-1,-6.0047492E-2,-4.1276085E-1,7.5845367E-1,2.0820919E-1,-1.4086546E-1],"categories":[],"categories_nodes":[],"categories_segments":[],"categories_sizes":[],"default_left":[1,1,1,0,0,0,0],"id":65,"left_children":[1,3,5,-1,-1,-1,-1],"loss_changes":[5.666439E0,3.451757E0,5.4149833E0,0E0,0E0,0E0,0E0],"parents":[2147483647,0,0,1,1,2,2],"right_children":[2,4,6,-1,-1,-1,-1],"split_conditions":[1.1617817E-2,1.6939969E0,3.7706234E4,-8.255217E-2,1.5169074E-1,4.164184E-2,-2.8173093E-2],"split_indices":[0,3,5,0,0,0,0],"split_type":[0,0,0,0,0,0,0],"sum_hessian":[2.6235782E2,1.4941604E1,2.4741623E2,2.41669E0,1.2524914E1,5.6917007E1,1.904992E2],"tree_param":{"num_deleted":"0","num_feature":"9","num_nodes":"7","size_leaf_vector":"0"}},{"base_weights":[2.9168488E-2,-5.6098E-1,7.6165244E-2,-8.895637E-1,5.003553E-1,-1.9263135E-1,1.9973086E-1],"categories":[],"categories_nodes":[],"categories_segments":[],"categories_sizes":[],"default_left":[0,1,1,0,0,0,0],"id":66,"left_children":[1,3,5,-1,-1,-1,-1],"loss_changes":[7.0772157E0,7.0110455E0,7.8704658E0,0E0,0E0,0E0,0E0],"parents":[2147483647,0,0,1,1,2,2],"right_children":[2,4,6,-1,-1,-1,-1],"split_conditions":[1.1078573E-1,3.678978E0,2.7576985E0,-1.7791274E-1,1.00071065E-1,-3.852627E-2,3.9946172E-2],"split_indices":[7,8,6,0,0,0,0],"split_type":[0,0,0,0,0,0,0],"sum_hessian":[2.5263156E2,1.782777E1,2.3480379E2,1.3736783E1,4.090988E0,7.377013E1,1.6103366E2],"tree_param":{"num_deleted":"0","num_feature":"9","num_nodes":"7","size_leaf_vector":"0"}},{"base_weights":[-7.859523E-3,2.2441334E-1,-1.075653E-1,-2.4647391E-1,5.510435E-1,-4.618166E-1,-1.2196652E-2],"categories":[],"categories_nodes":[],"categories_segments":[],"categories_sizes":[],"default_left":[0,1,0,0,0,0,0],"id":67,"left_children":[1,3,5,-1,-1,-1,-1],"loss_changes":[6.007206E0,1.2119721E1,6.1239605E0,0E0,0E0,0E0,0E0],"parents":[2147483647,0,0,1,1,2,2],"right_children":[2,4,6,-1,-1,-1,-1],"split_conditions":[6.010505E-1,3.0310435E0,9.368874E-1,-4.929478E-2,1.10208705E-1,-9.236332E-2,-2.4393303E-3],"split_indices":[7,8,7,0,0,0,0],"split_type":[0,0,0,0,0,0,0],"sum_hessian":[2.57348E2,7.691572E1,1.8043228E2,3.1602005E1,4.531371E1,3.745638E1,1.429759E2],"tree_param":{"num_deleted":"0","num_feature":"9","num_nodes":"7","size_leaf_vector":"0"}},{"base_weights":[5.613293E-2,-3.2226812E-2,3.95643E-1,-3.478956E-1,8.157441E-2,4.7838035E-1,-7.9773617E-1],"categories":[],"categories_nodes":[],"categories_segments":[],"categories_sizes":[],"default_left":[1,1,1,0,0,0,0],"id":68,"left_children":[1,3,5,-1,-1,-1,-1],"loss_changes":[7.7129593E0,7.378292E0,5.6228704E0,0E0,0E0,0E0,0E0],"parents":[2147483647,0,0,1,1,2,2],"right_children":[2,4,6,-1,-1,-1,-1],"split_conditions":[6.370454E3,6.7681323E2,1.341128E1,-6.957912E-2,1.6314883E-2,9.567607E-2,-1.5954724E-1],"split_indices":[4,2,1,0,0,0,0],"split_type":[0,0,0,0,0,0,0],"sum_hessian":[2.5568199E2,2.0359906E2,5.2082924E1,5.3404728E1,1.5019434E2,4.9266407E1,2.816517E0],"tree_param":{"num_deleted":"0","num_feature":"9","num_nodes":"7","size_leaf_vector":"0"}},{"base_weights":[-2.1121964E-2,1.11388914E-1,-2.522596E-1,9.87278E-1,7.5701624E-2,-1.9931632E0,-1.9459027E-1],"categories":[],"categories_nodes":[],"categories_segments":[],"categories_sizes":[],"default_left":[1,1,1,0,0,0,0],"id":69,"left_children":[1,3,5,-1,-1,-1,-1],"loss_changes":[7.712361E0,4.9315586E0,8.821352E0,0E0,0E0,0E0,0E0],"parents":[2147483647,0,0,1,1,2,2],"right_children":[2,4,6,-1,-1,-1,-1],"split_conditions":[7.0862055E4,2.0129094E4,7.198967E4,1.974556E-1,1.5140325E-2,-3.9863265E-1,-3.8918056E-2],"split_indices":[5,5,5,0,0,0,0],"split_type":[0,0,0,0,0,0,0],"sum_hessian":[2.4988803E2,1.5915996E2,9.072809E1,5.1870546E0,1.539729E2,1.8329728E0,8.889511E1],"tree_param":{"num_deleted":"0","num_feature":"9","num_nodes":"7","size_leaf_vector":"0"}},{"base_weights":[9.108907E-3,3.5634484E-2,-1.0029318E0,-7.267012E-2,3.5601208E-1,2.6296416E-1,-1.092749E0],"categories":[],"categories_nodes":[],"categories_segments":[],"categories_sizes":[],"default_left":[1,1,0,0,0,0,0],"id":70,"left_children":[1,3,5,-1,-1,-1,-1],"loss_changes":[6.9306026E0,8.743695E0,1.0371032E0,0E0,0E0,0E0,0E0],"parents":[2147483647,0,0,1,1,2,2],"right_children":[2,4,6,-1,-1,-1,-1],"split_conditions":[4.686471E0,3.6359663E0,4.1508235E-2,-1.4534024E-2,7.120242E-2,5.2592833E-2,-2.185498E-1],"split_indices":[6,6,7,0,0,0,0],"split_type":[0,0,0,0,0,0,0],"sum_hessian":[2.558401E2,2.5024596E2,5.594154E0,1.876003E2,6.2645664E1,2.4290071E-1,5.351253E0],"tree_param":{"num_deleted":"0","num_feature":"9","num_nodes":"7","size_leaf_vector":"0"}},{"base_weights":[1.8814048E-2,6.1523322E-2,-4.386498E-1,8.430066E-2,-9.2627275E-1,-7.196095E-1,3.6863473E-1],"categories":[],"categories_nodes":[],"categories_segments":[],"categories_sizes":[],"default_left":[1,1,1,0,0,0,0],"id":71,"left_children":[1,3,5,-1,-1,-1,-1],"loss_changes":[4.8286023E0,5.1550746E0,5.052886E0,0E0,0E0,0E0,0E0],"parents":[2147483647,0,0,1,1,2,2],"right_children":[2,4,6,-1,-1,-1,-1],"split_conditions":[1.9704826E-1,2.082682E1,2.7629995E3,1.6860133E-2,-1.8525456E-1,-1.439219E-1,7.3726945E-2],"split_indices":[0,1,4,0,0,0,0],"split_type":[0,0,0,0,0,0,0],"sum_hessian":[2.4475838E2,2.2465031E2,2.0108063E1,2.2048096E2,4.169357E0,1.4997189E1,5.110875E0],"tree_param":{"num_deleted":"0","num_feature":"9","num_nodes":"7","size_leaf_vector":"0"}},{"base_weights":[-1.4997088E-2,-1.7101113E-1,1.15119286E-1,-5.9320122E-2,-8.75979E-1,2.1307157E-1,-3.83557E-1],"categories":[],"categories_nodes":[],"categories_segments":[],"categories_sizes":[],"default_left":[1,1,1,0,0,0,0],"id":72,"left_children":[1,3,5,-1,-1,-1,-1],"loss_changes":[5.0428343E0,8.839757E0,6.7013407E0,0E0,0E0,0E0,0E0],"parents":[2147483647,0,0,1,1,2,2],"right_children":[2,4,6,-1,-1,-1,-1],"split_conditions":[3.0103774E0,8.138959E4,8.7295065E0,-1.1864024E-2,-1.751958E-1,4.2614315E-2,-7.67114E-2],"split_indices":[6,5,1,0,0,0,0],"split_type":[0,0,0,0,0,0,0],"sum_hessian":[2.4644589E2,1.1192711E2,1.3451878E2,9.755518E1,1.4371929E1,1.1291268E2,2.1606102E1],"tree_param":{"num_deleted":"0","num_feature":"9","num_nodes":"7","size_leaf_vector":"0"}},{"base_weights":[1.1379121E-2,-2.1641307E-1,1.4040568E-1,1.717838E-1,-5.3318864E-1,-9.114277E-1,1.741069E-1],"categories":[],"categories_nodes":[],"categories_segments":[],"categories_sizes":[],"default_left":[1,1,1,0,0,0,0],"id":73,"left_children":[1,3,5,-1,-1,-1,-1],"loss_changes":[7.2494216E0,1.1061834E1,5.7385197E0,0E0,0E0,0E0,0E0],"parents":[2147483647,0,0,1,1,2,2],"right_children":[2,4,6,-1,-1,-1,-1],"split_conditions":[2.2502979E3,1.1043755E3,4.014659E2,3.435676E-2,-1.0663773E-1,-1.8228553E-1,3.482138E-2],"split_indices":[4,4,2,0,0,0,0],"split_type":[0,0,0,0,0,0,0],"sum_hessian":[2.4461856E2,8.8209785E1,1.5640877E2,3.9842262E1,4.8367527E1,4.0472574E0,1.5236151E2],"tree_param":{"num_deleted":"0","num_feature":"9","num_nodes":"7","size_leaf_vector":"0"}},{"base_weights":[-4.0870827E-2,1.3979943E-1,-2.099921E-1,-1.0565949E-1,3.8583094E-1,-5.5143315E-1,1.9628832E-2],"categories":[],"categories_nodes":[],"categories_segments":[],"categories_sizes":[],"default_left":[1,1,1,0,0,0,0],"id":74,"left_children":[1,3,5,-1,-1,-1,-1],"loss_changes":[7.5148115E0,7.2300806E0,9.962757E0,0E0,0E0,0E0,0E0],"parents":[2147483647,0,0,1,1,2,2],"right_children":[2,4,6,-1,-1,-1,-1],"split_conditions":[5.542384E4,1.5516037E1,3.2326283E0,-2.11319E-2,7.716619E-2,-1.1028663E-1,3.9257663E-3],"split_indices":[5,3,6,0,0,0,0],"split_type":[0,0,0,0,0,0,0],"sum_hessian":[2.4398152E2,1.1804684E2,1.2593468E2,5.9377785E1,5.8669052E1,5.007412E1,7.586056E1],"tree_param":{"num_deleted":"0","num_feature":"9","num_nodes":"7","size_leaf_vector":"0"}},{"base_weights":[-3.337208E-2,-1.7582731E-1,1.6134974E-1,-2.6303184E-1,8.428127E-1,3.3965242E-1,-7.7352834E-1],"categories":[],"categories_nodes":[],"categories_segments":[],"categories_sizes":[],"default_left":[1,0,0,0,0,0,0],"id":75,"left_children":[1,3,5,-1,-1,-1,-1],"loss_changes":[6.8354654E0,1.2853021E1,1.7631979E1,0E0,0E0,0E0,0E0],"parents":[2147483647,0,0,1,1,2,2],"right_children":[2,4,6,-1,-1,-1,-1],"split_conditions":[3.2460718E0,4.5638094E0,3.6771882E0,-5.260637E-2,1.6856255E-1,6.793048E-2,-1.5470567E-1],"split_indices":[8,7,7,0,0,0,0],"split_type":[0,0,0,0,0,0,0],"sum_hessian":[2.4439676E2,1.4119667E2,1.0320009E2,1.3074548E2,1.0451182E1,8.720482E1,1.5995272E1],"tree_param":{"num_deleted":"0","num_feature":"9","num_nodes":"7","size_leaf_vector":"0"}},{"base_weights":[9.654143E-3,1.4953814E-1,-2.0580521E-1,-1.6122973E-1,3.307156E-1,2.002699E-6,-5.884232E-1],"categories":[],"categories_nodes":[],"categories_segments":[],"categories_sizes":[],"default_left":[1,1,0,0,0,0,0],"id":76,"left_children":[1,3,5,-1,-1,-1,-1],"loss_changes":[7.2006187E0,8.207383E0,7.4074607E0,0E0,0E0,0E0,0E0],"parents":[2147483647,0,0,1,1,2,2],"right_children":[2,4,6,-1,-1,-1,-1],"split_conditions":[6.734829E4,2.6783042E0,1.4952164E0,-3.2245945E-2,6.614312E-2,4.005398E-7,-1.1768464E-1],"split_indices":[5,8,7,0,0,0,0],"split_type":[0,0,0,0,0,0,0],"sum_hessian":[2.3689005E2,1.4382173E2,9.3068306E1,5.3008335E1,9.081339E1,6.1167034E1,3.1901276E1],"tree_param":{"num_deleted":"0","num_feature":"9","num_nodes":"7","size_leaf_vector":"0"}},{"base_weights":[-3.29851E-2,5.9878963E-1,-8.33592E-2,8.5240775E-1,-1.7378643E-1,-5.753884E-1,-1.7515816E-2],"categories":[],"categories_nodes":[],"categories_segments":[],"categories_sizes":[],"default_left":[1,1,1,0,0,0,0],"id":77,"left_children":[1,3,5,-1,-1,-1,-1],"loss_changes":[7.901208E0,3.741696E0,7.4205074E0,0E0,0E0,0E0,0E0],"parents":[2147483647,0,0,1,1,2,2],"right_children":[2,4,6,-1,-1,-1,-1],"split_conditions":[6.1834595E2,5.9850006E0,1.9526535E0,1.7048155E-1,-3.4757286E-2,-1.15077674E-1,-3.503163E-3],"split_indices":[4,1,3,0,0,0,0],"split_type":[0,0,0,0,0,0,0],"sum_hessian":[2.4570146E2,1.7340164E1,2.283613E2,1.2976846E1,4.363319E0,2.6039162E1,2.0232213E2],"tree_param":{"num_deleted":"0","num_feature":"9","num_nodes":"7","size_leaf_vector":"0"}},{"base_weights":[2.128531E-2,-7.647173E-2,3.8191798E-1,-3.130777E-1,1.2333244E-1,1.0119768E0,1.3140643E-1],"categories":[],"categories_nodes":[],"categories_segments":[],"categories_sizes":[],"default_left":[1,1,1,0,0,0,0],"id":78,"left_children":[1,3,5,-1,-1,-1,-1],"loss_changes":[8.660075E0,9.18346E0,8.134039E0,0E0,0E0,0E0,0E0],"parents":[2147483647,0,0,1,1,2,2],"right_children":[2,4,6,-1,-1,-1,-1],"split_conditions":[6.370454E3,3.1015964E0,2.5543523E0,-6.2615536E-2,2.4666488E-2,2.0239536E-1,2.6281286E-2],"split_indices":[4,8,8,0,0,0,0],"split_type":[0,0,0,0,0,0,0],"sum_hessian":[2.4381691E2,1.9243997E2,5.137693E1,8.7846344E1,1.0459363E2,1.3751371E1,3.762556E1],"tree_param":{"num_deleted":"0","num_feature":"9","num_nodes":"7","size_leaf_vector":"0"}},{"base_weights":[1.0636303E-2,-3.0945584E-2,6.142051E-1,-1.1852692E-1,2.687816E-1,9.1244066E-1,2.1075948E-1],"categories":[],"categories_nodes":[],"categories_segments":[],"categories_sizes":[],"default_left":[1,1,1,0,0,0,0],"id":79,"left_children":[1,3,5,-1,-1,-1,-1],"loss_changes":[5.9952044E0,5.9047136E0,1.6601024E0,0E0,0E0,0E0,0E0],"parents":[2147483647,0,0,1,1,2,2],"right_children":[2,4,6,-1,-1,-1,-1],"split_conditions":[3.6514143E3,3.7582574E0,2.8815122E0,-2.3705384E-2,5.3756323E-2,1.8248813E-1,4.2151894E-2],"split_indices":[2,6,8,0,0,0,0],"split_type":[0,0,0,0,0,0,0],"sum_hessian":[2.3711894E2,2.227235E2,1.4395444E1,1.728273E2,4.9896194E1,7.551554E0,6.843889E0],"tree_param":{"num_deleted":"0","num_feature":"9","num_nodes":"7","size_leaf_vector":"0"}},{"base_weights":[1.2631731E-2,-6.274583E-2,3.130813E-1,1.0882668E-1,-2.6557884E-1,8.682741E-1,1.2241436E-1],"categories":[],"categories_nodes":[],"categories_segments":[],"categories_sizes":[],"default_left":[1,1,1,0,0,0,0],"id":80,"left_children":[1,3,5,-1,-1,-1,-1],"loss_changes":[5.3832483E0,6.646791E0,4.9396257E0,0E0,0E0,0E0,0E0],"parents":[2147483647,0,0,1,1,2,2],"right_children":[2,4,6,-1,-1,-1,-1],"split_conditions":[6.370454E3,5.5455977E4,2.5088065E0,2.1765336E-2,-5.3115766E-2,1.7365482E-1,2.4482872E-2],"split_indices":[4,5,8,0,0,0,0],"split_type":[0,0,0,0,0,0,0],"sum_hessian":[2.3583342E2,1.891661E2,4.666732E1,1.0273122E2,8.643488E1,1.1021252E1,3.564607E1],"tree_param":{"num_deleted":"0","num_feature":"9","num_nodes":"7","size_leaf_vector":"0"}},{"base_weights":[2.0469347E-2,4.3492827E-1,-2.38098E-2,-3.777575E-1,6.995756E-1,-5.536831E-1,1.6408192E-2],"categories":[],"categories_nodes":[],"categories_segments":[],"categories_sizes":[],"default_left":[1,1,0,0,0,0,0],"id":81,"left_children":[1,3,5,-1,-1,-1,-1],"loss_changes":[4.396149E0,5.236694E0,4.630547E0,0E0,0E0,0E0,0E0],"parents":[2147483647,0,0,1,1,2,2],"right_children":[2,4,6,-1,-1,-1,-1],"split_conditions":[1.4949573E-2,9.129293E-2,1.1095327E-1,-7.55515E-2,1.3991512E-1,-1.1073662E-1,3.2816385E-3],"split_indices":[0,1,7,0,0,0,0],"split_type":[0,0,0,0,0,0,0],"sum_hessian":[2.3798323E2,2.2119476E1,2.1586375E2,5.3286676E0,1.6790808E1,1.4327779E1,2.0153596E2],"tree_param":{"num_deleted":"0","num_feature":"9","num_nodes":"7","size_leaf_vector":"0"}},{"base_weights":[-7.996285E-3,-2.207702E-1,9.032865E-2,1.9880916E-1,-6.46439E-1,-8.0437906E-2,4.2062038E-1],"categories":[],"categories_nodes":[],"categories_segments":[],"categories_sizes":[],"default_left":[1,1,1,0,0,0,0],"id":82,"left_children":[1,3,5,-1,-1,-1,-1],"loss_changes":[4.9682703E0,1.3531801E1,9.198105E0,0E0,0E0,0E0,0E0],"parents":[2147483647,0,0,1,1,2,2],"right_children":[2,4,6,-1,-1,-1,-1],"split_conditions":[2.7576985E0,4.1887953E4,4.234766E3,3.9761834E-2,-1.2928781E-1,-1.6087582E-2,8.412408E-2],"split_indices":[6,5,4,0,0,0,0],"split_type":[0,0,0,0,0,0,0],"sum_hessian":[2.3552466E2,7.40456E1,1.6147906E2,3.7557922E1,3.6487682E1,1.0694375E2,5.4535313E1],"tree_param":{"num_deleted":"0","num_feature":"9","num_nodes":"7","size_leaf_vector":"0"}},{"base_weights":[3.583161E-2,3.2401866E-1,-4.859594E-2,-1.458167E-1,5.5483973E-1,-2.9848588E-1,1.00582354E-1],"categories":[],"categories_nodes":[],"categories_segments":[],"categories_sizes":[],"default_left":[1,1,1,0,0,0,0],"id":83,"left_children":[1,3,5,-1,-1,-1,-1],"loss_changes":[5.777346E0,5.9138026E0,6.8898087E0,0E0,0E0,0E0,0E0],"parents":[2147483647,0,0,1,1,2,2],"right_children":[2,4,6,-1,-1,-1,-1],"split_conditions":[3.7706234E4,7.4308777E2,3.0095403E0,-2.916334E-2,1.1096795E-1,-5.9697177E-2,2.011647E-2],"split_indices":[5,2,6,0,0,0,0],"split_type":[0,0,0,0,0,0,0],"sum_hessian":[2.358015E2,5.2785244E1,1.8301627E2,1.751065E1,3.527459E1,6.804036E1,1.1497591E2],"tree_param":{"num_deleted":"0","num_feature":"9","num_nodes":"7","size_leaf_vector":"0"}},{"base_weights":[-2.3512298E-3,-8.560079E-2,3.5614222E-1,-2.8210315E-1,2.728991E-2,5.7469E-1,-1.3502331E-1],"categories":[],"categories_nodes":[],"categories_segments":[],"categories_sizes":[],"default_left":[1,1,0,0,0,0,0],"id":84,"left_children":[1,3,5,-1,-1,-1,-1],"loss_changes":[7.1749535E0,4.335254E0,4.94116E0,0E0,0E0,0E0,0E0],"parents":[2147483647,0,0,1,1,2,2],"right_children":[2,4,6,-1,-1,-1,-1],"split_conditions":[6.6983066E3,2.8865914E0,1.4995954E0,-5.642063E-2,5.457982E-3,1.14938E-1,-2.7004663E-2],"split_indices":[4,6,7,0,0,0,0],"split_type":[0,0,0,0,0,0,0],"sum_hessian":[2.3839035E2,1.9408179E2,4.430857E1,7.026925E1,1.2381254E2,3.0546585E1,1.3761985E1],"tree_param":{"num_deleted":"0","num_feature":"9","num_nodes":"7","size_leaf_vector":"0"}},{"base_weights":[7.306994E-3,-6.1708372E-2,2.9519096E-1,-2.8121388E-1,1.1754321E-1,7.6972663E-1,1.5397586E-1],"categories":[],"categories_nodes":[],"categories_segments":[],"categories_sizes":[],"default_left":[1,1,1,0,0,0,0],"id":85,"left_children":[1,3,5,-1,-1,-1,-1],"loss_changes":[4.7512937E0,7.6262736E0,2.9800234E0,0E0,0E0,0E0,0E0],"parents":[2147483647,0,0,1,1,2,2],"right_children":[2,4,6,-1,-1,-1,-1],"split_conditions":[6.370454E3,3.0483365E0,2.5088065E0,-5.6242775E-2,2.3508644E-2,1.5394533E-1,3.0795172E-2],"split_indices":[4,8,8,0,0,0,0],"split_type":[0,0,0,0,0,0,0],"sum_hessian":[2.3722119E2,1.919823E2,4.52389E1,8.604529E1,1.05937004E2,9.354278E0,3.588462E1],"tree_param":{"num_deleted":"0","num_feature":"9","num_nodes":"7","size_leaf_vector":"0"}},{"base_weights":[2.6521733E-2,-2.2878435E-2,7.336432E-1,3.778473E-1,-7.4703135E-2,9.013249E-1,-5.354428E-1],"categories":[],"categories_nodes":[],"categories_segments":[],"categories_sizes":[],"default_left":[1,1,1,0,0,0,0],"id":86,"left_children":[1,3,5,-1,-1,-1,-1],"loss_changes":[8.24389E0,4.6201034E0,3.7617598E0,0E0,0E0,0E0,0E0],"parents":[2147483647,0,0,1,1,2,2],"right_children":[2,4,6,-1,-1,-1,-1],"split_conditions":[2.6283105E2,1.6902164E-2,5.453849E-1,7.5569466E-2,-1.4940627E-2,1.80265E-1,-1.07088566E-1],"split_indices":[3,0,0,0,0,0,0],"split_type":[0,0,0,0,0,0,0],"sum_hessian":[2.3451826E2,2.2010889E2,1.4409368E1,2.448579E1,1.9562311E2,1.2983649E1,1.4257188E0],"tree_param":{"num_deleted":"0","num_feature":"9","num_nodes":"7","size_leaf_vector":"0"}},{"base_weights":[-2.047765E-2,-9.9282436E-2,2.4005954E-1,-3.978522E-1,-8.247839E-3,1.6856862E-2,6.941019E-1],"categories":[],"categories_nodes":[],"categories_segments":[],"categories_sizes":[],"default_left":[1,1,1,0,0,0,0],"id":87,"left_children":[1,3,5,-1,-1,-1,-1],"loss_changes":[4.775411E0,4.8454223E0,5.4645615E0,0E0,0E0,0E0,0E0],"parents":[2147483647,0,0,1,1,2,2],"right_children":[2,4,6,-1,-1,-1,-1],"split_conditions":[4.295406E1,2.6340418E0,4.526673E3,-7.957044E-2,-1.6495679E-3,3.3713726E-3,1.388204E-1],"split_indices":[3,8,4,0,0,0,0],"split_type":[0,0,0,0,0,0,0],"sum_hessian":[2.304278E2,1.7739116E2,5.3036636E1,4.066154E1,1.3672961E2,3.6252434E1,1.6784204E1],"tree_param":{"num_deleted":"0","num_feature":"9","num_nodes":"7","size_leaf_vector":"0"}},{"base_weights":[4.0888947E-2,1.376331E-1,-1.7139433E-1,-5.6269135E-2,2.7839077E-1,-7.2770023E-1,-3.6542855E-2],"categories":[],"categories_nodes":[],"categories_segments":[],"categories_sizes":[],"default_left":[1,1,1,0,0,0,0],"id":88,"left_children":[1,3,5,-1,-1,-1,-1],"loss_changes":[4.8963227E0,4.4792223E0,5.579051E0,0E0,0E0,0E0,0E0],"parents":[2147483647,0,0,1,1,2,2],"right_children":[2,4,6,-1,-1,-1,-1],"split_conditions":[7.673214E4,9.226245E2,2.2263481E3,-1.1253827E-2,5.5678155E-2,-1.4554004E-1,-7.308571E-3],"split_indices":[5,2,4,0,0,0,0],"split_type":[0,0,0,0,0,0,0],"sum_hessian":[2.3626414E2,1.6254083E2,7.3723305E1,6.8617004E1,9.3923836E1,1.3526366E1,6.0196934E1],"tree_param":{"num_deleted":"0","num_feature":"9","num_nodes":"7","size_leaf_vector":"0"}},{"base_weights":[1.9872054E-2,5.8835812E-2,-5.932592E-1,-1.8069638E-2,3.7458432E-1,1.0884844E0,-7.232641E-1],"categories":[],"categories_nodes":[],"categories_segments":[],"categories_sizes":[],"default_left":[1,1,1,0,0,0,0],"id":89,"left_children":[1,3,5,-1,-1,-1,-1],"loss_changes":[5.5461426E0,5.296012E0,3.8207178E0,0E0,0E0,0E0,0E0],"parents":[2147483647,0,0,1,1,2,2],"right_children":[2,4,6,-1,-1,-1,-1],"split_conditions":[4.4486895E0,3.685648E0,5.038252E-1,-3.6139276E-3,7.491686E-2,2.1769689E-1,-1.4465283E-1],"split_indices":[6,6,3,0,0,0,0],"split_type":[0,0,0,0,0,0,0],"sum_hessian":[2.296932E2,2.1681868E2,1.2874527E1,1.7511055E2,4.1708122E1,3.9479643E-1,1.2479731E1],"tree_param":{"num_deleted":"0","num_feature":"9","num_nodes":"7","size_leaf_vector":"0"}},{"base_weights":[-2.3981253E-2,1.9315884E-1,-1.446339E-1,-4.6150047E-2,5.90984E-1,-5.051782E-1,-4.592007E-2],"categories":[],"categories_nodes":[],"categories_segments":[],"categories_sizes":[],"default_left":[1,0,1,0,0,0,0],"id":90,"left_children":[1,3,5,-1,-1,-1,-1],"loss_changes":[5.9845757E0,7.799505E0,5.1989193E0,0E0,0E0,0E0,0E0],"parents":[2147483647,0,0,1,1,2,2],"right_children":[2,4,6,-1,-1,-1,-1],"split_conditions":[4.523189E4,1.5383427E0,2.7771592E0,-9.230009E-3,1.181968E-1,-1.0103565E-1,-9.184014E-3],"split_indices":[5,7,6,0,0,0,0],"split_type":[0,0,0,0,0,0,0],"sum_hessian":[2.2636537E2,8.0638435E1,1.4572694E2,5.090243E1,2.9736002E1,3.0437786E1,1.15289154E2],"tree_param":{"num_deleted":"0","num_feature":"9","num_nodes":"7","size_leaf_vector":"0"}},{"base_weights":[3.2474042E-3,8.414669E-1,-2.3527864E-2,1.124525E-1,9.789822E-1,-6.416297E-2,4.6035588E-1],"categories":[],"categories_nodes":[],"categories_segments":[],"categories_sizes":[],"default_left":[1,1,1,0,0,0,0],"id":91,"left_children":[1,3,5,-1,-1,-1,-1],"loss_changes":[5.19474E0,6.081567E-1,4.442064E0,0E0,0E0,0E0,0E0],"parents":[2147483647,0,0,1,1,2,2],"right_children":[2,4,6,-1,-1,-1,-1],"split_conditions":[2.107551E4,3.5986145E2,3.112579E3,2.24905E-2,1.9579645E-1,-1.2832594E-2,9.2071176E-2],"split_indices":[5,2,2,0,0,0,0],"split_type":[0,0,0,0,0,0,0],"sum_hessian":[2.2957587E2,6.164504E0,2.2341136E2,1.2667555E0,4.897749E0,2.0690361E2,1.6507746E1],"tree_param":{"num_deleted":"0","num_feature":"9","num_nodes":"7","size_leaf_vector":"0"}},{"base_weights":[-1.8053683E-3,2.5320786E-1,-8.9599974E-2,-5.4385226E-2,8.812903E-1,3.5593095E-1,-1.5197565E-1],"categories":[],"categories_nodes":[],"categories_segments":[],"categories_sizes":[],"default_left":[0,1,1,0,0,0,0],"id":92,"left_children":[1,3,5,-1,-1,-1,-1],"loss_changes":[5.0869513E0,1.1290125E1,4.750795E0,0E0,0E0,0E0,0E0],"parents":[2147483647,0,0,1,1,2,2],"right_children":[2,4,6,-1,-1,-1,-1],"split_conditions":[4.9401176E-1,3.5463405E0,3.0011965E4,-1.0877046E-2,1.7625807E-1,7.118619E-2,-3.039513E-2],"split_indices":[7,8,5,0,0,0,0],"split_type":[0,0,0,0,0,0,0],"sum_hessian":[2.2519644E2,5.719128E1,1.6800516E2,3.9003407E1,1.818787E1,2.005463E1,1.4795053E2],"tree_param":{"num_deleted":"0","num_feature":"9","num_nodes":"7","size_leaf_vector":"0"}},{"base_weights":[2.4126023E-2,7.96634E-2,-5.5315983E-1,2.9073928E-3,3.7479675E-1,-7.8523064E-1,3.7826347E-1],"categories":[],"categories_nodes":[],"categories_segments":[],"categories_sizes":[],"default_left":[1,1,1,0,0,0,0],"id":93,"left_children":[1,3,5,-1,-1,-1,-1],"loss_changes":[7.3853097E0,4.750578E0,4.6679745E0,0E0,0E0,0E0,0E0],"parents":[2147483647,0,0,1,1,2,2],"right_children":[2,4,6,-1,-1,-1,-1],"split_conditions":[1.30812086E5,3.6864686E0,2.0956062E5,5.814786E-4,7.495935E-2,-1.5704612E-1,7.5652696E-2],"split_indices":[5,6,5,0,0,0,0],"split_type":[0,0,0,0,0,0,0],"sum_hessian":[2.2797774E2,2.0875647E2,1.9221266E1,1.6647165E2,4.2284817E1,1.5513038E1,3.708228E0],"tree_param":{"num_deleted":"0","num_feature":"9","num_nodes":"7","size_leaf_vector":"0"}},{"base_weights":[1.2810395E-2,-1.1005137E0,3.0167872E-2,-1.1980816E0,6.5984935E-2,-8.6524405E-2,1.8952665E-1],"categories":[],"categories_nodes":[],"categories_segments":[],"categories_sizes":[],"default_left":[1,1,1,0,0,0,0],"id":94,"left_children":[1,3,5,-1,-1,-1,-1],"loss_changes":[4.4000554E0,4.7691107E-1,4.1722083E0,0E0,0E0,0E0,0E0],"parents":[2147483647,0,0,1,1,2,2],"right_children":[2,4,6,-1,-1,-1,-1],"split_conditions":[1.8986866E-1,4.195628E0,3.886724E3,-2.3961632E-1,1.3196987E-2,-1.730488E-2,3.790533E-2],"split_indices":[3,8,4,0,0,0,0],"split_type":[0,0,0,0,0,0,0],"sum_hessian":[2.2497513E2,2.495702E0,2.2247942E2,2.2780843E0,2.176178E-1,1.2869678E2,9.378264E1],"tree_param":{"num_deleted":"0","num_feature":"9","num_nodes":"7","size_leaf_vector":"0"}},{"base_weights":[-1.3166581E-2,3.8979557E-1,-6.4472385E-2,5.4826933E-1,-3.602311E-1,-1.2032666E0,-4.2976644E-2],"categories":[],"categories_nodes":[],"categories_segments":[],"categories_sizes":[],"default_left":[1,1,1,0,0,0,0],"id":95,"left_children":[1,3,5,-1,-1,-1,-1],"loss_changes":[4.769076E0,3.2947035E0,4.951923E0,0E0,0E0,0E0,0E0],"parents":[2147483647,0,0,1,1,2,2],"right_children":[2,4,6,-1,-1,-1,-1],"split_conditions":[7.876275E2,1.8580414E-1,8.61314E2,1.0965387E-1,-7.204622E-2,-2.4065332E-1,-8.595329E-3],"split_indices":[4,0,4,0,0,0,0],"split_type":[0,0,0,0,0,0,0],"sum_hessian":[2.2846101E2,2.5057644E1,2.0340337E2,2.0908806E1,4.148839E0,2.7497733E0,2.006536E2],"tree_param":{"num_deleted":"0","num_feature":"9","num_nodes":"7","size_leaf_vector":"0"}},{"base_weights":[2.5373517E-2,-1.11720785E-1,1.5678546E-1,-2.7632335E-1,4.3614578E-1,3.677235E-1,-3.0224365E-1],"categories":[],"categories_nodes":[],"categories_segments":[],"categories_sizes":[],"default_left":[1,0,0,0,0,0,0],"id":96,"left_children":[1,3,5,-1,-1,-1,-1],"loss_changes":[3.922705E0,9.74026E0,1.08678055E1,0E0,0E0,0E0,0E0],"parents":[2147483647,0,0,1,1,2,2],"right_children":[2,4,6,-1,-1,-1,-1],"split_conditions":[3.0483365E0,2.1310236E0,1.4781513E0,-5.526467E-2,8.7229155E-2,7.35447E-2,-6.0448732E-2],"split_indices":[8,7,7,0,0,0,0],"split_type":[0,0,0,0,0,0,0],"sum_hessian":[2.1576431E2,1.056724E2,1.1009191E2,8.1639915E1,2.4032486E1,7.556594E1,3.452597E1],"tree_param":{"num_deleted":"0","num_feature":"9","num_nodes":"7","size_leaf_vector":"0"}},{"base_weights":[8.799107E-3,5.2849203E-1,-3.320122E-2,-7.46606E-1,6.284408E-1,1.1052795E-1,-1.8834068E-1],"categories":[],"categories_nodes":[],"categories_segments":[],"categories_sizes":[],"default_left":[1,1,1,0,0,0,0],"id":97,"left_children":[1,3,5,-1,-1,-1,-1],"loss_changes":[5.0203133E0,2.6608953E0,4.770321E0,0E0,0E0,0E0,0E0],"parents":[2147483647,0,0,1,1,2,2],"right_children":[2,4,6,-1,-1,-1,-1],"split_conditions":[1.4931161E-2,2.647429E4,5.7592105E4,-1.493212E-1,1.2568817E-1,2.210559E-2,-3.7668135E-2],"split_indices":[0,5,5,0,0,0,0],"split_type":[0,0,0,0,0,0,0],"sum_hessian":[2.2819798E2,1.6197271E1,2.120007E2,7.070601E-1,1.54902115E1,1.1019653E2,1.0180417E2],"tree_param":{"num_deleted":"0","num_feature":"9","num_nodes":"7","size_leaf_vector":"0"}},{"base_weights":[-5.629733E-3,-8.6248145E-2,2.776937E-1,-3.2433342E-2,-1.0694503E0,5.1939464E-1,-5.981259E-1],"categories":[],"categories_nodes":[],"categories_segments":[],"categories_sizes":[],"default_left":[1,1,0,0,0,0,0],"id":98,"left_children":[1,3,5,-1,-1,-1,-1],"loss_changes":[5.153414E0,9.255867E0,1.0891368E1,0E0,0E0,0E0,0E0],"parents":[2147483647,0,0,1,1,2,2],"right_children":[2,4,6,-1,-1,-1,-1],"split_conditions":[3.7404518E0,1.4203862E5,3.6134522E0,-6.4866687E-3,-2.1389006E-1,1.0387893E-1,-1.1962517E-1],"split_indices":[8,5,7,0,0,0,0],"split_type":[0,0,0,0,0,0,0],"sum_hessian":[2.2357182E2,1.7458891E2,4.898291E1,1.6650821E2,8.080709E0,3.870767E1,1.027524E1],"tree_param":{"num_deleted":"0","num_feature":"9","num_nodes":"7","size_leaf_vector":"0"}},{"base_weights":[2.01983E-2,7.824048E-1,-1.7752198E-3,8.913794E-1,-2.9226834E-1,3.1740252E-2,-4.878344E-1],"categories":[],"categories_nodes":[],"categories_segments":[],"categories_sizes":[],"default_left":[1,1,1,0,0,0,0],"id":99,"left_children":[1,3,5,-1,-1,-1,-1],"loss_changes":[3.79619E0,1.0043235E0,3.6193712E0,0E0,0E0,0E0,0E0],"parents":[2147483647,0,0,1,1,2,2],"right_children":[2,4,6,-1,-1,-1,-1],"split_conditions":[2.107551E4,1.8088174E0,1.57602005E1,1.7827588E-1,-5.8453668E-2,6.3480507E-3,-9.756688E-2],"split_indices":[5,0,1,0,0,0,0],"split_type":[0,0,0,0,0,0,0],"sum_hessian":[2.2557747E2,5.3511944E0,2.2022627E2,5.0133824E0,3.378122E-1,2.0689485E2,1.3331421E1],"tree_param":{"num_deleted":"0","num_feature":"9","num_nodes":"7","size_leaf_vector":"0"}},{"base_weights":[-5.9195403E-3,-6.789853E-2,2.996686E-1,-1.6274661E-1,2.6150078E-1,5.6115407E-1,-3.0913642E-1],"categories":[],"categories_nodes":[],"categories_segments":[],"categories_sizes":[],"default_left":[1,1,1,0,0,0,0],"id":100,"left_children":[1,3,5,-1,-1,-1,-1],"loss_changes":[4.235552E0,5.848841E0,6.176964E0,0E0,0E0,0E0,0E0],"parents":[2147483647,0,0,1,1,2,2],"right_children":[2,4,6,-1,-1,-1,-1],"split_conditions":[3.9481392E0,6.370454E3,1.1980314E5,-3.254932E-2,5.2300155E-2,1.12230815E-1,-6.1827283E-2],"split_indices":[6,4,5,0,0,0,0],"split_type":[0,0,0,0,0,0,0],"sum_hessian":[2.2155519E2,1.8484332E2,3.671187E1,1.4391112E2,4.0932205E1,2.573626E1,1.097561E1],"tree_param":{"num_deleted":"0","num_feature":"9","num_nodes":"7","size_leaf_vector":"0"}},{"base_weights":[3.4658246E-2,6.086074E-2,-8.494306E-1,-1.4571673E-1,1.7526457E-1,5.284815E-1,-1.0630219E0],"categories":[],"categories_nodes":[],"categories_segments":[],"categories_sizes":[],"default_left":[1,1,0,0,0,0,0],"id":101,"left_children":[1,3,5,-1,-1,-1,-1],"loss_changes":[5.2111363E0,5.1597357E0,2.4682875E0,0E0,0E0,0E0,0E0],"parents":[2147483647,0,0,1,1,2,2],"right_children":[2,4,6,-1,-1,-1,-1],"split_conditions":[4.630926E0,2.2374685E3,4.5493864E-2,-2.9143346E-2,3.5052914E-2,1.056963E-1,-2.1260439E-1],"split_indices":[6,4,7,0,0,0,0],"split_type":[0,0,0,0,0,0,0],"sum_hessian":[2.2172247E2,2.1624461E2,5.4778643E0,7.6976135E1,1.3926848E2,5.373117E-1,4.9405527E0],"tree_param":{"num_deleted":"0","num_feature":"9","num_nodes":"7","size_leaf_vector":"0"}},{"base_weights":[-2.1844033E-2,7.493904E-2,-1.946761E-1,-1.5219712E-1,2.3508054E-1,-2.3242939E0,-1.466016E-1],"categories":[],"categories_nodes":[],"categories_segments":[],"categories_sizes":[],"default_left":[1,1,1,0,0,0,0],"id":102,"left_children":[1,3,5,-1,-1,-1,-1],"loss_changes":[3.793892E0,5.3301935E0,7.9911795E0,0E0,0E0,0E0,0E0],"parents":[2147483647,0,0,1,1,2,2],"right_children":[2,4,6,-1,-1,-1,-1],"split_conditions":[7.112639E4,9.223168E2,7.152058E4,-3.0439425E-2,4.701611E-2,-4.6485877E-1,-2.932032E-2],"split_indices":[5,2,5,0,0,0,0],"split_type":[0,0,0,0,0,0,0],"sum_hessian":[2.2493732E2,1.445552E2,8.03821E1,5.9794903E1,8.47603E1,7.292628E-1,7.965284E1],"tree_param":{"num_deleted":"0","num_feature":"9","num_nodes":"7","size_leaf_vector":"0"}},{"base_weights":[-2.0237898E-3,3.3262547E-2,-6.3512766E-1,-5.370925E-1,7.1981914E-2,-7.6297694E-1,5.078006E-1],"categories":[],"categories_nodes":[],"categories_segments":[],"categories_sizes":[],"default_left":[1,1,1,0,0,0,0],"id":103,"left_children":[1,3,5,-1,-1,-1,-1],"loss_changes":[5.0332117E0,4.7526984E0,2.1254468E0,0E0,0E0,0E0,0E0],"parents":[2147483647,0,0,1,1,2,2],"right_children":[2,4,6,-1,-1,-1,-1],"split_conditions":[2.8502488E-1,3.9997284E2,1.8773583E3,-1.074185E-1,1.4396383E-2,-1.5259539E-1,1.01560116E-1],"split_indices":[0,2,2,0,0,0,0],"split_type":[0,0,0,0,0,0,0],"sum_hessian":[2.2335562E2,2.1246146E2,1.0894176E1,1.2688107E1,1.9977335E2,1.0097136E1,7.970404E-1],"tree_param":{"num_deleted":"0","num_feature":"9","num_nodes":"7","size_leaf_vector":"0"}},{"base_weights":[-6.843543E-2,4.1602173E-1,-1.0763778E-1,-2.5794697E-3,9.4317156E-1,-1.2526198E-1,1.0133342E0],"categories":[],"categories_nodes":[],"categories_segments":[],"categories_sizes":[],"default_left":[1,1,1,0,0,0,0],"id":104,"left_children":[1,3,5,-1,-1,-1,-1],"loss_changes":[4.2210636E0,3.6804125E0,4.161767E0,0E0,0E0,0E0,0E0],"parents":[2147483647,0,0,1,1,2,2],"right_children":[2,4,6,-1,-1,-1,-1],"split_conditions":[6.1834595E2,4.4082715E2,1.8182797E4,-5.15894E-4,1.8863432E-1,-2.5052397E-2,2.0266683E-1],"split_indices":[4,2,4,0,0,0,0],"split_type":[0,0,0,0,0,0,0],"sum_hessian":[2.188986E2,1.5667664E1,2.0323094E2,9.287621E0,6.380043E0,2.0095966E2,2.2712822E0],"tree_param":{"num_deleted":"0","num_feature":"9","num_nodes":"7","size_leaf_vector":"0"}},{"base_weights":[-3.170406E-2,-1.1098869E0,-1.521426E-2,-1.14794776E-1,1.354383E-1],"categories":[],"categories_nodes":[],"categories_segments":[],"categories_sizes":[],"default_left":[1,0,1,0,0],"id":105,"left_children":[1,-1,3,-1,-1],"loss_changes":[3.9481473E0,0E0,3.3260815E0,0E0,0E0],"parents":[2147483647,0,0,2,2],"right_children":[2,-1,4,-1,-1],"split_conditions":[1.8921027E-1,-2.2197738E-1,3.2516496E0,-2.2958955E-2,2.7087659E-2],"split_indices":[3,0,8,0,0],"split_type":[0,0,0,0,0],"sum_hessian":[2.2201753E2,2.3455667E0,2.1967197E2,1.3239658E2,8.72754E1],"tree_param":{"num_deleted":"0","num_feature":"9","num_nodes":"5","size_leaf_vector":"0"}},{"base_weights":[-3.1989843E-2,-1.18038416E-1,2.096392E-1,-2.2600686E-2,-5.471358E-1,-6.964974E-1,2.9741147E-1],"categories":[],"categories_nodes":[],"categories_segments":[],"categories_sizes":[],"default_left":[1,1,0,0,0,0,0],"id":106,"left_children":[1,3,5,-1,-1,-1,-1],"loss_changes":[4.533195E0,6.5618954E0,4.7645884E0,0E0,0E0,0E0,0E0],"parents":[2147483647,0,0,1,1,2,2],"right_children":[2,4,6,-1,-1,-1,-1],"split_conditions":[5.4914863E3,8.47728E4,1.0793664E-1,-4.5201373E-3,-1.09427154E-1,-1.3929948E-1,5.9482295E-2],"split_indices":[4,5,7,0,0,0,0],"split_type":[0,0,0,0,0,0,0],"sum_hessian":[2.1583751E2,1.5953546E2,5.6302044E1,1.3136957E2,2.8165903E1,4.3595877E0,5.1942455E1],"tree_param":{"num_deleted":"0","num_feature":"9","num_nodes":"7","size_leaf_vector":"0"}},{"base_weights":[9.128763E-3,-8.544293E-2,2.3747037E-1,-1.3541214E-1,9.261365E-1,-1.2318824E-1,6.4696467E-1],"categories":[],"categories_nodes":[],"categories_segments":[],"categories_sizes":[],"default_left":[1,0,1,0,0,0,0],"id":107,"left_children":[1,3,5,-1,-1,-1,-1],"loss_changes":[4.817759E0,8.103441E0,9.727935E0,0E0,0E0,0E0,0E0],"parents":[2147483647,0,0,1,1,2,2],"right_children":[2,4,6,-1,-1,-1,-1],"split_conditions":[3.5066566E0,8.268795E0,3.2946332E0,-2.7082428E-2,1.852273E-1,-2.4637649E-2,1.2939294E-1],"split_indices":[8,7,6,0,0,0,0],"split_type":[0,0,0,0,0,0,0],"sum_hessian":[2.2116003E2,1.5683138E2,6.432866E1,1.5027438E2,6.5569983E0,3.4575634E1,2.9753025E1],"tree_param":{"num_deleted":"0","num_feature":"9","num_nodes":"7","size_leaf_vector":"0"}},{"base_weights":[1.1994017E-2,6.2489897E-1,-1.38604045E-2,-3.2692385E-1,8.940297E-1,3.0110767E-1,-6.0740363E-2],"categories":[],"categories_nodes":[],"categories_segments":[],"categories_sizes":[],"default_left":[1,1,1,0,0,0,0],"id":108,"left_children":[1,3,5,-1,-1,-1,-1],"loss_changes":[3.4143987E0,2.5262742E0,3.0777733E0,0E0,0E0,0E0,0E0],"parents":[2147483647,0,0,1,1,2,2],"right_children":[2,4,6,-1,-1,-1,-1],"split_conditions":[1.004553E-2,2.6054578E0,3.093735E4,-6.538477E-2,1.7880593E-1,6.0221534E-2,-1.2148073E-2],"split_indices":[0,8,5,0,0,0,0],"split_type":[0,0,0,0,0,0,0],"sum_hessian":[2.1392316E2,7.720928E0,2.0620222E2,1.6545639E0,6.066364E0,2.601237E1,1.8018987E2],"tree_param":{"num_deleted":"0","num_feature":"9","num_nodes":"7","size_leaf_vector":"0"}},{"base_weights":[2.333115E-2,-1.8016008E-1,1.1927065E-1,-3.3662903E-1,2.7169317E-1,5.872631E-1,3.8842887E-2],"categories":[],"categories_nodes":[],"categories_segments":[],"categories_sizes":[],"default_left":[1,1,1,0,0,0,0],"id":109,"left_children":[1,3,5,-1,-1,-1,-1],"loss_changes":[4.2834587E0,5.064937E0,5.5840425E0,0E0,0E0,0E0,0E0],"parents":[2147483647,0,0,1,1,2,2],"right_children":[2,4,6,-1,-1,-1,-1],"split_conditions":[1.4464867E0,3.8074978E-2,1.0579556E3,-6.732581E-2,5.4338634E-2,1.1745262E-1,7.7685774E-3],"split_indices":[1,0,4,0,0,0,0],"split_type":[0,0,0,0,0,0,0],"sum_hessian":[2.1730682E2,6.9345215E1,1.4796161E2,5.169807E1,1.7647142E1,2.0774921E1,1.2718669E2],"tree_param":{"num_deleted":"0","num_feature":"9","num_nodes":"7","size_leaf_vector":"0"}},{"base_weights":[-2.495008E-2,-6.005862E-2,3.8160008E-1,-3.9925594E-2,-1.849724E0,-2.745896E-1,6.651313E-1],"categories":[],"categories_nodes":[],"categories_segments":[],"categories_sizes":[],"default_left":[1,1,1,0,0,0,0],"id":110,"left_children":[1,3,5,-1,-1,-1,-1],"loss_changes":[3.1336727E0,7.185762E0,3.4311953E0,0E0,0E0,0E0,0E0],"parents":[2147483647,0,0,1,1,2,2],"right_children":[2,4,6,-1,-1,-1,-1],"split_conditions":[1.7048322E2,1.5766664E2,1.7401531E3,-7.985119E-3,-3.699448E-1,-5.491792E-2,1.3302626E-1],"split_indices":[3,3,4,0,0,0,0],"split_type":[0,0,0,0,0,0,0],"sum_hessian":[2.1694092E2,2.0048027E2,1.6460646E1,1.9926097E2,1.2192979E0,4.9759965E0,1.1484649E1],"tree_param":{"num_deleted":"0","num_feature":"9","num_nodes":"7","size_leaf_vector":"0"}},{"base_weights":[-3.665049E-2,-3.310805E-1,1.9267388E-2,-4.32474E-1,6.5258783E-1,-8.330721E-2,2.1732761E-1],"categories":[],"categories_nodes":[],"categories_segments":[],"categories_sizes":[],"default_left":[1,1,1,0,0,0,0],"id":111,"left_children":[1,3,5,-1,-1,-1,-1],"loss_changes":[3.643812E0,3.804711E0,3.8093922E0,0E0,0E0,0E0,0E0],"parents":[2147483647,0,0,1,1,2,2],"right_children":[2,4,6,-1,-1,-1,-1],"split_conditions":[2.6300921E0,1.0616771E4,4.5266445E3,-8.6494796E-2,1.3051757E-1,-1.6661441E-2,4.346552E-2],"split_indices":[3,4,4,0,0,0,0],"split_type":[0,0,0,0,0,0,0],"sum_hessian":[2.1993384E2,3.431752E1,1.8561632E2,3.1618708E1,2.6988127E0,1.2266697E2,6.2949345E1],"tree_param":{"num_deleted":"0","num_feature":"9","num_nodes":"7","size_leaf_vector":"0"}},{"base_weights":[-1.0366201E-2,-3.7174486E-2,5.281134E-1,6.016655E-3,-6.591499E-1,6.6056764E-1,-2.530474E-1],"categories":[],"categories_nodes":[],"categories_segments":[],"categories_sizes":[],"default_left":[1,1,1,0,0,0,0],"id":112,"left_children":[1,3,5,-1,-1,-1,-1],"loss_changes":[3.1015322E0,5.49227E0,1.2215354E0,0E0,0E0,0E0,0E0],"parents":[2147483647,0,0,1,1,2,2],"right_children":[2,4,6,-1,-1,-1,-1],"split_conditions":[1.1487668E4,8.902564E3,5.1100835E3,1.203331E-3,-1.3182998E-1,1.3211353E-1,-5.060948E-2],"split_indices":[4,4,2,0,0,0,0],"split_type":[0,0,0,0,0,0,0],"sum_hessian":[2.124913E2,2.033009E2,9.1904E0,1.9102603E2,1.2274879E1,7.989989E0,1.2004116E0],"tree_param":{"num_deleted":"0","num_feature":"9","num_nodes":"7","size_leaf_vector":"0"}},{"base_weights":[-4.6902098E-2,6.162566E-2,-2.348814E-1,-2.2481093E-1,1.9942671E-1,-4.2007357E-1,1.2584795E-1],"categories":[],"categories_nodes":[],"categories_segments":[],"categories_sizes":[],"default_left":[1,1,1,0,0,0,0],"id":113,"left_children":[1,3,5,-1,-1,-1,-1],"loss_changes":[4.4677653E0,5.538534E0,5.4042764E0,0E0,0E0,0E0,0E0],"parents":[2147483647,0,0,1,1,2,2],"right_children":[2,4,6,-1,-1,-1,-1],"split_conditions":[7.112828E4,2.6225739E0,3.7404518E0,-4.4962186E-2,3.9885342E-2,-8.4014714E-2,2.516959E-2],"split_indices":[5,8,8,0,0,0,0],"split_type":[0,0,0,0,0,0,0],"sum_hessian":[2.1728815E2,1.3818231E2,7.910584E1,4.4679337E1,9.350297E1,5.216218E1,2.6943665E1],"tree_param":{"num_deleted":"0","num_feature":"9","num_nodes":"7","size_leaf_vector":"0"}},{"base_weights":[2.0926528E-2,2.6575378E-3,8.21492E-1,3.7727546E-2,-4.797196E-1,-1.9700699E-1,9.1240627E-1],"categories":[],"categories_nodes":[],"categories_segments":[],"categories_sizes":[],"default_left":[1,1,1,0,0,0,0],"id":114,"left_children":[1,3,5,-1,-1,-1,-1],"loss_changes":[3.210638E0,3.6683474E0,6.3327265E-1,0E0,0E0,0E0,0E0],"parents":[2147483647,0,0,1,1,2,2],"right_children":[2,4,6,-1,-1,-1,-1],"split_conditions":[1.4791475E4,1.3652227E5,5.476011E2,7.5455094E-3,-9.594392E-2,-3.9401397E-2,1.8248126E-1],"split_indices":[4,5,2,0,0,0,0],"split_type":[0,0,0,0,0,0,0],"sum_hessian":[2.1867223E2,2.1477437E2,3.8978548E0,2.0107733E2,1.369703E1,2.2379199E-1,3.6740627E0],"tree_param":{"num_deleted":"0","num_feature":"9","num_nodes":"7","size_leaf_vector":"0"}},{"base_weights":[-1.6045946E-3,1.6978662E-1,-8.947911E-2,2.5782797E-1,-6.7328644E-1,-2.6880276E-1,8.212553E-2],"categories":[],"categories_nodes":[],"categories_segments":[],"categories_sizes":[],"default_left":[1,1,1,0,0,0,0],"id":115,"left_children":[1,3,5,-1,-1,-1,-1],"loss_changes":[3.3011484E0,5.6880417E0,4.480565E0,0E0,0E0,0E0,0E0],"parents":[2147483647,0,0,1,1,2,2],"right_children":[2,4,6,-1,-1,-1,-1],"split_conditions":[5.886891E-1,9.216321E3,3.0286372E0,5.1565595E-2,-1.346573E-1,-5.3760555E-2,1.6425107E-2],"split_indices":[7,4,6,0,0,0,0],"split_type":[0,0,0,0,0,0,0],"sum_hessian":[2.1717764E2,7.32934E1,1.4388425E2,6.69917E1,6.301702E0,7.008271E1,7.380153E1],"tree_param":{"num_deleted":"0","num_feature":"9","num_nodes":"7","size_leaf_vector":"0"}},{"base_weights":[1.7375078E-2,-8.5176356E-2,3.742727E-1,2.1046281E-1,-2.09622E-1,6.5400857E-1,-1.7962208E-1],"categories":[],"categories_nodes":[],"categories_segments":[],"categories_sizes":[],"default_left":[1,1,1,0,0,0,0],"id":116,"left_children":[1,3,5,-1,-1,-1,-1],"loss_changes":[8.122634E0,6.39168E0,7.7913046E0,0E0,0E0,0E0,0E0],"parents":[2147483647,0,0,1,1,2,2],"right_children":[2,4,6,-1,-1,-1,-1],"split_conditions":[6.097418E3,3.7706234E4,1.6800996E3,4.209256E-2,-4.19244E-2,1.3080172E-1,-3.5924416E-2],"split_indices":[4,5,2,0,0,0,0],"split_type":[0,0,0,0,0,0,0],"sum_hessian":[2.2005667E2,1.7153027E2,4.8526394E1,5.0609253E1,1.2092102E2,3.212262E1,1.6403772E1],"tree_param":{"num_deleted":"0","num_feature":"9","num_nodes":"7","size_leaf_vector":"0"}},{"base_weights":[1.6312405E-2,-5.145288E-1,4.8257183E-2,-3.594808E-2,-9.593712E-1,-1.3521695E-1,1.358832E-1],"categories":[],"categories_nodes":[],"categories_segments":[],"categories_sizes":[],"default_left":[1,1,1,0,0,0,0],"id":117,"left_children":[1,3,5,-1,-1,-1,-1],"loss_changes":[3.7079377E0,2.6083965E0,3.3267357E0,0E0,0E0,0E0,0E0],"parents":[2147483647,0,0,1,1,2,2],"right_children":[2,4,6,-1,-1,-1,-1],"split_conditions":[3.639356E2,3.5424615E2,2.7904582E0,-7.189616E-3,-1.9187425E-1,-2.7043391E-2,2.7176639E-2],"split_indices":[2,4,6,0,0,0,0],"split_type":[0,0,0,0,0,0,0],"sum_hessian":[2.1619507E2,1.1414141E1,2.0478093E2,6.019217E0,5.394924E0,6.601452E1,1.387664E2],"tree_param":{"num_deleted":"0","num_feature":"9","num_nodes":"7","size_leaf_vector":"0"}},{"base_weights":[-4.335081E-2,-7.1372174E-2,4.7504354E-1,-3.5710264E-2,-4.930254E-1,-3.936399E-1,7.515059E-1],"categories":[],"categories_nodes":[],"categories_segments":[],"categories_sizes":[],"default_left":[1,1,1,0,0,0,0],"id":118,"left_children":[1,3,5,-1,-1,-1,-1],"loss_changes":[3.1241057E0,3.0302963E0,2.9471889E0,0E0,0E0,0E0,0E0],"parents":[2147483647,0,0,1,1,2,2],"right_children":[2,4,6,-1,-1,-1,-1],"split_conditions":[3.6514143E3,1.9355655E-1,2.520678E0,-7.142053E-3,-9.860508E-2,-7.872798E-2,1.5030119E-1],"split_indices":[2,0,6,0,0,0,0],"split_type":[0,0,0,0,0,0,0],"sum_hessian":[2.1173413E2,2.0169405E2,1.004008E1,1.8696584E2,1.4728207E1,2.321562E0,7.7185183E0],"tree_param":{"num_deleted":"0","num_feature":"9","num_nodes":"7","size_leaf_vector":"0"}},{"base_weights":[3.4561627E-2,-1.2578802E-1,1.2008425E-1,-3.2519835E-1,3.2873905E-1,3.2639605E-1,-8.1891045E-2],"categories":[],"categories_nodes":[],"categories_segments":[],"categories_sizes":[],"default_left":[1,1,1,0,0,0,0],"id":119,"left_children":[1,3,5,-1,-1,-1,-1],"loss_changes":[2.945056E0,6.8869886E0,5.854247E0,0E0,0E0,0E0,0E0],"parents":[2147483647,0,0,1,1,2,2],"right_children":[2,4,6,-1,-1,-1,-1],"split_conditions":[2.2374685E3,1.211948E3,1.1814954E3,-6.503967E-2,6.574781E-2,6.527921E-2,-1.6378209E-2],"split_indices":[4,2,2,0,0,0,0],"split_type":[0,0,0,0,0,0,0],"sum_hessian":[2.1265414E2,7.380448E1,1.3884967E2,5.1496464E1,2.2308018E1,6.838272E1,7.046694E1],"tree_param":{"num_deleted":"0","num_feature":"9","num_nodes":"7","size_leaf_vector":"0"}},{"base_weights":[5.6612818E-3,-7.085782E-2,2.5432682E-1,1.5765277E-1,-2.2629113E-1,-4.5079023E-1,4.1919675E-1],"categories":[],"categories_nodes":[],"categories_segments":[],"categories_sizes":[],"default_left":[1,1,1,0,0,0,0],"id":120,"left_children":[1,3,5,-1,-1,-1,-1],"loss_changes":[4.0586243E0,5.8310747E0,6.023327E0,0E0,0E0,0E0,0E0],"parents":[2147483647,0,0,1,1,2,2],"right_children":[2,4,6,-1,-1,-1,-1],"split_conditions":[3.685648E0,4.4529945E4,2.670361E0,3.1530555E-2,-4.5258228E-2,-9.0158045E-2,8.383935E-2],"split_indices":[6,5,8,0,0,0,0],"split_type":[0,0,0,0,0,0,0],"sum_hessian":[2.1135414E2,1.6216724E2,4.9186893E1,6.5644936E1,9.652231E1,8.992685E0,4.0194206E1],"tree_param":{"num_deleted":"0","num_feature":"9","num_nodes":"7","size_leaf_vector":"0"}},{"base_weights":[5.5213545E-2,-8.0726966E-2,2.2100735E-1,-3.4211913E-1,2.0200478E-1,5.5448014E-1,1.8730521E-2],"categories":[],"categories_nodes":[],"categories_segments":[],"categories_sizes":[],"default_left":[1,1,1,0,0,0,0],"id":121,"left_children":[1,3,5,-1,-1,-1,-1],"loss_changes":[4.8909473E0,8.90334E0,6.5784783E0,0E0,0E0,0E0,0E0],"parents":[2147483647,0,0,1,1,2,2],"right_children":[2,4,6,-1,-1,-1,-1],"split_conditions":[3.7829702E3,3.2189763E0,8.98623E2,-6.842383E-2,4.0400956E-2,1.1089603E-1,3.7461042E-3],"split_indices":[4,8,2,0,0,0,0],"split_type":[0,0,0,0,0,0,0],"sum_hessian":[2.1521642E2,1.1853678E2,9.6679634E1,6.148365E1,5.7053135E1,3.5844814E1,6.0834816E1],"tree_param":{"num_deleted":"0","num_feature":"9","num_nodes":"7","size_leaf_vector":"0"}},{"base_weights":[1.8147226E-2,2.095509E-1,-1.0052449E-1,9.550966E-2,8.6400735E-1,5.309108E-1,-1.8757607E-1],"categories":[],"categories_nodes":[],"categories_segments":[],"categories_sizes":[],"default_left":[1,1,1,0,0,0,0],"id":122,"left_children":[1,3,5,-1,-1,-1,-1],"loss_changes":[4.926633E0,6.11067E0,7.464645E0,0E0,0E0,0E0,0E0],"parents":[2147483647,0,0,1,1,2,2],"right_children":[2,4,6,-1,-1,-1,-1],"split_conditions":[3.472293E-2,3.3271203E0,7.9036035E2,1.9101933E-2,1.7280148E-1,1.0618216E-1,-3.7515216E-2],"split_indices":[0,1,4,0,0,0,0],"split_type":[0,0,0,0,0,0,0],"sum_hessian":[2.149692E2,8.197969E1,1.329895E2,7.079019E1,1.1189492E1,1.5495184E1,1.17494316E2],"tree_param":{"num_deleted":"0","num_feature":"9","num_nodes":"7","size_leaf_vector":"0"}},{"base_weights":[-6.323889E-2,5.8222055E-2,-2.0623349E-1,-3.054548E-2,5.447346E-1,-3.7241486E-1,1.0966618E-1],"categories":[],"categories_nodes":[],"categories_segments":[],"categories_sizes":[],"default_left":[1,1,1,0,0,0,0],"id":123,"left_children":[1,3,5,-1,-1,-1,-1],"loss_changes":[3.6969228E0,5.004664E0,5.1678824E0,0E0,0E0,0E0,0E0],"parents":[2147483647,0,0,1,1,2,2],"right_children":[2,4,6,-1,-1,-1,-1],"split_conditions":[5.9984438E4,2.0455901E3,6.372133E3,-6.109096E-3,1.0894692E-1,-7.448297E-2,2.1933237E-2],"split_indices":[5,2,4,0,0,0,0],"split_type":[0,0,0,0,0,0,0],"sum_hessian":[2.1116379E2,1.14499596E2,9.666419E1,9.762454E1,1.6875051E1,6.3225204E1,3.3438988E1],"tree_param":{"num_deleted":"0","num_feature":"9","num_nodes":"7","size_leaf_vector":"0"}},{"base_weights":[2.9352209E-2,-1.2690546E-1,1.6184631E-1,-6.99135E-2,-9.515407E-1,4.0854016E-1,2.1391965E-2],"categories":[],"categories_nodes":[],"categories_segments":[],"categories_sizes":[],"default_left":[1,1,1,0,0,0,0],"id":124,"left_children":[1,3,5,-1,-1,-1,-1],"loss_changes":[4.4890847E0,4.614346E0,4.053539E0,0E0,0E0,0E0,0E0],"parents":[2147483647,0,0,1,1,2,2],"right_children":[2,4,6,-1,-1,-1,-1],"split_conditions":[1.1412542E1,1.0645759E1,4.489031E4,-1.39827E-2,-1.9030814E-1,8.170804E-2,4.278393E-3],"split_indices":[3,3,5,0,0,0,0],"split_type":[0,0,0,0,0,0,0],"sum_hessian":[2.1483821E2,9.859813E1,1.1624008E2,9.3239E1,5.359127E0,4.147853E1,7.476155E1],"tree_param":{"num_deleted":"0","num_feature":"9","num_nodes":"7","size_leaf_vector":"0"}},{"base_weights":[1.0331432E-2,-9.3722455E-2,2.189029E-1,-1.5598306E-1,5.2196574E-1,3.7171885E-1,-6.073183E-1],"categories":[],"categories_nodes":[],"categories_segments":[],"categories_sizes":[],"default_left":[1,0,0,0,0,0,0],"id":125,"left_children":[1,3,5,-1,-1,-1,-1],"loss_changes":[4.6339245E0,5.5446873E0,9.196819E0,0E0,0E0,0E0,0E0],"parents":[2147483647,0,0,1,1,2,2],"right_children":[2,4,6,-1,-1,-1,-1],"split_conditions":[3.4009366E0,3.3857143E0,3.374426E0,-3.1196613E-2,1.0439315E-1,7.434377E-2,-1.2146366E-1],"split_indices":[8,7,7,0,0,0,0],"split_type":[0,0,0,0,0,0,0],"sum_hessian":[2.115733E2,1.4152084E2,7.005246E1,1.2920212E2,1.231873E1,5.9582344E1,1.0470115E1],"tree_param":{"num_deleted":"0","num_feature":"9","num_nodes":"7","size_leaf_vector":"0"}},{"base_weights":[3.718289E-2,-4.665921E-1,6.36878E-2,-1.1882702E-1,-1.3406472E0,-1.4526808E-1,1.3036829E-1],"categories":[],"categories_nodes":[],"categories_segments":[],"categories_sizes":[],"default_left":[1,1,1,0,0,0,0],"id":126,"left_children":[1,3,5,-1,-1,-1,-1],"loss_changes":[2.856827E0,3.0940151E0,2.8338213E0,0E0,0E0,0E0,0E0],"parents":[2147483647,0,0,1,1,2,2],"right_children":[2,4,6,-1,-1,-1,-1],"split_conditions":[1.5036727E-1,1.6976953E3,2.6266177E0,-2.3765406E-2,-2.6812944E-1,-2.9053617E-2,2.6073659E-2],"split_indices":[1,2,6,0,0,0,0],"split_type":[0,0,0,0,0,0,0],"sum_hessian":[2.1072878E2,9.702914E0,2.0102586E2,7.753812E0,1.9491023E0,4.8346E1,1.5267987E2],"tree_param":{"num_deleted":"0","num_feature":"9","num_nodes":"7","size_leaf_vector":"0"}},{"base_weights":[5.4658116E-3,1.1148398E-1,-2.3759207E-1,9.3492454E-1,8.695403E-2,-5.187435E-1,3.102969E-1],"categories":[],"categories_nodes":[],"categories_segments":[],"categories_sizes":[],"default_left":[1,1,1,0,0,0,0],"id":127,"left_children":[1,3,5,-1,-1,-1,-1],"loss_changes":[5.588293E0,2.9680521E0,1.0307777E1,0E0,0E0,0E0,0E0],"parents":[2147483647,0,0,1,1,2,2],"right_children":[2,4,6,-1,-1,-1,-1],"split_conditions":[7.969174E4,1.9000355E4,3.8428855E0,1.8698491E-1,1.7390806E-2,-1.037487E-1,6.205938E-2],"split_indices":[5,5,8,0,0,0,0],"split_type":[0,0,0,0,0,0,0],"sum_hessian":[2.1483694E2,1.4996556E2,6.487138E1,3.2645643E0,1.4670099E2,4.2906788E1,2.1964596E1],"tree_param":{"num_deleted":"0",