{"learner":{"attributes":{"best_iteration":"99","best_ntree_limit":"100","scikit_learn":"{\"use_label_encoder\": null, \"n_estimators\": 100, \"objective\": \"binary:logistic\", \"max_depth\": 6, \"max_leaves\": null, \"max_bin\": null, \"grow_policy\": null, \"learning_rate\": null, \"verbosity\": null, \"booster\": null, \"tree_method\": null, \"gamma\": null, \"min_child_weight\": null, \"max_delta_step\": null, \"subsample\": null, \"sampling_method\": null, \"colsample_bytree\": null, \"colsample_bylevel\": null, \"colsample_bynode\": null, \"reg_alpha\": null, \"reg_lambda\": null, \"scale_pos_weight\": null, \"base_score\": null, \"missing\": NaN, \"num_parallel_tree\": null, \"random_state\": null, \"n_jobs\": null, \"monotone_constraints\": null, \"interaction_constraints\": null, \"importance_type\": null, \"gpu_id\": null, \"validate_parameters\": null, \"predictor\": null, \"enable_categorical\": false, \"feature_types\": null, \"max_cat_to_onehot\": null, \"max_cat_threshold\": null, \"eval_metric\": null, \"early_stopping_rounds\": null, \"callbacks\": null, \"classes_\": [0.0, 1.0], \"n_classes_\": 2, \"_estimator_type\": \"classifier\"}"},"feature_names":[],"feature_types":[],"gradient_booster":{"model":{"gbtree_model_param":{"num_parallel_tree":"1","num_trees":"100","size_leaf_vector":"0"},"tree_info":[0,0,0,0,0,0,0,0,0,0,0,0,0,0,0,0,0,0,0,0,0,0,0,0,0,0,0,0,0,0,0,0,0,0,0,0,0,0,0,0,0,0,0,0,0,0,0,0,0,0,0,0,0,0,0,0,0,0,0,0,0,0,0,0,0,0,0,0,0,0,0,0,0,0,0,0,0,0,0,0,0,0,0,0,0,0,0,0,0,0,0,0,0,0,0,0,0,0,0,0],"trees":[{"base_weights":[6.388855E-1,1.5588403E0,-9.8993963E-1,5.204461E-2,1.8292356E0,-1.6430249E0,6.371062E-1,-1.0027701E0,8.977778E-1,1.8810961E0,4.883721E-1,2.580645E-1,-1.7570931E0,-6.585366E-1,1.4296435E0,-1.3787879E0,1.980198E-2,1.2634561E0,-4.1584158E-1,1.8987342E0,-0E0,-6.3414633E-1,1.4468085E0,-5.641026E-1,1.52E0,-1.8830804E0,-7.692308E-1,1.627907E-1,-1.525E0,1.6653061E0,-1.1489362E0,3.2786883E-2,-1.768116E0,-1.483871E0,6.486486E-1,1.3690476E0,-6.666667E-1,-5.1282052E-2,-1.4074074E0,1.9165086E0,3.7037036E-1,-1E0,1.4E0,-1.1764706E0,1.5555556E0,7.1428573E-1,1.6571429E0,3.478261E-1,-1.6666666E0,1.8222222E0,-6.666667E-1,-1.9256148E0,-1.2068965E0,9.5454544E-1,-1.76E0,6.099291E-1,-1.6571429E0,-2.6086956E-1,-1.6879432E0,1.7981651E0,5.5172414E-1,4.6153846E-1,-1.5789474E0,1.1111112E0,-1.3103448E0,2.2222222E-1,-1.8217822E0,-1.6923077E0,-2.2222222E-1,1.1111112E0,-5E-1,1.4478527E0,-8.5714287E-1,-1.25E0,6.666667E-1,-4E-1,1.2941177E0,3.448276E-1,1.9255548E0,1.2820513E0,-1.5789474E0,3.3333334E-1,-1.6E0,-1.4285715E0,-0E0,-4E-1,1.0909091E0,1E0,-8.888889E-1,-1.9471365E0,-1.4146341E0,6.086956E-1,-1.5876288E0,1.3333334E0,-6E-1,-1.8321679E0,-1.8181819E-1,9.354839E-1,-1.4285715E0,-9.3333334E-1,6.666667E-1,-1.7372262E0,-0E0,1.824074E0,-5E-1,-6.666667E-1,1.4285715E0,1.1111112E0,-5E-1,-6.666667E-1,-1.7333333E0],"categories":[],"categories_nodes":[],"categories_segments":[],"categories_sizes":[],"default_left":[1,1,1,1,1,1,1,1,1,1,1,1,1,1,1,1,1,1,1,1,1,1,1,1,1,1,1,1,0,1,1,1,1,1,0,1,1,1,0,1,0,1,0,1,0,1,0,1,0,0,0,1,1,1,1,1,0,1,1,1,1,1,1,0,0,0,0,0,0,0,0,0,0,0,0,0,0,0,0,0,0,0,0,0,0,0,0,0,0,0,0,0,0,0,0,0,0,0,0,0,0,0,0,0,0,0,0,0,0,0,0],"id":0,"left_children":[1,3,5,7,9,11,13,15,17,19,21,23,25,27,29,31,33,35,37,39,41,43,45,47,49,51,53,55,57,59,61,63,65,67,69,71,73,75,-1,77,79,81,-1,83,-1,85,-1,87,-1,-1,-1,89,91,93,95,97,-1,99,101,103,105,107,109,-1,-1,-1,-1,-1,-1,-1,-1,-1,-1,-1,-1,-1,-1,-1,-1,-1,-1,-1,-1,-1,-1,-1,-1,-1,-1,-1,-1,-1,-1,-1,-1,-1,-1,-1,-1,-1,-1,-1,-1,-1,-1,-1,-1,-1,-1,-1,-1],"loss_changes":[3.0939597E3,5.374075E2,7.9321484E2,1.8087978E2,7.685962E1,1.158739E2,2.2094308E2,3.4728905E1,5.456613E1,3.571704E1,4.717958E1,3.3020615E1,6.1060547E1,5.860356E1,8.288599E1,3.63293E1,2.48384E1,1.8898453E1,9.055315E0,2.8262207E1,1.68E1,2.6174398E1,2.4370842E0,2.0186176E1,9.475557E0,1.0467407E1,1.0159007E2,3.6002514E1,7.7989273E0,1.7131714E1,8.86588E0,2.3542994E1,5.9324646E0,1.6619797E0,1.0382882E1,1.597757E1,4.916667E0,9.666366E0,0E0,1.4321533E1,2.6015892E1,6.133333E0,0E0,5.042017E0,0E0,3.374026E0,0E0,1.0164251E1,0E0,0E0,0E0,1.8286133E0,2.1012768E1,1.3754545E1,3.9379044E0,2.4729843E1,0E0,4.2086954E0,2.932335E0,7.4022217E0,1.644335E1,2.58547E0,1.8245697E-1,0E0,0E0,0E0,0E0,0E0,0E0,0E0,0E0,0E0,0E0,0E0,0E0,0E0,0E0,0E0,0E0,0E0,0E0,0E0,0E0,0E0,0E0,0E0,0E0,0E0,0E0,0E0,0E0,0E0,0E0,0E0,0E0,0E0,0E0,0E0,0E0,0E0,0E0,0E0,0E0,0E0,0E0,0E0,0E0,0E0,0E0,0E0,0E0],"parents":[2147483647,0,0,1,1,2,2,3,3,4,4,5,5,6,6,7,7,8,8,9,9,10,10,11,11,12,12,13,13,14,14,15,15,16,16,17,17,18,18,19,19,20,20,21,21,22,22,23,23,24,24,25,25,26,26,27,27,28,28,29,29,30,30,31,31,32,32,33,33,34,34,35,35,36,36,37,37,39,39,40,40,41,41,43,43,45,45,47,47,51,51,52,52,53,53,54,54,55,55,57,57,58,58,59,59,60,60,61,61,62,62],"right_children":[2,4,6,8,10,12,14,16,18,20,22,24,26,28,30,32,34,36,38,40,42,44,46,48,50,52,54,56,58,60,62,64,66,68,70,72,74,76,-1,78,80,82,-1,84,-1,86,-1,88,-1,-1,-1,90,92,94,96,98,-1,100,102,104,106,108,110,-1,-1,-1,-1,-1,-1,-1,-1,-1,-1,-1,-1,-1,-1,-1,-1,-1,-1,-1,-1,-1,-1,-1,-1,-1,-1,-1,-1,-1,-1,-1,-1,-1,-1,-1,-1,-1,-1,-1,-1,-1,-1,-1,-1,-1,-1,-1,-1],"split_conditions":[6.0731914E-2,7.662794E0,1.1116165E3,7.467656E2,6.719059E0,2.808555E4,4.006073E1,4.3948276E3,4.026737E-2,4.4560933E0,1.4597737E3,3.8390945E1,8.1303696E1,8.8629675E0,3.574121E-1,5.665316E2,4.1330286E2,4.4296727E0,3.9941134E0,4.46794E0,1.3741721E3,3.0475525E1,2.1117432E1,1.0848939E3,4.6165508E-1,4.777385E3,2.0793106E-1,4.1911325E0,3.1653467E-1,1.4210567E1,3.7763492E4,6.1286203E4,2.034525E4,2.081851E5,1.3826066E0,4.58441E0,5.4615993E0,3.44941E0,-4.2222223E-1,3.6892194E2,1.8768452E1,8.395722E-1,4.2000002E-1,6.413665E3,4.666667E-1,2.2307246E3,4.9714288E-1,1.352674E-1,-5E-1,5.466667E-1,-2.0000002E-1,9.9384174E2,4.2964506E0,8.339418E0,4.0315457E3,4.5927153E0,-4.9714288E-1,1.5993078E1,4.5609316E3,4.6522937E0,9.717959E1,1.0508513E0,4.5205994E0,3.3333337E-1,-3.9310345E-1,6.666667E-2,-5.465347E-1,-5.0769234E-1,-6.666667E-2,3.3333337E-1,-1.5E-1,4.3435583E-1,-2.5714287E-1,-3.75E-1,2.0000002E-1,-1.20000005E-1,3.8823533E-1,1.0344828E-1,5.7766646E-1,3.8461542E-1,-4.7368425E-1,1.0000001E-1,-4.8000002E-1,-4.2857146E-1,-0E0,-1.20000005E-1,3.2727274E-1,3E-1,-2.6666668E-1,-5.8414096E-1,-4.2439026E-1,1.826087E-1,-4.7628868E-1,4.0000004E-1,-1.8E-1,-5.496504E-1,-5.454546E-2,2.8064516E-1,-4.2857146E-1,-2.8E-1,2.0000002E-1,-5.211679E-1,-0E0,5.4722226E-1,-1.5E-1,-2.0000002E-1,4.2857146E-1,3.3333337E-1,-1.5E-1,-2.0000002E-1,-5.2000004E-1],"split_indices":[0,3,2,2,1,5,3,4,0,6,2,3,3,1,0,4,2,6,6,8,2,3,3,4,0,4,0,8,7,1,5,5,5,5,7,8,3,6,0,2,7,1,0,4,0,2,0,0,0,0,0,2,1,1,4,6,0,3,2,6,3,0,1,0,0,0,0,0,0,0,0,0,0,0,0,0,0,0,0,0,0,0,0,0,0,0,0,0,0,0,0,0,0,0,0,0,0,0,0,0,0,0,0,0,0,0,0,0,0,0,0],"split_type":[0,0,0,0,0,0,0,0,0,0,0,0,0,0,0,0,0,0,0,0,0,0,0,0,0,0,0,0,0,0,0,0,0,0,0,0,0,0,0,0,0,0,0,0,0,0,0,0,0,0,0,0,0,0,0,0,0,0,0,0,0,0,0,0,0,0,0,0,0,0,0,0,0,0,0,0,0,0,0,0,0,0,0,0,0,0,0,0,0,0,0,0,0,0,0,0,0,0,0,0,0,0,0,0,0,0,0,0,0,0,0],"sum_hessian":[2.06275E3,1.31825E3,7.445E2,2.0075E2,1.1175E3,5.3125E2,2.1325E2,8.925E1,1.115E2,1.0755E3,4.2E1,3E1,5.0125E2,8.1E1,1.3225E2,6.5E1,2.425E1,8.725E1,2.425E1,1.0655E3,1E1,1.95E1,2.25E1,1.85E1,1.15E1,4.4375E2,5.75E1,4.2E1,3.9E1,1.215E2,1.075E1,1.425E1,5.075E1,6.75E0,1.75E1,8.3E1,4.25E0,1.85E1,5.75E0,1.053E3,1.25E1,6E0,4E0,1.6E1,3.5E0,6E0,1.65E1,1.05E1,8E0,1.025E1,1.25E0,4.1575E2,2.8E1,2.1E1,3.65E1,3.425E1,7.75E0,4.75E0,3.425E1,1.08E2,1.35E1,2.25E0,8.5E0,8E0,6.25E0,1.25E0,4.95E1,5.5E0,1.25E0,1.25E1,5E0,8.05E1,2.5E0,3E0,1.25E0,1.525E1,3.25E0,6.25E0,1.04675E3,8.75E0,3.75E0,2E0,4E0,1.3E1,3E0,1.5E0,4.5E0,7E0,3.5E0,3.9625E2,1.95E1,4.75E0,2.325E1,1.7E1,4E0,3.475E1,1.75E0,3E1,4.25E0,2.75E0,2E0,3.325E1,1E0,1.07E2,1E0,5.75E0,7.75E0,1.25E0,1E0,2E0,6.5E0],"tree_param":{"num_deleted":"0","num_feature":"9","num_nodes":"111","size_leaf_vector":"0"}},{"base_weights":[4.8496515E-1,1.2289275E0,-6.944748E-1,5.1512584E-2,1.4254229E0,-1.08751E0,9.9650806E-1,-5.348959E-1,8.7927777E-1,-1.3861847E-1,1.4427162E0,-1.3010373E0,7.526804E-2,6.2416557E-2,1.399129E0,-9.36383E-1,1.687007E-1,1.0846664E0,-1.3297005E-1,1.3798525E0,-1.4974284E0,1.458593E0,1.5175028E-1,7.2697467E-1,-1.3636662E0,1.1404451E0,-1.206894E0,7.028938E-1,-1.0942023E0,1.445672E0,-1.0148566E0,2.9641953E-1,-1.2810147E0,-1.1943657E0,5.1805854E-1,1.166506E0,-4.6593815E-1,3.4171706E-1,-1.196474E0,1.4698384E0,6.5329745E-2,1.2030636E0,-1.1249524E0,1.2405387E0,-9.3533826E-1,-1.4235657E0,-6.3158804E-1,1.2991529E0,-1.0515837E-1,3.12609E-1,-1.3727239E0,9.32737E-1,-1.1576523E0,2.320887E-1,-1.2940603E0,-8.5294105E-2,1.4650792E0,9.305991E-1,-1.1012818E0,-1.4715988E-2,-1.3629931E0,-1.3566911E0,-1.8531317E-1,6.9107294E-1,-7.3330534E-1,1.2170718E0,-6.0803086E-1,-1.13637E0,4.8833925E-1,7.710551E-1,-8.786439E-1,1.4811522E0,2.1362098E-1,-8.12009E-1,1.0767957E0,1.1370681E-2,1.4209857E0,2.0381299E-1,-1.4633718E0,1.4059436E0,-1.567284E-1,-2.4522786E-1,-1.1192493E0,-1.502462E0,-1.1341952E0,-1.2209139E0,5.532012E-1,1.3351911E0,-4.4945E-2,9.690062E-1,-1.0028121E0,1.0643995E0,-7.424826E-1,-3.712759E-1,-1.4204322E0,1.1390826E0,-6.626798E-1,-1.7314094E-1,-1.4084414E0,1.4977459E0,3.640581E-1],"categories":[],"categories_nodes":[],"categories_segments":[],"categories_sizes":[],"default_left":[1,1,1,1,1,1,1,1,1,1,1,1,1,1,1,1,1,1,1,0,0,1,0,1,1,1,1,1,1,1,0,1,0,1,1,1,1,0,0,1,1,1,1,1,1,1,1,1,1,1,1,1,0,0,0,0,1,0,0,0,0,0,0,0,0,0,0,0,0,0,0,0,0,0,0,0,0,0,0,0,0,0,0,0,0,0,0,0,0,0,0,0,0,0,0,0,0,0,0,0,0],"id":1,"left_children":[1,3,5,7,9,11,13,15,17,19,21,23,25,27,29,31,33,35,37,-1,-1,39,41,43,45,47,49,51,53,55,-1,57,59,61,63,65,67,69,-1,71,73,75,77,79,81,83,85,87,89,91,93,95,-1,-1,97,-1,99,-1,-1,-1,-1,-1,-1,-1,-1,-1,-1,-1,-1,-1,-1,-1,-1,-1,-1,-1,-1,-1,-1,-1,-1,-1,-1,-1,-1,-1,-1,-1,-1,-1,-1,-1,-1,-1,-1,-1,-1,-1,-1,-1,-1],"loss_changes":[1.684325E3,2.7219678E2,4.9471674E2,8.267342E1,2.7477295E1,1.498476E2,5.2789368E1,2.8335062E1,1.48224945E1,2.6704567E1,2.0224854E1,6.5719055E1,1.3046396E2,3.2915665E1,1.2500626E1,2.7426815E1,1.8279234E1,8.005478E0,6.8705254E0,0E0,0E0,1.5341553E1,1.9117994E1,1.4750244E1,2.0794006E1,1.0444473E1,1.1359177E1,1.3283659E1,4.503538E0,2.999817E0,0E0,1.4072964E1,5.164215E0,1.0374346E0,7.049035E0,5.777405E0,2.8981075E0,5.721794E0,0E0,1.3574707E1,8.803826E0,1.994298E0,3.2183533E0,3.1304092E0,2.7475524E-1,8.71759E0,2.8054962E1,2.3039093E0,7.5458007E0,4.8218665E0,1.3499908E0,9.299128E0,0E0,0E0,1.54245E0,0E0,2.8931732E0,0E0,0E0,0E0,0E0,0E0,0E0,0E0,0E0,0E0,0E0,0E0,0E0,0E0,0E0,0E0,0E0,0E0,0E0,0E0,0E0,0E0,0E0,0E0,0E0,0E0,0E0,0E0,0E0,0E0,0E0,0E0,0E0,0E0,0E0,0E0,0E0,0E0,0E0,0E0,0E0,0E0,0E0,0E0,0E0],"parents":[2147483647,0,0,1,1,2,2,3,3,4,4,5,5,6,6,7,7,8,8,9,9,10,10,11,11,12,12,13,13,14,14,15,15,16,16,17,17,18,18,21,21,22,22,23,23,24,24,25,25,26,26,27,27,28,28,29,29,31,31,32,32,33,33,34,34,35,35,36,36,37,37,39,39,40,40,41,41,42,42,43,43,44,44,45,45,46,46,47,47,48,48,49,49,50,50,51,51,54,54,56,56],"right_children":[2,4,6,8,10,12,14,16,18,20,22,24,26,28,30,32,34,36,38,-1,-1,40,42,44,46,48,50,52,54,56,-1,58,60,62,64,66,68,70,-1,72,74,76,78,80,82,84,86,88,90,92,94,96,-1,-1,98,-1,100,-1,-1,-1,-1,-1,-1,-1,-1,-1,-1,-1,-1,-1,-1,-1,-1,-1,-1,-1,-1,-1,-1,-1,-1,-1,-1,-1,-1,-1,-1,-1,-1,-1,-1,-1,-1,-1,-1,-1,-1,-1,-1,-1,-1],"split_conditions":[5.5335265E-2,7.026366E0,1.552179E3,9.813345E2,4.0320175E2,8.647013E1,3.9699047E1,3.5043796E3,4.026737E-2,5.856251E2,4.46794E0,2.3634824E4,2.0793106E-1,1.1059096E1,5.9297454E-1,3.5182977E4,4.1585858E2,4.3312626E0,9.858645E4,4.1395578E-1,-4.4922855E-1,1.0138767E1,1.9644823E0,1.0971462E1,4.880052E3,1.0280725E1,3.6279785E4,4.585885E0,3.930079E4,5.5758405E-2,-3.0445698E-1,1.0501566E3,1.754936E-1,2.081851E5,4.196185E-2,4.5163345E0,2.4075115E3,1.4307525E0,-3.589422E-1,4.4560933E0,1.9937781E3,1.01719684E3,6.7595977E-1,2.89958E-1,1.0782112E-1,8.4243164E2,2.3669947E1,4.463009E0,5.975593E4,1.0508513E0,2.3699567E-1,4.4103947E0,-3.472957E-1,6.9626614E-2,7.418157E-1,-2.5588233E-2,4.207474E0,2.7917975E-1,-3.3038455E-1,-4.414797E-3,-4.0889797E-1,-4.0700737E-1,-5.5593953E-2,2.073219E-1,-2.1999161E-1,3.6512154E-1,-1.8240926E-1,-3.40911E-1,1.4650178E-1,2.3131654E-1,-2.6359317E-1,4.4434568E-1,6.4086296E-2,-2.4360271E-1,3.2303873E-1,3.4112046E-3,4.2629573E-1,6.1143897E-2,-4.3901154E-1,4.2178312E-1,-4.7018524E-2,-7.356836E-2,-3.357748E-1,-4.5073864E-1,-3.4025857E-1,-3.6627418E-1,1.6596037E-1,4.0055737E-1,-1.3483501E-2,2.9070187E-1,-3.0084366E-1,3.1931984E-1,-2.227448E-1,-1.11382775E-1,-4.2612967E-1,3.4172478E-1,-1.9880395E-1,-5.1942285E-2,-4.2253244E-1,4.4932377E-1,1.09217435E-1],"split_indices":[0,3,2,2,2,3,3,4,0,4,8,5,0,1,0,5,2,6,5,0,0,1,7,1,4,1,5,8,5,0,0,4,7,5,0,8,4,7,0,6,2,2,1,0,0,2,3,8,5,0,0,6,0,0,7,0,6,0,0,0,0,0,0,0,0,0,0,0,0,0,0,0,0,0,0,0,0,0,0,0,0,0,0,0,0,0,0,0,0,0,0,0,0,0,0,0,0,0,0,0,0],"split_type":[0,0,0,0,0,0,0,0,0,0,0,0,0,0,0,0,0,0,0,0,0,0,0,0,0,0,0,0,0,0,0,0,0,0,0,0,0,0,0,0,0,0,0,0,0,0,0,0,0,0,0,0,0,0,0,0,0,0,0,0,0,0,0,0,0,0,0,0,0,0,0,0,0,0,0,0,0,0,0,0,0,0,0,0,0,0,0,0,0,0,0,0,0,0,0,0,0,0,0,0,0],"sum_hessian":[1.917576E3,1.1758416E3,7.417345E2,1.683483E2,1.0074932E3,6.021367E2,1.395978E2,9.874723E1,6.9601074E1,1.0941151E1,9.9655206E2,5.0861758E2,9.351913E1,4.2395084E1,9.72027E1,6.2660797E1,3.6086433E1,5.7801414E1,1.1799655E1,5.1596985E0,5.781452E0,9.843168E2,1.2235294E1,1.4918772E1,4.9369882E2,5.114233E1,4.2376797E1,2.7538137E1,1.4856947E1,9.575757E1,1.4451325E0,1.37204485E1,4.894035E1,6.8686657E0,2.9217768E1,5.5138935E1,2.6624794E0,8.627515E0,3.1721401E0,9.7638116E2,7.9356265E0,6.7415657E0,5.493729E0,1.1591392E1,3.32738E0,4.5548584E2,3.8212963E1,4.5324368E1,5.8179636E0,4.082613E0,3.829418E1,2.49541E1,2.5840378E0,1.9244846E0,1.2932462E1,1.1561728E0,9.4601395E1,9.667984E0,4.052465E0,3.047408E0,4.589294E1,5.6200533E0,1.2486122E0,2.6062141E1,3.155625E0,5.3916718E1,1.2222193E0,1.4517378E0,1.2107418E0,6.65454E0,1.9729748E0,9.674887E2,8.892437E0,4.355174E0,3.5804524E0,1.2048886E0,5.5366774E0,1.1959025E0,4.297827E0,1.0358919E1,1.2324723E0,1.1911386E0,2.1362414E0,3.5460995E2,1.0087591E2,2.5499012E1,1.2713951E1,4.4147305E1,1.177062E0,2.6123931E0,3.2055705E0,2.3788066E0,1.7038065E0,2.140705E0,3.6153477E1,2.234952E1,2.6045804E0,1.430219E0,1.1502243E1,9.1525566E1,3.07583E0],"tree_param":{"num_deleted":"0","num_feature":"9","num_nodes":"101","size_leaf_vector":"0"}},{"base_weights":[4.0352926E-1,9.975109E-1,-6.3345355E-1,2.0655315E-1,1.2457219E0,-1.0707843E0,3.7143442E-1,-6.3195145E-1,6.650075E-1,1.262177E0,7.1656294E-2,4.3018416E-2,-1.1722499E0,-4.1361693E-1,9.000487E-1,-9.768349E-1,9.112646E-2,8.9029324E-1,-2.9585484E-1,1.2765588E0,2.4226697E-1,-7.68116E-1,6.176509E-1,1.0083214E0,-5.554196E-1,-1.2762563E0,-6.502645E-1,7.433253E-1,-7.1629304E-1,1.067992E0,-7.7312005E-1,5.9281595E-2,-1.3628305E0,-1.1103914E0,5.3128E-1,1.230137E-2,9.800827E-1,-4.7594705E-1,9.319732E-1,1.2856343E0,1.8858418E-1,9.7136414E-1,-1.1165247E0,-1.1767273E0,3.798001E-1,-2.5768337E-1,1.1885822E0,-6.821531E-2,1.3657315E0,-9.5144564E-1,1.8466163E-1,1.4898099E-1,-1.2813619E0,3.8610777E-1,-1.1815298E0,9.998766E-1,-5.481939E-1,3.309897E-1,-9.3110925E-1,1.1797688E0,2.3475464E-1,3.1688684E-1,-1.0720344E0,9.3170255E-1,-7.812297E-1,-1.4303868E0,-7.7427554E-1,-1.2979925E0,-2.4885803E-1,7.858178E-1,-8.92575E-1,5.5770373E-1,-6.751967E-1,1.0312592E0,-1.658396E-1,8.1886524E-1,-6.138661E-1,1.1918868E0,7.6460704E-2,1.1555301E0,1.3220627E0,9.0709E-1,-8.229063E-1,1.0754355E-1,1.2706362E0,-2.2393328E-1,-1.3304096E0,3.6214313E-1,-6.2707126E-1,8.3113086E-1,-6.170155E-1,1.4720308E0,5.2239746E-1,7.923241E-2,-1.2761014E0,7.823254E-1,-5.272831E-1,-1.0171585E0,-1.3153371E0,-4.8285696E-1,1.0719717E0,1.7451552E-1,-1.2229726E0,-4.2174423E-1,1.219314E0,-8.5918313E-1,1.6032603E-2,1.0232623E0,-8.4524834E-1,-3.7528372E-1,-1.1756902E0,1.2256021E0,3.845625E-1,-7.5199896E-1,8.280954E-1,-3.707632E-1,-1.2096399E0],"categories":[],"categories_nodes":[],"categories_segments":[],"categories_sizes":[],"default_left":[1,1,1,1,1,1,1,1,1,1,1,1,1,1,1,1,1,1,1,1,1,1,1,1,1,1,1,1,1,1,1,1,1,1,0,1,1,1,1,1,1,1,1,0,0,1,0,1,1,1,1,0,1,1,1,1,1,0,0,1,1,0,1,0,0,0,0,0,0,0,0,0,0,0,0,0,0,0,0,0,0,0,0,0,0,0,0,0,0,0,0,0,0,0,0,0,0,0,0,0,0,0,0,0,0,0,0,0,0,0,0,0,0,0,0,0,0],"id":2,"left_children":[1,3,5,7,9,11,13,15,17,19,21,23,25,27,29,31,33,35,37,39,41,43,45,47,49,51,53,55,57,59,61,63,65,67,69,71,73,75,77,79,81,83,85,-1,-1,87,-1,89,91,93,95,-1,97,99,101,103,105,107,109,111,113,-1,115,-1,-1,-1,-1,-1,-1,-1,-1,-1,-1,-1,-1,-1,-1,-1,-1,-1,-1,-1,-1,-1,-1,-1,-1,-1,-1,-1,-1,-1,-1,-1,-1,-1,-1,-1,-1,-1,-1,-1,-1,-1,-1,-1,-1,-1,-1,-1,-1,-1,-1,-1,-1,-1,-1],"loss_changes":[1.02307385E3,2.0702173E2,2.663413E2,9.7824295E1,1.5430908E1,4.7730896E1,7.683173E1,2.255275E1,3.5829773E1,1.13116455E1,6.0521097E0,2.1466259E1,2.0164673E1,2.6734364E1,3.1853432E1,2.4506779E1,1.6457884E1,1.0500183E1,7.509904E0,7.469116E0,1.3220946E1,2.904118E0,4.2674007E0,5.5587883E0,6.912472E0,2.5298462E0,3.6954643E1,5.851844E0,1.3765554E1,9.108192E0,3.81047E0,1.3586271E1,6.633911E-1,1.0294943E0,8.905357E0,5.3952026E0,7.2647324E0,5.597705E0,8.929732E-1,2.1425781E0,6.2937574E0,2.0626383E0,6.075964E-1,0E0,0E0,1.1316416E0,0E0,2.7304099E0,1.9130707E-1,5.165696E0,4.178081E0,0E0,1.5379639E0,1.4355957E1,2.6901283E0,4.790615E0,5.925733E-1,9.756032E0,6.342205E0,2.7578964E0,8.331904E0,0E0,3.8024616E-1,0E0,0E0,0E0,0E0,0E0,0E0,0E0,0E0,0E0,0E0,0E0,0E0,0E0,0E0,0E0,0E0,0E0,0E0,0E0,0E0,0E0,0E0,0E0,0E0,0E0,0E0,0E0,0E0,0E0,0E0,0E0,0E0,0E0,0E0,0E0,0E0,0E0,0E0,0E0,0E0,0E0,0E0,0E0,0E0,0E0,0E0,0E0,0E0,0E0,0E0,0E0,0E0,0E0,0E0],"parents":[2147483647,0,0,1,1,2,2,3,3,4,4,5,5,6,6,7,7,8,8,9,9,10,10,11,11,12,12,13,13,14,14,15,15,16,16,17,17,18,18,19,19,20,20,21,21,22,22,23,23,24,24,25,25,26,26,27,27,28,28,29,29,30,30,31,31,32,32,33,33,34,34,35,35,36,36,37,37,38,38,39,39,40,40,41,41,42,42,45,45,47,47,48,48,49,49,50,50,52,52,53,53,54,54,55,55,56,56,57,57,58,58,59,59,60,60,62,62],"right_children":[2,4,6,8,10,12,14,16,18,20,22,24,26,28,30,32,34,36,38,40,42,44,46,48,50,52,54,56,58,60,62,64,66,68,70,72,74,76,78,80,82,84,86,-1,-1,88,-1,90,92,94,96,-1,98,100,102,104,106,108,110,112,114,-1,116,-1,-1,-1,-1,-1,-1,-1,-1,-1,-1,-1,-1,-1,-1,-1,-1,-1,-1,-1,-1,-1,-1,-1,-1,-1,-1,-1,-1,-1,-1,-1,-1,-1,-1,-1,-1,-1,-1,-1,-1,-1,-1,-1,-1,-1,-1,-1,-1,-1,-1,-1,-1,-1,-1],"split_conditions":[6.0731914E-2,1.2666078E1,1.0985774E3,7.196273E2,9.288864E0,3.1543844E4,4.006073E1,4.3948276E3,4.122769E-2,4.366603E0,9.399667E2,5.1756487E0,5.0795326E1,3.792165E4,3.574121E-1,6.292855E2,4.1061084E2,1.2108285E0,2.9458948E3,4.522069E0,4.324278E-2,5.866964E-2,1.1281202E1,1.1717506E1,7.343651E2,1.9823067E0,1.6095552E-1,1.618742E1,2.910705E0,1.4210567E1,3.7763492E4,5.213495E4,6.5132043E2,3.982175E2,2.1282766E0,9.976649E-1,4.3969035E0,2.860509E4,6.3165414E4,3.0188272E1,1.460002E0,1.2058032E3,7.8136E4,-3.530182E-1,1.1394004E-1,1.0138767E1,3.5657465E-1,2.0720102E4,3.0541308E0,6.896245E2,1.0932827E1,4.4694297E-2,2.9753954E0,2.9786624E3,6.288739E2,3.5684853E0,2.5946755E0,1.6240112E0,9.198215E-1,2.3437014E-1,1.6272549E3,9.5066056E-2,4.5205994E0,2.7951077E-1,-2.343689E-1,-4.2911604E-1,-2.3228267E-1,-3.8939777E-1,-7.465741E-2,2.3574536E-1,-2.6777253E-1,1.6731113E-1,-2.0255902E-1,3.0937776E-1,-4.975188E-2,2.4565957E-1,-1.8415983E-1,3.5756606E-1,2.2938212E-2,3.4665903E-1,3.9661884E-1,2.72127E-1,-2.468719E-1,3.2263067E-2,3.8119087E-1,-6.7179985E-2,-3.9912292E-1,1.0864294E-1,-1.881214E-1,2.4933927E-1,-1.8510465E-1,4.4160923E-1,1.5671924E-1,2.3769723E-2,-3.828304E-1,2.3469763E-1,-1.5818493E-1,-3.0514756E-1,-3.9460114E-1,-1.448571E-1,3.215915E-1,5.2354656E-2,-3.668918E-1,-1.2652327E-1,3.657942E-1,-2.5775495E-1,4.809781E-3,3.069787E-1,-2.5357452E-1,-1.1258512E-1,-3.5270706E-1,3.6768067E-1,1.1536875E-1,-2.2559969E-1,2.4842863E-1,-1.11228965E-1,-3.6289197E-1],"split_indices":[0,3,2,2,1,5,3,4,0,6,2,1,3,5,0,4,2,3,2,8,0,0,1,3,2,8,0,1,1,1,5,5,2,2,7,7,6,5,5,3,1,2,5,0,0,1,0,5,8,4,1,0,1,4,4,3,6,7,7,0,2,0,1,0,0,0,0,0,0,0,0,0,0,0,0,0,0,0,0,0,0,0,0,0,0,0,0,0,0,0,0,0,0,0,0,0,0,0,0,0,0,0,0,0,0,0,0,0,0,0,0,0,0,0,0,0,0],"split_type":[0,0,0,0,0,0,0,0,0,0,0,0,0,0,0,0,0,0,0,0,0,0,0,0,0,0,0,0,0,0,0,0,0,0,0,0,0,0,0,0,0,0,0,0,0,0,0,0,0,0,0,0,0,0,0,0,0,0,0,0,0,0,0,0,0,0,0,0,0,0,0,0,0,0,0,0,0,0,0,0,0,0,0,0,0,0,0,0,0,0,0,0,0,0,0,0,0,0,0,0,0,0,0,0,0,0,0,0,0,0,0,0,0,0,0,0,0],"sum_hessian":[1.6589465E3,1.0547983E3,6.0414825E2,2.5238185E2,8.0241644E2,4.2090384E2,1.8324442E2,8.907919E1,1.6330266E2,7.912517E2,1.1164768E1,3.5190334E1,3.857135E2,7.3824425E1,1.0941999E2,6.007468E1,2.9004509E1,1.3234598E2,3.0956676E1,7.800012E2,1.1250431E1,4.238651E0,6.9261174E0,1.3205095E1,2.1985237E1,3.2042365E2,6.528986E1,1.5006827E1,5.8817596E1,9.976758E1,9.652419E0,1.6535461E1,4.353922E1,7.368222E0,2.1636288E1,1.2384366E1,1.1996162E2,2.7530931E1,3.4257452E0,7.7336835E2,6.63291E0,7.5073056E0,3.7431257E0,3.1074328E0,1.131218E0,2.9507616E0,3.9753559E0,3.4930367E0,9.712059E0,1.4135547E1,7.8496895E0,1.04317E0,3.1938046E2,2.2219034E1,4.3070827E1,1.2708238E1,2.29859E0,9.919033E0,4.8898563E1,8.760032E1,1.2167253E1,2.0643895E0,7.5880294E0,8.060476E0,8.474984E0,3.7773155E1,5.7660656E0,5.6346545E0,1.7335676E0,1.8735168E1,2.9011183E0,7.0111275E0,5.3732386E0,1.14928986E2,5.0326266E0,2.1749322E0,2.5356E1,2.3259215E0,1.0998236E0,1.7632927E2,5.9703906E2,3.9384625E0,2.6944473E0,2.2814543E0,5.2258515E0,1.1192436E0,2.623882E0,1.1091837E0,1.841578E0,1.1287868E0,2.36425E0,7.9628773E0,1.7491815E0,3.5670993E0,1.0568448E1,4.2135987E0,3.636091E0,3.9916107E1,2.7946436E2,9.931795E0,1.2287239E1,1.1820519E0,4.188878E1,1.5760287E0,1.1132209E1,1.1448247E0,1.1537651E0,6.325958E0,3.593075E0,1.5716416E1,3.3182148E1,8.23147E1,5.2856255E0,4.4685106E0,7.6987424E0,1.8507173E0,5.7373123E0],"tree_param":{"num_deleted":"0","num_feature":"9","num_nodes":"117","size_leaf_vector":"0"}},{"base_weights":[3.4860605E-1,9.29341E-1,-4.6143308E-1,6.693788E-2,1.0948741E0,-9.390106E-1,3.197336E-1,-2.8937942E-1,7.465577E-1,7.209105E-1,1.1611035E0,-1.0811517E0,-3.0850947E-1,7.4374634E-1,-3.364421E-1,3.488149E-1,-5.5362207E-1,8.3084255E-1,-7.267443E-1,1.0391749E0,1.3321207E-1,1.1690733E0,5.244915E-1,8.700439E-1,-1.1039262E0,5.1578456E-1,-1.0542455E0,-5.5421156E-1,9.108907E-1,-7.5561035E-1,5.4265976E-1,-5.433042E-1,7.154363E-1,-1.04631156E-1,-9.571678E-1,8.903375E-1,-6.765688E-1,-9.351745E-2,1.0591643E0,-8.3400625E-1,4.4255823E-1,1.1735086E0,3.8833675E-1,-3.0604059E-1,8.296797E-1,1.024268E0,2.087106E-1,-1.1571465E0,-7.1267444E-1,9.256841E-1,-3.5986248E-1,5.119067E-1,-1.1253746E0,4.0273735E-1,-7.366102E-1,1.0036544E0,-3.7019712E-1,-8.0261864E-2,-1.013532E0,9.805756E-1,-2.408337E-1,5.2759963E-1,-1.0873654E0,9.0349495E-1,-6.235752E-1,8.694888E-2,-1.1625345E0,2.184662E-1,-1.101928E0,1.1243677E0,5.973839E-1,7.61327E-1,1.1441561E0,7.9080397E-1,-1.1172817E0,1.1343236E0,2.107571E-1,1.1774523E0,4.1769028E-1,-5.2859545E-1,1.0127139E0,2.8640124E-1,-7.5388956E-1,1.012329E0,-1.0022939E-1,-8.633847E-1,-1.1935709E0,-1.1593978E0,-2.626106E-1,6.8911694E-2,1.169662E0,3.3236656E-1,-1.2542144E0,-1.1883621E0,-9.620722E-2,6.741171E-1,-7.355731E-2,-1.495318E-1,-1.0297717E0,1.0431707E0,-9.1200197E-1,1.1911613E0,-1.200662E0,-5.1363915E-1,7.7832043E-1,-1.3070087E0,-2.787584E-1,1.0573987E0,-9.724236E-2,-1.0427763E0,2.1178761E-1],"categories":[],"categories_nodes":[],"categories_segments":[],"categories_sizes":[],"default_left":[1,1,1,1,1,1,1,1,1,1,1,1,1,1,1,1,0,1,0,1,1,1,1,1,1,1,1,1,1,1,1,1,0,1,1,1,0,0,1,1,1,1,1,1,1,0,0,1,1,1,0,0,1,1,0,1,0,1,1,1,1,0,0,0,0,0,0,0,0,0,0,0,0,0,0,0,0,0,0,0,0,0,0,0,0,0,0,0,0,0,0,0,0,0,0,0,0,0,0,0,0,0,0,0,0,0,0,0,0,0,0],"id":3,"left_children":[1,3,5,7,9,11,13,15,17,19,21,23,25,27,29,31,33,35,-1,37,39,41,43,45,47,49,51,53,55,57,59,61,63,65,67,69,-1,-1,71,73,75,77,79,81,83,-1,-1,85,87,89,91,-1,93,95,97,99,101,103,105,107,109,-1,-1,-1,-1,-1,-1,-1,-1,-1,-1,-1,-1,-1,-1,-1,-1,-1,-1,-1,-1,-1,-1,-1,-1,-1,-1,-1,-1,-1,-1,-1,-1,-1,-1,-1,-1,-1,-1,-1,-1,-1,-1,-1,-1,-1,-1,-1,-1,-1,-1],"loss_changes":[6.5706384E2,1.1603461E2,2.1799432E2,3.2190697E1,1.6061462E1,3.2143402E1,6.2055473E1,1.4922666E1,6.2780876E0,1.9555748E1,2.319458E0,1.4083679E1,4.2384502E1,2.9847565E1,3.279543E1,8.954241E0,1.1161688E1,4.5205555E0,0E0,1.6422119E0,1.1779607E1,1.5181885E0,2.5250728E0,1.9077706E-1,5.2628174E0,1.217835E1,4.593643E0,3.0984654E0,1.4656097E1,1.0357464E1,1.017163E1,5.349054E0,5.345976E0,6.2914915E0,5.790737E0,2.2395058E0,0E0,0E0,8.263397E-1,5.2966456E0,4.49901E0,1.1962891E0,3.2344847E0,1.0485897E0,1.2601595E0,0E0,0E0,1.7059631E0,7.2569885E0,4.6767864E0,7.3772078E0,0E0,2.14225E0,4.6531212E-1,2.2272553E0,9.456612E0,1.2901218E1,6.966465E0,8.968658E0,1.6572132E0,4.280769E0,0E0,0E0,0E0,0E0,0E0,0E0,0E0,0E0,0E0,0E0,0E0,0E0,0E0,0E0,0E0,0E0,0E0,0E0,0E0,0E0,0E0,0E0,0E0,0E0,0E0,0E0,0E0,0E0,0E0,0E0,0E0,0E0,0E0,0E0,0E0,0E0,0E0,0E0,0E0,0E0,0E0,0E0,0E0,0E0,0E0,0E0,0E0,0E0,0E0,0E0],"parents":[2147483647,0,0,1,1,2,2,3,3,4,4,5,5,6,6,7,7,8,8,9,9,10,10,11,11,12,12,13,13,14,14,15,15,16,16,17,17,19,19,20,20,21,21,22,22,23,23,24,24,25,25,26,26,27,27,28,28,29,29,30,30,31,31,32,32,33,33,34,34,35,35,38,38,39,39,40,40,41,41,42,42,43,43,44,44,47,47,48,48,49,49,50,50,52,52,53,53,54,54,55,55,56,56,57,57,58,58,59,59,60,60],"right_children":[2,4,6,8,10,12,14,16,18,20,22,24,26,28,30,32,34,36,-1,38,40,42,44,46,48,50,52,54,56,58,60,62,64,66,68,70,-1,-1,72,74,76,78,80,82,84,-1,-1,86,88,90,92,-1,94,96,98,100,102,104,106,108,110,-1,-1,-1,-1,-1,-1,-1,-1,-1,-1,-1,-1,-1,-1,-1,-1,-1,-1,-1,-1,-1,-1,-1,-1,-1,-1,-1,-1,-1,-1,-1,-1,-1,-1,-1,-1,-1,-1,-1,-1,-1,-1,-1,-1,-1,-1,-1,-1,-1,-1],"split_conditions":[5.132693E-2,7.026366E0,1.0035045E3,1.204124E3,1.6053585E1,4.4782433E1,7.104901E0,1.8434137E-2,4.3312626E0,2.7498081E-2,7.499152E0,1.893919E4,2.0408916E-1,7.078826E0,1.9563282E3,5.0612836E2,1.2839622E0,4.4526677E0,-2.180233E-1,4.552082E2,6.448203E2,4.5265656E0,3.2261625E-1,6.651874E2,3.9385088E3,7.558966E4,6.0324097E2,1.2622211E0,4.389137E0,4.4202406E4,7.377906E4,4.5115492E4,4.071354E0,4.4279757E0,3.028079E4,6.0102133E4,-2.0297065E-1,-2.8055238E-2,1.0601179E3,5.732278E2,3.6317746E4,4.5743384E0,3.472315E1,4.6634123E-2,3.3550773E0,3.0728042E-1,6.261318E-2,2.4497218E0,5.101315E2,5.900775E2,1.8176339E0,1.5357201E-1,9.524679E2,6.2173232E-2,8.8804454E-1,4.679411E0,1.6198684E0,5.5521088E1,3.2506758E3,4.100065E0,1.3347794E1,1.582799E-1,-3.2620963E-1,2.710485E-1,-1.8707258E-1,2.6084665E-2,-3.4876037E-1,6.553987E-2,-3.3057842E-1,3.373103E-1,1.7921518E-1,2.2839811E-1,3.4324685E-1,2.372412E-1,-3.351845E-1,3.402971E-1,6.322713E-2,3.5323572E-1,1.2530708E-1,-1.5857863E-1,3.0381417E-1,8.592038E-2,-2.2616687E-1,3.0369872E-1,-3.0068818E-2,-2.5901544E-1,-3.5807127E-1,-3.4781936E-1,-7.8783184E-2,2.067351E-2,3.5089862E-1,9.970997E-2,-3.7626433E-1,-3.5650864E-1,-2.8862165E-2,2.0223513E-1,-2.2067193E-2,-4.485954E-2,-3.0893153E-1,3.129512E-1,-2.736006E-1,3.5734838E-1,-3.6019862E-1,-1.5409175E-1,2.3349614E-1,-3.9210263E-1,-8.362752E-2,3.1721961E-1,-2.917271E-2,-3.1283292E-1,6.353629E-2],"split_indices":[0,3,2,2,3,3,1,0,6,0,1,5,0,3,2,2,7,8,0,2,2,6,7,2,4,5,4,1,8,5,5,5,7,6,5,5,0,0,2,4,5,8,3,0,8,0,0,1,2,2,7,0,2,0,7,6,7,3,4,6,3,0,0,0,0,0,0,0,0,0,0,0,0,0,0,0,0,0,0,0,0,0,0,0,0,0,0,0,0,0,0,0,0,0,0,0,0,0,0,0,0,0,0,0,0,0,0,0,0,0,0],"split_type":[0,0,0,0,0,0,0,0,0,0,0,0,0,0,0,0,0,0,0,0,0,0,0,0,0,0,0,0,0,0,0,0,0,0,0,0,0,0,0,0,0,0,0,0,0,0,0,0,0,0,0,0,0,0,0,0,0,0,0,0,0,0,0,0,0,0,0,0,0,0,0,0,0,0,0,0,0,0,0,0,0,0,0,0,0,0,0,0,0,0,0,0,0,0,0,0,0,0,0,0,0,0,0,0,0,0,0,0,0,0,0],"sum_hessian":[1.3948541E3,8.123298E2,5.825244E2,1.3103922E2,6.812905E2,3.613846E2,2.2113977E2,8.6344124E1,4.4695084E1,1.04291954E2,5.769986E2,2.9431833E2,6.70663E1,1.342534E2,8.688637E1,2.5188715E1,6.115541E1,4.2688995E1,2.0060887E0,6.715589E1,3.713606E1,5.6903827E2,7.96031E0,2.9664538E0,2.9135187E2,3.2001747E1,3.5064552E1,1.5051943E1,1.19201454E2,5.8928772E1,2.79576E1,7.1961126E0,1.7992603E1,2.9543814E1,3.1611599E1,4.146192E1,1.2270727E0,1.1008036E0,6.605509E1,8.588079E0,2.854798E1,5.6532367E2,3.7146108E0,2.1383264E0,5.821984E0,1.9604748E0,1.005979E0,2.547428E2,3.660908E1,2.1758991E1,1.0242755E1,1.2541099E0,3.381044E1,2.2162814E0,1.2835662E1,1.11354805E2,7.846649E0,1.6648117E1,4.2280655E1,1.7772514E1,1.0185085E1,2.4344723E0,4.7616405E0,1.6062012E1,1.9305913E0,2.5791021E1,3.7527914E0,3.4098856E0,2.8201714E1,2.147126E1,1.9990664E1,1.6875576E1,4.9179516E1,1.0090028E0,7.579077E0,6.1878943E0,2.2360085E1,5.618343E2,3.4893858E0,1.5669143E0,2.1476965E0,1.0757521E0,1.0625743E0,4.7921047E0,1.029879E0,3.0827032E1,2.2391576E2,1.758175E1,1.9027328E1,5.1070647E0,1.6651928E1,6.1280284E0,4.1147265E0,3.1714739E1,2.0957026E0,1.147265E0,1.0690165E0,4.7778053E0,8.057857E0,1.0955044E2,1.8043677E0,2.5736308E0,5.2730184E0,1.1330635E1,5.3174825E0,2.9656662E1,1.2623992E1,1.660772E1,1.1647947E0,3.2041667E0,6.980919E0],"tree_param":{"num_deleted":"0","num_feature":"9","num_nodes":"111","size_leaf_vector":"0"}},{"base_weights":[3.0496997E-1,7.180201E-1,-5.853902E-1,1.0328183E-1,1.022366E0,-8.1533575E-1,6.029104E-1,-2.8334495E-1,6.40823E-1,1.057819E0,1.8161291E-1,-9.5878595E-1,-1.0102914E-1,-8.612097E-2,9.604408E-1,2.3728366E-1,-6.2434673E-1,8.174371E-1,-1.8180883E-1,2.0984769E-1,1.0733864E0,-5.222281E-1,4.516701E-1,-8.413549E-2,-1.0407681E0,5.2087754E-1,-8.3843476E-1,3.8160428E-1,-1.0293919E0,1.0353352E0,-4.3257204E-1,-2.1868262E-1,6.0456526E-1,7.9364E-1,-7.2532445E-1,8.4936976E-1,-8.919757E-1,1.5679438E-1,-9.625319E-1,9.0018576E-1,-1.0302348E0,1.0802344E0,1.9054691E-1,2.5142598E-1,-1.007969E0,8.0387515E-1,-4.432878E-2,-6.218684E-1,5.9730583E-1,-7.062296E-1,-1.1232395E0,9.798398E-1,-2.6164485E-2,-1.7350446E-2,-1.0967752E0,6.065413E-1,-6.770086E-1,-1.1007364E0,-3.0801114E-1,1.0973976E0,9.5551066E-2,-4.644734E-1,5.8071274E-1,7.4976444E-1,-3.416742E-1,-8.686545E-3,9.688785E-1,-9.9395597E-1,-3.3500728E-1,5.8143295E-2,9.048407E-1,-2.0895702E-1,9.2466867E-1,-1.0814042E0,-2.1006389E-1,1.7242552E-1,9.954874E-1,-1.3266804E0,-4.8430607E-2,1.0876304E0,3.1963122E-1,6.4950967E-1,-6.2699E-1,-3.3520266E-1,7.661619E-1,-8.95941E-2,9.603757E-1,-9.5275235E-1,3.7412977E-1,7.889366E-1,-8.229446E-1,1.1660713E0,-3.830645E-2,-8.843309E-1,6.9922E-1,1.7290449E-1,-1.1314585E0,1.7017439E-1,1.065243E0,3.5929957E-1,-1.4561193E0,-3.6014482E-1,9.2163485E-1,-1.7922232E-1,-1.1388292E0,9.963694E-4,8.4194946E-1,-8.421018E-1,-1.8984382E-1,1.523365E-1,1.1230174E0,6.6525507E-1,-4.950577E-1],"categories":[],"categories_nodes":[],"categories_segments":[],"categories_sizes":[],"default_left":[1,1,1,1,1,1,1,1,1,1,1,1,1,1,1,1,1,1,0,1,1,1,1,1,1,1,1,0,1,1,0,1,1,1,1,1,0,1,1,1,1,1,1,1,0,1,1,1,1,1,1,1,0,1,1,0,1,0,0,1,1,0,0,0,0,0,0,0,0,0,0,0,0,0,0,0,0,0,0,0,0,0,0,0,0,0,0,0,0,0,0,0,0,0,0,0,0,0,0,0,0,0,0,0,0,0,0,0,0,0,0,0,0],"id":4,"left_children":[1,3,5,7,9,11,13,15,17,19,21,23,25,27,29,31,33,35,37,39,41,43,45,47,49,51,53,55,57,59,-1,61,63,65,67,69,-1,71,73,75,77,79,81,83,-1,85,87,89,91,93,95,97,99,101,103,105,107,-1,-1,109,111,-1,-1,-1,-1,-1,-1,-1,-1,-1,-1,-1,-1,-1,-1,-1,-1,-1,-1,-1,-1,-1,-1,-1,-1,-1,-1,-1,-1,-1,-1,-1,-1,-1,-1,-1,-1,-1,-1,-1,-1,-1,-1,-1,-1,-1,-1,-1,-1,-1,-1,-1,-1],"loss_changes":[4.2841223E2,1.487121E2,1.0141411E2,5.5153755E1,1.5662781E1,3.1656784E1,1.4976725E1,2.7585217E1,1.6270393E1,6.5095215E0,4.5562377E0,1.8408691E1,2.4716444E1,9.910153E0,4.609211E0,1.0496403E1,1.3985893E1,5.754059E0,5.5518713E0,9.86508E0,2.8214722E0,2.79627E0,2.9989479E0,8.870371E0,5.7111206E0,7.3915224E0,5.2003E0,4.0183263E0,4.2906284E-2,2.1200447E0,0E0,5.839013E0,5.0021296E0,9.5093536E-1,8.88903E0,3.9136047E0,0E0,4.4369245E0,3.3818722E-1,3.3052444E-1,1.1581264E0,2.44635E0,2.3090029E0,1.2865529E0,0E0,1.4803543E0,3.394273E0,4.4657893E0,3.927308E0,1.296327E1,2.192398E0,9.236555E-1,8.437569E0,2.5544887E0,5.174923E-1,1.8555951E0,9.1680884E-2,0E0,0E0,6.9301605E-1,1.493022E0,0E0,0E0,0E0,0E0,0E0,0E0,0E0,0E0,0E0,0E0,0E0,0E0,0E0,0E0,0E0,0E0,0E0,0E0,0E0,0E0,0E0,0E0,0E0,0E0,0E0,0E0,0E0,0E0,0E0,0E0,0E0,0E0,0E0,0E0,0E0,0E0,0E0,0E0,0E0,0E0,0E0,0E0,0E0,0E0,0E0,0E0,0E0,0E0,0E0,0E0,0E0,0E0],"parents":[2147483647,0,0,1,1,2,2,3,3,4,4,5,5,6,6,7,7,8,8,9,9,10,10,11,11,12,12,13,13,14,14,15,15,16,16,17,17,18,18,19,19,20,20,21,21,22,22,23,23,24,24,25,25,26,26,27,27,28,28,29,29,31,31,32,32,33,33,34,34,35,35,37,37,38,38,39,39,40,40,41,41,42,42,43,43,45,45,46,46,47,47,48,48,49,49,50,50,51,51,52,52,53,53,54,54,55,55,56,56,59,59,60,60],"right_children":[2,4,6,8,10,12,14,16,18,20,22,24,26,28,30,32,34,36,38,40,42,44,46,48,50,52,54,56,58,60,-1,62,64,66,68,70,-1,72,74,76,78,80,82,84,-1,86,88,90,92,94,96,98,100,102,104,106,108,-1,-1,110,112,-1,-1,-1,-1,-1,-1,-1,-1,-1,-1,-1,-1,-1,-1,-1,-1,-1,-1,-1,-1,-1,-1,-1,-1,-1,-1,-1,-1,-1,-1,-1,-1,-1,-1,-1,-1,-1,-1,-1,-1,-1,-1,-1,-1,-1,-1,-1,-1,-1,-1,-1,-1],"split_conditions":[7.334964E-2,1.6051659E1,1.621886E3,1.1774296E3,7.882944E0,8.647013E1,3.8164803E1,2.7827255E-2,4.5912124E-2,4.8967572E2,8.304192E2,3.3119523E4,2.83989E-1,1.4590208E1,4.280141E0,3.2870877E0,2.4378045E4,4.58441E0,1.9638696E0,1.6959693E0,4.5743384E0,1.0800695E1,7.1428734E4,7.6326917E2,4.553297E0,5.6340758E4,4.4066547E4,2.5536098E0,3.001478E3,3.407248E0,-1.2977162E-1,1.5450076E0,3.987898E0,3.6500183E2,2.7759482E3,1.2461603E0,-2.6759273E-1,3.3042989E0,1.1208238E1,2.8429877E2,4.167904E1,4.4560933E0,1.460002E0,1.2061336E0,-3.0239072E-1,2.160949E1,3.894769E3,1.716919E4,7.096259E0,3.6245264E3,2.0648012E0,1.0750508E2,1.8134329E0,4.0205477E4,1.5976067E0,5.166435E-1,3.2741177E0,-3.3022094E-1,-9.2403345E-2,7.580482E-2,2.718186E3,-1.3934202E-1,1.7421383E-1,2.2492935E-1,-1.02502264E-1,-2.6059637E-3,2.9066357E-1,-2.981868E-1,-1.00502186E-1,1.744299E-2,2.7145222E-1,-6.268711E-2,2.774006E-1,-3.244213E-1,-6.301917E-2,5.172766E-2,2.9864624E-1,-3.9800414E-1,-1.4529183E-2,3.2628912E-1,9.588937E-2,1.948529E-1,-1.8809702E-1,-1.0056081E-1,2.2984858E-1,-2.6878232E-2,2.8811273E-1,-2.8582573E-1,1.12238936E-1,2.36681E-1,-2.4688338E-1,3.498214E-1,-1.1491935E-2,-2.652993E-1,2.0976602E-1,5.187135E-2,-3.3943757E-1,5.105232E-2,3.1957293E-1,1.07789874E-1,-4.368358E-1,-1.08043455E-1,2.7649048E-1,-5.3766698E-2,-3.416488E-1,2.9891083E-4,2.5258484E-1,-2.5263056E-1,-5.6953147E-2,4.570095E-2,3.3690524E-1,1.9957653E-1,-1.4851731E-1],"split_indices":[0,3,2,2,1,3,3,0,0,2,2,5,0,1,6,3,5,8,7,1,8,1,5,2,1,5,5,7,2,7,0,1,6,2,4,3,0,8,3,2,3,6,1,7,0,3,4,5,1,4,8,3,7,5,1,7,6,0,0,0,2,0,0,0,0,0,0,0,0,0,0,0,0,0,0,0,0,0,0,0,0,0,0,0,0,0,0,0,0,0,0,0,0,0,0,0,0,0,0,0,0,0,0,0,0,0,0,0,0,0,0,0,0],"split_type":[0,0,0,0,0,0,0,0,0,0,0,0,0,0,0,0,0,0,0,0,0,0,0,0,0,0,0,0,0,0,0,0,0,0,0,0,0,0,0,0,0,0,0,0,0,0,0,0,0,0,0,0,0,0,0,0,0,0,0,0,0,0,0,0,0,0,0,0,0,0,0,0,0,0,0,0,0,0,0,0,0,0,0,0,0,0,0,0,0,0,0,0,0,0,0,0,0,0,0,0,0,0,0,0,0,0,0,0,0,0,0,0,0],"sum_hessian":[1.1627697E3,7.944207E2,3.6834894E2,2.635083E2,5.309124E2,3.0889014E2,5.945881E1,1.5354434E2,1.0996397E2,5.091829E2,2.1729502E1,2.5694672E2,5.1943424E1,2.057188E1,3.888693E1,6.0887608E1,9.265673E1,9.053332E1,1.943065E1,9.440283E0,4.997426E2,5.7665544E0,1.5962946E1,2.2193642E1,2.3475307E2,2.8337786E1,2.3605639E1,1.4150658E1,6.4212236E0,3.7146538E1,1.7403905E0,2.7344738E1,3.354287E1,5.7036247E0,8.695311E1,8.936702E1,1.1662962E0,1.4110171E1,5.320479E0,6.240415E0,3.1998675E0,4.956742E2,4.068418E0,2.410178E0,3.3563764E0,8.971578E0,6.991369E0,1.2453707E1,9.739936E0,4.831809E1,1.8643498E2,1.4979222E1,1.3358563E1,5.9049788E0,1.7700659E1,1.2023016E1,2.1276417E0,5.3647733E0,1.0564502E0,3.468806E1,2.4584801E0,2.1234667E1,6.110072E0,2.926052E1,4.2823496E0,1.1928068E0,4.510818E0,5.058915E1,3.6363956E1,5.9890156E0,8.3378006E1,1.005072E1,4.0594506E0,4.2171283E0,1.1033504E0,1.0478541E0,5.192561E0,2.1879659E0,1.0119016E0,4.904749E2,5.1992884E0,2.7372582E0,1.3311598E0,1.2894354E0,1.1207427E0,1.4009576E0,7.5706196E0,1.8021982E0,5.189171E0,1.1888492E0,1.1264857E1,4.699825E0,5.0401115E0,4.3212856E1,5.1052322E0,1.0485079E0,1.8538647E2,1.7147871E0,1.3264436E1,1.1111925E1,2.246639E0,4.7773647E0,1.1276143E0,1.0063089E0,1.6694351E1,3.6467206E0,8.376295E0,1.0449473E0,1.0826944E0,1.0988748E0,3.3589184E1,1.1870538E0,1.2714264E0],"tree_param":{"num_deleted":"0","num_feature":"9","num_nodes":"113","size_leaf_vector":"0"}},{"base_weights":[2.6829606E-1,7.745389E-1,-3.1205282E-1,2.2711666E-1,9.9154705E-1,-7.5193745E-1,2.294513E-1,-2.7252746E-1,4.6670315E-1,7.8689295E-1,1.0595865E0,-8.651693E-1,-2.2617308E-2,-1.4466392E-1,6.952374E-1,1.4726418E-1,-8.260272E-1,8.408455E-1,2.3474893E-1,1.0864937E-1,9.1875255E-1,9.7570635E-2,1.0629885E0,6.73692E-2,-9.607166E-1,-6.1441845E-1,7.0197177E-1,5.9913237E-2,-9.2910945E-1,8.1517804E-1,-8.2536936E-1,3.639069E-1,-1.0545453E0,4.620306E-1,-1.0385253E0,9.259248E-1,-2.7179515E-1,-3.0981728E-1,4.872174E-1,7.4838287E-1,-6.3354933E-1,9.4410914E-1,1.10557795E-1,1.0671442E0,2.988067E-1,-3.210592E-1,8.9776224E-1,-5.1399535E-1,-1.0440118E0,1.1230041E-1,-8.4057975E-1,1.0742829E0,-3.4036207E-1,3.2996103E-1,-3.8159233E-1,7.789509E-1,-1.0656003E0,1.0673447E0,4.290287E-1,9.273012E-2,-9.986277E-1,1.1086617E0,1.3499996E-1,8.552839E-1,-2.4688466E-1,-2.6233512E-1,-1.153147E0,4.7773963E-1,1.1116316E0,-1.0400434E0,6.5337086E-1,5.4553354E-1,-1.1296926E0,-4.9404088E-1,6.7050713E-1,1.0189638E0,-5.5177164E-1,-1.2097487E0,1.0747569E-1,1.0711151E0,7.62335E-1,-7.922506E-1,7.905686E-1,1.0852827E0,8.7144727E-1,1.9042325E-1,-9.3560505E-1,1.0287795E0,1.3058177E-1,6.615432E-1,-7.377261E-1,-1.0956576E0,-6.548919E-1,-9.468456E-1,1.087E0,1.3963293E-1,-9.3561023E-1,1.8289632E-1,1.2110064E0,-7.6546746E-1,6.743719E-1,4.3747213E-1,-1.0211241E0,5.857333E-1,-7.9666734E-1,-1.1391534E0,5.9955966E-2,1.971311E-1,1.0812517E0,-9.9298924E-1,7.574826E-1],"categories":[],"categories_nodes":[],"categories_segments":[],"categories_sizes":[],"default_left":[1,1,1,1,1,1,1,0,1,1,1,1,1,1,1,1,1,1,1,1,1,0,1,1,1,1,1,0,1,1,1,1,0,1,1,1,1,1,1,1,1,1,1,1,0,1,1,1,1,1,1,1,1,1,1,0,1,0,1,0,0,0,0,0,0,0,0,0,0,0,0,0,0,0,0,0,0,0,0,0,0,0,0,0,0,0,0,0,0,0,0,0,0,0,0,0,0,0,0,0,0,0,0,0,0,0,0,0,0,0,0],"id":5,"left_children":[1,3,5,7,9,11,13,15,17,19,21,23,25,27,29,31,33,35,37,39,41,-1,43,45,47,49,51,53,55,57,59,61,-1,63,65,67,69,71,73,75,77,79,81,83,-1,85,87,89,91,93,95,97,99,101,103,-1,105,107,109,-1,-1,-1,-1,-1,-1,-1,-1,-1,-1,-1,-1,-1,-1,-1,-1,-1,-1,-1,-1,-1,-1,-1,-1,-1,-1,-1,-1,-1,-1,-1,-1,-1,-1,-1,-1,-1,-1,-1,-1,-1,-1,-1,-1,-1,-1,-1,-1,-1,-1,-1,-1],"loss_changes":[2.8488913E2,6.128131E1,1.0786305E2,1.7877258E1,4.324951E0,2.060054E1,3.5546436E1,1.1434668E1,8.532154E0,8.514572E0,7.9681396E-1,1.9320343E1,1.5261068E1,1.829156E1,1.722895E1,7.813837E0,6.269143E0,3.8591042E0,8.878684E0,8.456832E0,1.5455246E0,0E0,5.5148315E-1,7.06787E0,6.7598267E0,3.310701E0,6.5802937E0,1.0983756E1,6.323971E0,7.784134E0,1.227335E0,4.099064E0,0E0,1.2391382E0,1.340189E0,2.4343185E0,3.1530266E0,1.5146481E1,8.201959E0,3.9000697E0,3.684384E0,9.825287E-1,2.825231E0,2.053833E-2,0E0,4.9110146E0,5.654373E-1,9.110996E0,2.5843506E0,6.7347994E0,1.5318422E0,1.2458792E0,2.6618638E0,8.732506E0,1.4529942E1,0E0,1.9098396E0,3.984108E-1,1.7151123E1,0E0,0E0,0E0,0E0,0E0,0E0,0E0,0E0,0E0,0E0,0E0,0E0,0E0,0E0,0E0,0E0,0E0,0E0,0E0,0E0,0E0,0E0,0E0,0E0,0E0,0E0,0E0,0E0,0E0,0E0,0E0,0E0,0E0,0E0,0E0,0E0,0E0,0E0,0E0,0E0,0E0,0E0,0E0,0E0,0E0,0E0,0E0,0E0,0E0,0E0,0E0,0E0],"parents":[2147483647,0,0,1,1,2,2,3,3,4,4,5,5,6,6,7,7,8,8,9,9,10,10,11,11,12,12,13,13,14,14,15,15,16,16,17,17,18,18,19,19,20,20,22,22,23,23,24,24,25,25,26,26,27,27,28,28,29,29,30,30,31,31,33,33,34,34,35,35,36,36,37,37,38,38,39,39,40,40,41,41,42,42,43,43,45,45,46,46,47,47,48,48,49,49,50,50,51,51,52,52,53,53,54,54,56,56,57,57,58,58],"right_children":[2,4,6,8,10,12,14,16,18,20,22,24,26,28,30,32,34,36,38,40,42,-1,44,46,48,50,52,54,56,58,60,62,-1,64,66,68,70,72,74,76,78,80,82,84,-1,86,88,90,92,94,96,98,100,102,104,-1,106,108,110,-1,-1,-1,-1,-1,-1,-1,-1,-1,-1,-1,-1,-1,-1,-1,-1,-1,-1,-1,-1,-1,-1,-1,-1,-1,-1,-1,-1,-1,-1,-1,-1,-1,-1,-1,-1,-1,-1,-1,-1,-1,-1,-1,-1,-1,-1,-1,-1,-1,-1,-1,-1],"split_conditions":[4.5168914E-2,1.2473507E1,9.524679E2,6.7848773E2,3.0196041E1,4.4933315E3,6.036593E1,1.3826066E0,1.8490892E-2,8.564281E2,1.3206295E-3,2.9786406E4,2.13623E1,1.6611905E-1,5.453849E-1,4.420635E0,3.061154E4,1.1012775E4,2.47759E3,2.8057927E-2,6.6778636E0,2.9271191E-2,4.5576396E0,3.8390945E1,6.797643E2,4.4532976E0,1.2980913E1,1.5668383E0,3.3819227E4,5.845951E4,1.1050345E2,6.261079E2,-3.163636E-1,4.9834583E2,1.4528532E-2,2.8064814E0,4.525922E-1,4.2929305E4,1.2022961E0,3.7454271E0,4.1556924E3,9.0937257E-1,7.7757235E0,2.4259727E0,8.964201E-2,9.3599365E2,3.2173023E-1,4.7650594E4,8.3536816E2,5.26078E0,2.3072562E0,2.3581476E0,7.8263135E2,4.6247215E0,3.9475E4,2.3368528E-1,5.689583E3,2.3324333E-2,2.4408057E3,2.7819037E-2,-2.9958832E-1,3.325985E-1,4.049999E-2,2.5658518E-1,-7.40654E-2,-7.870054E-2,-3.459441E-1,1.433219E-1,3.334895E-1,-3.1201303E-1,1.9601126E-1,1.6366006E-1,-3.3890778E-1,-1.4821227E-1,2.0115215E-1,3.0568916E-1,-1.655315E-1,-3.6292464E-1,3.2242708E-2,3.2133454E-1,2.287005E-1,-2.3767518E-1,2.3717059E-1,3.2558483E-1,2.614342E-1,5.7126977E-2,-2.8068152E-1,3.0863386E-1,3.917453E-2,1.9846296E-1,-2.2131784E-1,-3.286973E-1,-1.9646758E-1,-2.8405368E-1,3.2610002E-1,4.188988E-2,-2.8068307E-1,5.4868896E-2,3.6330193E-1,-2.2964025E-1,2.0231158E-1,1.3124165E-1,-3.0633724E-1,1.7571999E-1,-2.3900022E-1,-3.4174603E-1,1.7986791E-2,5.913933E-2,3.2437554E-1,-2.9789677E-1,2.2724478E-1],"split_indices":[0,3,2,2,3,4,3,7,0,2,0,5,3,0,0,6,5,4,4,0,1,0,6,3,4,1,1,7,5,5,3,4,0,4,0,8,1,5,3,6,4,7,1,7,0,4,0,5,2,3,8,6,2,6,5,0,4,7,4,0,0,0,0,0,0,0,0,0,0,0,0,0,0,0,0,0,0,0,0,0,0,0,0,0,0,0,0,0,0,0,0,0,0,0,0,0,0,0,0,0,0,0,0,0,0,0,0,0,0,0,0],"split_type":[0,0,0,0,0,0,0,0,0,0,0,0,0,0,0,0,0,0,0,0,0,0,0,0,0,0,0,0,0,0,0,0,0,0,0,0,0,0,0,0,0,0,0,0,0,0,0,0,0,0,0,0,0,0,0,0,0,0,0,0,0,0,0,0,0,0,0,0,0,0,0,0,0,0,0,0,0,0,0,0,0,0,0,0,0,0,0,0,0,0,0,0,0,0,0,0,0,0,0,0,0,0,0,0,0,0,0,0,0,0,0],"sum_hessian":[9.6785583E2,5.167533E2,4.5110254E2,1.4727806E2,3.6947528E2,2.4869191E2,2.0241061E2,4.7688625E1,9.9589424E1,9.532243E1,2.7415283E2,2.151086E2,3.3583317E1,1.1263368E2,8.977694E1,2.7537363E1,2.0151264E1,3.7108437E1,6.248099E1,1.5812418E1,7.951002E1,1.0706838E0,2.7308215E2,2.001898E1,1.9508961E2,1.8569172E1,1.5014146E1,9.006823E1,2.2565453E1,8.364333E1,6.133608E0,2.3922249E1,3.6151137E0,2.6873865E0,1.7463877E1,3.4628357E1,2.4800816E0,1.9719507E1,4.2761482E1,8.48795E0,7.3244677E0,7.692827E1,2.581745E0,2.7121088E2,1.8712779E0,1.4056986E1,5.961994E0,3.1786404E1,1.633032E2,4.52679E0,1.4042381E1,1.1040087E1,3.9740584E0,5.6042416E1,3.4025814E1,1.3214686E0,2.1243984E1,4.953287E1,3.4110462E1,1.0475274E0,5.08608E0,4.720545E0,1.9201704E1,1.5957274E0,1.0916591E0,2.670256E0,1.4793621E1,1.1191448E1,2.3436907E1,1.2871097E0,1.1929718E0,9.814721E0,9.904786E0,6.4634433E0,3.629804E1,7.204802E0,1.2831489E0,3.764651E0,3.5598166E0,4.2406322E1,3.452195E1,1.038258E0,1.5434871E0,2.4404524E2,2.7165625E1,8.048452E0,6.0085335E0,4.8010883E0,1.1609058E0,4.769477E0,2.7016928E1,1.4256552E2,2.0737698E1,2.1831129E0,2.343677E0,1.1995912E0,1.284279E1,1.7790508E0,9.261036E0,2.9738586E0,1.0001999E0,5.253797E1,3.5044446E0,1.0093026E1,2.3932787E1,1.9929543E1,1.314441E0,1.0178459E0,4.8515026E1,6.0207653E0,2.8089697E1],"tree_param":{"num_deleted":"0","num_feature":"9","num_nodes":"111","size_leaf_vector":"0"}},{"base_weights":[2.3531286E-1,5.9004253E-1,-4.3303105E-1,-1.3563792E-1,7.9684806E-1,-6.517569E-1,3.7672493E-1,2.0762617E-2,-9.893588E-1,8.528775E-1,-5.327275E-1,-9.676369E-1,-4.1963717E-1,7.8909206E-1,-3.7815064E-2,1.647703E-1,-1.0598142E0,-3.363579E-1,-1.0960015E0,-8.839571E-2,8.825544E-1,-8.127333E-1,5.9826183E-1,-4.563191E-1,-1.0493187E0,-6.160041E-1,2.4828674E-1,9.8014927E-1,2.2848427E-1,-4.4423842E-1,4.696914E-1,-2.5539637E-2,4.8906955E-1,4.2259803E-1,-8.2648873E-1,7.036163E-1,-6.493396E-1,6.2900215E-1,9.7069263E-1,2.6954E-1,-9.297124E-1,8.836634E-1,-3.4250364E-2,-6.9549245E-1,9.49713E-1,-1.0705972E0,-3.4872618E-1,-8.549579E-3,-9.035837E-1,5.1463646E-1,-3.167018E-1,1.0863376E0,5.456475E-1,-1.9369353E-1,8.3679366E-1,-7.748772E-1,6.597155E-2,-4.946983E-1,5.956721E-1,-7.48468E-1,1.19353816E-1,7.0651716E-1,-5.669407E-1,9.4795275E-1,-1.12288445E-1,-1.0669252E0,4.899798E-1,2.6868555E-1,8.193668E-1,1.0245485E0,6.550348E-1,-1.0229851E0,7.421128E-2,5.7119226E-1,-8.688101E-1,-6.2350094E-1,-1.3039373E-2,9.020523E-1,-3.9259288E-1,-2.904623E-1,-9.9439263E-1,-2.2106099E-1,7.1915036E-1,5.8163357E-1,-6.3738364E-1,-2.619538E-2,8.9108235E-1,5.285341E-1,-7.391869E-1,-3.8146546E-1,-1.7084953E0,7.897289E-1,-4.0914547E-1,-2.773559E-1,6.934373E-1],"categories":[],"categories_nodes":[],"categories_segments":[],"categories_sizes":[],"default_left":[1,1,1,1,1,1,1,1,0,1,1,1,1,1,1,1,0,1,0,1,1,1,1,1,1,1,1,1,1,1,1,1,0,0,0,1,1,1,0,0,1,0,0,1,0,0,1,1,1,1,0,0,1,1,0,1,1,0,1,0,0,0,0,0,0,0,0,0,0,0,0,0,0,0,0,0,0,0,0,0,0,0,0,0,0,0,0,0,0,0,0,0,0,0,0],"id":6,"left_children":[1,3,5,7,9,11,13,15,17,19,21,23,25,27,29,31,-1,33,-1,35,37,39,41,43,45,47,49,51,53,55,57,59,61,-1,-1,63,65,67,69,-1,71,-1,-1,73,-1,-1,75,77,79,81,83,-1,85,87,-1,89,91,-1,93,-1,-1,-1,-1,-1,-1,-1,-1,-1,-1,-1,-1,-1,-1,-1,-1,-1,-1,-1,-1,-1,-1,-1,-1,-1,-1,-1,-1,-1,-1,-1,-1,-1,-1,-1,-1],"loss_changes":[1.9295898E2,7.985957E1,5.026334E1,1.5871033E1,3.1273163E1,1.5923599E1,1.0404714E1,1.5939529E1,9.127464E-1,1.1177795E1,5.978883E0,3.4291458E0,1.7222137E1,3.0398026E0,6.648291E0,5.5831747E0,0E0,1.8468932E0,0E0,6.2564874E0,8.000092E0,2.0643635E0,7.555771E-1,5.589825E0,8.1793976E-1,1.761184E1,4.7198105E0,4.4178772E-1,2.4860454E0,3.062457E0,2.0405324E0,6.14706E0,8.076872E0,0E0,0E0,1.2810953E0,4.405879E0,6.7918854E0,4.1581116E0,0E0,1.3076134E0,0E0,0E0,3.3731894E0,0E0,0E0,3.459386E-1,1.2040338E1,3.5219307E0,3.3126745E0,3.343903E0,0E0,1.2900887E0,2.8151326E0,0E0,3.3554487E0,3.0537202E0,0E0,1.3158355E0,0E0,0E0,0E0,0E0,0E0,0E0,0E0,0E0,0E0,0E0,0E0,0E0,0E0,0E0,0E0,0E0,0E0,0E0,0E0,0E0,0E0,0E0,0E0,0E0,0E0,0E0,0E0,0E0,0E0,0E0,0E0,0E0,0E0,0E0,0E0,0E0],"parents":[2147483647,0,0,1,1,2,2,3,3,4,4,5,5,6,6,7,7,8,8,9,9,10,10,11,11,12,12,13,13,14,14,15,15,17,17,19,19,20,20,21,21,22,22,23,23,24,24,25,25,26,26,27,27,28,28,29,29,30,30,31,31,32,32,35,35,36,36,37,37,38,38,40,40,43,43,46,46,47,47,48,48,49,49,50,50,52,52,53,53,55,55,56,56,58,58],"right_children":[2,4,6,8,10,12,14,16,18,20,22,24,26,28,30,32,-1,34,-1,36,38,40,42,44,46,48,50,52,54,56,58,60,62,-1,-1,64,66,68,70,-1,72,-1,-1,74,-1,-1,76,78,80,82,84,-1,86,88,-1,90,92,-1,94,-1,-1,-1,-1,-1,-1,-1,-1,-1,-1,-1,-1,-1,-1,-1,-1,-1,-1,-1,-1,-1,-1,-1,-1,-1,-1,-1,-1,-1,-1,-1,-1,-1,-1,-1,-1],"split_conditions":[4.2253323E0,7.026366E0,1.6839238E3,4.3680234E0,1.6786042E-1,5.8872864E2,6.0710266E4,4.494404E0,2.1272545E0,4.5614325E2,5.723441E2,5.661263E2,4.2462134E3,1.7808833E0,3.0613044E3,3.3088193E0,-3.179443E-1,3.9345406E-2,-3.2880047E-1,4.360604E2,2.362855E1,3.247227E4,3.323659E0,4.510877E1,8.299369E3,4.448858E4,1.2980913E1,1.0803835E1,6.1247787E1,3.4993136E0,4.3145356E3,4.1768408E2,2.2814093E0,1.2677942E-1,-2.4794663E-1,5.8073023E4,6.3609863E3,1.1348591E3,2.4259727E0,8.086201E-2,2.640339E3,2.6509905E-1,-1.027511E-2,5.1826835E0,2.849139E-1,-3.2117915E-1,4.0404852E2,1.1915349E3,5.846466E-2,7.377613E0,4.4815862E-1,3.2590127E-1,2.4266433E3,6.4197496E-2,2.510381E-1,3.366261E0,7.7862225E0,-1.4840949E-1,1.9209853E0,-2.245404E-1,3.5806146E-2,2.1195516E-1,-1.7008223E-1,2.8438583E-1,-3.3686534E-2,-3.2007757E-1,1.4699395E-1,8.060567E-2,2.4581005E-1,3.0736458E-1,1.9651045E-1,-3.0689555E-1,2.2263383E-2,1.7135769E-1,-2.6064304E-1,-1.8705028E-1,-3.911812E-3,2.706157E-1,-1.1777787E-1,-8.713869E-2,-2.983178E-1,-6.63183E-2,2.1574512E-1,1.7449008E-1,-1.912151E-1,-7.858614E-3,2.6732472E-1,1.5856025E-1,-2.2175607E-1,-1.14439644E-1,-5.125486E-1,2.3691867E-1,-1.22743644E-1,-8.320677E-2,2.0803119E-1],"split_indices":[1,3,2,8,0,2,5,6,7,2,3,4,4,7,2,8,0,0,0,4,3,5,6,3,4,5,1,1,3,8,4,2,7,0,0,5,4,2,7,0,4,0,0,1,0,0,2,4,0,3,7,0,2,0,0,8,1,0,3,0,0,0,0,0,0,0,0,0,0,0,0,0,0,0,0,0,0,0,0,0,0,0,0,0,0,0,0,0,0,0,0,0,0,0,0],"split_type":[0,0,0,0,0,0,0,0,0,0,0,0,0,0,0,0,0,0,0,0,0,0,0,0,0,0,0,0,0,0,0,0,0,0,0,0,0,0,0,0,0,0,0,0,0,0,0,0,0,0,0,0,0,0,0,0,0,0,0,0,0,0,0,0,0,0,0,0,0,0,0,0,0,0,0,0,0,0,0,0,0,0,0,0,0,0,0,0,0,0,0,0,0,0,0],"sum_hessian":[8.1181555E2,5.3041174E2,2.8140378E2,1.17710335E2,4.1270142E2,2.2171164E2,5.9692127E1,1.00309456E2,1.740088E1,3.9635715E2,1.6344297E1,9.256962E1,1.2914203E2,2.9471535E1,3.0220592E1,8.92612E1,1.1048259E1,3.0259957E0,1.4374886E1,1.2054099E1,3.8430304E2,1.3326397E1,3.0179E0,1.3658106E1,7.891151E1,9.986102E1,2.9281008E1,2.142235E1,8.049184E0,1.6850761E1,1.336983E1,5.683167E1,3.2429527E1,1.2414403E0,1.7845553E0,4.8922515E0,7.1618476E0,1.01228836E2,2.830742E2,1.1726885E0,1.2153709E1,1.805951E0,1.211949E0,1.2104431E1,1.5536757E0,7.6072876E1,2.8386314E0,3.2416775E1,6.7444244E1,1.996033E1,9.320678E0,1.6009565E1,5.4127855E0,5.1538825E0,2.8953013E0,9.909939E0,6.940823E0,1.2065835E0,1.2163247E1,8.793237E0,4.8038433E1,2.7166513E1,5.263016E0,3.6402695E0,1.2519821E0,5.28743E0,1.8744174E0,3.582733E1,6.5401505E1,2.3989822E2,4.3175972E1,1.1103149E1,1.0505595E0,1.1805794E0,1.0923851E1,1.0894659E0,1.7491657E0,9.215989E0,2.3200785E1,9.242124E0,5.820212E1,4.3241534E0,1.5636176E1,2.2378852E0,7.0827928E0,2.3864138E0,3.0263715E0,2.231065E0,2.9228175E0,7.9630322E0,1.9469061E0,2.4882436E0,4.4525795E0,1.0399243E0,1.11233225E1],"tree_param":{"num_deleted":"0","num_feature":"9","num_nodes":"95","size_leaf_vector":"0"}},{"base_weights":[2.0136793E-1,6.1330056E-1,-2.4282502E-1,1.3806586E-1,8.6317974E-1,-5.161814E-1,3.0979738E-1,-3.5084233E-2,6.913802E-1,6.127232E-1,9.5968527E-1,-8.1158215E-1,-1.9262893E-1,5.57116E-1,-6.046621E-1,-2.734062E-1,3.059292E-1,7.704584E-1,-4.0314662E-1,8.3011E-1,1.4939038E-1,9.674987E-1,9.3991704E-2,6.917303E-1,-8.4696347E-1,-1.2582219E-2,-8.9539087E-1,7.176677E-1,-1.7721722E-1,-6.786025E-3,-9.070701E-1,8.5219467E-1,-4.156905E-1,7.550032E-1,-4.954777E-3,7.497915E-2,8.584597E-1,8.681662E-1,-3.781655E-1,-3.9947224E-1,5.9774905E-1,1.0006803E0,6.719643E-1,-5.6961066E-1,-9.871036E-1,1.035887E-1,-9.3547934E-1,1.16535015E-1,-9.6613467E-1,2.6670015E-1,8.7573683E-1,3.1764778E-1,-6.435297E-1,5.382299E-1,-3.9959338E-1,-1.828564E-1,-1.011727E0,-4.375408E-3,1.0144347E0,4.236539E-1,-5.3561366E-1,-4.954582E-3,9.2375726E-1,2.9565433E-1,-7.823145E-1,7.6159394E-1,-5.1936513E-1,9.5669365E-1,4.520688E-2,4.1484007E-1,9.4914156E-1,5.025206E-1,-6.9418716E-1,-5.3306377E-1,7.8982866E-1,1.0057352E0,1.5143429E-1,8.973448E-1,-5.170327E-1,-7.3928285E-1,2.2236873E-1,-1.0299749E0,-2.9227436E-1,2.153612E-1,-7.479902E-1,-1.0511692E0,3.2997353E-3,-1.059419E0,-4.9938032E-1,8.9133495E-1,-7.202073E-1,-6.7311484E-1,9.278738E-1,-7.558122E-1,8.146556E-1,-9.556285E-1,4.3345517E-1,9.239718E-1,-9.543888E-2,1.8167454E-1,-7.8437364E-1,3.654245E-1,-5.945562E-1],"categories":[],"categories_nodes":[],"categories_segments":[],"categories_sizes":[],"default_left":[1,1,1,1,1,1,1,1,1,1,1,1,1,1,1,1,1,1,0,1,1,1,0,0,1,1,1,1,1,1,0,1,1,1,0,1,1,1,0,1,1,1,1,1,1,1,1,0,1,1,1,1,1,1,1,1,0,0,0,0,0,0,0,0,0,0,0,0,0,0,0,0,0,0,0,0,0,0,0,0,0,0,0,0,0,0,0,0,0,0,0,0,0,0,0,0,0,0,0,0,0,0,0],"id":7,"left_children":[1,3,5,7,9,11,13,15,17,19,21,23,25,27,29,31,33,35,-1,37,39,41,-1,-1,43,45,47,49,51,53,55,57,59,61,63,65,67,69,-1,71,73,75,77,79,81,83,85,-1,87,89,91,93,95,97,99,101,-1,-1,-1,-1,-1,-1,-1,-1,-1,-1,-1,-1,-1,-1,-1,-1,-1,-1,-1,-1,-1,-1,-1,-1,-1,-1,-1,-1,-1,-1,-1,-1,-1,-1,-1,-1,-1,-1,-1,-1,-1,-1,-1,-1,-1,-1,-1],"loss_changes":[1.26602295E2,4.2494446E1,5.049996E1,1.1985857E1,5.091934E0,2.1188938E1,2.5420559E1,7.889358E0,2.8904362E0,6.7380867E0,1.0445099E0,6.7788086E0,1.3640937E1,1.0481016E1,4.34937E0,9.493229E0,5.5856657E0,1.6579723E0,0E0,2.45051E0,5.892955E0,9.5796204E-1,0E0,0E0,3.8766556E0,9.414418E0,1.6868763E0,4.917576E0,4.0253177E0,2.1631343E0,1.0269842E0,9.3992805E-1,5.393794E0,2.1030016E0,5.9844837E0,2.1325896E0,1.9447765E0,1.2598419E0,0E0,3.2543025E0,3.254819E0,4.8059082E-1,5.7770815E0,5.6334553E0,1.9183426E0,7.5939245E0,1.069561E0,0E0,3.7057877E-1,1.3089926E1,4.9100456E0,5.258658E0,3.3907163E0,1.1239368E0,1.4536077E0,9.485413E-1,0E0,0E0,0E0,0E0,0E0,0E0,0E0,0E0,0E0,0E0,0E0,0E0,0E0,0E0,0E0,0E0,0E0,0E0,0E0,0E0,0E0,0E0,0E0,0E0,0E0,0E0,0E0,0E0,0E0,0E0,0E0,0E0,0E0,0E0,0E0,0E0,0E0,0E0,0E0,0E0,0E0,0E0,0E0,0E0,0E0,0E0,0E0],"parents":[2147483647,0,0,1,1,2,2,3,3,4,4,5,5,6,6,7,7,8,8,9,9,10,10,11,11,12,12,13,13,14,14,15,15,16,16,17,17,19,19,20,20,21,21,24,24,25,25,26,26,27,27,28,28,29,29,30,30,31,31,32,32,33,33,34,34,35,35,36,36,37,37,39,39,40,40,41,41,42,42,43,43,44,44,45,45,46,46,48,48,49,49,50,50,51,51,52,52,53,53,54,54,55,55],"right_children":[2,4,6,8,10,12,14,16,18,20,22,24,26,28,30,32,34,36,-1,38,40,42,-1,-1,44,46,48,50,52,54,56,58,60,62,64,66,68,70,-1,72,74,76,78,80,82,84,86,-1,88,90,92,94,96,98,100,102,-1,-1,-1,-1,-1,-1,-1,-1,-1,-1,-1,-1,-1,-1,-1,-1,-1,-1,-1,-1,-1,-1,-1,-1,-1,-1,-1,-1,-1,-1,-1,-1,-1,-1,-1,-1,-1,-1,-1,-1,-1,-1,-1,-1,-1,-1,-1],"split_conditions":[4.5168914E-2,1.2473507E1,4.224383E1,1.7243599E3,3.0196041E1,7.7958984E2,2.8119302E-1,4.175512E3,3.3037806E0,2.7834374E-2,4.5576396E0,1.893919E4,1.6450462E-1,1.2418677E1,4.4066547E4,2.2810496E4,1.9901918E-2,1.2272006E0,-1.2094399E-1,4.9699564E0,1.0949084E3,2.4259727E0,2.8197512E-2,2.075191E-1,5.339117E0,4.498829E0,3.0424754E4,1.913557E3,6.1113195E4,5.308944E-1,3.4046137E-1,3.5986145E2,5.8674866E2,1.4165695E0,1.5042953E0,5.5620117E4,1.1075111E4,2.375438E0,-1.13449655E-1,1.1067465E3,2.9046316E-2,4.5844183E0,3.2921534E0,3.786057E3,6.4457627E3,4.3390765E0,2.2277163E3,3.4960505E-2,1.6191226E3,5.773464E4,2.104796E-1,5.98192E1,2.6341572E3,8.7595034E-1,1.422843E3,1.073036E0,-3.0351812E-1,-1.3126225E-3,3.043304E-1,1.2709618E-1,-1.6068411E-1,-1.4863746E-3,2.7712718E-1,8.86963E-2,-2.3469435E-1,2.284782E-1,-1.5580955E-1,2.870081E-1,1.3562064E-2,1.24452025E-1,2.8474247E-1,1.507562E-1,-2.0825616E-1,-1.5991914E-1,2.3694861E-1,3.0172056E-1,4.5430288E-2,2.6920345E-1,-1.5510981E-1,-2.2178486E-1,6.671062E-2,-3.089925E-1,-8.768231E-2,6.460836E-2,-2.2439706E-1,-3.1535077E-1,9.899206E-4,-3.1782573E-1,-1.498141E-1,2.674005E-1,-2.1606219E-1,-2.0193446E-1,2.7836215E-1,-2.2674368E-1,2.4439669E-1,-2.8668857E-1,1.3003656E-1,2.7719155E-1,-2.8631667E-2,5.4502364E-2,-2.353121E-1,1.0962736E-1,-1.7836687E-1],"split_indices":[0,3,3,2,3,2,0,4,7,0,6,5,0,1,5,5,0,3,0,7,2,7,0,0,1,6,5,4,5,0,7,2,4,3,7,5,4,8,0,4,0,8,8,4,4,8,2,0,2,5,1,3,2,7,4,0,0,0,0,0,0,0,0,0,0,0,0,0,0,0,0,0,0,0,0,0,0,0,0,0,0,0,0,0,0,0,0,0,0,0,0,0,0,0,0,0,0,0,0,0,0,0,0],"split_type":[0,0,0,0,0,0,0,0,0,0,0,0,0,0,0,0,0,0,0,0,0,0,0,0,0,0,0,0,0,0,0,0,0,0,0,0,0,0,0,0,0,0,0,0,0,0,0,0,0,0,0,0,0,0,0,0,0,0,0,0,0,0,0,0,0,0,0,0,0,0,0,0,0,0,0,0,0,0,0,0,0,0,0,0,0,0,0,0,0,0,0,0,0,0,0,0,0,0,0,0,0,0,0],"sum_hessian":[6.9008673E2,3.578477E2,3.3223904E2,1.2385176E2,2.3399593E2,2.2232918E2,1.09909874E2,9.504552E1,2.880625E1,6.712876E1,1.6686716E2,1.1543219E2,1.0689699E2,8.6819916E1,2.308996E1,5.6063213E1,3.89823E1,2.7141397E1,1.6648518E0,4.515248E1,2.1976278E1,1.6525801E2,1.6091578E0,2.2277284E0,1.1320446E2,8.590591E1,2.0991081E1,7.126214E1,1.555778E1,8.099423E0,1.4990537E1,5.7315965E0,5.033162E1,1.5362499E1,2.3619799E1,3.2565691E0,2.3884829E1,4.4046658E1,1.1058226E0,9.929733E0,1.2046546E1,1.464312E2,1.8826807E1,3.969945E1,7.350501E1,7.7089874E1,8.816034E0,1.3293046E0,1.9661776E1,1.919279E1,5.2069347E1,7.7024817E0,7.8552985E0,3.2373803E0,4.862043E0,2.239645E0,1.2750892E1,1.0676762E0,4.6639204E0,5.9755964E0,4.435602E1,2.967857E0,1.2394642E1,1.7479898E1,6.1399E0,1.3804294E0,1.8761398E0,2.115331E1,2.7315178E0,7.603405E0,3.6443253E1,2.2717617E0,7.6579714E0,1.4913623E0,1.0555183E1,1.4538159E2,1.0496037E0,1.6032967E1,2.79384E0,3.274975E1,6.9497046E0,6.877897E1,4.7260394E0,6.880597E1,8.283904E0,7.7422094E0,1.0738255E0,1.5328505E1,4.333271E0,1.1812958E1,7.3798323E0,1.3077921E0,5.0761555E1,2.272819E0,5.4296627E0,6.177737E0,1.6775613E0,1.72759E0,1.5097903E0,2.1468122E0,2.715231E0,1.0087044E0,1.2309407E0],"tree_param":{"num_deleted":"0","num_feature":"9","num_nodes":"103","size_leaf_vector":"0"}},{"base_weights":[1.7370777E-1,4.1701457E-1,-4.0834394E-1,-1.8408202E-2,7.1035045E-1,-8.064586E-1,-1.1458814E-1,8.702246E-2,-8.2153296E-1,7.778207E-1,-1.2426735E-1,-8.904791E-1,-9.657656E-2,3.4861214E-2,-1.0190866E0,1.8814303E-1,-7.104012E-1,-3.3264715E-2,-1.0640163E0,8.834112E-1,5.265752E-1,-4.910202E-1,9.8846513E-1,-3.4741527E-1,-1.0179887E0,7.492465E-1,-4.8918363E-1,2.0609836E-1,-1.0090845E0,-2.7190095E-1,-1.0553851E0,6.6122256E-2,5.919237E-1,-9.764859E-1,5.603377E-3,-8.673556E-1,8.6426055E-1,2.322639E-1,9.141005E-1,9.992274E-1,1.2886684E-1,6.9792217E-1,-7.216782E-1,-5.8794737E-1,6.659912E-1,1.0988905E0,5.0528176E-2,-7.221082E-1,4.9917553E-2,5.07983E-1,-4.206598E-2,3.3638483E-1,-2.0886005E-1,9.9081707E-1,-2.7039194E-1,-1.5961976E-1,-1.0422456E0,-7.6495403E-1,7.975363E-1,8.4105685E-2,1.181034E0,7.2420156E-1,-6.251211E-1,9.2903715E-1,2.2365323E-1,3.1384927E-1,1.0281147E0,-4.6466058E-1,7.331265E-1,1.1118408E-1,-9.656043E-1,2.3892307E-1,-8.617907E-1,-2.5413638E-2,1.0814084E0,6.011472E-2,-9.491517E-1,-6.214729E-1,6.6085964E-1,-3.548167E-1,3.2999116E-1],"categories":[],"categories_nodes":[],"categories_segments":[],"categories_sizes":[],"default_left":[1,1,1,1,1,1,1,1,0,0,1,1,1,1,1,1,1,1,0,1,1,1,0,1,0,1,1,1,0,0,0,1,0,1,1,0,1,1,1,1,1,0,0,1,1,0,0,1,0,0,1,0,0,0,0,0,0,0,0,0,0,0,0,0,0,0,0,0,0,0,0,0,0,0,0,0,0,0,0,0,0],"id":8,"left_children":[1,3,5,7,9,11,13,15,17,19,21,23,25,27,29,31,33,35,-1,37,39,41,-1,43,-1,45,47,49,-1,-1,-1,51,53,55,57,-1,59,61,63,65,67,-1,69,71,73,-1,-1,75,-1,77,79,-1,-1,-1,-1,-1,-1,-1,-1,-1,-1,-1,-1,-1,-1,-1,-1,-1,-1,-1,-1,-1,-1,-1,-1,-1,-1,-1,-1,-1,-1],"loss_changes":[8.403594E1,5.3417557E1,2.038286E1,1.4404617E1,1.416597E1,4.337841E0,1.381131E1,1.2272231E1,3.737504E0,5.6709137E0,8.4633E0,4.2303276E0,3.345647E0,1.601514E1,1.05864525E-1,6.5819683E0,3.2729282E0,4.9986167E0,0E0,3.0125732E0,1.3202295E1,4.7190437E0,0E0,3.829948E0,0E0,7.3578584E-1,8.814026E-1,5.774664E0,0E0,0E0,0E0,7.8233967E0,1.0951853E1,5.0560284E-1,4.052371E0,0E0,7.0009875E-1,4.081819E0,1.3780823E0,3.1598663E-1,1.4564675E1,0E0,2.8226037E0,2.907498E0,9.3931544E-1,0E0,0E0,9.034381E-1,0E0,6.406436E0,5.128926E0,0E0,0E0,0E0,0E0,0E0,0E0,0E0,0E0,0E0,0E0,0E0,0E0,0E0,0E0,0E0,0E0,0E0,0E0,0E0,0E0,0E0,0E0,0E0,0E0,0E0,0E0,0E0,0E0,0E0,0E0],"parents":[2147483647,0,0,1,1,2,2,3,3,4,4,5,5,6,6,7,7,8,8,9,9,10,10,11,11,12,12,13,13,14,14,15,15,16,16,17,17,19,19,20,20,21,21,23,23,25,25,26,26,27,27,31,31,32,32,33,33,34,34,36,36,37,37,38,38,39,39,40,40,42,42,43,43,44,44,47,47,49,49,50,50],"right_children":[2,4,6,8,10,12,14,16,18,20,22,24,26,28,30,32,34,36,-1,38,40,42,-1,44,-1,46,48,50,-1,-1,-1,52,54,56,58,-1,60,62,64,66,68,-1,70,72,74,-1,-1,76,-1,78,80,-1,-1,-1,-1,-1,-1,-1,-1,-1,-1,-1,-1,-1,-1,-1,-1,-1,-1,-1,-1,-1,-1,-1,-1,-1,-1,-1,-1,-1,-1],"split_conditions":[5.4048104E0,1.4462816E1,7.7958984E2,4.3680234E0,1.344171E-1,5.8917383E3,4.374263E0,4.410139E0,2.1272545E0,1.554426E0,3.081206E3,7.652628E2,6.521131E3,4.4296885E0,4.5335883E4,3.5915284E0,1.0227706E3,3.2204046E0,-3.1920493E-1,5.24614E2,4.188477E4,2.8341016E4,2.9653955E-1,4.866583E1,-3.0539662E-1,7.9402074E-2,1.1650403E5,8.010457E-1,-3.0272534E-1,-8.157029E-2,-3.1661555E-1,5.033983E4,1.2997189E0,1.7612122E-2,2.9496913E0,-2.602067E-1,4.534954E0,2.235519E0,4.4560933E0,1.9852103E0,6.3338356E1,2.0937666E-1,5.1005816E-1,2.664664E4,3.5403395E0,3.2966718E-1,1.5158453E-2,7.8087792E0,1.49752665E-2,5.7382204E-2,1.5676887E3,1.00915454E-1,-6.265802E-2,2.9724514E-1,-8.1117585E-2,-4.7885932E-2,-3.126737E-1,-2.2948621E-1,2.392609E-1,2.5231706E-2,3.543102E-1,2.1726048E-1,-1.8753634E-1,2.7871117E-1,6.709597E-2,9.415478E-2,3.0843443E-1,-1.3939819E-1,2.1993797E-1,3.3355225E-2,-2.8968132E-1,7.1676925E-2,-2.5853723E-1,-7.6240916E-3,3.2442254E-1,1.8034417E-2,-2.847455E-1,-1.8644187E-1,1.9825791E-1,-1.06445014E-1,9.8997355E-2],"split_indices":[1,3,2,8,0,4,6,6,7,7,4,4,4,8,5,8,2,6,0,2,5,5,0,3,0,0,5,7,0,0,0,5,7,0,8,0,8,1,6,6,3,0,7,5,8,0,0,1,0,7,2,0,0,0,0,0,0,0,0,0,0,0,0,0,0,0,0,0,0,0,0,0,0,0,0,0,0,0,0,0,0],"split_type":[0,0,0,0,0,0,0,0,0,0,0,0,0,0,0,0,0,0,0,0,0,0,0,0,0,0,0,0,0,0,0,0,0,0,0,0,0,0,0,0,0,0,0,0,0,0,0,0,0,0,0,0,0,0,0,0,0,0,0,0,0,0,0,0,0,0,0,0,0,0,0,0,0,0,0,0,0,0,0,0,0],"sum_hessian":[5.911999E2,4.1712048E2,1.7407939E2,1.6827426E2,2.4884622E2,7.316995E1,1.0090944E2,1.4953555E2,1.873872E1,2.3029712E2,1.8549097E1,6.519874E1,7.971221E0,8.7425644E1,1.3483791E1,1.3338516E2,1.615039E1,4.675789E0,1.4062931E1,1.6037883E2,6.99183E1,1.4371143E1,4.177954E0,1.310578E1,5.2092953E1,2.2390592E0,5.732162E0,7.579557E1,1.1630078E1,1.0180689E0,1.2465723E1,1.03324646E2,3.0060507E1,1.1509413E1,4.6409774E0,2.4409614E0,2.2348273E0,7.6042624E0,1.5277457E2,3.1257818E1,3.866048E1,2.0058851E0,1.2365258E1,1.093111E1,2.1746695E0,1.1105888E0,1.1284704E0,3.7656882E0,1.9664736E0,3.3724155E1,4.2071415E1,5.199691E1,5.132774E1,2.0451124E1,9.609382E0,1.1128554E0,1.0396558E1,2.3695006E0,2.2714767E0,1.0108347E0,1.2239926E0,4.9305954E0,2.673667E0,1.492013E2,3.573271E0,1.7440128E0,2.9513805E1,1.961999E1,1.9040493E1,2.9243917E0,9.440866E0,2.7512436E0,8.179867E0,1.1685697E0,1.0060998E0,1.0125215E0,2.7531667E0,3.6550877E0,3.0069067E1,2.2882637E1,1.9188776E1],"tree_param":{"num_deleted":"0","num_feature":"9","num_nodes":"81","size_leaf_vector":"0"}},{"base_weights":[1.4484027E-1,4.8150122E-1,-1.8663996E-1,1.8939564E-1,8.3884436E-1,-5.613387E-2,-9.071636E-1,-3.4292493E-2,4.7455317E-1,8.944587E-1,4.4794452E-1,1.14639774E-1,-8.640691E-1,-1.0655053E0,-6.592254E-1,4.6275663E-1,-1.7728318E-1,7.5002915E-1,2.5447056E-1,9.448016E-1,4.0191332E-1,7.433501E-1,-5.300251E-1,-1.8933918E-1,3.748626E-1,-3.2272342E-1,-1.0495096E0,3.3968142E-1,-7.7265614E-1,-9.664665E-2,7.501456E-1,3.180642E-2,-5.4596716E-1,-4.4099593E-1,8.1295055E-1,6.4894474E-1,-2.2927758E-1,-3.7051484E-2,9.734799E-1,7.875387E-1,-3.6536675E-2,-1.4665666E-1,8.7527317E-1,3.9128372E-1,-1.4529004E0,-1.002205E-2,-6.0179377E-1,4.9156493E-1,-3.0104336E-1,4.9860078E-1,-7.0435274E-1,-9.024038E-1,-1.5262558E-1,5.0661314E-1,-5.782748E-1,-7.407773E-2,8.771406E-1,-1.9195174E-1,4.8057973E-1,3.6653414E-1,-8.5887843E-1,-5.0528515E-2,8.7489724E-1,-1.6052818E-2,9.029777E-1,-1.5491171E0,-2.303749E-2,-8.450311E-1,6.3702416E-1,9.821709E-1,1.1785065E-1,8.521949E-1,2.3757336E-1,5.061182E-1,-1.1726254E0,5.0430845E-2,9.525589E-1,1.8659522E-1,-7.304849E-1,-7.4465144E-1,4.5549887E-1,7.241307E-1,2.5677696E-1,-5.813308E-1,1.3018352E-1,-5.8577144E-1,1.0341069E0,9.238163E-2,-8.758949E-1,-3.0423395E-2,-9.69995E-1,5.967737E-1,-7.1687144E-1],"categories":[],"categories_nodes":[],"categories_segments":[],"categories_sizes":[],"default_left":[1,1,1,1,1,1,1,1,1,1,1,1,0,0,1,1,0,0,1,1,1,1,1,1,1,1,0,0,1,1,1,1,1,0,1,1,1,1,1,1,1,0,1,0,0,1,1,1,1,1,1,1,1,0,0,0,0,0,0,0,0,0,0,0,0,0,0,0,0,0,0,0,0,0,0,0,0,0,0,0,0,0,0,0,0,0,0,0,0,0,0,0,0],"id":9,"left_children":[1,3,5,7,9,11,13,15,17,19,21,23,25,-1,27,29,31,33,35,37,39,41,43,45,47,49,-1,-1,51,53,55,57,59,-1,61,63,65,67,69,71,73,-1,75,-1,-1,77,79,81,83,85,87,89,91,-1,-1,-1,-1,-1,-1,-1,-1,-1,-1,-1,-1,-1,-1,-1,-1,-1,-1,-1,-1,-1,-1,-1,-1,-1,-1,-1,-1,-1,-1,-1,-1,-1,-1,-1,-1,-1,-1,-1,-1],"loss_changes":[5.7804066E1,2.6652534E1,2.4520779E1,9.113597E0,2.104538E0,3.077123E1,8.681946E-1,5.8288894E0,3.6143513E0,2.0969315E0,5.119268E0,1.465722E1,3.5670376E0,0E0,2.326272E0,3.021177E0,4.913731E0,2.4089346E0,7.0954833E0,2.5668488E0,1.8890364E0,1.6521478E0,4.2910595E0,6.333292E0,8.0110855E0,3.9153733E0,0E0,0E0,1.2027149E0,2.3589444E0,1.3451934E0,4.2570915E0,6.8937397E0,0E0,1.4530888E0,3.4459896E0,4.616361E0,2.4521832E0,5.33905E-1,7.273197E-3,4.3567767E0,0E0,6.816387E-1,0E0,0E0,8.742889E0,4.259569E0,4.4765015E0,1.9246597E0,3.0405385E0,1.198659E0,7.706003E-1,2.1559584E0,0E0,0E0,0E0,0E0,0E0,0E0,0E0,0E0,0E0,0E0,0E0,0E0,0E0,0E0,0E0,0E0,0E0,0E0,0E0,0E0,0E0,0E0,0E0,0E0,0E0,0E0,0E0,0E0,0E0,0E0,0E0,0E0,0E0,0E0,0E0,0E0,0E0,0E0,0E0,0E0],"parents":[2147483647,0,0,1,1,2,2,3,3,4,4,5,5,6,6,7,7,8,8,9,9,10,10,11,11,12,12,14,14,15,15,16,16,17,17,18,18,19,19,20,20,21,21,22,22,23,23,24,24,25,25,28,28,29,29,30,30,31,31,32,32,34,34,35,35,36,36,37,37,38,38,39,39,40,40,42,42,45,45,46,46,47,47,48,48,49,49,50,50,51,51,52,52],"right_children":[2,4,6,8,10,12,14,16,18,20,22,24,26,-1,28,30,32,34,36,38,40,42,44,46,48,50,-1,-1,52,54,56,58,60,-1,62,64,66,68,70,72,74,-1,76,-1,-1,78,80,82,84,86,88,90,92,-1,-1,-1,-1,-1,-1,-1,-1,-1,-1,-1,-1,-1,-1,-1,-1,-1,-1,-1,-1,-1,-1,-1,-1,-1,-1,-1,-1,-1,-1,-1,-1,-1,-1,-1,-1,-1,-1,-1,-1],"split_conditions":[4.3033842E-2,2.362855E1,4.410139E0,1.169594E3,2.4259727E0,4.3452735E0,3.0541646E0,1.4914578E-2,5.21201E4,2.7887263E0,3.280847E0,2.1388569E1,3.4661703E0,-3.196516E-1,6.884369E4,2.8580456E0,1.3806787E0,1.0310803E-1,9.69545E-1,7.9065247E2,7.4092245E-1,8.799836E-3,9.9496126E-1,9.789909E0,1.5863018E1,3.142469E0,-3.148529E-1,1.0190443E-1,3.1110195E3,1.086169E0,5.0612836E2,5.881544E3,3.7305324E4,-1.3229878E-1,8.189914E-2,3.8794287E3,2.5091138E0,4.6474037E1,4.5801764E0,3.922839E-2,3.1971416E0,-4.3997E-2,9.661305E2,1.1738512E-1,-4.3587014E-1,5.198741E3,2.4195554E3,8.8859475E-1,6.0147247E1,1.2404289E1,4.437621E0,2.6841864E2,5.9122276E0,1.5198395E-1,-1.7348245E-1,-2.222332E-2,2.631422E-1,-5.7585523E-2,1.4417392E-1,1.0996025E-1,-2.5766355E-1,-1.51585555E-2,2.6246917E-1,-4.8158458E-3,2.7089334E-1,-4.6473515E-1,-6.911247E-3,-2.5350934E-1,1.9110726E-1,2.9465127E-1,3.5355195E-2,2.5565848E-1,7.127201E-2,1.5183546E-1,-3.5178763E-1,1.5129254E-2,2.8576767E-1,5.5978566E-2,-2.1914548E-1,-2.2339544E-1,1.3664967E-1,2.1723922E-1,7.703309E-2,-1.7439924E-1,3.9055057E-2,-1.7573144E-1,3.1023207E-1,2.7714489E-2,-2.6276848E-1,-9.127019E-3,-2.9099852E-1,1.7903212E-1,-2.1506144E-1],"split_indices":[0,3,6,2,7,8,8,0,5,1,8,3,7,0,5,3,7,7,7,4,7,0,1,1,1,1,0,0,4,3,2,4,5,0,1,4,6,3,8,0,8,0,2,0,0,4,2,7,3,3,8,2,1,0,0,0,0,0,0,0,0,0,0,0,0,0,0,0,0,0,0,0,0,0,0,0,0,0,0,0,0,0,0,0,0,0,0,0,0,0,0,0,0],"split_type":[0,0,0,0,0,0,0,0,0,0,0,0,0,0,0,0,0,0,0,0,0,0,0,0,0,0,0,0,0,0,0,0,0,0,0,0,0,0,0,0,0,0,0,0,0,0,0,0,0,0,0,0,0,0,0,0,0,0,0,0,0,0,0,0,0,0,0,0,0,0,0,0,0,0,0,0,0,0,0,0,0,0,0,0,0,0,0,0,0,0,0,0,0],"sum_hessian":[5.1616876E2,2.5585869E2,2.603101E2,1.4162178E2,1.1423691E2,2.2130394E2,3.9006153E1,7.985797E1,6.1763813E1,9.8880684E1,1.5356218E1,1.8339728E2,3.790666E1,2.1791752E1,1.7214401E1,1.734139E1,6.2516582E1,2.6360544E1,3.5403267E1,8.887826E1,1.0002429E1,1.1978037E1,3.378182E0,8.471268E1,9.86846E1,1.0371129E1,2.753553E1,1.552039E0,1.5662363E1,6.1106687E0,1.1230721E1,4.0475613E1,2.2040968E1,1.0212299E0,2.5339314E1,1.9312956E1,1.6090313E1,2.5140285E0,8.636423E1,4.898188E0,5.104241E0,1.5318524E0,1.0446184E1,1.9787787E0,1.3994031E0,5.975718E1,2.4955498E1,8.438702E1,1.4297583E1,3.1929379E0,7.178191E0,1.2575413E1,3.0869505E0,2.6897569E0,3.4209116E0,1.5550187E0,9.675703E0,2.7390831E1,1.3084781E1,5.584441E0,1.6456528E1,1.7085156E0,2.3630798E1,5.597319E0,1.3715636E1,1.2945528E0,1.479576E1,1.0280926E0,1.485936E0,8.534941E1,1.0148162E0,3.8911815E0,1.0070066E0,3.829555E0,1.2746859E0,1.0365015E0,9.409683E0,4.7527683E1,1.2229493E1,2.2245466E1,2.7100298E0,4.1347084E1,4.3039936E1,8.454361E0,5.8432226E0,1.0245042E0,2.1684337E0,1.3534594E0,5.824732E0,1.0089724E0,1.156644E1,1.3011667E0,1.7857838E0],"tree_param":{"num_deleted":"0","num_feature":"9","num_nodes":"93","size_leaf_vector":"0"}},{"base_weights":[1.1905939E-1,-9.492398E-2,5.2811706E-1,5.767286E-2,-6.644863E-1,7.704313E-1,1.9931136E-1,-6.025231E-1,1.5134431E-1,6.2878495E-1,-7.174368E-1,5.7848805E-1,9.847171E-1,6.353585E-1,2.3454696E-2,5.0377977E-1,-1.0813866E0,2.1620664E-1,-7.5904113E-1,-8.3069813E-1,-9.4306864E-2,6.566954E-1,-5.664344E-1,8.7874407E-1,1.6040954E-1,1.5271828E-1,-6.9516987E-1,7.178266E-1,-6.764031E-1,3.0328669E-2,4.7318614E-1,1.0846513E-1,-8.991147E-1,2.8899187E-1,-8.703139E-1,-7.182742E-1,4.7239563E-1,7.584289E-1,1.5344346E-1,6.415173E-1,-1.8271047E0,9.791283E-1,3.199024E-1,-5.5859095E-1,3.8254845E-1,-6.138412E-1,2.576825E-1,-1.6888376E0,-9.051148E-2,9.649758E-1,-2.56763E-1,9.757933E-1,-3.8266912E-2,6.607461E-1,1.0656555E-1,-9.7288287E-1,-1.4179856E-1,-6.408196E-1,-9.944613E-1,-8.6725134E-1,-3.7464246E-2,-1.2999733E-1,1.0070806E0,2.962147E-1,8.8282055E-1,-3.1009135E-1,6.7258334E-1,6.4270383E-1,-2.237815E-1,-2.589438E-1,6.025331E-1,2.0221895E-1,-1.0384401E0,3.5448346E-1,-6.284904E-1,7.15845E-1,-9.0083706E-1],"categories":[],"categories_nodes":[],"categories_segments":[],"categories_sizes":[],"default_left":[1,1,1,1,1,1,1,1,1,0,1,1,0,1,1,1,0,1,0,1,1,1,1,1,1,0,1,0,0,1,1,0,1,0,1,1,1,1,1,0,0,0,1,0,1,0,1,0,1,0,0,0,0,0,0,0,0,0,0,0,0,0,0,0,0,0,0,0,0,0,0,0,0,0,0,0,0],"id":10,"left_children":[1,3,5,7,9,11,13,15,17,-1,19,21,-1,23,25,27,-1,29,31,33,35,37,39,41,43,45,47,49,-1,51,53,-1,55,-1,57,59,61,63,65,-1,-1,-1,67,-1,69,71,73,-1,75,-1,-1,-1,-1,-1,-1,-1,-1,-1,-1,-1,-1,-1,-1,-1,-1,-1,-1,-1,-1,-1,-1,-1,-1,-1,-1,-1,-1],"loss_changes":[4.01827E1,2.627497E1,1.2404839E1,1.4871554E1,4.824688E0,3.1484451E0,5.2166777E0,1.6383827E1,1.2570801E1,0E0,4.284857E0,4.858757E0,0E0,2.1211224E0,4.7187757E0,2.939465E0,0E0,9.39143E0,1.8224888E0,2.5663261E0,4.100481E0,2.308731E0,6.8687983E0,4.0008736E-1,1.4680537E0,3.6103969E0,4.503747E0,2.3452373E0,0E0,7.517084E0,5.608032E0,0E0,5.5085754E-1,0E0,8.0584335E-1,5.212202E-1,2.1205914E0,1.989378E0,2.426994E0,0E0,0E0,0E0,7.4430513E-1,0E0,1.0864794E0,2.102942E0,3.520457E0,0E0,4.483606E0,0E0,0E0,0E0,0E0,0E0,0E0,0E0,0E0,0E0,0E0,0E0,0E0,0E0,0E0,0E0,0E0,0E0,0E0,0E0,0E0,0E0,0E0,0E0,0E0,0E0,0E0,0E0,0E0],"parents":[2147483647,0,0,1,1,2,2,3,3,4,4,5,5,6,6,7,7,8,8,10,10,11,11,13,13,14,14,15,15,17,17,18,18,19,19,20,20,21,21,22,22,23,23,24,24,25,25,26,26,27,27,29,29,30,30,32,32,34,34,35,35,36,36,37,37,38,38,42,42,44,44,45,45,46,46,48,48],"right_children":[2,4,6,8,10,12,14,16,18,-1,20,22,-1,24,26,28,-1,30,32,34,36,38,40,42,44,46,48,50,-1,52,54,-1,56,-1,58,60,62,64,66,-1,-1,-1,68,-1,70,72,74,-1,76,-1,-1,-1,-1,-1,-1,-1,-1,-1,-1,-1,-1,-1,-1,-1,-1,-1,-1,-1,-1,-1,-1,-1,-1,-1,-1,-1,-1],"split_conditions":[1.544731E3,1.3134786E-1,2.3670788E0,4.014659E2,2.029939E4,6.345746E1,4.188477E4,3.9505823E2,4.466482E0,1.886355E-1,3.3252434E3,5.606001E1,2.9541513E-1,7.777643E0,2.3761673E0,5.1344013E0,-3.2441598E-1,1.810567E1,2.4411923E-1,7.373716E-1,2.8311438E1,8.896975E3,1.6755953E0,2.130414E0,5.4037023E-2,1.1211755E-1,2.5885258E0,3.669619E0,-2.0292094E-1,2.2810496E4,6.456973E4,3.253954E-2,4.6245215E3,8.669756E-2,1.1812438E3,2.0204891E1,9.714713E2,2.391019E3,1.3555588E4,1.9245519E-1,-5.481314E-1,2.937385E-1,3.035385E4,-1.675773E-1,1.7348334E3,3.2936793E-2,4.3869433E0,-5.0665134E-1,6.099227E-2,2.8949276E-1,-7.702891E-2,2.92738E-1,-1.1480074E-2,1.9822384E-1,3.1969666E-2,-2.9186487E-1,-4.2539567E-2,-1.9224589E-1,-2.983384E-1,-2.601754E-1,-1.1239274E-2,-3.89992E-2,3.0212417E-1,8.8864416E-2,2.6484618E-1,-9.3027405E-2,2.0177501E-1,1.9281116E-1,-6.7134455E-2,-7.768314E-2,1.8075994E-1,6.0665686E-2,-3.1153205E-1,1.0634504E-1,-1.8854712E-1,2.1475351E-1,-2.7025113E-1],"split_indices":[2,0,1,2,5,3,5,4,6,0,4,3,0,1,7,1,0,3,7,1,3,4,7,7,0,7,6,7,0,5,5,0,4,0,4,1,2,4,4,0,0,0,5,0,2,7,6,0,0,0,0,0,0,0,0,0,0,0,0,0,0,0,0,0,0,0,0,0,0,0,0,0,0,0,0,0,0],"split_type":[0,0,0,0,0,0,0,0,0,0,0,0,0,0,0,0,0,0,0,0,0,0,0,0,0,0,0,0,0,0,0,0,0,0,0,0,0,0,0,0,0,0,0,0,0,0,0,0,0,0,0,0,0,0,0,0,0,0,0,0,0,0,0,0,0,0,0,0,0,0,0,0,0,0,0,0,0],"sum_hessian":[4.574927E2,3.0087106E2,1.5662161E2,2.3800392E2,6.2867146E1,8.939708E1,6.722453E1,2.8898083E1,2.0910585E2,2.0449903E0,6.082216E1,4.9108498E1,4.0288586E1,1.8568901E1,4.8655636E1,8.714114E0,2.018397E1,1.9591031E2,1.3195532E1,5.1185474E1,9.636682E0,4.6367645E1,2.740853E0,1.1715273E1,6.8536277E0,4.190534E1,6.7502956E0,7.7079153E0,1.0061988E0,1.1433079E2,8.157953E1,1.8658117E0,1.132972E1,1.5339991E0,4.9651474E1,4.4593053E0,5.1773767E0,3.814874E1,8.218906E0,1.6505017E0,1.0903512E0,9.293774E0,2.4214997E0,1.2601805E0,5.593447E0,4.463085E0,3.7442253E1,1.8753641E0,4.874932E0,6.156527E0,1.5513883E0,6.8392277E0,1.07491554E2,5.3438557E1,2.814097E1,1.0064699E1,1.2650201E0,1.9593477E1,3.0057999E1,3.4340105E0,1.0252947E0,2.7904444E0,2.3869324E0,8.806581E0,2.9342157E1,4.554723E0,3.6641839E0,1.4051138E0,1.0163859E0,1.3831053E0,4.210342E0,1.7066747E0,2.7564106E0,3.429593E1,3.1463258E0,2.5018911E0,2.3730407E0],"tree_param":{"num_deleted":"0","num_feature":"9","num_nodes":"77","size_leaf_vector":"0"}},{"base_weights":[9.573099E-2,4.865513E-1,-7.8423105E-2,-7.1756706E-2,6.828762E-1,-6.1183524E-1,3.668219E-2,-4.225425E-1,2.858244E-1,7.960409E-1,4.2622703E-1,1.2242602E-1,-8.688479E-1,1.1523442E-1,-6.9447017E-1,4.7799492E-1,-6.39995E-1,-5.1867247E-1,3.9468196E-1,3.7738043E-1,8.729767E-1,-2.2864157E-1,6.357305E-1,6.006584E-1,-3.3463648E-1,-1.0700632E0,-1.3166182E-1,1.8763767E-1,-6.932781E-1,-1.7662595E-1,-1.0276526E0,7.817297E-1,-1.6287689E-1,-8.052579E-1,5.8651593E-2,6.007169E-1,-1.255086E-1,8.1498617E-1,-7.335975E-1,8.936653E-1,-1.0148214E-1,7.1355355E-1,-7.94415E-1,1.9427893E-1,9.138779E-1,-3.5842207E-1,1.526899E0,3.6333835E-1,-8.419704E-1,5.385517E-1,-6.689968E-1,7.246265E-1,1.0318012E-1,-1.9634807E-1,-9.4922036E-1,4.0057954E-1,-7.2392225E-1,-3.5217208E-1,-1.2437376E0,5.6584156E-1,-3.8063696E-1,-3.8225752E-1,7.806525E-1,6.090119E-1,-5.4151046E-1,4.0650405E-2,9.0946823E-1,-1.3902051E0,5.2571785E-1,9.099479E-1,2.8524753E-2,-1.5384545E0,5.020908E-1,7.0866394E-1,-4.4732466E-1,9.715592E-1,2.9336977E-1,-9.0540415E-1,3.3092165E-1,-1.5213493E-1,7.777175E-1,-4.038078E-1,9.31845E-1,-8.070978E-2,-7.81026E-1,4.06634E-1,1.0586157E0,3.2888117E-1,-1.1064558E-1,-4.760658E-1,6.205391E-1,-4.7187254E-1,8.2268274E-1,-9.116664E-1,1.093808E-2],"categories":[],"categories_nodes":[],"categories_segments":[],"categories_sizes":[],"default_left":[1,1,1,1,1,1,1,1,1,1,1,0,1,1,0,1,1,0,0,1,1,1,1,1,1,0,1,1,1,1,0,0,0,1,1,1,1,1,1,1,0,0,1,1,1,1,0,1,0,1,1,0,1,1,0,1,1,0,0,0,0,0,0,0,0,0,0,0,0,0,0,0,0,0,0,0,0,0,0,0,0,0,0,0,0,0,0,0,0,0,0,0,0,0,0],"id":11,"left_children":[1,3,5,7,9,11,13,15,17,19,21,23,25,27,29,31,33,-1,35,37,39,41,43,45,47,-1,49,51,53,55,-1,-1,-1,57,59,61,63,65,67,69,-1,-1,71,73,75,77,-1,79,-1,81,83,85,87,89,-1,91,93,-1,-1,-1,-1,-1,-1,-1,-1,-1,-1,-1,-1,-1,-1,-1,-1,-1,-1,-1,-1,-1,-1,-1,-1,-1,-1,-1,-1,-1,-1,-1,-1,-1,-1,-1,-1,-1,-1],"loss_changes":[2.820792E1,1.4048058E1,1.7653702E1,4.402069E0,2.407814E0,9.735468E0,1.3699617E1,3.758898E0,1.7371672E0,1.7477531E0,4.411658E0,3.284307E0,5.4837265E0,1.2715277E1,3.812315E0,9.063627E-1,1.736525E0,0E0,1.7881958E0,6.321419E0,1.1736336E0,4.976645E0,2.7477293E0,6.988723E0,3.0873616E0,0E0,3.69904E0,8.909856E0,2.088091E0,3.5343132E0,0E0,0E0,0E0,1.9261479E0,1.0466485E0,2.3536458E0,1.9679296E0,6.1559916E-1,3.9168637E0,7.164383E-1,0E0,0E0,6.214918E0,3.7752604E0,2.2840881E-1,1.948229E0,0E0,9.737429E-1,0E0,2.1105876E0,3.0547762E-1,2.4113302E0,8.354014E0,1.9726452E0,0E0,2.4660258E0,7.864177E-1,0E0,0E0,0E0,0E0,0E0,0E0,0E0,0E0,0E0,0E0,0E0,0E0,0E0,0E0,0E0,0E0,0E0,0E0,0E0,0E0,0E0,0E0,0E0,0E0,0E0,0E0,0E0,0E0,0E0,0E0,0E0,0E0,0E0,0E0,0E0,0E0,0E0,0E0],"parents":[2147483647,0,0,1,1,2,2,3,3,4,4,5,5,6,6,7,7,8,8,9,9,10,10,11,11,12,12,13,13,14,14,15,15,16,16,18,18,19,19,20,20,21,21,22,22,23,23,24,24,26,26,27,27,28,28,29,29,33,33,34,34,35,35,36,36,37,37,38,38,39,39,42,42,43,43,44,44,45,45,47,47,49,49,50,50,51,51,52,52,53,53,55,55,56,56],"right_children":[2,4,6,8,10,12,14,16,18,20,22,24,26,28,30,32,34,-1,36,38,40,42,44,46,48,-1,50,52,54,56,-1,-1,-1,58,60,62,64,66,68,70,-1,-1,72,74,76,78,-1,80,-1,82,84,86,88,90,-1,92,94,-1,-1,-1,-1,-1,-1,-1,-1,-1,-1,-1,-1,-1,-1,-1,-1,-1,-1,-1,-1,-1,-1,-1,-1,-1,-1,-1,-1,-1,-1,-1,-1,-1,-1,-1,-1,-1,-1],"split_conditions":[2.7390381E-2,5.4621296E0,5.1061377E2,3.8889502E3,1.3863356E0,5.053261E2,4.3492055E0,6.292855E2,4.5840106E2,2.4018216E0,1.0610116E3,1.3423502E0,4.6714463E3,4.4550266E0,3.4661703E0,5.352491E4,4.048588E0,-1.5560174E-1,1.3589642E0,3.1209779E0,4.506801E0,4.880398E4,2.7598186E0,3.092587E0,5.555286E4,-3.21019E-1,4.4532976E0,2.3589187E0,3.3706188E0,3.3134756E0,-3.082958E-1,2.3451892E-1,-4.886307E-2,1.8195227E-2,4.3243284E0,5.8207417E-1,1.2528304E-2,1.7538419E3,2.684162E1,1.4948342E4,-3.0444643E-2,2.1406607E-1,6.0260107E3,4.213896E4,3.6292205E0,3.2302866E2,4.580697E-1,2.7209747E2,-2.5259113E-1,4.0119327E2,5.8312992E4,1.667319E0,8.9277273E-1,3.1047385E3,-2.847661E-1,8.5525085E2,3.3447046E0,-1.05651625E-1,-3.731213E-1,1.6975248E-1,-1.1419109E-1,-1.1467726E-1,2.3419577E-1,1.8270357E-1,-1.6245314E-1,1.2195122E-2,2.7284047E-1,-4.1706157E-1,1.5771537E-1,2.729844E-1,8.557426E-3,-4.6153638E-1,1.5062726E-1,2.1259919E-1,-1.341974E-1,2.914678E-1,8.801094E-2,-2.7162126E-1,9.92765E-2,-4.564048E-2,2.3331524E-1,-1.2114234E-1,2.795535E-1,-2.4212934E-2,-2.3430781E-1,1.21990204E-1,3.1758472E-1,9.866436E-2,-3.3193674E-2,-1.4281975E-1,1.8616174E-1,-1.4156176E-1,2.4680483E-1,-2.7349994E-1,3.281424E-3],"split_indices":[0,3,2,4,7,4,8,4,2,8,2,7,4,6,7,5,6,0,7,6,8,5,6,8,5,0,1,8,1,1,0,0,0,0,6,3,0,4,3,4,0,0,4,5,8,2,0,2,0,2,5,7,7,4,0,2,6,0,0,0,0,0,0,0,0,0,0,0,0,0,0,0,0,0,0,0,0,0,0,0,0,0,0,0,0,0,0,0,0,0,0,0,0,0,0],"split_type":[0,0,0,0,0,0,0,0,0,0,0,0,0,0,0,0,0,0,0,0,0,0,0,0,0,0,0,0,0,0,0,0,0,0,0,0,0,0,0,0,0,0,0,0,0,0,0,0,0,0,0,0,0,0,0,0,0,0,0,0,0,0,0,0,0,0,0,0,0,0,0,0,0,0,0,0,0,0,0,0,0,0,0,0,0,0,0,0,0,0,0,0,0,0,0],"sum_hessian":[4.1287802E2,1.2671725E2,2.861608E2,3.3131763E1,9.358549E1,5.0024704E1,2.3613608E2,1.6633091E1,1.6498672E1,6.3489357E1,3.0096127E1,1.3105935E1,3.691877E1,2.1398837E2,2.2147705E1,3.0021412E0,1.3630949E1,1.5176919E0,1.4980981E1,1.0772718E1,5.271664E1,7.2724533E0,2.2823675E1,6.2511144E0,6.8548207E0,2.8647789E1,8.270981E0,1.9710529E2,1.6883091E1,9.2700205E0,1.2877684E1,1.8876958E0,1.1144456E0,1.0899989E1,2.7309606E0,1.0619895E1,4.3610854E0,7.9196525E0,2.853066E0,5.1701874E1,1.0147662E0,2.630546E0,4.641907E0,9.478574E0,1.33451E1,3.3722925E0,2.8788218E0,3.0047724E0,3.850048E0,3.6794138E0,4.5915666E0,2.5757431E1,1.7134785E2,6.3402343E0,1.0542856E1,4.642202E0,4.627818E0,6.247522E0,4.6524673E0,1.1338099E0,1.5971506E0,1.4692242E0,9.150671E0,1.4091074E0,2.9519782E0,1.0167811E0,6.9028716E0,1.8069725E0,1.0460935E0,5.0695946E1,1.0059263E0,2.8307683E0,1.811139E0,5.2028427E0,4.2757316E0,1.1692445E1,1.6526557E0,1.7055441E0,1.6667484E0,1.6210736E0,1.3836989E0,1.0755596E0,2.6038542E0,1.0097275E0,3.5818393E0,1.433066E1,1.1426772E1,8.3097374E1,8.825048E1,5.0337887E0,1.3064456E0,1.4751931E0,3.1670089E0,3.494449E0,1.1333694E0],"tree_param":{"num_deleted":"0","num_feature":"9","num_nodes":"95","size_leaf_vector":"0"}},{"base_weights":[7.6522745E-2,2.0718981E-1,-3.2420173E-1,6.985472E-3,4.979749E-1,-3.8693818E-1,4.6238533E-1,7.123937E-1,-5.2048907E-2,6.59193E-1,1.386013E-1,4.0309948E-1,-4.4438455E-1,6.347774E-1,-4.289484E-2,-6.2112626E-2,8.7241244E-1,2.2049426E-1,-1.9411922E-1,-3.5208514E-1,7.124543E-1,7.7790076E-1,-2.9902345E-1,8.1646246E-1,-2.245302E-1,-6.212925E-1,-1.7284866E-1,1.14239335E-1,7.7966356E-1,-6.258711E-1,5.4993457E-1,1.8629564E-1,9.7824585E-1,-1.18901275E-1,4.9003345E-1,-8.09039E-1,-4.102386E-2,-8.198324E-1,1.9439687E-1,7.4602103E-1,-4.6693787E-1,8.8396627E-1,-2.5646827E-1,-4.798696E-1,6.275169E-1,-4.5032468E-1,1.1884406E-1,-1.7072873E-1,-7.5475824E-1,6.438539E-1,-3.0164742E-1,4.859431E-1,-3.824113E-1,5.93334E-1,-4.0535626E-1,1.7885746E-1,-1.2727298E0,-4.7227693E-1,2.337417E-1,7.8932303E-1,-1.8859257E-1,9.4581646E-1,4.5921262E-2,3.211688E-1,-7.002145E-1,7.0759857E-1,1.905855E-1,7.0524055E-1,-5.7223886E-1,1.115923E-1,-8.313643E-1,3.5646136E-3,8.282298E-1,-6.238693E-1,-1.1643025E-1],"categories":[],"categories_nodes":[],"categories_segments":[],"categories_sizes":[],"default_left":[1,1,1,1,0,1,1,1,1,1,1,1,1,0,0,1,1,1,1,1,1,1,1,0,1,1,1,0,0,0,0,0,0,1,1,1,1,0,0,1,0,1,0,1,1,0,0,0,1,1,1,0,0,0,0,0,0,0,0,0,0,0,0,0,0,0,0,0,0,0,0,0,0,0,0],"id":12,"left_children":[1,3,5,7,9,11,13,15,17,19,21,23,25,27,-1,29,31,33,35,37,39,41,43,-1,45,47,49,-1,-1,-1,-1,-1,-1,51,53,55,57,-1,-1,59,-1,61,-1,63,65,-1,-1,67,69,71,73,-1,-1,-1,-1,-1,-1,-1,-1,-1,-1,-1,-1,-1,-1,-1,-1,-1,-1,-1,-1,-1,-1,-1,-1],"loss_changes":[1.9789219E1,1.656752E1,4.7685976E0,7.0995007E0,6.6323814E0,4.1131487E0,6.6534173E-1,1.6857977E0,6.1384645E0,4.5515213E0,1.0641683E1,1.8437343E0,3.7971115E0,3.276515E-1,0E0,1.4441199E0,6.1485577E-1,5.035903E0,9.75902E0,1.3516015E0,3.3642693E0,1.9158878E0,4.122987E0,0E0,3.1136397E-1,2.8075867E0,3.7128706E0,0E0,0E0,0E0,0E0,0E0,0E0,4.152818E0,3.063652E0,9.701174E0,1.0103538E1,0E0,0E0,3.1622581E0,0E0,6.9205856E-1,0E0,3.6932983E0,1.0638475E-2,0E0,0E0,4.782879E0,2.5735683E0,5.7264733E-1,1.6924071E0,0E0,0E0,0E0,0E0,0E0,0E0,0E0,0E0,0E0,0E0,0E0,0E0,0E0,0E0,0E0,0E0,0E0,0E0,0E0,0E0,0E0,0E0,0E0,0E0],"parents":[2147483647,0,0,1,1,2,2,3,3,4,4,5,5,6,6,7,7,8,8,9,9,10,10,11,11,12,12,13,13,15,15,16,16,17,17,18,18,19,19,20,20,21,21,22,22,24,24,25,25,26,26,33,33,34,34,35,35,36,36,39,39,41,41,43,43,44,44,47,47,48,48,49,49,50,50],"right_children":[2,4,6,8,10,12,14,16,18,20,22,24,26,28,-1,30,32,34,36,38,40,42,44,-1,46,48,50,-1,-1,-1,-1,-1,-1,52,54,56,58,-1,-1,60,-1,62,-1,64,66,-1,-1,68,70,72,74,-1,-1,-1,-1,-1,-1,-1,-1,-1,-1,-1,-1,-1,-1,-1,-1,-1,-1,-1,-1,-1,-1,-1,-1],"split_conditions":[7.125427E0,2.3645916E1,3.4844429E3,1.0017065E-2,1.6968342E0,2.4376295E4,1.7781658E0,3.2374285E-2,4.7278492E4,4.5398206E2,2.6723309E0,1.1473152E1,2.8166708E1,5.0407326E-1,-1.2868453E-2,6.5492263E0,6.3487646E2,8.5706866E2,2.7558765E0,4.9638195E1,5.453849E-1,2.113978E-1,3.187379E2,2.4493875E-1,1.9269146E1,5.0765595E0,6.199602E-2,3.4271803E-2,2.3389907E-1,-1.8776135E-1,1.6498038E-1,5.5888694E-2,2.9347378E-1,6.2991565E2,7.806538E-2,2.879233E0,3.1751733E0,-2.4594973E-1,5.8319062E-2,4.4560933E0,-1.4008136E-1,5.672417E3,-7.6940484E-2,4.2063438E4,8.05376E-2,-1.3509741E-1,3.565322E-2,5.4088616E-1,2.3384514E0,2.7030153E0,2.8539176E0,1.4578293E-1,-1.1472339E-1,1.7800021E-1,-1.2160688E-1,5.365724E-2,-3.8181895E-1,-1.4168309E-1,7.012251E-2,2.3679692E-1,-5.6577772E-2,2.8374496E-1,1.377638E-2,9.635065E-2,-2.1006437E-1,2.1227957E-1,5.717565E-2,2.1157217E-1,-1.7167166E-1,3.347769E-2,-2.4940929E-1,1.0693842E-3,2.4846895E-1,-1.8716079E-1,-3.4929078E-2],"split_indices":[1,3,2,0,7,5,7,1,5,2,8,1,3,7,0,3,2,2,6,3,0,0,3,0,3,3,0,0,0,0,0,0,0,4,0,8,8,0,0,6,0,2,0,5,0,0,0,7,8,6,8,0,0,0,0,0,0,0,0,0,0,0,0,0,0,0,0,0,0,0,0,0,0,0,0],"split_type":[0,0,0,0,0,0,0,0,0,0,0,0,0,0,0,0,0,0,0,0,0,0,0,0,0,0,0,0,0,0,0,0,0,0,0,0,0,0,0,0,0,0,0,0,0,0,0,0,0,0,0,0,0,0,0,0,0,0,0,0,0,0,0,0,0,0,0,0,0,0,0,0,0,0,0],"sum_hessian":[3.7565176E2,2.8364468E2,9.200707E1,1.6859308E2,1.1505162E2,8.56814E1,6.3256807E0,1.2164979E1,1.564281E2,7.884624E1,3.620538E1,5.400019E0,8.028137E1,4.5254083E0,1.8002726E0,2.1877756E0,9.977203E0,5.3412067E1,1.0301603E2,3.6641493E0,7.518209E1,1.4396645E1,2.1808737E1,3.0743535E0,2.3256655E0,4.7831E1,3.245037E1,1.3747536E0,3.1506546E0,1.1270553E0,1.0607203E0,1.7021906E0,8.275013E0,2.3889727E1,2.9522343E1,1.9681034E1,8.333499E1,1.7047837E0,1.9593657E0,7.3458824E1,1.7232621E0,1.3189574E1,1.2070701E0,1.865053E1,3.1582062E0,1.2151463E0,1.1105193E0,1.1451469E1,3.637953E1,3.8757353E0,2.8574636E1,6.993399E0,1.6896328E1,2.677112E1,2.7512217E0,6.4830737E0,1.3197959E1,3.2152233E1,5.1182762E1,7.0354645E1,3.1041784E0,1.2163289E1,1.0262855E0,3.9247997E0,1.4725731E1,2.1455019E0,1.0127044E0,3.3614244E0,8.090045E0,2.9183807E0,3.346115E1,1.0944233E0,2.781312E0,9.565407E0,1.900923E1],"tree_param":{"num_deleted":"0","num_feature":"9","num_nodes":"75","size_leaf_vector":"0"}},{"base_weights":[6.54316E-2,1.3445033E-1,-5.6084204E-1,2.6018351E-2,5.352093E-1,-8.049113E-1,-5.6751776E-2,-5.904065E-1,7.3141955E-2,7.9136956E-1,2.6386887E-1,-8.725448E-1,-7.724789E-2,-5.10875E-1,2.977619E-1,1.6300103E-1,-9.901871E-1,8.791537E-1,3.5803933E-2,-6.265589E-2,8.3760947E-1,-1.1546614E0,3.7206495E-1,-6.759848E-2,-9.353214E-1,4.8635122E-1,-5.943372E-1,1.1017904E-1,-6.9645786E-1,5.615002E-1,-3.503822E-1,9.359303E-1,-3.604888E-1,9.691424E-1,3.6533657E-2,-2.0403352E-1,1.5127501E-1,8.875579E-1,1.6588314E-1,8.1773007E-1,2.8140595E-2,-4.7041804E-1,-9.8844784E-1,-7.9570395E-1,-1.8866247E-1,7.600165E-1,-1.5367155E-1,3.0976036E-1,1.1288022E0,2.795587E-1,-6.151683E-1,-1.0681291E0,1.6097762E-2,4.6871237E-2,5.00567E-1,9.44846E-1,2.4208622E-1,-4.7571522E-1,6.209113E-1,-5.0889727E-2,9.066148E-1,-2.6905835E-1,8.638566E-1,-1.0612454E-1,-6.3239706E-1,8.958096E-2,9.251663E-1],"categories":[],"categories_nodes":[],"categories_segments":[],"categories_sizes":[],"default_left":[1,1,1,1,1,1,1,1,1,1,1,1,1,1,1,1,0,1,1,0,1,0,1,0,1,0,0,0,1,1,0,1,1,0,0,1,1,1,1,1,1,1,0,0,0,1,0,0,0,0,0,0,0,0,0,0,0,0,0,0,0,0,0,0,0,0,0],"id":13,"left_children":[1,3,5,7,9,11,13,15,17,19,21,23,25,27,29,31,-1,33,35,-1,37,-1,39,-1,41,-1,-1,-1,43,45,-1,47,49,-1,-1,51,53,55,57,59,61,63,-1,-1,-1,65,-1,-1,-1,-1,-1,-1,-1,-1,-1,-1,-1,-1,-1,-1,-1,-1,-1,-1,-1,-1,-1],"loss_changes":[1.518747E1,1.3705663E1,4.2479715E0,7.2917943E0,4.4607143E0,1.0860739E0,2.1581912E0,5.5322976E0,6.9717813E0,1.3973904E0,5.666956E0,1.0154953E0,1.1896725E0,7.488072E-1,1.5009379E0,3.1861143E0,0E0,7.4258995E-1,6.2190337E0,0E0,9.390812E-1,0E0,4.952619E0,0E0,2.2201538E-2,0E0,0E0,0E0,8.302164E-2,9.412514E-1,0E0,2.7264833E-2,9.738867E-1,0E0,0E0,1.3911022E1,5.497802E0,8.7714577E-1,1.3086464E0,1.135066E0,5.040476E0,1.6484708E-1,0E0,0E0,0E0,4.390254E-1,0E0,0E0,0E0,0E0,0E0,0E0,0E0,0E0,0E0,0E0,0E0,0E0,0E0,0E0,0E0,0E0,0E0,0E0,0E0,0E0,0E0],"parents":[2147483647,0,0,1,1,2,2,3,3,4,4,5,5,6,6,7,7,8,8,9,9,10,10,11,11,12,12,13,13,14,14,15,15,17,17,18,18,20,20,22,22,24,24,28,28,29,29,31,31,32,32,35,35,36,36,37,37,38,38,39,39,40,40,41,41,45,45],"right_children":[2,4,6,8,10,12,14,16,18,20,22,24,26,28,30,32,-1,34,36,-1,38,-1,40,-1,42,-1,-1,-1,44,46,-1,48,50,-1,-1,52,54,56,58,60,62,64,-1,-1,-1,66,-1,-1,-1,-1,-1,-1,-1,-1,-1,-1,-1,-1,-1,-1,-1,-1,-1,-1,-1,-1,-1],"split_conditions":[1.9704826E-1,5.9778294E1,8.822235E1,3.640852E2,4.522214E-2,1.6153171E3,9.524679E2,3.4830005E2,2.240193E4,6.3418503E1,3.5888004E-1,1.3793502E0,3.1296928E0,3.6279785E4,5.453849E-1,1.796416E0,-2.9705614E-1,9.4226055E0,2.4433123E3,-1.8796768E-2,3.393075E0,-3.4639844E-1,5.2517688E4,-2.0279543E-2,5.400385E2,1.4590538E-1,-1.7830117E-1,3.305371E-2,4.1401997E0,3.7064083E0,-1.0511467E-1,1.0383644E0,2.8162504E-2,2.9074273E-1,1.0960097E-2,2.6512156E0,3.6102014E0,2.7798243E0,1.5814955E3,5.5262396E2,2.9344736E2,6.4025927E0,-2.9653436E-1,-2.387112E-1,-5.659874E-2,2.9056716E-1,-4.6101466E-2,9.292811E-2,3.3864066E-1,8.386761E-2,-1.845505E-1,-3.2043874E-1,4.8293285E-3,1.4061372E-2,1.5017012E-1,2.834538E-1,7.262587E-2,-1.4271457E-1,1.862734E-1,-1.5266919E-2,2.7198446E-1,-8.0717504E-2,2.59157E-1,-3.1837363E-2,-1.8971913E-1,2.6874289E-2,2.775499E-1],"split_indices":[0,3,3,2,0,2,2,4,5,3,1,1,8,5,0,3,0,1,4,0,7,0,5,0,4,0,0,0,8,6,0,7,0,0,0,8,6,1,2,2,3,1,0,0,0,7,0,0,0,0,0,0,0,0,0,0,0,0,0,0,0,0,0,0,0,0,0],"split_type":[0,0,0,0,0,0,0,0,0,0,0,0,0,0,0,0,0,0,0,0,0,0,0,0,0,0,0,0,0,0,0,0,0,0,0,0,0,0,0,0,0,0,0,0,0,0,0,0,0,0,0,0,0,0,0,0,0,0,0,0,0,0,0,0,0,0,0],"sum_hessian":[3.4861716E2,3.1471878E2,3.3898388E1,2.485377E2,6.618107E1,2.2437761E1,1.1460626E1,1.6831795E1,2.3170592E2,3.305696E1,3.3124107E1,2.0347439E1,2.0903213E0,4.8310766E0,6.629549E0,6.040476E0,1.0791318E1,9.260244E0,2.2244566E2,1.6796558E0,3.1377308E1,1.662009E0,3.1462097E1,1.6223115E0,1.8725128E1,1.028623E0,1.0616983E0,1.2049644E0,3.6261125E0,4.8071404E0,1.8224086E0,2.1209862E0,3.9194896E0,8.231047E0,1.029198E0,7.204296E1,1.5040271E2,2.8906557E1,2.4707508E0,1.3103994E1,1.8358103E1,2.9309971E0,1.5794131E1,2.5589924E0,1.06712E0,3.713616E0,1.0935246E0,1.1131432E0,1.0078431E0,1.0878563E0,2.8316333E0,1.3844808E1,5.819815E1,1.1666547E2,3.3737247E1,2.6124134E1,2.7824228E0,1.0063354E0,1.4644153E0,1.2561191E0,1.1847875E1,1.40423765E1,4.3157263E0,1.411557E0,1.5194402E0,1.0388331E0,2.6747825E0],"tree_param":{"num_deleted":"0","num_feature":"9","num_nodes":"67","size_leaf_vector":"0"}},{"base_weights":[5.1136952E-2,1.0281595E-1,-6.4141566E-1,1.5522456E-1,-5.898934E-1,-3.3845883E-2,-9.8640156E-1,3.9236018E-1,4.9696106E-2,-8.3052033E-1,-4.94994E-2,3.5028002E-1,-7.495087E-1,2.5278382E-2,5.835185E-1,-3.822705E-2,3.60528E-1,-1.0890238E-1,-8.946465E-1,4.440785E-1,-6.188623E-1,-3.040855E-1,6.133569E-1,-1.6724585E-1,4.77003E-1,6.8537927E-1,1.225831E-1,-1.428127E-1,4.0151793E-1,6.379797E-2,8.426098E-1,6.754523E-1,-1.0177038E-1,-7.86268E-1,-1.2045603E-1,-2.4496526E-2,7.7424926E-1,3.2975784E-1,-4.5214343E-1,-5.2349436E-1,6.896346E-1,8.7524736E-1,4.432234E-1,5.4906964E-1,-3.7151083E-1,-1.3666801E0,-1.02212794E-1,6.471658E-2,6.405968E-1,6.05565E-1,-2.662357E-1,1.5822005E0,2.853419E-1,9.138707E-1,2.3121421E-1],"categories":[],"categories_nodes":[],"categories_segments":[],"categories_sizes":[],"default_left":[1,1,0,1,1,1,0,1,1,0,1,1,0,1,1,1,1,0,0,1,1,0,1,1,1,1,1,1,1,1,1,0,0,0,0,0,1,0,0,0,0,0,0,0,0,0,0,0,0,0,0,0,0,0,0],"id":14,"left_children":[1,3,5,7,9,11,-1,13,15,17,19,21,-1,23,25,27,29,-1,-1,31,33,-1,35,37,39,41,43,45,47,49,51,-1,-1,-1,-1,-1,53,-1,-1,-1,-1,-1,-1,-1,-1,-1,-1,-1,-1,-1,-1,-1,-1,-1,-1],"loss_changes":[1.185226E1,1.1248097E1,4.7886496E0,7.149683E0,2.796636E0,2.837687E0,0E0,6.166067E0,5.463341E0,5.9836864E-1,2.4631517E0,1.3531877E0,0E0,2.7938209E0,2.6332912E0,7.2475867E0,6.249394E0,0E0,0E0,6.690583E-1,2.4184227E-1,0E0,5.490539E-1,3.3522546E0,2.4002078E0,1.7814121E0,2.6679134E0,6.1727476E0,2.3984413E0,5.231466E0,6.4340334E0,0E0,0E0,0E0,0E0,0E0,1.0376525E-1,0E0,0E0,0E0,0E0,0E0,0E0,0E0,0E0,0E0,0E0,0E0,0E0,0E0,0E0,0E0,0E0,0E0,0E0],"parents":[2147483647,0,0,1,1,2,2,3,3,4,4,5,5,7,7,8,8,9,9,10,10,11,11,13,13,14,14,15,15,16,16,19,19,20,20,22,22,23,23,24,24,25,25,26,26,27,27,28,28,29,29,30,30,36,36],"right_children":[2,4,6,8,10,12,-1,14,16,18,20,22,-1,24,26,28,30,-1,-1,32,34,-1,36,38,40,42,44,46,48,50,52,-1,-1,-1,-1,-1,54,-1,-1,-1,-1,-1,-1,-1,-1,-1,-1,-1,-1,-1,-1,-1,-1,-1,-1],"split_conditions":[4.437679E0,4.4485064E0,3.4661703E0,2.7390381E-2,1.1248076E3,4.553297E0,-2.959205E-1,6.544607E0,3.6359663E0,1.6632107E-1,3.3728824E0,2.6612406E0,-2.248526E-1,1.4995654E0,2.2597528E0,9.301093E1,3.5068169E0,-3.2670714E-2,-2.6839396E-1,1.2998455E0,3.131289E0,-9.1225654E-2,4.50148E0,6.2797344E-1,4.3368113E-1,5.864914E-1,2.9439907E0,3.6979997E-1,3.1015137E3,6.020757E4,9.657453E4,2.0263569E-1,-3.0531114E-2,-2.358804E-1,-3.613681E-2,-7.348958E-3,4.6681786E0,9.892736E-2,-1.3564304E-1,-1.5704831E-1,2.0689039E-1,2.6257423E-1,1.3296703E-1,1.647209E-1,-1.1145326E-1,-4.1000405E-1,-3.0663839E-2,1.9414974E-2,1.9217905E-1,1.816695E-1,-7.9870716E-2,4.746602E-1,8.560257E-2,2.7416122E-1,6.9364265E-2],"split_indices":[8,6,7,0,2,1,0,3,6,7,1,6,0,1,7,3,8,0,0,7,8,0,8,7,3,1,8,1,4,5,5,0,0,0,0,0,8,0,0,0,0,0,0,0,0,0,0,0,0,0,0,0,0,0,0],"split_type":[0,0,0,0,0,0,0,0,0,0,0,0,0,0,0,0,0,0,0,0,0,0,0,0,0,0,0,0,0,0,0,0,0,0,0,0,0,0,0,0,0,0,0,0,0,0,0,0,0,0,0,0,0,0,0],"sum_hessian":[3.2831467E2,3.063091E2,2.2005564E1,2.854859E2,2.0823215E1,8.367428E0,1.3638136E1,8.7082535E1,1.9840335E2,1.4036262E1,6.786954E0,5.777146E0,2.590282E0,3.020741E1,5.6875122E1,1.5534021E2,4.306314E1,1.3657378E0,1.2670524E1,3.753289E0,3.0336652E0,1.6118994E0,4.1652465E0,2.162194E1,8.585471E0,4.6182465E1,1.06926565E1,1.2603923E2,2.9300987E1,2.735685E1,1.5706293E1,2.469209E0,1.28408E0,1.8385607E0,1.1951044E0,1.0097734E0,3.155473E0,7.8209085E0,1.3801032E1,1.2485727E0,7.336898E0,2.4420551E1,2.1761913E1,5.679244E0,5.013413E0,2.99818E0,1.23041046E2,1.2691949E1,1.6609037E1,1.0040311E1,1.7316538E1,5.958769E0,9.747524E0,1.9668702E0,1.1886027E0],"tree_param":{"num_deleted":"0","num_feature":"9","num_nodes":"55","size_leaf_vector":"0"}},{"base_weights":[4.0910333E-2,-6.027271E-2,3.1036004E-1,-1.2215993E-3,-5.505187E-1,1.5053377E-1,6.9441205E-1,2.2040212E-1,-1.3318065E-1,5.7692266E-1,-6.286079E-1,5.037319E-1,-4.606439E-2,8.824913E-1,1.6972435E-1,-1.204332E-1,3.9867666E-1,4.2071268E-2,-4.530743E-1,-9.208895E-1,-2.395956E-1,8.1773543E-1,2.673651E-1,2.980821E-1,-3.6334637E-1,2.8894675E-1,9.564401E-1,7.580941E-1,-6.6933495E-1,-3.3785138E-1,4.146781E-1,5.980159E-1,-9.668782E-2,-2.4477142E-1,5.1464283E-1,6.520504E-1,-5.596435E-1,-9.645426E-1,-2.0115288E-1,-3.7215286E-1,3.4275174E-1,6.85766E-2,9.045396E-1,4.7340882E-1,-2.4650972E-1,6.700644E-1,-2.3404466E-1,-1.6250693E0,-1.1293488E-1,5.9169185E-1,-2.1225001E-1,-1.072867E0,1.10922374E-1,4.7897673E-1,-5.542703E-1,7.978845E-1,-5.1326156E-1,-2.3186208E-1,7.795071E-1,-4.6265548E-1,3.739291E-1,-4.6921608E-1,1.8091018E-1,-7.0638256E-3,9.29675E-1,8.490596E-1,-1.0501711E-2,2.1292579E-1,-6.838412E-1,1.658492E-1,-6.519759E-1,-4.8430547E-1,6.740641E-1,-6.375043E-1,5.585538E-1,5.5549187E-3,7.5976706E-1,-5.780201E-1,1.897095E-1,-8.4617037E-1,2.9163924E-1],"categories":[],"categories_nodes":[],"categories_segments":[],"categories_sizes":[],"default_left":[1,1,1,1,1,1,1,1,0,0,1,1,1,1,1,1,1,1,1,1,1,1,1,1,0,1,0,0,1,1,1,1,1,1,1,0,1,0,0,1,0,0,0,1,1,0,0,0,1,0,0,0,0,0,0,0,0,0,0,0,0,0,0,0,0,0,0,0,0,0,0,0,0,0,0,0,0,0,0,0,0],"id":15,"left_children":[1,3,5,7,9,11,13,15,17,-1,19,21,23,25,27,29,31,33,35,37,39,41,43,45,47,49,-1,-1,51,53,55,57,59,61,63,65,67,-1,-1,69,-1,-1,-1,71,73,75,77,-1,79,-1,-1,-1,-1,-1,-1,-1,-1,-1,-1,-1,-1,-1,-1,-1,-1,-1,-1,-1,-1,-1,-1,-1,-1,-1,-1,-1,-1,-1,-1,-1,-1],"loss_changes":[8.517907E0,6.5845494E0,5.1293488E0,5.9959826E0,2.5154123E0,4.2927814E0,2.295621E0,4.697434E0,7.2231503E0,0E0,2.4338722E0,1.419455E0,4.5214787E0,5.1384354E-1,4.3467326E0,3.2867284E0,5.0417137E0,1.1503692E1,5.731452E0,2.1376133E-1,1.0050638E0,5.2277803E-1,1.6072696E0,4.103181E0,6.6030293E0,6.4564395E-1,0E0,0E0,1.2955282E0,3.7626855E0,3.3477964E0,5.622284E0,2.8155935E0,5.1399374E0,6.9409847E0,5.9231806E-1,4.1849203E0,0E0,0E0,1.5743194E0,0E0,0E0,0E0,2.3233166E0,1.8313446E0,7.1066475E-1,1.4133276E0,0E0,5.8823323E0,0E0,0E0,0E0,0E0,0E0,0E0,0E0,0E0,0E0,0E0,0E0,0E0,0E0,0E0,0E0,0E0,0E0,0E0,0E0,0E0,0E0,0E0,0E0,0E0,0E0,0E0,0E0,0E0,0E0,0E0,0E0,0E0],"parents":[2147483647,0,0,1,1,2,2,3,3,4,4,5,5,6,6,7,7,8,8,10,10,11,11,12,12,13,13,14,14,15,15,16,16,17,17,18,18,19,19,20,20,21,21,22,22,23,23,24,24,25,25,28,28,29,29,30,30,31,31,32,32,33,33,34,34,35,35,36,36,39,39,43,43,44,44,45,45,46,46,48,48],"right_children":[2,4,6,8,10,12,14,16,18,-1,20,22,24,26,28,30,32,34,36,38,40,42,44,46,48,50,-1,-1,52,54,56,58,60,62,64,66,68,-1,-1,70,-1,-1,-1,72,74,76,78,-1,80,-1,-1,-1,-1,-1,-1,-1,-1,-1,-1,-1,-1,-1,-1,-1,-1,-1,-1,-1,-1,-1,-1,-1,-1,-1,-1,-1,-1,-1,-1,-1,-1],"split_conditions":[1.7190315E3,1.9704826E-1,6.586867E1,4.7278492E4,7.788531E-1,3.6510752E3,4.731289E0,6.761305E0,1.5019257E0,1.7307681E-1,4.8818535E1,1.7814974E0,9.717159E-1,1.9675957E3,8.733894E4,3.011178E0,6.8068743E0,3.5192688E0,1.2786137E-2,3.98868E0,3.1898118E3,4.352047E0,6.433733E4,4.605683E-2,1.1623576E0,4.821398E-2,2.8693205E-1,2.2742823E-1,1.0534708E1,2.2756445E4,4.325889E4,3.3529344E-1,2.8328114E0,6.4984507E3,3.4029021E0,3.745894E0,2.6712804E0,-2.893628E-1,-6.0345866E-2,1.036397E3,1.0282553E-1,2.0572979E-2,2.713619E-1,2.653492E0,2.906646E3,1.05322614E-1,5.1755077E-1,-4.8752078E-1,2.5850537E0,1.7750756E-1,-6.367501E-2,-3.2186013E-1,3.3276714E-2,1.4369303E-1,-1.662811E-1,2.3936537E-1,-1.5397847E-1,-6.955863E-2,2.3385213E-1,-1.3879666E-1,1.12178735E-1,-1.4076483E-1,5.4273058E-2,-2.1191477E-3,2.789025E-1,2.547179E-1,-3.1505134E-3,6.387774E-2,-2.0515238E-1,4.975476E-2,-1.9559279E-1,-1.4529164E-1,2.0221923E-1,-1.912513E-1,1.6756615E-1,1.6664757E-3,2.2793013E-1,-1.7340603E-1,5.691285E-2,-2.5385112E-1,8.749177E-2],"split_indices":[2,0,3,5,1,4,1,3,7,0,3,1,7,2,5,8,1,8,0,7,4,3,5,0,7,0,0,0,1,5,5,1,6,4,6,7,8,0,0,4,0,0,0,1,4,7,7,0,6,0,0,0,0,0,0,0,0,0,0,0,0,0,0,0,0,0,0,0,0,0,0,0,0,0,0,0,0,0,0,0,0],"split_type":[0,0,0,0,0,0,0,0,0,0,0,0,0,0,0,0,0,0,0,0,0,0,0,0,0,0,0,0,0,0,0,0,0,0,0,0,0,0,0,0,0,0,0,0,0,0,0,0,0,0,0,0,0,0,0,0,0,0,0,0,0,0,0,0,0,0,0,0,0,0,0,0,0,0,0,0,0,0,0,0,0],"sum_hessian":[3.1074008E2,2.2647217E2,8.426792E1,2.0302045E2,2.3451725E1,6.0487526E1,2.3780397E1,7.551822E1,1.2750223E2,1.105317E0,2.2346409E1,2.1070715E1,3.941681E1,1.7003424E1,6.7769737E0,2.6046156E1,4.947206E1,8.293516E1,4.4567066E1,1.19789E1,1.0367509E1,7.99289E0,1.3077826E1,1.8936958E1,2.047985E1,2.4274082E0,1.4576016E1,4.0403047E0,2.736669E0,1.8783121E1,7.263035E0,3.5128716E1,1.4343345E1,5.1909218E1,3.1025942E1,3.4695196E0,4.1097546E1,1.0973225E1,1.0056757E0,8.739187E0,1.6283209E0,1.0158305E0,6.9770594E0,9.391106E0,3.6867194E0,1.0993059E1,7.9438987E0,2.4824069E0,1.7997444E1,1.4007406E0,1.0266675E0,1.5566083E0,1.1800606E0,3.6801136E0,1.5103008E1,5.239472E0,2.023563E0,6.254078E0,2.887464E1,8.078301E0,6.2650437E0,3.392151E1,1.7987707E1,1.4181894E1,1.6844048E1,2.4573348E0,1.0121847E0,5.59286E0,3.550469E1,3.1295197E0,5.609668E0,1.3818775E0,8.009228E0,2.6216137E0,1.0651056E0,1.4337667E0,9.559293E0,4.183757E0,3.7601414E0,6.0112906E0,1.1986155E1],"tree_param":{"num_deleted":"0","num_feature":"9","num_nodes":"81","size_leaf_vector":"0"}},{"base_weights":[3.7433743E-2,7.4603476E-2,-5.6306994E-1,1.0004408E-1,-8.3622575E-1,-9.418899E-1,-2.6329549E-2,-4.394808E-1,1.3891079E-1,-9.160761E-1,-2.7058393E-1,2.38797E-1,-5.5808854E-1,2.714479E-1,-9.9750316E-1,7.98888E-1,1.0734874E-1,-1.0169417E-1,7.515366E-1,-8.540823E-2,8.319675E-1,9.362509E-1,-8.336276E-2,-1.0121627E-1,2.005832E-1,-6.3636994E-1,5.367747E-1,2.7481738E-1,-4.586124E-1,9.978006E-1,2.3212157E-1,-6.1698353E-1,1.07319444E-1,4.72395E-1,6.259519E-2],"categories":[],"categories_nodes":[],"categories_segments":[],"categories_sizes":[],"default_left":[1,1,1,1,1,0,1,1,1,0,0,1,0,1,0,1,1,1,0,1,1,0,0,1,1,0,0,0,0,0,0,0,0,0,0],"id":16,"left_children":[1,3,5,7,9,-1,11,13,15,-1,-1,17,-1,19,-1,21,23,25,-1,27,29,-1,-1,31,33,-1,-1,-1,-1,-1,-1,-1,-1,-1,-1],"loss_changes":[6.5906954E0,6.5063457E0,3.4762502E0,5.7340584E0,9.7121716E-2,0E0,1.2827271E0,7.5780816E0,5.186704E0,0E0,0E0,1.1485251E0,0E0,1.8485007E0,0E0,1.4592404E0,4.740081E0,1.9020473E0,0E0,9.7787845E-1,1.21500015E-1,0E0,0E0,8.20254E0,6.27425E0,0E0,0E0,0E0,0E0,0E0,0E0,0E0,0E0,0E0,0E0],"parents":[2147483647,0,0,1,1,2,2,3,3,4,4,6,6,7,7,8,8,11,11,13,13,15,15,16,16,17,17,19,19,20,20,23,23,24,24],"right_children":[2,4,6,8,10,-1,12,14,16,-1,-1,18,-1,20,-1,22,24,26,-1,28,30,-1,-1,32,34,-1,-1,-1,-1,-1,-1,-1,-1,-1,-1],"split_conditions":[4.437679E0,4.686201E0,2.6592645E-1,3.9997284E2,1.5281902E3,-2.8256696E-1,4.553297E0,3.943656E2,2.240193E4,-2.7482286E-1,-8.117518E-2,1.8001818E1,-1.6742657E-1,3.3062196E0,-2.9925096E-1,1.0965658E1,2.4428652E3,3.3529108E0,2.2546099E-1,2.9951406E4,5.7052453E4,2.808753E-1,-2.500883E-2,2.8168314E0,5.9581935E-1,-1.90911E-1,1.6103241E-1,8.244522E-2,-1.3758373E-1,2.993402E-1,6.963647E-2,-1.8509507E-1,3.2195836E-2,1.417185E-1,1.8778557E-2],"split_indices":[8,6,7,2,2,0,1,4,5,0,0,3,0,8,0,1,4,6,0,5,5,0,0,8,7,0,0,0,0,0,0,0,0,0,0],"split_type":[0,0,0,0,0,0,0,0,0,0,0,0,0,0,0,0,0,0,0,0,0,0,0,0,0,0,0,0,0,0,0,0,0,0,0],"sum_hessian":[2.9239264E2,2.761739E2,1.6218735E1,2.6953558E2,6.638305E0,9.065597E0,7.153138E0,1.7419592E1,2.52116E2,5.2742214E0,1.3640838E0,5.140898E0,2.01224E0,7.886116E0,9.533475E0,1.039705E1,2.4171895E2,3.5711179E0,1.5697805E0,5.3363457E0,2.5497706E0,8.943393E0,1.4536577E0,7.464742E1,1.6707152E2,1.945324E0,1.6257939E0,2.849534E0,2.4868114E0,1.4777925E0,1.0719781E0,2.0927992E1,5.3719433E1,5.5440388E1,1.1163113E2],"tree_param":{"num_deleted":"0","num_feature":"9","num_nodes":"35","size_leaf_vector":"0"}},{"base_weights":[2.548312E-2,3.8111156E-1,-3.384762E-2,1.8846627E-1,7.32227E-1,1.1621086E-1,-1.9155832E-1,7.7508914E-1,1.27518745E-2,9.242157E-1,-4.4997986E-2,-3.663962E-1,1.667704E-1,-5.299026E-1,-7.2967865E-2,2.0390086E-1,8.753892E-1,6.461091E-1,-2.0589285E-1,-7.7299154E-1,6.255696E-1,2.9043972E-1,-8.756217E-1,4.9808644E-2,3.736318E-1,-1.931681E-2,-8.2516986E-1,-3.312606E-1,1.7803769E-1,7.8529304E-1,3.975158E-2,-4.0018705E-1,5.622164E-1,5.6174695E-1,-4.579855E-1,-3.0411524E-1,2.386728E-1,5.9270173E-1,-4.475392E-3,-8.259629E-1,3.9907718E-1,-9.678128E-1,-3.2220507E-1,1.2793604E-2,-7.334487E-1,-3.1397933E-1,4.595676E-1,8.752772E-1,2.2465709E-1,-6.610121E-1,3.4779197E-1,7.294872E-1,4.9528673E-2,4.313602E-2,8.9614344E-1,4.7486433E-1,-8.100518E-1,-2.3161925E-1,4.7427437E-1,-7.4523695E-2,7.1803504E-1,3.6910602E-1,-5.222324E-1,-2.1980953E-1,-9.459292E-1,1.0082941E0,-3.3218327E-1,-1.0486645E0,-2.6335272E-1,-9.510705E-1,4.0595688E-2,3.1842223E-1,-5.411703E-1,9.389748E-2,-1.159099E0,-9.5051765E-2,-1.3880651E0,6.5845895E-1,-4.760073E-2],"categories":[],"categories_nodes":[],"categories_segments":[],"categories_sizes":[],"default_left":[1,1,1,1,1,1,1,1,1,0,1,1,1,1,1,0,0,1,1,0,0,1,0,1,1,1,1,1,1,1,0,1,1,1,0,1,1,0,1,0,1,1,1,1,0,1,1,0,0,0,0,0,0,0,0,0,0,0,0,0,0,0,0,0,0,0,0,0,0,0,0,0,0,0,0,0,0,0,0],"id":17,"left_children":[1,3,5,7,9,11,13,15,17,-1,19,21,23,25,27,-1,-1,29,31,-1,-1,33,-1,35,37,39,41,43,45,47,-1,49,51,53,-1,55,57,59,61,63,65,67,69,71,73,75,77,-1,-1,-1,-1,-1,-1,-1,-1,-1,-1,-1,-1,-1,-1,-1,-1,-1,-1,-1,-1,-1,-1,-1,-1,-1,-1,-1,-1,-1,-1,-1,-1],"loss_changes":[5.936102E0,2.5824747E0,5.737678E0,2.805899E0,2.1160955E0,3.0959578E0,4.70114E0,1.8127155E-1,3.1847596E0,0E0,2.2934341E0,4.3039484E0,2.7219412E0,4.5820036E0,5.805065E0,0E0,0E0,4.6646E-1,2.7830005E0,0E0,0E0,1.4833604E0,0E0,4.9863687E0,3.3787303E0,4.4466515E0,1.0728197E0,6.1020284E0,6.4605675E0,4.2627096E-2,0E0,3.0127115E0,2.9628205E-1,8.0779135E-1,0E0,1.0638836E1,5.483003E0,2.2122078E0,3.2767828E0,1.1872959E-1,4.2137346E0,5.5178833E-1,1.3535106E0,4.356398E0,7.263735E0,3.9101791E0,2.9979048E0,0E0,0E0,0E0,0E0,0E0,0E0,0E0,0E0,0E0,0E0,0E0,0E0,0E0,0E0,0E0,0E0,0E0,0E0,0E0,0E0,0E0,0E0,0E0,0E0,0E0,0E0,0E0,0E0,0E0,0E0,0E0,0E0],"parents":[2147483647,0,0,1,1,2,2,3,3,4,4,5,5,6,6,7,7,8,8,10,10,11,11,12,12,13,13,14,14,17,17,18,18,21,21,